{"learner":{"attributes":{"scikit_learn":"{\"n_estimators\": 100, \"objective\": \"reg:squarederror\", \"max_depth\": null, \"learning_rate\": null, \"verbosity\": null, \"booster\": null, \"tree_method\": null, \"gamma\": null, \"min_child_weight\": null, \"max_delta_step\": null, \"subsample\": null, \"colsample_bytree\": null, \"colsample_bylevel\": null, \"colsample_bynode\": null, \"reg_alpha\": null, \"reg_lambda\": null, \"scale_pos_weight\": null, \"base_score\": null, \"missing\": NaN, \"num_parallel_tree\": null, \"kwargs\": {}, \"random_state\": null, \"n_jobs\": null, \"monotone_constraints\": null, \"interaction_constraints\": null, \"importance_type\": \"gain\", \"gpu_id\": null, \"validate_parameters\": null, \"n_features_in_\": 42, \"type\": \"XGBRegressor\"}"},"gradient_booster":{"model":{"gbtree_model_param":{"num_trees":"100","size_leaf_vector":"0"},"tree_info":[0,0,0,0,0,0,0,0,0,0,0,0,0,0,0,0,0,0,0,0,0,0,0,0,0,0,0,0,0,0,0,0,0,0,0,0,0,0,0,0,0,0,0,0,0,0,0,0,0,0,0,0,0,0,0,0,0,0,0,0,0,0,0,0,0,0,0,0,0,0,0,0,0,0,0,0,0,0,0,0,0,0,0,0,0,0,0,0,0,0,0,0,0,0,0,0,0,0,0,0],"trees":[{"base_weights":[4.304786E0,3.6521552E0,6.5999804E0,4.193345E0,1.5212634E0,3.4641523E0,7.242874E0,1.1162988E0,4.2653136E0,1.7703016E0,-4.8005328E-1,1.1411421E0,4.3404193E0,2.2122674E0,1.0825282E0,4.46433E0,1.8862796E0,1.2595587E0,2.6374803E0,1.3203542E0,-4.1003996E-1,2.6711483E0,4.6727996E0,1.4030313E0,3.7080717E-1],"categories":[],"categories_nodes":[],"categories_segments":[],"categories_sizes":[],"default_left":[true,true,true,true,true,false,false,false,true,true,false,false,true,true,true,true,false,false,false,true,false,false,false,false,false],"id":0,"left_children":[1,3,5,7,9,-1,-1,-1,11,13,-1,-1,15,17,19,21,-1,-1,-1,23,-1,-1,-1,-1,-1],"loss_changes":[1.466582E2,9.856348E1,2.3293701E1,1.1183105E1,1.0817921E1,0E0,0E0,0E0,1.1472046E1,3.0766602E0,0E0,0E0,1.2257446E1,7.28981E-1,3.7361422E0,1.1442993E1,0E0,0E0,0E0,1.077919E-1,0E0,0E0,0E0,0E0,0E0],"parents":[2147483647,0,0,1,1,2,2,3,3,4,4,8,8,9,9,12,12,13,13,14,14,15,15,19,19],"right_children":[2,4,6,8,10,-1,-1,-1,12,14,-1,-1,16,18,20,22,-1,-1,-1,24,-1,-1,-1,-1,-1],"split_conditions":[5.9158295E1,1.5661854E-3,5.388068E-1,1.5793283E0,4.0699997E1,1.0392457E0,2.1728623E0,3.3488965E-1,1.469582E-1,5E-1,-1.4401598E-1,3.4234264E-1,7.52944E2,8.2E0,7.432E2,4.0852422E-1,5.658839E-1,3.778676E-1,7.912441E-1,7.5E0,-1.2301199E-1,8.013445E-1,1.40184E0,4.2090943E-1,1.1124215E-1],"split_indices":[11,9,13,12,3,0,0,0,14,32,0,0,8,0,2,13,0,0,0,1,0,0,0,0,0],"split_type":[0,0,0,0,0,0,0,0,0,0,0,0,0,0,0,0,0,0,0,0,0,0,0,0,0],"sum_hessian":[1.13E2,9E1,2.3E1,7.1E1,1.9E1,5E0,1.8E1,2E0,6.9E1,1.7E1,2E0,2E0,6.7E1,9E0,8E0,6.3E1,4E0,4E0,5E0,7E0,1E0,8E0,5.5E1,6E0,1E0],"tree_param":{"num_deleted":"0","num_feature":"42","num_nodes":"25","size_leaf_vector":"0"}},{"base_weights":[3.0843384E0,2.5243747E0,4.568091E0,2.8738334E0,1.0639545E0,4.7664995E0,1.1935809E0,3.502822E0,2.1807067E0,1.7250235E0,4.8645383E-1,2.5751145E0,5.2470994E0,1.4751852E0,3.1518608E-1,1.4832463E0,3.722657E0,9.809449E-1,2.7640195E0,1.0445017E0,3.244338E0,1.230216E0,-6.52104E-1,5.520538E0,1.675143E0,1.8083893E0,6.636879E-1,1.4265797E0,3.8357131E0,1.288622E0,-3.348428E-2,3.041216E0,1.1578695E0,2.2813573E0,2.3135722E-1,3.9946506E0,1.8834264E0,7.7379924E-1,1.648685E0,-3.3011281E-1,1.7542951E-1,2.1214848E0,3.6568253E0,1.3194605E0,2.5575256E-1],"categories":[],"categories_nodes":[],"categories_segments":[],"categories_sizes":[],"default_left":[true,true,true,true,true,true,true,true,true,true,true,false,true,false,false,true,true,true,true,false,false,false,false,false,true,false,false,false,true,true,true,true,true,false,false,false,false,false,false,false,false,false,false,false,false],"id":1,"left_children":[1,3,5,7,9,11,13,15,17,19,21,-1,23,-1,-1,25,27,29,31,-1,-1,-1,-1,-1,33,-1,-1,-1,35,37,39,41,43,-1,-1,-1,-1,-1,-1,-1,-1,-1,-1,-1,-1],"loss_changes":[8.318506E1,4.032263E1,1.439679E1,2.2007263E1,6.032675E0,1.5977112E1,2.7712154E-1,9.573486E0,2.1782928E1,4.882696E0,1.0117207E1,0E0,1.223999E1,0E0,0E0,1.321621E-1,2.3156128E0,4.100664E0,6.718704E0,0E0,0E0,0E0,0E0,0E0,2.0979233E0,0E0,0E0,0E0,1.1645203E0,5.779362E-1,3.0579066E-1,2.9998016E0,3.9141464E-1,0E0,0E0,0E0,0E0,0E0,0E0,0E0,0E0,0E0,0E0,0E0,0E0],"parents":[2147483647,0,0,1,1,2,2,3,3,4,4,5,5,6,6,7,7,8,8,9,9,10,10,12,12,15,15,16,16,17,17,18,18,24,24,28,28,29,29,30,30,31,31,32,32],"right_children":[2,4,6,8,10,12,14,16,18,20,22,-1,24,-1,-1,26,28,30,32,-1,-1,-1,-1,-1,34,-1,-1,-1,36,38,40,42,44,-1,-1,-1,-1,-1,-1,-1,-1,-1,-1,-1,-1],"split_conditions":[5.7397617E1,1.5661854E-3,2.5910087E0,5E-1,2.07015E4,8.88E2,5E-1,8.30253E-1,7.9704547E-1,7.5E0,7.432E2,7.725344E-1,4.8439002E-1,4.4255558E-1,9.455583E-2,8.3719826E-1,3.765E1,3.965E1,1.05E0,3.133505E-1,9.733015E-1,3.690648E-1,-1.9563122E-1,1.6561614E0,5E-1,5.425168E-1,1.9910638E-1,4.2797393E-1,7.180554E0,2.07015E4,6E0,5.1451973E1,9.85E1,6.8440723E-1,6.9407165E-2,1.1983953E0,5.6502795E-1,2.3213978E-1,4.946055E-1,-9.903385E-2,5.2628856E-2,6.3644546E-1,1.0970477E0,3.9583817E-1,7.672577E-2],"split_indices":[11,9,12,32,33,22,32,25,17,1,2,0,14,0,0,17,3,3,6,0,0,0,0,0,32,0,0,0,18,33,1,11,5,0,0,0,0,0,0,0,0,0,0,0,0],"split_type":[0,0,0,0,0,0,0,0,0,0,0,0,0,0,0,0,0,0,0,0,0,0,0,0,0,0,0,0,0,0,0,0,0,0,0,0,0,0,0,0,0,0,0,0,0],"sum_hessian":[1.13E2,8.4E1,2.9E1,6.7E1,1.7E1,2.7E1,2E0,3.3E1,3.4E1,7E0,1E1,6E0,2.1E1,1E0,1E0,4E0,2.9E1,1.2E1,2.2E1,6E0,1E0,6E0,4E0,1.9E1,2E0,2E0,2E0,2E0,2.7E1,9E0,3E0,1.8E1,4E0,1E0,1E0,2.4E1,3E0,5E0,4E0,1E0,2E0,9E0,9E0,3E0,1E0],"tree_param":{"num_deleted":"0","num_feature":"42","num_nodes":"45","size_leaf_vector":"0"}},{"base_weights":[2.2555206E0,1.7449868E0,3.121959E0,2.6816041E0,1.440375E0,3.9956172E0,2.0996358E0,6.1452174E-1,2.9162471E0,1.8711811E0,9.4504535E-1,4.7821E0,2.6522756E0,2.3435838E0,-1.4524686E-1,5.2350986E-1,2.119775E0,1.1032937E0,1.5454447E-1,1.9236401E0,5.1614285E0,6.925393E-1,2.6098711E0,6.27256E-2,-2.805959E-1,6.842984E-1,-1.4021638E-1,1.5578398E0,2.5987182E0,6.768018E-1,1.4121097E0,4.7728407E-1,-3.2728982E-1,-3.0865788E-2,9.439629E-1,2.757642E0,1.966536E-1,1.6121044E0,4.2619932E-1,2.7317524E0,5.676707E-1,1.3367605E-1,1.0456523E0,1.6063898E0,2.2904654E-1,6.7009413E-1,1.8964934E-1,3.0088718E0,7.4976546E-1],"categories":[],"categories_nodes":[],"categories_segments":[],"categories_sizes":[],"default_left":[true,true,true,true,true,true,true,false,false,true,true,true,false,true,true,true,true,true,true,false,false,true,true,false,false,false,false,true,true,true,true,true,false,false,false,true,false,false,false,false,false,false,false,false,false,false,false,false,false],"id":2,"left_children":[1,3,5,7,9,11,13,-1,-1,15,17,19,-1,21,23,25,27,29,31,-1,-1,33,35,-1,-1,-1,-1,37,39,41,43,45,-1,-1,-1,47,-1,-1,-1,-1,-1,-1,-1,-1,-1,-1,-1,-1,-1],"loss_changes":[4.4979736E1,1.725003E1,2.8230255E1,6.4533463E0,1.0608322E1,9.503357E0,1.1840729E1,0E0,0E0,8.940964E0,3.4572601E0,3.0827942E0,0E0,6.545952E0,1.0204716E-1,7.362672E-1,2.6799927E0,2.2052631E0,1.0892522E0,0E0,0E0,7.566606E-1,5.163353E0,0E0,0E0,0E0,0E0,1.7263794E-1,1.6916504E0,2.2642078E0,2.6200523E0,9.475249E-2,0E0,0E0,0E0,5.310631E0,0E0,0E0,0E0,0E0,0E0,0E0,0E0,0E0,0E0,0E0,0E0,0E0,0E0],"parents":[2147483647,0,0,1,1,2,2,3,3,4,4,5,5,6,6,9,9,10,10,11,11,13,13,14,14,15,15,16,16,17,17,18,18,21,21,22,22,27,27,28,28,29,29,30,30,31,31,35,35],"right_children":[2,4,6,8,10,12,14,-1,-1,16,18,20,-1,22,24,26,28,30,32,-1,-1,34,36,-1,-1,-1,-1,38,40,42,44,46,-1,-1,-1,48,-1,-1,-1,-1,-1,-1,-1,-1,-1,-1,-1,-1,-1],"split_conditions":[5.568622E1,7.4165E2,5E-1,2.5166636E0,5E-1,2.07015E4,4.14E1,1.8435653E-1,8.748742E-1,3.9301682E-1,7.6215E2,7.905E2,7.956827E-1,3.0223596E-1,6.7E0,6.95E0,1.5E0,2.07015E4,6.95E0,5.7709205E-1,1.5484287E0,7.3744995E2,4.8439002E-1,1.8817682E-2,-8.4178776E-2,2.0528953E-1,-4.2064916E-2,8.415E0,1.05E1,7.5969995E2,7.5244836E2,2.07015E4,-9.818695E-2,-9.259737E-3,2.8318888E-1,3.3524637E0,5.8996085E-2,4.8363134E-1,1.278598E-1,8.195258E-1,1.7030121E-1,4.0102817E-2,3.136957E-1,4.8191693E-1,6.871396E-2,2.0102824E-1,5.6894805E-2,9.0266156E-1,2.2492965E-1],"split_indices":[11,2,32,10,32,33,3,0,0,16,4,22,0,17,0,0,41,33,0,0,0,2,14,0,0,0,0,1,1,4,8,33,0,0,0,10,0,0,0,0,0,0,0,0,0,0,0,0,0],"split_type":[0,0,0,0,0,0,0,0,0,0,0,0,0,0,0,0,0,0,0,0,0,0,0,0,0,0,0,0,0,0,0,0,0,0,0,0,0,0,0,0,0,0,0,0,0,0,0,0,0],"sum_hessian":[1.13E2,7.3E1,4E1,1.6E1,5.7E1,2E1,2E1,2E0,1.4E1,2.9E1,2.8E1,1.1E1,9E0,1.8E1,2E0,5E0,2.4E1,2.3E1,5E0,2E0,9E0,3E0,1.5E1,1E0,1E0,4E0,1E0,1.3E1,1.1E1,1.1E1,1.2E1,3E0,2E0,1E0,2E0,1.4E1,1E0,1.2E1,1E0,1E1,1E0,5E0,6E0,1E1,2E0,1E0,2E0,1.2E1,2E0],"tree_param":{"num_deleted":"0","num_feature":"42","num_nodes":"49","size_leaf_vector":"0"}},{"base_weights":[1.6508318E0,1.3786587E0,2.614037E0,1.5681746E0,6.274682E-1,3.2537484E0,1.7031798E0,1.290468E0,2.0698185E0,1.0847776E0,2.9778025E-1,3.792755E0,1.632787E0,2.9641452E-1,1.9548914E0,1.9082278E0,1.0385398E0,1.257608E0,2.3973231E0,5.689103E-1,2.3479245E0,7.70025E-1,-6.118164E-1,2.31249E0,5.064964E0,4.7085774E-1,-2.6235938E-2,2.134956E0,1.671555E-1,1.4803672E0,5.8896804E-1,1.0048716E0,3.811735E-1,-2.0687121E-1,-8.1282276E-1,2.7804786E-1,1.5347362E0,6.749856E-1,-1.23459816E-1,1.9151129E-1,5.699111E-1,-1.0176092E0,-2.0162489E-1],"categories":[],"categories_nodes":[],"categories_segments":[],"categories_sizes":[],"default_left":[true,true,true,true,true,true,true,true,true,true,true,true,false,true,true,false,true,false,false,false,false,true,true,false,false,false,false,false,false,true,true,false,true,false,true,false,false,false,false,false,false,false,false],"id":3,"left_children":[1,3,5,7,9,11,13,15,17,19,21,23,-1,25,27,-1,29,-1,-1,-1,-1,31,33,-1,-1,-1,-1,-1,-1,35,37,-1,39,-1,41,-1,-1,-1,-1,-1,-1,-1,-1],"loss_changes":[2.6282196E1,1.1971008E1,8.442749E0,7.3592834E0,2.6923623E0,5.165451E0,3.6697311E0,5.6441574E0,3.3691635E0,3.8771715E0,6.055293E0,5.236191E0,0E0,1.8120596E-1,2.8622093E0,0E0,6.4775352E0,0E0,0E0,0E0,0E0,4.3885374E-1,2.3883319E-1,0E0,0E0,0E0,0E0,0E0,0E0,7.4990845E-1,1.3089595E0,0E0,6.983751E-2,0E0,1.7031991E-1,0E0,0E0,0E0,0E0,0E0,0E0,0E0,0E0],"parents":[2147483647,0,0,1,1,2,2,3,3,4,4,5,5,6,6,7,7,8,8,9,9,10,10,11,11,13,13,14,14,16,16,21,21,22,22,29,29,30,30,32,32,34,34],"right_children":[2,4,6,8,10,12,14,16,18,20,22,24,-1,26,28,-1,30,-1,-1,-1,-1,32,34,-1,-1,-1,-1,-1,-1,36,38,-1,40,-1,42,-1,-1,-1,-1,-1,-1,-1,-1],"split_conditions":[5.9158295E1,1.5661854E-3,5E-1,9.45E0,2.07015E4,2.07015E4,5.388068E-1,6.5271115E-1,5.0781696E1,7.5E0,7.432E2,1.05E0,4.8983613E-1,6.05E0,4.8439002E-1,5.7246834E-1,5E-1,3.7728244E-1,7.19197E-1,1.706731E-1,7.0437735E-1,5E-1,1E1,6.9374704E-1,1.5194892E0,1.4125733E-1,-7.870782E-3,6.404868E-1,5.0146654E-2,7.322E2,4.165E1,3.014615E-1,1.15E1,-6.2061366E-2,5E-1,8.341436E-2,4.6042088E-1,2.0249568E-1,-3.7037946E-2,5.745339E-2,1.7097335E-1,-3.0528277E-1,-6.0487468E-2],"split_indices":[11,9,32,0,33,33,13,16,11,1,2,6,0,0,14,0,32,0,0,0,0,32,0,0,0,0,0,0,0,2,3,0,0,0,32,0,0,0,0,0,0,0,0],"split_type":[0,0,0,0,0,0,0,0,0,0,0,0,0,0,0,0,0,0,0,0,0,0,0,0,0,0,0,0,0,0,0,0,0,0,0,0,0,0,0,0,0,0,0],"sum_hessian":[1.13E2,9E1,2.3E1,7.1E1,1.9E1,1.2E1,1.1E1,4.8E1,2.3E1,7E0,1.2E1,8E0,4E0,2E0,9E0,1.2E1,3.6E1,8E0,1.5E1,6E0,1E0,8E0,4E0,5E0,3E0,1E0,1E0,8E0,1E0,1.7E1,1.9E1,4E0,4E0,2E0,2E0,1E0,1.6E1,1.7E1,2E0,3E0,1E0,1E0,1E0],"tree_param":{"num_deleted":"0","num_feature":"42","num_nodes":"43","size_leaf_vector":"0"}},{"base_weights":[1.2159545E0,9.085672E-1,1.7410938E0,1.4560895E0,7.324216E-1,2.2573414E0,1.1419369E0,5.959256E-1,1.6749148E0,9.8098737E-1,4.5002857E-1,1.3560846E0,2.7076468E0,1.2777357E0,-9.876784E-2,1.4606663E0,6.2640136E-1,5.7032484E-1,1.6443318E-1,1.4607648E0,2.5932145E-1,3.1933398E0,1.6087816E0,-2.2300601E-2,1.3511989E0,7.183576E-2,-2.1998751E-1,6.3622165E-1,1.6647899E0,1.079152E0,1.9902351E-1,2.6604563E-1,7.1370244E-1,2.8840983E-1,-2.2098225E-1,6.4371467E-1,3.4656126E0,1.7672992E0,4.0809703E-1,1.4157733E0,1.2671664E-1,4.7471586E-1,2.1297855E0,5.3970194E-1,-5.320892E-1,6.1036617E-2,3.768437E-1,4.0663138E-1,9.1881603E-1,1.1392099E-1,3.7031892E-1,1.4864988E0,1.4208221E-1],"categories":[],"categories_nodes":[],"categories_segments":[],"categories_sizes":[],"default_left":[true,true,true,true,true,true,true,false,false,true,true,true,true,true,true,true,true,true,true,false,false,true,true,false,true,false,false,false,false,true,true,true,true,true,false,false,false,false,false,true,false,false,false,false,false,false,false,false,false,false,false,false,false],"id":4,"left_children":[1,3,5,7,9,11,13,-1,-1,15,17,19,21,23,25,27,29,31,33,-1,-1,35,37,-1,39,-1,-1,-1,-1,41,43,45,47,49,-1,-1,-1,-1,-1,51,-1,-1,-1,-1,-1,-1,-1,-1,-1,-1,-1,-1,-1],"loss_changes":[1.6820099E1,6.0703545E0,1.0104111E1,2.2017136E0,3.6297379E0,4.8508606E0,3.6644077E0,0E0,0E0,4.1876583E0,9.0254545E-1,6.544781E-1,1.8008575E0,1.8447266E0,7.784451E-2,9.602871E-1,3.4616394E0,6.8265915E-1,5.415585E-1,0E0,0E0,3.3226852E0,4.207468E-1,0E0,1.2438622E0,0E0,0E0,0E0,0E0,4.7043257E0,3.0269868E0,1.5871555E-1,4.451785E-1,7.215071E-2,0E0,0E0,0E0,0E0,0E0,1.320198E0,0E0,0E0,0E0,0E0,0E0,0E0,0E0,0E0,0E0,0E0,0E0,0E0,0E0],"parents":[2147483647,0,0,1,1,2,2,3,3,4,4,5,5,6,6,9,9,10,10,11,11,12,12,13,13,14,14,15,15,16,16,17,17,18,18,21,21,22,22,24,24,29,29,30,30,31,31,32,32,33,33,39,39],"right_children":[2,4,6,8,10,12,14,-1,-1,16,18,20,22,24,26,28,30,32,34,-1,-1,36,38,-1,40,-1,-1,-1,-1,42,44,46,48,50,-1,-1,-1,-1,-1,52,-1,-1,-1,-1,-1,-1,-1,-1,-1,-1,-1,-1,-1],"split_conditions":[5.568622E1,7.4165E2,5E-1,7.494E2,5E-1,8.845593E-1,4.14E1,1.787777E-1,5.024745E-1,1.59E1,7.523136E2,4.225E1,2.07015E4,7.3125E2,6.7E0,7.5815E2,2.07015E4,2.2880022E-1,4E1,4.3822944E-1,7.779644E-2,7.3125E2,7.438E2,-6.6901804E-3,1.0495334E0,2.1550728E-2,-6.599626E-2,1.908665E-1,4.99437E-1,9.25E0,7.434E2,2.2736487E0,2.07015E4,2.07015E4,-6.629468E-2,1.9311441E-1,1.0396838E0,5.3018975E-1,1.2242911E-1,4.8439002E-1,3.8014993E-2,1.4241476E-1,6.389357E-1,1.619106E-1,-1.5962675E-1,1.8310986E-2,1.1305311E-1,1.2198942E-1,2.756448E-1,3.4176297E-2,1.1109568E-1,4.4594967E-1,4.2624667E-2],"split_indices":[11,2,32,4,32,23,3,0,0,27,8,3,33,2,0,4,33,14,3,0,0,2,2,0,25,0,0,0,0,0,2,12,33,33,0,0,0,0,0,14,0,0,0,0,0,0,0,0,0,0,0,0,0],"split_type":[0,0,0,0,0,0,0,0,0,0,0,0,0,0,0,0,0,0,0,0,0,0,0,0,0,0,0,0,0,0,0,0,0,0,0,0,0,0,0,0,0,0,0,0,0,0,0,0,0,0,0,0,0],"sum_hessian":[1.13E2,7.3E1,4E1,1.6E1,5.7E1,2E1,2E1,4E0,1.2E1,2.9E1,2.8E1,8E0,1.2E1,1.8E1,2E0,1.1E1,1.8E1,1.9E1,9E0,7E0,1E0,7E0,5E0,1E0,1.7E1,1E0,1E0,3E0,8E0,8E0,1E1,7E0,1.2E1,7E0,2E0,1E0,6E0,4E0,1E0,1.6E1,1E0,6E0,2E0,7E0,3E0,3E0,4E0,6E0,6E0,3E0,4E0,1.5E1,1E0],"tree_param":{"num_deleted":"0","num_feature":"42","num_nodes":"53","size_leaf_vector":"0"}},{"base_weights":[9.0064245E-1,7.391296E-1,1.4755183E0,5.388722E-1,9.407939E-1,1.7530346E0,7.0135665E-1,1.0091614E0,4.476604E-1,1.1058651E0,6.409207E-1,1.8908098E0,4.798138E-1,9.784283E-1,1.7967784E-1,5.6117207E-1,2.4772128E-1,3.839362E-1,1.2147251E0,1.2374326E0,1.4882834E-1,2.0581357E0,5.354602E-1,5.9895086E-1,1.2076986E-1,2.5220743E-1,-1.895547E-2,6.7929304E-1,4.1140464E-1,3.3961257E-1,-4.0740356E-2,1.2738485E0,3.9595318E-1,1.0598297E0,-1.7137526E-1,2.506769E0,1.3154833E0,2.3031527E-1,6.1447126E-1,1.4138891E-1,-2.092895E-1,9.0161926E-1,1.4778855E0,4.862206E-1,1.0770917E-1,1.5445354E0,4.520917E-2,4.3485608E-2,-6.155922E-1,1.2412616E0,3.1455839E0],"categories":[],"categories_nodes":[],"categories_segments":[],"categories_sizes":[],"default_left":[true,true,true,true,true,true,true,false,true,true,true,true,true,false,true,true,true,false,true,false,true,true,false,false,false,false,false,false,true,false,true,true,true,true,true,true,false,false,false,false,false,false,false,false,false,false,false,false,false,false,false],"id":5,"left_children":[1,3,5,7,9,11,13,-1,15,17,19,21,23,-1,25,27,29,-1,31,-1,33,35,-1,-1,-1,-1,-1,-1,37,-1,39,41,43,45,47,49,-1,-1,-1,-1,-1,-1,-1,-1,-1,-1,-1,-1,-1,-1,-1],"loss_changes":[9.494286E0,3.1680489E0,3.9267159E0,1.6072426E0,1.4692459E0,2.074871E0,9.805374E-1,0E0,8.141937E-1,1.655529E0,5.099535E0,2.2997284E0,5.5991113E-2,0E0,6.240788E-2,1.804924E-1,4.6445692E-1,0E0,6.090126E-1,0E0,3.3903937E0,1.0337067E0,0E0,0E0,0E0,0E0,0E0,0E0,3.7330294E-1,0E0,1.8307988E-1,2.624321E-1,2.5686711E-2,1.40555E0,8.8577294E-1,1.7544861E0,0E0,0E0,0E0,0E0,0E0,0E0,0E0,0E0,0E0,0E0,0E0,0E0,0E0,0E0,0E0],"parents":[2147483647,0,0,1,1,2,2,3,3,4,4,5,5,6,6,8,8,9,9,10,10,11,11,12,12,14,14,15,15,16,16,18,18,20,20,21,21,28,28,30,30,31,31,32,32,33,33,34,34,35,35],"right_children":[2,4,6,8,10,12,14,-1,16,18,20,22,24,-1,26,28,30,-1,32,-1,34,36,-1,-1,-1,-1,-1,-1,38,-1,40,42,44,46,48,50,-1,-1,-1,-1,-1,-1,-1,-1,-1,-1,-1,-1,-1,-1,-1],"split_conditions":[5.9158295E1,7.6949997E0,2.1421056E0,2.1641277E1,7.52176E2,4.8439002E-1,5E-1,3.027484E-1,1.88E1,1.14425E2,2.07015E4,2.07015E4,5E-1,2.935285E-1,8.5E0,5E-1,4.03E1,1.15180865E-1,9.520089E-3,3.712298E-1,7.4135E2,5E-1,1.6063806E-1,1.7968526E-1,3.623096E-2,7.566223E-2,-5.6866407E-3,2.0378792E-1,3.99E1,1.0188378E-1,5E-1,2.07015E4,5E-1,5E-1,3.98E1,1.05E0,3.94645E-1,6.909458E-2,1.8434139E-1,4.2416673E-2,-6.2786855E-2,2.704858E-1,4.4336566E-1,1.4586619E-1,3.231275E-2,4.6336064E-1,1.3562751E-2,1.3045683E-2,-1.8467766E-1,3.723785E-1,9.436752E-1],"split_indices":[11,1,16,7,8,14,32,0,27,21,33,33,32,0,0,32,3,0,9,0,2,32,0,0,0,0,0,0,3,0,32,33,32,32,3,6,0,0,0,0,0,0,0,0,0,0,0,0,0,0,0],"split_type":[0,0,0,0,0,0,0,0,0,0,0,0,0,0,0,0,0,0,0,0,0,0,0,0,0,0,0,0,0,0,0,0,0,0,0,0,0,0,0,0,0,0,0,0,0,0,0,0,0,0,0],"sum_hessian":[1.13E2,9E1,2.3E1,4.7E1,4.3E1,1.6E1,7E0,6E0,4.1E1,2.6E1,1.7E1,1.4E1,2E0,4E0,3E0,2.5E1,1.6E1,4E0,2.2E1,7E0,1E1,1.2E1,2E0,1E0,1E0,2E0,1E0,1.2E1,1.3E1,1.2E1,4E0,2E1,2E0,2E0,8E0,6E0,6E0,8E0,5E0,2E0,2E0,9E0,1.1E1,1E0,1E0,1E0,1E0,6E0,2E0,3E0,3E0],"tree_param":{"num_deleted":"0","num_feature":"42","num_nodes":"51","size_leaf_vector":"0"}},{"base_weights":[6.740986E-1,5.451404E-1,1.1349777E0,3.947415E-1,6.9682235E-1,1.3499038E0,5.363877E-1,7.496628E-1,3.2618934E-1,5.8043146E-1,1.0345083E0,1.6833962E0,8.6642206E-1,7.436055E-1,1.432684E-1,4.10406E-1,1.7819978E-1,7.871177E-1,3.4149897E-1,1.8271798E0,2.6656365E-1,9.490612E-1,1.0265434E-1,2.0176601E-1,-1.6112208E-2,2.850658E-1,5.328807E-1,2.4556598E-1,-3.259227E-2,6.37217E-2,9.892507E-1,1.1938318E0,1.6034287E-1,9.732256E-1,2.4378276E0,6.22466E-1,1.2858979E0,4.845224E-1,-1.2102093E-2,1.8242522E-1,6.8530536E-1,2.6713338E-1,8.463013E-2,1.1311116E-1,-1.6743161E-1,1.8603629E-1,-2.1276832E-1,1.4363548E0,5.812647E-1,-1.505419E-1,3.1533977E-1],"categories":[],"categories_nodes":[],"categories_segments":[],"categories_sizes":[],"default_left":[true,true,true,true,true,true,true,false,true,true,false,true,true,false,true,true,true,true,true,true,false,true,false,false,false,true,true,true,true,true,true,false,true,false,false,false,false,false,false,false,false,false,false,false,false,false,false,false,false,false,false],"id":6,"left_children":[1,3,5,7,9,11,13,-1,15,17,-1,19,21,-1,23,25,27,29,31,33,-1,35,-1,-1,-1,37,39,41,43,45,47,-1,49,-1,-1,-1,-1,-1,-1,-1,-1,-1,-1,-1,-1,-1,-1,-1,-1,-1,-1],"loss_changes":[6.1567726E0,1.8008995E0,2.3635921E0,9.2333794E-1,1.1288986E0,1.282507E0,5.451555E-1,0E0,4.5031977E-1,1.4596424E0,0E0,1.3463974E0,4.7062874E-1,0E0,4.0544443E-2,2.4722004E-1,2.4940795E-1,2.568963E0,2.5878725E0,1.7991638E0,0E0,7.964659E-2,0E0,0E0,0E0,8.9494514E-1,5.159993E-1,2.2515059E-2,1.1717116E-1,2.0867644E-1,1.7188683E0,0E0,8.1845057E-1,0E0,0E0,0E0,0E0,0E0,0E0,0E0,0E0,0E0,0E0,0E0,0E0,0E0,0E0,0E0,0E0,0E0,0E0],"parents":[2147483647,0,0,1,1,2,2,3,3,4,4,5,5,6,6,8,8,9,9,11,11,12,12,14,14,15,15,16,16,17,17,18,18,19,19,21,21,25,25,26,26,27,27,28,28,29,29,30,30,32,32],"right_children":[2,4,6,8,10,12,14,-1,16,18,-1,20,22,-1,24,26,28,30,32,34,-1,36,-1,-1,-1,38,40,42,44,46,48,-1,50,-1,-1,-1,-1,-1,-1,-1,-1,-1,-1,-1,-1,-1,-1,-1,-1,-1,-1],"split_conditions":[5.9158295E1,7.6949997E0,2.1421056E0,2.1641277E1,5.7E0,5E-1,5E-1,2.2489886E-1,1.88E1,5E-1,3.103525E-1,2.07015E4,4.8439002E-1,2.2308166E-1,8.5E0,2.07015E4,4.03E1,8.522218E-1,7.038739E-1,1.05E0,7.99691E-2,9.55E0,3.0796302E-2,6.0529806E-2,-4.833663E-3,5.0790054E1,5.5E0,8.65E0,5E-1,9.5E0,2.07015E4,3.5814956E-1,2.07015E4,2.919677E-1,7.313483E-1,1.8673982E-1,3.8576937E-1,1.4535673E-1,-3.6306279E-3,5.4727565E-2,2.0559162E-1,8.014002E-2,2.538904E-2,3.393335E-2,-5.0229486E-2,5.5810887E-2,-6.3830495E-2,4.3090644E-1,1.7437941E-1,-4.5162573E-2,9.460194E-2],"split_indices":[11,1,16,7,28,32,32,0,27,32,0,33,14,0,0,33,3,25,25,6,0,0,0,0,0,11,1,0,32,1,33,0,33,0,0,0,0,0,0,0,0,0,0,0,0,0,0,0,0,0,0],"split_type":[0,0,0,0,0,0,0,0,0,0,0,0,0,0,0,0,0,0,0,0,0,0,0,0,0,0,0,0,0,0,0,0,0,0,0,0,0,0,0,0,0,0,0,0,0,0,0,0,0,0,0],"sum_hessian":[1.13E2,9E1,2.3E1,4.7E1,4.3E1,1.6E1,7E0,6E0,4.1E1,3.4E1,9E0,8E0,8E0,4E0,3E0,2.5E1,1.6E1,1.7E1,1.7E1,7E0,1E0,7E0,1E0,2E0,1E0,1.4E1,1.1E1,1.2E1,4E0,4E0,1.3E1,2E0,1.5E1,4E0,3E0,5E0,2E0,8E0,6E0,4E0,7E0,1E1,2E0,2E0,2E0,3E0,1E0,5E0,8E0,5E0,1E1],"tree_param":{"num_deleted":"0","num_feature":"42","num_nodes":"51","size_leaf_vector":"0"}},{"base_weights":[5.0710374E-1,4.0392122E-1,8.772081E-1,3.1832463E-1,5.7594407E-1,3.631564E-1,1.0283833E0,3.8313434E-1,1.040002E-1,2.982771E-1,7.290585E-1,4.9380207E-1,2.1213774E-1,1.2825382E0,6.317241E-1,2.8221098E-1,5.2232206E-1,-5.114522E-2,1.5997745E-1,9.71556E-1,-3.4099855E-2,3.623495E-1,9.294779E-1,2.8992096E-1,6.364194E-2,1.3793579E0,2.0558047E-1,3.713374E-1,1.0287184E0,3.3992848E-1,1.09767E-1,7.511187E-1,2.4129315E-1,-7.7967726E-2,-7.2743096E-3,2.2495814E-1,8.1425786E-2,1.3957868E0,-1.5056813E-1,2.0564342E-1,-5.821342E-1,-6.352492E-2,8.0410516E-1,1.3325404E0,3.7150237E-1,1.0915828E-1,-1.3695359E-2,1.4609966E0,3.6312437E-1,1.4681149E-1,4.317855E-1,3.5372415E-1,1.3464777E-1,1.7036252E-1,2.721808E-2,3.3306903E-1,1.294926E0,5.3821295E-1,3.715423E-2,1.6675353E-2,-2.7586818E-2,3.3070785E-1,8.972486E-3,-5.5099994E-2,1.9759512E-1,2.784852E-1,1.569263E-2,-7.8000534E-1,-9.319596E-2,-4.8302794E-1,3.7715307E-1,1.7306492E0,3.5754848E-1,1.088959E-2,7.284853E-1],"categories":[],"categories_nodes":[],"categories_segments":[],"categories_sizes":[],"default_left":[true,true,true,true,true,true,true,true,true,true,true,false,true,true,true,true,true,true,true,true,true,true,true,false,true,true,false,true,false,true,true,true,true,false,true,true,true,false,false,true,true,true,false,true,true,false,false,false,false,false,false,false,false,false,false,false,false,false,false,false,false,false,false,false,false,false,false,false,false,false,false,false,false,false,false],"id":7,"left_children":[1,3,5,7,9,11,13,15,17,19,21,-1,23,25,27,29,31,33,35,37,39,41,43,-1,45,47,-1,49,-1,51,53,55,57,-1,59,61,63,-1,-1,65,67,69,-1,71,73,-1,-1,-1,-1,-1,-1,-1,-1,-1,-1,-1,-1,-1,-1,-1,-1,-1,-1,-1,-1,-1,-1,-1,-1,-1,-1,-1,-1,-1,-1],"loss_changes":[3.9991436E0,1.156599E0,1.4916191E0,8.352432E-1,1.0154676E0,3.3355474E-2,1.0044231E0,5.268645E-1,1.471359E-1,2.7185187E0,9.8612595E-1,0E0,3.9301246E-2,7.591381E-1,5.4834676E-1,2.6127815E-1,1.040431E0,5.316478E-3,4.2934716E-2,2.1143193E0,1.3022001E0,1.5561402E0,1.9788465E0,0E0,1.2055292E-2,2.1615028E-1,0E0,3.1614065E-2,0E0,1.4675617E-2,4.038191E-2,1.8420858E0,5.86132E-1,0E0,1.919453E-3,1.3407525E-1,1.2190826E-1,0E0,0E0,9.2484295E-2,2.1754694E-1,1.1065042E0,0E0,1.7101269E0,7.644627E-1,0E0,0E0,0E0,0E0,0E0,0E0,0E0,0E0,0E0,0E0,0E0,0E0,0E0,0E0,0E0,0E0,0E0,0E0,0E0,0E0,0E0,0E0,0E0,0E0,0E0,0E0,0E0,0E0,0E0,0E0],"parents":[2147483647,0,0,1,1,2,2,3,3,4,4,5,5,6,6,7,7,8,8,9,9,10,10,12,12,13,13,14,14,15,15,16,16,17,17,18,18,19,19,20,20,21,21,22,22,24,24,25,25,27,27,29,29,30,30,31,31,32,32,34,34,35,35,36,36,39,39,40,40,41,41,43,43,44,44],"right_children":[2,4,6,8,10,12,14,16,18,20,22,-1,24,26,28,30,32,34,36,38,40,42,44,-1,46,48,-1,50,-1,52,54,56,58,-1,60,62,64,-1,-1,66,68,70,-1,72,74,-1,-1,-1,-1,-1,-1,-1,-1,-1,-1,-1,-1,-1,-1,-1,-1,-1,-1,-1,-1,-1,-1,-1,-1,-1,-1,-1,-1,-1,-1],"split_conditions":[5.9158295E1,8.505E0,8.88E2,7.5240826E2,5.1224957E1,9.6E1,5E-1,3.0744476E0,2.3344789E0,2.07015E4,2.07015E4,1.4814062E-1,5E-1,2.4874759E0,9.55E0,1.8900002E1,5E-1,8.7E0,5E-1,5E-1,7.6169995E2,9.5E0,5E-1,8.697629E-2,6.05E0,4.8439002E-1,6.1674144E-2,1.05E0,3.086155E-1,7.444E2,5E-1,6.5E0,5.5E0,-2.339032E-2,5E-1,2.07015E4,2.07015E4,4.1873604E-1,-4.517044E-2,1.18E1,5E-1,5E-1,2.4123156E-1,5.7388565E1,7.4355E2,3.2747485E-2,-4.108608E-3,4.38299E-1,1.08937316E-1,4.4043448E-2,1.2953566E-1,1.0611725E-1,4.0394332E-2,5.110876E-2,8.165424E-3,9.992071E-2,3.8847783E-1,1.6146389E-1,1.114627E-2,5.002606E-3,-8.276045E-3,9.9212356E-2,2.6917458E-3,-1.653E-2,5.9278537E-2,8.3545566E-2,4.7077895E-3,-2.340016E-1,-2.795879E-2,-1.4490838E-1,1.13145925E-1,5.191948E-1,1.0726455E-1,3.266877E-3,2.185456E-1],"split_indices":[11,1,22,8,11,5,32,10,12,33,33,0,32,12,0,27,32,0,32,32,4,1,32,0,0,14,0,6,0,2,32,1,1,0,32,33,33,0,0,0,32,32,0,11,2,0,0,0,0,0,0,0,0,0,0,0,0,0,0,0,0,0,0,0,0,0,0,0,0,0,0,0,0,0,0],"split_type":[0,0,0,0,0,0,0,0,0,0,0,0,0,0,0,0,0,0,0,0,0,0,0,0,0,0,0,0,0,0,0,0,0,0,0,0,0,0,0,0,0,0,0,0,0,0,0,0,0,0,0,0,0,0,0,0,0,0,0,0,0,0,0,0,0,0,0,0,0,0,0,0,0,0,0],"sum_hessian":[1.13E2,9E1,2.3E1,6.2E1,2.8E1,6E0,1.7E1,4.7E1,1.5E1,1.1E1,1.7E1,2E0,4E0,9E0,8E0,2.9E1,1.8E1,4E0,1.1E1,3E0,8E0,7E0,1E1,2E0,2E0,8E0,1E0,6E0,2E0,2.1E1,8E0,9E0,9E0,2E0,2E0,5E0,6E0,2E0,1E0,6E0,2E0,4E0,3E0,5E0,5E0,1E0,1E0,7E0,1E0,2E0,4E0,1.9E1,2E0,4E0,4E0,6E0,3E0,3E0,6E0,1E0,1E0,3E0,2E0,3E0,3E0,4E0,2E0,1E0,1E0,2E0,2E0,3E0,2E0,3E0,2E0],"tree_param":{"num_deleted":"0","num_feature":"42","num_nodes":"75","size_leaf_vector":"0"}},{"base_weights":[3.8652736E-1,3.0738643E-1,6.7049813E-1,2.3845872E-1,4.465264E-1,7.984058E-1,3.148819E-1,2.8625226E-1,8.017449E-2,2.2544888E-1,5.691044E-1,4.7365555E-1,1.0344443E0,5.532391E-1,2.017967E-1,2.044072E-1,4.0041536E-1,-4.113437E-2,1.24038644E-1,7.7348065E-1,-4.3170683E-2,2.7982837E-1,7.277502E-1,6.095346E-1,2.4304533E-1,1.3740909E0,4.8790893E-1,2.6257604E-1,1.08142085E-1,7.398648E-1,2.6057118E-1,-6.2374175E-2,-6.183108E-3,1.7445476E-1,6.3105024E-2,1.1166295E0,-1.2798285E-1,1.56558E-1,-4.9481404E-1,-9.74185E-2,6.8142986E-1,1.0371883E0,2.9702047E-1,3.6934662E-1,3.572893E-2,1.5605922E0,3.1404305E-1,3.3603813E-2,4.4239348E-1,3.022976E-1,-1.014623E-1,9.0582293E-1,3.2728514E-1,3.7859508E-1,1.09975874E-1,1.4174104E-2,-2.3448765E-2,2.5629866E-1,7.1779885E-3,1.9551492E-1,-2.8961921E-2,2.1164875E-1,1.255409E-2,-6.630045E-1,-7.921656E-2,-6.5018016E-1,4.87816E-1,1.2387476E0,-4.9526167E-1,1.3412533E0,2.860388E-1,8.439451E-3,5.827883E-1,-1.1641026E-2,6.523442E-2],"categories":[],"categories_nodes":[],"categories_segments":[],"categories_sizes":[],"default_left":[true,true,true,true,true,true,true,true,true,true,true,true,true,false,false,true,true,true,true,true,true,true,true,false,true,true,false,true,true,true,true,false,true,true,true,false,false,true,true,true,true,true,true,false,true,false,false,false,false,false,false,false,false,false,false,false,false,false,false,false,false,false,false,false,false,false,false,false,false,false,false,false,false,false,false],"id":8,"left_children":[1,3,5,7,9,11,13,15,17,19,21,23,25,-1,-1,27,29,31,33,35,37,39,41,-1,43,45,-1,47,49,51,53,-1,55,57,59,-1,-1,61,63,65,67,69,71,-1,73,-1,-1,-1,-1,-1,-1,-1,-1,-1,-1,-1,-1,-1,-1,-1,-1,-1,-1,-1,-1,-1,-1,-1,-1,-1,-1,-1,-1,-1,-1],"loss_changes":[2.3559017E0,7.662668E-1,8.402624E-1,4.5364237E-1,6.575742E-1,8.131399E-1,1.0399556E-1,3.666489E-1,9.024001E-2,1.7999364E0,6.224184E-1,1.3387132E-1,1.0002289E0,0E0,0E0,1.3959336E-1,7.0914316E-1,3.3261236E-3,2.5855482E-2,1.3802538E0,8.8932234E-1,1.2784071E0,1.1580601E0,0E0,1.1772525E-1,4.9840736E-1,0E0,7.262515E-1,5.597178E-1,4.5892477E-2,2.2497141E-1,0E0,1.3868071E-3,8.03038E-2,9.0996504E-2,0E0,0E0,5.287592E-2,1.5717769E-1,1.9346443E0,3.2366686E0,9.8673916E-1,4.8988461E-1,0E0,4.952417E-3,0E0,0E0,0E0,0E0,0E0,0E0,0E0,0E0,0E0,0E0,0E0,0E0,0E0,0E0,0E0,0E0,0E0,0E0,0E0,0E0,0E0,0E0,0E0,0E0,0E0,0E0,0E0,0E0,0E0,0E0],"parents":[2147483647,0,0,1,1,2,2,3,3,4,4,5,5,6,6,7,7,8,8,9,9,10,10,11,11,12,12,15,15,16,16,17,17,18,18,19,19,20,20,21,21,22,22,24,24,25,25,27,27,28,28,29,29,30,30,32,32,33,33,34,34,37,37,38,38,39,39,40,40,41,41,42,42,44,44],"right_children":[2,4,6,8,10,12,14,16,18,20,22,24,26,-1,-1,28,30,32,34,36,38,40,42,-1,44,46,-1,48,50,52,54,-1,56,58,60,-1,-1,62,64,66,68,70,72,-1,74,-1,-1,-1,-1,-1,-1,-1,-1,-1,-1,-1,-1,-1,-1,-1,-1,-1,-1,-1,-1,-1,-1,-1,-1,-1,-1,-1,-1,-1,-1],"split_conditions":[5.9158295E1,8.505E0,2.07015E4,7.5240826E2,5.1224957E1,7.3355005E2,7.421E2,3.0744476E0,2.3344789E0,2.07015E4,2.07015E4,9.55E1,5E-1,1.6597174E-1,6.053901E-2,1.1657255E3,6E0,8.7E0,5E-1,5E-1,7.6169995E2,5E-1,5E-1,1.8286039E-1,5E-1,9.55E0,1.4637269E-1,5E-1,5E-1,5E-1,5E-1,-1.8712252E-2,5E-1,2.07015E4,7.1499996E0,3.3498886E-1,-3.8394857E-2,1.18E1,5E-1,7.418E2,7.421E2,5.7388565E1,7.4355E2,1.1080399E-1,8.85E0,4.6817768E-1,9.421292E-2,1.0081144E-2,1.3271806E-1,9.068928E-2,-3.043869E-2,2.717469E-1,9.818555E-2,1.1357853E-1,3.2992765E-2,4.252231E-3,-7.03463E-3,7.6889604E-2,2.1533966E-3,5.8654476E-2,-8.6885765E-3,6.349463E-2,3.766227E-3,-1.9890137E-1,-2.376497E-2,-1.9505405E-1,1.4634481E-1,3.716243E-1,-1.4857851E-1,4.02376E-1,8.581164E-2,2.5318356E-3,1.7483649E-1,-3.4923078E-3,1.9570328E-2],"split_indices":[11,1,33,8,11,2,2,10,12,33,33,5,32,0,0,15,0,0,32,32,4,32,32,0,32,0,0,32,32,32,32,0,32,33,0,0,0,0,32,2,2,11,2,0,0,0,0,0,0,0,0,0,0,0,0,0,0,0,0,0,0,0,0,0,0,0,0,0,0,0,0,0,0,0,0],"split_type":[0,0,0,0,0,0,0,0,0,0,0,0,0,0,0,0,0,0,0,0,0,0,0,0,0,0,0,0,0,0,0,0,0,0,0,0,0,0,0,0,0,0,0,0,0,0,0,0,0,0,0,0,0,0,0,0,0,0,0,0,0,0,0,0,0,0,0,0,0,0,0,0,0,0,0],"sum_hessian":[1.13E2,9E1,2.3E1,6.2E1,2.8E1,1.6E1,7E0,4.7E1,1.5E1,1.1E1,1.7E1,8E0,8E0,1E0,6E0,2.9E1,1.8E1,4E0,1.1E1,3E0,8E0,7E0,1E1,4E0,4E0,4E0,4E0,1.7E1,1.2E1,4E0,1.4E1,2E0,2E0,5E0,6E0,2E0,1E0,6E0,2E0,4E0,3E0,5E0,5E0,2E0,2E0,3E0,1E0,8E0,9E0,6E0,6E0,2E0,2E0,7E0,7E0,1E0,1E0,3E0,2E0,2E0,4E0,4E0,2E0,1E0,1E0,2E0,2E0,2E0,1E0,3E0,2E0,3E0,2E0,1E0,1E0],"tree_param":{"num_deleted":"0","num_feature":"42","num_nodes":"75","size_leaf_vector":"0"}},{"base_weights":[2.9735127E-1,2.4162325E-1,5.8114386E-1,1.1262325E-1,2.9233885E-1,7.167358E-1,2.6568E-1,1.3726157E-1,-3.3092976E-2,4.9908784E-1,2.4883755E-1,7.9834235E-1,2.0580196E-1,3.2653093E-2,4.3228686E-1,1.9757916E-1,6.638539E-2,-4.989934E-2,-5.2556195E-3,-2.6665124E-1,6.9887996E-1,1.4350027E-1,3.6033595E-1,2.532537E-1,5.5449247E-2,4.972833E-1,-6.8061876E-1,-9.610876E-2,1.0087368E0,1.7366579E-2,3.4956616E-1,2.0830305E-1,-8.501589E-2,1.2048006E-2,-1.9931436E-2,2.0995617E-2,-4.2097247E-1,1.0153124E0,2.4267149E-1,3.2978475E-1,-1.3146298E-3,4.5485651E-1,1.7290808E-1,6.0145116E-1,1.4447379E-1,-2.2483277E-1,8.066964E-2,-7.300985E-2,1.0340136E-1,9.292936E-2,3.7685072E-1,2.7141136E-1,3.3688147E-2,-3.0079508E-2,-1.482379E-1,2.4530411E-1,1.1464885E0,5.617416E-2,4.943304E-1,5.9098554E-1,-1.5842507E-2,4.3444526E-1,-1.10172436E-1,1.20044865E-1,4.8920518E-1,9.045996E-2,2.5375384E-1],"categories":[],"categories_nodes":[],"categories_segments":[],"categories_sizes":[],"default_left":[true,true,true,true,true,true,true,true,true,true,true,false,true,true,true,true,true,false,true,true,true,true,true,false,false,true,false,true,false,true,true,true,true,false,false,false,false,true,true,true,true,true,true,false,false,false,false,false,false,false,false,false,false,false,false,false,false,false,false,false,false,false,false,false,false,false,false],"id":9,"left_children":[1,3,5,7,9,11,13,15,17,19,21,-1,23,25,27,29,31,-1,33,35,37,39,41,-1,-1,43,-1,45,-1,47,49,51,53,-1,-1,-1,-1,55,57,59,61,63,65,-1,-1,-1,-1,-1,-1,-1,-1,-1,-1,-1,-1,-1,-1,-1,-1,-1,-1,-1,-1,-1,-1,-1,-1],"loss_changes":[1.6625147E0,6.016803E-1,5.795164E-1,1.08658254E-1,4.9638414E-1,3.3604622E-1,2.576517E-1,9.376067E-2,2.0769718E-3,1.8692329E0,6.41243E-1,0E0,7.3607564E-3,1.6640909E0,1.3153229E0,3.4999883E-1,2.9703376E-1,0E0,1.0019685E-3,1.4200862E-1,1.0528455E0,8.6369014E-1,4.1739368E-1,0E0,0E0,2.3360372E-2,0E0,8.6404055E-2,0E0,6.1977934E-2,1.3995111E-2,6.799424E-2,1.9853398E-2,0E0,0E0,0E0,0E0,2.2379446E-1,2.0689997E-1,1.2732561E0,9.491454E-1,1.4827919E-1,5.036682E-2,0E0,0E0,0E0,0E0,0E0,0E0,0E0,0E0,0E0,0E0,0E0,0E0,0E0,0E0,0E0,0E0,0E0,0E0,0E0,0E0,0E0,0E0,0E0,0E0],"parents":[2147483647,0,0,1,1,2,2,3,3,4,4,5,5,6,6,7,7,8,8,9,9,10,10,12,12,13,13,14,14,15,15,16,16,18,18,19,19,20,20,21,21,22,22,25,25,27,27,29,29,30,30,31,31,32,32,37,37,38,38,39,39,40,40,41,41,42,42],"right_children":[2,4,6,8,10,12,14,16,18,20,22,-1,24,26,28,30,32,-1,34,36,38,40,42,-1,-1,44,-1,46,-1,48,50,52,54,-1,-1,-1,-1,56,58,60,62,64,66,-1,-1,-1,-1,-1,-1,-1,-1,-1,-1,-1,-1,-1,-1,-1,-1,-1,-1,-1,-1,-1,-1,-1,-1],"split_conditions":[5.6098074E-1,2.453725E-1,2.7982388E0,7.52055E2,2.7403805E-1,4.8439002E-1,5E-1,5E-1,8.7E0,2.07015E4,3.0472782E-1,2.3950271E-1,5E-1,7.7349997E0,7.7349997E0,6.1214286E-1,6.1214286E-1,-1.4969802E-2,5E-1,5E-1,5E-1,2.07015E4,2.2983578E1,7.597611E-2,1.6634775E-2,7.3E0,-2.0418563E-1,7.3E0,3.0262107E-1,2.1773558E0,2.2607004E1,2.4749035E1,8.75E0,3.614402E-3,-5.979431E-3,6.2986854E-3,-1.2629175E-1,7.6E0,9.75E0,5E-1,7.5969995E2,7.3115E2,2.07015E4,1.8043536E-1,4.334214E-2,-6.744984E-2,2.4200894E-2,-2.1902956E-2,3.102041E-2,2.787881E-2,1.1305522E-1,8.142341E-2,1.0106444E-2,-9.023853E-3,-4.4471372E-2,7.359123E-2,3.4394658E-1,1.6852248E-2,1.4829913E-1,1.7729567E-1,-4.7527524E-3,1.3033359E-1,-3.3051733E-2,3.601346E-2,1.4676157E-1,2.713799E-2,7.612616E-2],"split_indices":[13,14,10,8,14,14,32,32,0,33,14,0,32,1,1,16,16,0,32,32,32,33,7,0,0,0,0,0,0,12,7,7,0,0,0,0,0,1,0,32,4,2,33,0,0,0,0,0,0,0,0,0,0,0,0,0,0,0,0,0,0,0,0,0,0,0,0],"split_type":[0,0,0,0,0,0,0,0,0,0,0,0,0,0,0,0,0,0,0,0,0,0,0,0,0,0,0,0,0,0,0,0,0,0,0,0,0,0,0,0,0,0,0,0,0,0,0,0,0,0,0,0,0,0,0,0,0,0,0,0,0,0,0,0,0,0,0],"sum_hessian":[1.13E2,9.6E1,1.7E1,2.8E1,6.8E1,1.1E1,6E0,2.4E1,4E0,1E1,5.8E1,9E0,2E0,3E0,3E0,1.2E1,1.2E1,2E0,2E0,2E0,8E0,3.1E1,2.7E1,1E0,1E0,2E0,1E0,2E0,1E0,6E0,6E0,6E0,6E0,1E0,1E0,1E0,1E0,4E0,4E0,1.3E1,1.8E1,1.7E1,1E1,1E0,1E0,1E0,1E0,3E0,3E0,1E0,5E0,4E0,2E0,4E0,2E0,1E0,3E0,3E0,1E0,7E0,6E0,3E0,1.5E1,2E0,1.5E1,6E0,4E0],"tree_param":{"num_deleted":"0","num_feature":"42","num_nodes":"67","size_leaf_vector":"0"}},{"base_weights":[2.239388E-1,1.8139724E-1,4.4074938E-1,1.6597064E-1,4.9857318E-1,5.2939105E-1,2.25828E-1,1.3125212E-1,2.674386E-1,6.0946417E-1,8.2950115E-2,6.52301E-1,2.9776427E-1,2.7755141E-2,3.6744386E-1,1.9952431E-1,6.127777E-2,6.0355622E-2,2.842867E-1,2.3265624E-1,9.088706E-1,3.1475246E-2,5.535615E-1,4.2269087E-1,-5.78526E-1,-8.169246E-2,8.574264E-1,-1.0423881E-2,2.9231846E-1,1.6223383E-1,-2.3366561E-2,-1.0212243E-2,1.0074568E-1,9.6035875E-2,2.9904807E-1,1.0545731E-2,4.7131896E-2,5.1123357E-1,1.22802734E-1,-1.9110787E-1,6.856918E-2,-8.060231E-2,3.4740623E-2,1.850224E-1,5.417909E-1,-3.7020523E-2,2.263906E-1,-2.531144E-1,1.0958696E-1,1.7195535E-1,-2.790153E-2,2.0083897E-1,3.6735237E-1],"categories":[],"categories_nodes":[],"categories_segments":[],"categories_sizes":[],"default_left":[true,true,true,true,true,true,true,true,true,false,false,true,true,true,true,true,true,true,true,false,false,true,false,true,false,true,false,true,true,true,true,false,false,true,true,false,false,false,false,false,false,false,false,false,false,false,false,false,false,false,false,false,false],"id":10,"left_children":[1,3,5,7,9,11,13,15,17,-1,-1,19,21,23,25,27,29,31,33,-1,-1,35,-1,37,-1,39,-1,41,43,45,47,-1,-1,49,51,-1,-1,-1,-1,-1,-1,-1,-1,-1,-1,-1,-1,-1,-1,-1,-1,-1,-1],"loss_changes":[9.715228E-1,3.918674E-1,2.233665E-1,2.9604292E-1,1.3380021E-1,1.4739919E-1,1.8615335E-1,3.317393E-1,6.30877E-2,0E0,0E0,5.4222226E-1,3.912725E-1,1.2023059E0,9.50321E-1,7.043979E-1,3.1996912E-1,9.579558E-3,2.9636264E-2,0E0,0E0,8.13704E-4,0E0,1.687783E-2,0E0,6.242693E-2,0E0,4.083506E-2,5.6894183E-1,2.2570083E-1,6.691995E-1,0E0,0E0,3.3025604E-2,5.3675294E-2,0E0,0E0,0E0,0E0,0E0,0E0,0E0,0E0,0E0,0E0,0E0,0E0,0E0,0E0,0E0,0E0,0E0,0E0],"parents":[2147483647,0,0,1,1,2,2,3,3,4,4,5,5,6,6,7,7,8,8,11,11,12,12,13,13,14,14,15,15,16,16,17,17,18,18,21,21,23,23,25,25,27,27,28,28,29,29,30,30,33,33,34,34],"right_children":[2,4,6,8,10,12,14,16,18,-1,-1,20,22,24,26,28,30,32,34,-1,-1,36,-1,38,-1,40,-1,42,44,46,48,-1,-1,50,52,-1,-1,-1,-1,-1,-1,-1,-1,-1,-1,-1,-1,-1,-1,-1,-1,-1,-1],"split_conditions":[5.6098074E-1,3.3185E2,2.7982388E0,3.2660717E-1,5E-1,5E-1,5E-1,5E-1,2.5166636E0,1.8283926E-1,2.4885036E-2,8.55E1,9.55E0,7.7349997E0,7.7349997E0,1.17649994E2,5.3575717E-2,5E-1,7.3115E2,6.9796875E-2,2.7266118E-1,8.5E0,1.6606846E-1,7.3E0,-1.7355782E-1,7.3E0,2.5722793E-1,4.5E0,2.71285E3,4.1646254E-1,2.07015E4,-3.063673E-3,3.0223705E-2,5E-1,5E-1,3.1637193E-3,1.4139569E-2,1.5337008E-1,3.6840823E-2,-5.7332363E-2,2.0570755E-2,-2.4180694E-2,1.0422187E-2,5.550672E-2,1.6253728E-1,-1.1106158E-2,6.791718E-2,-7.593432E-2,3.287609E-2,5.1586606E-2,-8.370459E-3,6.0251694E-2,1.1020572E-1],"split_indices":[13,21,10,14,32,32,32,32,10,0,0,29,0,1,1,21,24,32,2,0,0,1,0,0,0,0,0,1,19,13,33,0,0,32,32,0,0,0,0,0,0,0,0,0,0,0,0,0,0,0,0,0,0],"split_type":[0,0,0,0,0,0,0,0,0,0,0,0,0,0,0,0,0,0,0,0,0,0,0,0,0,0,0,0,0,0,0,0,0,0,0,0,0,0,0,0,0,0,0,0,0,0,0,0,0,0,0,0,0],"sum_hessian":[1.13E2,9.6E1,1.7E1,9.3E1,3E0,1.1E1,6E0,7.1E1,2.2E1,2E0,1E0,6E0,5E0,3E0,3E0,3.5E1,3.6E1,2E0,2E1,3E0,3E0,3E0,2E0,2E0,1E0,2E0,1E0,1.1E1,2.4E1,1.6E1,2E1,1E0,1E0,2E0,1.8E1,2E0,1E0,1E0,1E0,1E0,1E0,4E0,7E0,1.8E1,6E0,4E0,1.2E1,7E0,1.3E1,1E0,1E0,9E0,9E0],"tree_param":{"num_deleted":"0","num_feature":"42","num_nodes":"53","size_leaf_vector":"0"}},{"base_weights":[1.6929704E-1,1.3385022E-1,3.5091063E-1,1.2106109E-1,4.009322E-1,4.143929E-1,1.919538E-1,4.190485E-2,1.4760172E-1,4.8757124E-1,7.050753E-2,5.0553334E-1,2.3899686E-1,2.3591876E-2,3.1232727E-1,-1.7625E-2,9.821125E-2,2.0578605E-1,8.693358E-2,1.803087E-1,7.043747E-1,2.6358426E-2,4.4284916E-1,3.5928726E-1,-4.9174714E-1,-6.9438614E-2,7.2881246E-1,-1.181517E-1,5.9973154E-2,2.7571324E-1,-4.719165E-2,-7.0809685E-2,2.9036292E-1,3.3913127E-1,-9.692722E-3,8.436521E-3,4.006207E-2,4.3454862E-1,1.0438228E-1,-1.6244173E-1,5.8283806E-2,2.9689472E-3,-1.7945427E-1,1.566216E-1,-7.583069E-2,5.5496138E-2,3.7194777E-1,-1.07302785E-1,8.876117E-2,-2.1847026E-1,1.683836E-1,4.1369903E-1,1.641141E-1,4.7236505E-1,2.1189332E-2,-1.4817439E-1,9.477433E-2],"categories":[],"categories_nodes":[],"categories_segments":[],"categories_sizes":[],"default_left":[true,true,true,true,true,true,true,true,true,false,false,true,true,true,true,true,true,true,true,false,false,true,false,true,false,true,false,true,true,true,true,true,true,true,true,false,false,false,false,false,false,false,false,false,false,false,false,false,false,false,false,false,false,false,false,false,false],"id":11,"left_children":[1,3,5,7,9,11,13,15,17,-1,-1,19,21,23,25,27,29,31,33,-1,-1,35,-1,37,-1,39,-1,41,43,45,47,49,51,53,55,-1,-1,-1,-1,-1,-1,-1,-1,-1,-1,-1,-1,-1,-1,-1,-1,-1,-1,-1,-1,-1,-1],"loss_changes":[6.869197E-1,2.8278995E-1,1.02092505E-1,1.9129539E-1,8.013332E-2,7.100725E-2,1.3449576E-1,8.552876E-2,2.2920573E-1,0E0,0E0,3.2567167E-1,2.484082E-1,8.6866623E-1,6.8660706E-1,1.08494855E-1,3.4853232E-1,8.3933663E-1,8.805686E-1,0E0,0E0,6.443972E-4,0E0,1.2194306E-2,0E0,4.510347E-2,0E0,4.5082837E-2,1.1687857E-1,1.0651323E-1,7.490254E-2,3.5466155E-1,3.5252428E-1,4.13597E-1,4.0464595E-1,0E0,0E0,0E0,0E0,0E0,0E0,0E0,0E0,0E0,0E0,0E0,0E0,0E0,0E0,0E0,0E0,0E0,0E0,0E0,0E0,0E0,0E0],"parents":[2147483647,0,0,1,1,2,2,3,3,4,4,5,5,6,6,7,7,8,8,11,11,12,12,13,13,14,14,15,15,16,16,17,17,18,18,21,21,23,23,25,25,27,27,28,28,29,29,30,30,31,31,32,32,33,33,34,34],"right_children":[2,4,6,8,10,12,14,16,18,-1,-1,20,22,24,26,28,30,32,34,-1,-1,36,-1,38,-1,40,-1,42,44,46,48,50,52,54,56,-1,-1,-1,-1,-1,-1,-1,-1,-1,-1,-1,-1,-1,-1,-1,-1,-1,-1,-1,-1,-1,-1],"split_conditions":[5.6098074E-1,3.3185E2,2.7982388E0,4.784352E1,5E-1,5E-1,5E-1,5E-1,5E-1,1.4627138E-1,2.1152258E-2,8.55E1,9.55E0,7.7349997E0,7.7349997E0,2.07015E4,2.07015E4,2.85E1,5.270656E-2,5.4092612E-2,2.1131241E-1,8.5E0,1.3285476E-1,7.3E0,-1.4752415E-1,7.3E0,2.1864374E-1,7.51525E2,7.43E2,7.51525E2,8.95E0,2.07015E4,2.07015E4,2.07015E4,2.07015E4,2.5309562E-3,1.2018622E-2,1.303646E-1,3.1314686E-2,-4.8732523E-2,1.7485142E-2,8.906842E-4,-5.3836282E-2,4.6986483E-2,-2.2749208E-2,1.6648842E-2,1.11584336E-1,-3.2190837E-2,2.6628353E-2,-6.554108E-2,5.051508E-2,1.24109715E-1,4.9234234E-2,1.4170952E-1,6.3568E-3,-4.4452317E-2,2.84323E-2],"split_indices":[13,21,10,11,32,32,32,32,32,0,0,29,0,1,1,33,33,26,24,0,0,1,0,0,0,0,0,8,2,8,0,33,33,33,33,0,0,0,0,0,0,0,0,0,0,0,0,0,0,0,0,0,0,0,0,0,0],"split_type":[0,0,0,0,0,0,0,0,0,0,0,0,0,0,0,0,0,0,0,0,0,0,0,0,0,0,0,0,0,0,0,0,0,0,0,0,0,0,0,0,0,0,0,0,0,0,0,0,0,0,0,0,0,0,0,0,0],"sum_hessian":[1.13E2,9.6E1,1.7E1,9.3E1,3E0,1.1E1,6E0,2.4E1,6.9E1,2E0,1E0,6E0,5E0,3E0,3E0,1.2E1,1.2E1,3.4E1,3.5E1,3E0,3E0,3E0,2E0,2E0,1E0,2E0,1E0,5E0,7E0,5E0,7E0,8E0,2.6E1,9E0,2.6E1,2E0,1E0,1E0,1E0,1E0,1E0,2E0,3E0,4E0,3E0,2E0,3E0,5E0,2E0,5E0,3E0,1.2E1,1.4E1,6E0,3E0,1.1E1,1.5E1],"tree_param":{"num_deleted":"0","num_feature":"42","num_nodes":"57","size_leaf_vector":"0"}},{"base_weights":[1.2873697E-1,9.9383295E-2,2.7976862E-1,8.8831335E-2,3.2250845E-1,3.2447582E-1,1.6316077E-1,1.09740786E-1,1.9513423E-2,3.900571E-1,5.993128E-2,3.9178848E-1,1.9186509E-1,2.0053148E-2,2.654782E-1,9.304888E-2,2.514444E-1,1.1159982E-1,-4.765639E-2,1.397394E-1,5.4589045E-1,2.208823E-2,3.542792E-1,3.0539417E-1,-4.1798496E-1,-5.9022825E-2,6.194906E-1,3.7221886E-2,1.3853744E-1,4.691012E-1,-2.9073477E-2,-1.451876E-1,5.3307784E-1,-2.0086941E-1,3.8559353E-1,1.5904124E-1,4.091692E-2,6.749153E-3,3.405273E-2,3.693664E-1,8.872485E-2,-1.3807547E-1,4.9541235E-2,7.022932E-2,1.8159803E-2,6.2703915E-2,2.1088739E-1,6.407447E-1,1.9830513E-1,4.7935247E-2,-7.072147E-2,-4.340993E-1,1.8002099E-1,2.3084958E-1,7.198813E-1,-2.9279375E-2,-4.0092158E-1,5.681293E-1,1.3537185E-1],"categories":[],"categories_nodes":[],"categories_segments":[],"categories_sizes":[],"default_left":[true,true,true,true,true,true,true,true,true,false,false,true,true,true,true,true,true,true,true,true,false,true,false,true,false,true,false,true,true,true,true,true,true,true,true,false,false,false,false,false,false,false,false,false,false,false,false,false,false,false,false,false,false,false,false,false,false,false,false],"id":12,"left_children":[1,3,5,7,9,11,13,15,17,-1,-1,19,21,23,25,27,29,31,33,35,-1,37,-1,39,-1,41,-1,43,45,47,49,51,53,55,57,-1,-1,-1,-1,-1,-1,-1,-1,-1,-1,-1,-1,-1,-1,-1,-1,-1,-1,-1,-1,-1,-1,-1,-1],"loss_changes":[4.775958E-1,1.9972861E-1,4.0896058E-2,1.341021E-1,4.7570318E-2,3.1945944E-2,9.7173154E-2,1.469053E-1,1.4758323E-1,0E0,0E0,1.9560647E-1,1.5761954E-1,6.2761116E-1,4.9607363E-1,1.6244966E-1,4.4103473E-1,1.1596987E0,1.0067674E0,1.122348E-3,0E0,5.042703E-4,0E0,8.81049E-3,0E0,3.2587256E-2,0E0,1.8229555E-2,1.8429244E-1,5.8858573E-2,1.6219085E-2,7.358429E-1,5.964482E-2,3.6585787E-1,1.0578889E-1,0E0,0E0,0E0,0E0,0E0,0E0,0E0,0E0,0E0,0E0,0E0,0E0,0E0,0E0,0E0,0E0,0E0,0E0,0E0,0E0,0E0,0E0,0E0,0E0],"parents":[2147483647,0,0,1,1,2,2,3,3,4,4,5,5,6,6,7,7,8,8,11,11,12,12,13,13,14,14,15,15,16,16,17,17,18,18,19,19,21,21,23,23,25,25,27,27,28,28,29,29,30,30,31,31,32,32,33,33,34,34],"right_children":[2,4,6,8,10,12,14,16,18,-1,-1,20,22,24,26,28,30,32,34,36,-1,38,-1,40,-1,42,-1,44,46,48,50,52,54,56,58,-1,-1,-1,-1,-1,-1,-1,-1,-1,-1,-1,-1,-1,-1,-1,-1,-1,-1,-1,-1,-1,-1,-1,-1],"split_conditions":[5.6098074E-1,3.3185E2,2.7982388E0,7.524149E2,5E-1,5E-1,5E-1,7.5229224E2,2.07015E4,1.1701713E-1,1.7979383E-2,8.55E1,9.55E0,7.7349997E0,7.7349997E0,6.5E0,2.07015E4,7.4325E2,3.1447325E0,1.025E1,1.6376714E-1,8.5E0,1.0628376E-1,7.3E0,-1.2539549E-1,7.3E0,1.858472E-1,3.875E1,2.07015E4,5E-1,6.2000003E0,5E-1,1.065E1,7.5282935E2,5E-1,4.7712374E-2,1.22750765E-2,2.024746E-3,1.0215819E-2,1.1080993E-1,2.6617456E-2,-4.1422643E-2,1.4862371E-2,2.1068797E-2,5.447941E-3,1.8811176E-2,6.326622E-2,1.9222341E-1,5.949154E-2,1.4380575E-2,-2.1216441E-2,-1.3022979E-1,5.4006297E-2,6.9254875E-2,2.1596439E-1,-8.783813E-3,-1.2027648E-1,1.704388E-1,4.0611558E-2],"split_indices":[13,21,10,8,32,32,32,8,33,0,0,29,0,1,1,1,33,2,10,0,0,1,0,0,0,0,0,3,33,32,0,32,0,8,32,0,0,0,0,0,0,0,0,0,0,0,0,0,0,0,0,0,0,0,0,0,0,0,0],"split_type":[0,0,0,0,0,0,0,0,0,0,0,0,0,0,0,0,0,0,0,0,0,0,0,0,0,0,0,0,0,0,0,0,0,0,0,0,0,0,0,0,0,0,0,0,0,0,0,0,0,0,0,0,0,0,0,0,0,0,0],"sum_hessian":[1.13E2,9.6E1,1.7E1,9.3E1,3E0,1.1E1,6E0,7.1E1,2.2E1,2E0,1E0,6E0,5E0,3E0,3E0,6.5E1,6E0,9E0,1.3E1,3E0,3E0,3E0,2E0,2E0,1E0,2E0,1E0,3E1,3.5E1,3E0,3E0,6E0,3E0,1E1,3E0,2E0,1E0,2E0,1E0,1E0,1E0,1E0,1E0,1E1,2E1,1.8E1,1.7E1,1E0,2E0,1E0,2E0,3E0,3E0,2E0,1E0,6E0,4E0,1E0,2E0],"tree_param":{"num_deleted":"0","num_feature":"42","num_nodes":"59","size_leaf_vector":"0"}},{"base_weights":[1.01458445E-1,6.699652E-2,1.8767348E-1,1.13618605E-1,3.8462915E-2,2.725832E-1,8.572731E-2,3.7966065E-2,1.8216999E-1,9.668853E-2,-1.3057892E-2,1.5012768E-1,3.915797E-1,2.145921E-1,3.94822E-2,-2.0361212E-1,3.7765405E-1,3.5801217E-1,-1.7056902E-1,4.9725626E-2,6.1189914E-1,2.7499625E-2,-3.737229E-1,2.9759035E-1,-5.6853056E-2,1.8644094E-1,4.7737473E-1,4.0495396E-3,2.834231E-1,-7.41601E-2,1.1977865E-1,5.8058687E-2,-6.10633E-1,9.497724E-2,7.2289735E-1,9.777203E-2,7.889894E-1,-2.640738E-1,1.09603405E-2,9.5806174E-2,-3.0477357E-1,4.3406153E-1,-4.832045E-3,-5.392602E-1,-2.1324173E-2,8.543289E-2,4.8127016E-1,6.7538895E-2,-1.6229399E-1,-1.3488269E-1,3.385097E-1,3.3823393E-2,-3.0703878E-1,3.463461E-2,3.5789347E-1,1.5061823E-1,-1.1556009E-1,2.4630857E-1,4.136559E-2,-2.2521496E-2,3.8962007E-2,2.1355173E-2,1.6831578E-1,4.0202618E-2,-4.9736297E-1,3.798271E-2,-5.794782E-2,-7.594347E-3,9.974718E-2,-9.808129E-2,7.3100805E-2],"categories":[],"categories_nodes":[],"categories_segments":[],"categories_sizes":[],"default_left":[true,true,true,true,true,true,true,true,true,true,true,true,true,true,true,true,true,true,true,true,false,true,true,true,true,true,false,false,false,true,true,true,false,false,false,true,false,false,true,true,true,false,true,false,false,false,false,false,false,false,false,true,false,true,false,false,false,false,false,false,false,false,false,false,false,false,false,false,false,false,false],"id":13,"left_children":[1,3,5,7,9,11,13,15,17,19,21,23,25,27,29,31,33,35,37,39,-1,41,43,45,47,49,-1,-1,-1,51,53,55,-1,-1,-1,57,-1,-1,59,61,63,-1,65,-1,-1,-1,-1,-1,-1,-1,-1,67,-1,69,-1,-1,-1,-1,-1,-1,-1,-1,-1,-1,-1,-1,-1,-1,-1,-1,-1],"loss_changes":[3.261361E-1,1.060445E-1,2.5363111E-1,1.5385237E-1,1.6025358E-1,1.8893325E-1,8.6877294E-2,1.3898742E0,1.0534883E0,5.7446766E-1,4.3447992E-1,3.221382E-1,5.1797032E-2,5.6819692E-2,1.2750874E-1,1.1005075E0,6.144873E-1,1.1565921E0,1.0473752E-1,4.2125157E-1,0E0,3.5700768E-1,1.6350615E-1,1.92698E-1,7.654117E-2,2.4111225E-1,0E0,0E0,0E0,1.6126741E-1,1.4979696E-1,1.2989597E-1,0E0,0E0,0E0,5.683863E-2,0E0,0E0,3.6901243E-3,1.1517067E-1,2.193116E-1,0E0,6.1328623E-2,0E0,0E0,0E0,0E0,0E0,0E0,0E0,0E0,1.4409585E-2,0E0,4.2905353E-2,0E0,0E0,0E0,0E0,0E0,0E0,0E0,0E0,0E0,0E0,0E0,0E0,0E0,0E0,0E0,0E0,0E0],"parents":[2147483647,0,0,1,1,2,2,3,3,4,4,5,5,6,6,7,7,8,8,9,9,10,10,11,11,12,12,13,13,14,14,15,15,16,16,17,17,18,18,19,19,21,21,22,22,23,23,24,24,25,25,29,29,30,30,31,31,35,35,38,38,39,39,40,40,42,42,51,51,53,53],"right_children":[2,4,6,8,10,12,14,16,18,20,22,24,26,28,30,32,34,36,38,40,-1,42,44,46,48,50,-1,-1,-1,52,54,56,-1,-1,-1,58,-1,-1,60,62,64,-1,66,-1,-1,-1,-1,-1,-1,-1,-1,68,-1,70,-1,-1,-1,-1,-1,-1,-1,-1,-1,-1,-1,-1,-1,-1,-1,-1,-1],"split_conditions":[9.340675E-1,7.424E2,5E-1,5E-1,2.07015E4,8.6E1,1.3984604E0,2.07015E4,2.07015E4,7.6319995E2,7.6319995E2,2.07015E4,5.5496124E1,2.5000002E0,2.07015E4,2.5E0,7E0,2.5E0,7.4115E2,1.4162947E0,1.8356974E-1,2.217794E1,5E-1,7.4245E2,8.450001E0,2.07015E4,1.4321242E-1,1.2148619E-3,8.5026935E-2,9.75E0,9.75E0,8.280546E-1,-1.8318991E-1,2.8493172E-2,2.1686922E-1,2E0,2.3669684E-1,-7.922214E-2,8.65E0,7.517444E2,5E-1,1.3021846E-1,7.519175E2,-1.6177806E-1,-6.397252E-3,2.5629867E-2,1.4438106E-1,2.026167E-2,-4.86882E-2,-4.0464807E-2,1.0155292E-1,8.184999E0,-9.211164E-2,3.84E1,1.07368045E-1,4.518547E-2,-3.466803E-2,7.389257E-2,1.2409678E-2,-6.756449E-3,1.1688602E-2,6.406552E-3,5.0494738E-2,1.2060786E-2,-1.492089E-1,1.1394814E-2,-1.7384347E-2,-2.2783042E-3,2.9924156E-2,-2.9424388E-2,2.1930242E-2],"split_indices":[23,2,32,32,33,29,16,33,33,4,4,33,11,0,33,41,1,41,2,17,0,7,32,2,0,33,0,0,0,0,0,17,0,0,0,1,0,0,0,8,32,0,8,0,0,0,0,0,0,0,0,1,0,3,0,0,0,0,0,0,0,0,0,0,0,0,0,0,0,0,0],"split_type":[0,0,0,0,0,0,0,0,0,0,0,0,0,0,0,0,0,0,0,0,0,0,0,0,0,0,0,0,0,0,0,0,0,0,0,0,0,0,0,0,0,0,0,0,0,0,0,0,0,0,0,0,0,0,0,0,0,0,0,0,0,0,0,0,0,0,0,0,0,0,0],"sum_hessian":[1.13E2,8.2E1,3.1E1,3E1,5.2E1,1.6E1,1.5E1,1.5E1,1.5E1,2.4E1,2.8E1,9E0,7E0,3E0,1.2E1,9E0,6E0,1E1,5E0,2.3E1,1E0,2.6E1,2E0,5E0,4E0,3E0,4E0,1E0,2E0,5E0,7E0,6E0,3E0,4E0,2E0,7E0,3E0,3E0,2E0,2.1E1,2E0,1E0,2.5E1,1E0,1E0,3E0,2E0,2E0,2E0,1E0,2E0,4E0,1E0,6E0,1E0,4E0,2E0,1E0,6E0,1E0,1E0,1.1E1,1E1,1E0,1E0,1.4E1,1.1E1,3E0,1E0,1E0,5E0],"tree_param":{"num_deleted":"0","num_feature":"42","num_nodes":"71","size_leaf_vector":"0"}},{"base_weights":[7.846221E-2,5.84884E-2,1.8173985E-1,4.3641143E-2,1.3092506E-1,2.225398E-1,1.2684591E-1,8.1749976E-2,2.0083163E-2,2.0565785E-1,3.0485049E-2,5.8954976E-2,2.7485165E-1,5.763862E-2,-7.216939E-3,1.7560324E-2,2.568914E-1,-9.170061E-2,1.2213657E-1,6.45171E-3,1.07527904E-1,4.9300146E-1,-8.0724E-2,1.084863E-2,5.201142E-1,2.5147181E-2,-3.1766444E-1,1.050818E-1,-7.874131E-2,5.1721174E-2,-2.60983E-1,5.659759E-4,3.0420947E-1,-1.2894936E-1,1.7961714E-1,2.1982627E-1,-9.755734E-2,-2.5905743E-1,5.28944E-2,3.6895227E-1,-3.0843887E-4,-4.5837113E-1,-1.8125549E-2,-7.2033405E-3,8.4785104E-2,-8.3369076E-2,5.633402E-2],"categories":[],"categories_nodes":[],"categories_segments":[],"categories_sizes":[],"default_left":[true,true,true,true,true,false,false,true,true,true,true,true,true,true,true,true,false,true,true,true,true,false,false,true,false,true,true,false,false,true,false,true,false,false,false,false,false,false,false,false,false,false,false,false,false,false,false],"id":14,"left_children":[1,3,5,7,9,-1,-1,11,13,15,17,19,21,23,25,27,-1,29,31,33,35,-1,-1,37,-1,39,41,-1,-1,43,-1,45,-1,-1,-1,-1,-1,-1,-1,-1,-1,-1,-1,-1,-1,-1,-1],"loss_changes":[2.2453493E-1,9.8608434E-2,1.2085795E-2,7.19751E-2,1.1382908E-1,0E0,0E0,1.2025043E-1,5.372989E-2,8.222103E-2,1.0078801E-1,7.326315E-2,2.7250335E-1,4.7042045E-1,3.1945655E-1,3.3559665E-2,0E0,1.1061347E-1,1.1050138E-1,3.748633E-1,3.669067E-1,0E0,0E0,2.5201926E-1,0E0,2.539152E-1,1.1813316E-1,0E0,0E0,6.455564E-3,0E0,2.342009E-2,0E0,0E0,0E0,0E0,0E0,0E0,0E0,0E0,0E0,0E0,0E0,0E0,0E0,0E0,0E0],"parents":[2147483647,0,0,1,1,2,2,3,3,4,4,7,7,8,8,9,9,10,10,11,11,12,12,13,13,14,14,15,15,17,17,18,18,19,19,20,20,23,23,25,25,26,26,29,29,31,31],"right_children":[2,4,6,8,10,-1,-1,12,14,16,18,20,22,24,26,28,-1,30,32,34,36,-1,-1,38,-1,40,42,-1,-1,44,-1,46,-1,-1,-1,-1,-1,-1,-1,-1,-1,-1,-1,-1,-1,-1,-1],"split_conditions":[5.6098074E-1,2.8045E2,1.5E0,7.424E2,5E-1,6.676194E-2,3.8053773E-2,1.2674075E3,2.07015E4,3.8449997E1,2.07015E4,5E-1,5E-1,7.6319995E2,7.6319995E2,2.07015E4,7.706742E-2,9.65E0,9.75E0,2.07015E4,2.07015E4,1.4790045E-1,-2.4217201E-2,2.217794E1,1.5603426E-1,1.0150279E3,5E-1,3.152454E-2,-2.3622395E-2,8.950001E0,-7.82949E-2,3.8449997E1,9.126285E-2,-3.8684808E-2,5.3885143E-2,6.594788E-2,-2.9267205E-2,-7.771723E-2,1.5868321E-2,1.10685684E-1,-9.253166E-5,-1.3751134E-1,-5.4376647E-3,-2.1610023E-3,2.5435532E-2,-2.5010724E-2,1.6900206E-2],"split_indices":[13,21,41,2,32,0,0,15,33,3,33,32,32,4,4,33,0,0,0,33,33,0,0,7,0,15,32,0,0,0,0,3,0,0,0,0,0,0,0,0,0,0,0,0,0,0,0],"split_type":[0,0,0,0,0,0,0,0,0,0,0,0,0,0,0,0,0,0,0,0,0,0,0,0,0,0,0,0,0,0,0,0,0,0,0,0,0,0,0,0,0,0,0,0,0,0,0],"sum_hessian":[1.13E2,9.6E1,1.7E1,8.1E1,1.5E1,8E0,9E0,3E1,5.1E1,8E0,7E0,2.8E1,2E0,2.1E1,3E1,2E0,6E0,3E0,4E0,1.4E1,1.4E1,1E0,1E0,2E1,1E0,2.8E1,2E0,1E0,1E0,2E0,1E0,3E0,1E0,8E0,6E0,9E0,5E0,2E0,1.8E1,1E0,2.7E1,1E0,1E0,1E0,1E0,1E0,2E0],"tree_param":{"num_deleted":"0","num_feature":"42","num_nodes":"47","size_leaf_vector":"0"}},{"base_weights":[5.8917493E-2,4.455524E-2,1.3304089E-1,6.0964576E-3,6.0073346E-2,9.6520245E-2,1.7664187E-1,2.9487919E-2,-1.7701436E-2,1.855558E-1,4.5177307E-2,5.948176E-2,1.23645104E-1,2.6529145E-1,4.3831825E-2,1.9838135E-1,-1.1755788E-2,-2.1692407E-1,1.202333E-2,3.2497847E-1,-2.5582314E-4,9.28803E-3,7.7522464E-2,-1.239388E-1,2.2803187E-1,-7.290369E-2,3.4449515E-1,3.4359613E-1,1.5188694E-2,-3.8754147E-2,1.4579487E-1,1.949725E-2,-6.56601E-2,-3.6385894E-2,4.296022E-2,4.678583E-2,4.0211406E-1,-6.861544E-2,4.5402527E-2,-2.6828427E-2,4.482398E-2,1.06245786E-1,1.8402845E-2,-2.8271937E-1,2.322785E-2,-1.6163838E-1,1.0553996E-2,-1.9606113E-2,4.2316616E-2,2.9503107E-3,-5.6791574E-2,5.605442E-2,-1.9129912E-3,-8.885832E-2,6.5618336E-2,-4.0389683E-2,1.1558902E-1,1.5652089E-1,5.1306456E-2,1.07591234E-1,-1.0193956E-2,4.625821E-2,-1.1416435E-2],"categories":[],"categories_nodes":[],"categories_segments":[],"categories_sizes":[],"default_left":[true,true,true,true,true,true,true,true,true,true,true,true,true,true,true,false,true,false,true,true,true,true,true,true,false,true,false,false,false,false,false,true,false,true,true,false,false,false,false,true,true,true,true,false,true,false,false,false,false,false,false,false,false,false,false,false,false,false,false,false,false,false,false],"id":15,"left_children":[1,3,5,7,9,11,13,15,17,19,21,23,25,27,29,-1,31,-1,33,35,37,39,41,43,-1,45,-1,-1,-1,-1,-1,47,-1,49,51,-1,-1,-1,-1,53,55,57,59,-1,61,-1,-1,-1,-1,-1,-1,-1,-1,-1,-1,-1,-1,-1,-1,-1,-1,-1,-1],"loss_changes":[1.1543435E-1,5.7524085E-2,1.1612505E-2,1.6665338E-2,1.2059131E-1,4.7013387E-3,7.0786685E-2,1.06819E-1,9.143584E-2,1.814276E-1,7.241318E-2,2.4467091E-1,2.855618E-1,7.311809E-2,3.9333023E-2,0E0,2.3180945E-2,0E0,2.2529978E-2,6.702101E-2,1.5600063E-2,4.098897E-2,5.408247E-2,1.0003579E-1,0E0,3.13283E-2,0E0,0E0,0E0,0E0,0E0,8.86049E-3,0E0,4.983645E-3,5.3954422E-3,0E0,0E0,0E0,0E0,9.758213E-2,1.01150975E-1,5.2735224E-2,3.170281E-2,0E0,2.9217154E-3,0E0,0E0,0E0,0E0,0E0,0E0,0E0,0E0,0E0,0E0,0E0,0E0,0E0,0E0,0E0,0E0,0E0,0E0],"parents":[2147483647,0,0,1,1,2,2,3,3,4,4,5,5,6,6,7,7,8,8,9,9,10,10,11,11,12,12,13,13,14,14,16,16,18,18,19,19,20,20,21,21,22,22,23,23,25,25,31,31,33,33,34,34,39,39,40,40,41,41,42,42,44,44],"right_children":[2,4,6,8,10,12,14,16,18,20,22,24,26,28,30,-1,32,-1,34,36,38,40,42,44,-1,46,-1,-1,-1,-1,-1,48,-1,50,52,-1,-1,-1,-1,54,56,58,60,-1,62,-1,-1,-1,-1,-1,-1,-1,-1,-1,-1,-1,-1,-1,-1,-1,-1,-1,-1],"split_conditions":[5.6098074E-1,2.453725E-1,2.035E1,5E-1,4.368671E-1,5E-1,5E-1,1.6863403E-1,2.4115949E0,5E-1,5.3642525E1,2.646E3,2.2397179E1,9.55E0,9.55E0,5.9514407E-2,2.3389837E-1,-6.507722E-2,3.915E1,7.6E0,6.85E0,5E-1,1.1761724E3,8.05E0,6.840956E-2,7.3E0,1.03348546E-1,1.0307884E-1,4.5566084E-3,-1.16262445E-2,4.3738462E-2,2.07015E4,-1.969803E-2,2.07015E4,7.6215E2,1.403575E-2,1.2063422E-1,-2.0584632E-2,1.3620758E-2,1.4105E2,2.760556E0,5E-1,2.07015E4,-8.4815815E-2,9.6E0,-4.8491515E-2,3.166199E-3,-5.8818343E-3,1.2694986E-2,8.8509324E-4,-1.7037474E-2,1.6816327E-2,-5.738974E-4,-2.6657498E-2,1.9685501E-2,-1.2116905E-2,3.467671E-2,4.6956267E-2,1.5391937E-2,3.227737E-2,-3.058187E-3,1.38774635E-2,-3.4249306E-3],"split_indices":[13,14,27,32,13,32,32,14,10,32,11,22,7,0,0,0,14,0,3,1,0,32,15,0,0,0,0,0,0,0,0,33,0,33,4,0,0,0,0,21,12,32,33,0,0,0,0,0,0,0,0,0,0,0,0,0,0,0,0,0,0,0,0],"split_type":[0,0,0,0,0,0,0,0,0,0,0,0,0,0,0,0,0,0,0,0,0,0,0,0,0,0,0,0,0,0,0,0,0,0,0,0,0,0,0,0,0,0,0,0,0,0,0,0,0,0,0,0,0,0,0,0,0,0,0,0,0,0,0],"sum_hessian":[1.13E2,9.6E1,1.7E1,2.8E1,6.8E1,1.1E1,6E0,1.4E1,1.4E1,6E0,6.2E1,6E0,5E0,3E0,3E0,2E0,1.2E1,1E0,1.3E1,3E0,3E0,3E1,3.2E1,3E0,3E0,3E0,2E0,2E0,1E0,2E0,1E0,8E0,4E0,5E0,8E0,1E0,2E0,1E0,2E0,1.5E1,1.5E1,2.1E1,1.1E1,1E0,2E0,1E0,2E0,3E0,5E0,2E0,3E0,6E0,2E0,9E0,6E0,7E0,8E0,1E1,1.1E1,2E0,9E0,1E0,1E0],"tree_param":{"num_deleted":"0","num_feature":"42","num_nodes":"63","size_leaf_vector":"0"}},{"base_weights":[4.4824038E-2,3.217382E-2,1.02671355E-1,5.879025E-2,9.972306E-3,2.1345252E-1,-2.9455055E-2,-1.2052324E-2,7.5327195E-2,-1.3601672E-2,2.5867783E-2,4.3234825E-2,3.0454335E-1,-1.0695636E-1,4.0038545E-2,1.0851383E-2,-3.2545567E-2,2.37888E-2,1.0118249E-1,-1.9211306E-1,1.02127194E-1,2.1245795E-1,-3.4875784E-2,5.8541298E-2,1.3516744E-2,4.2603528E-1,1.0691559E-1,8.7480545E-3,-1.3806948E-1,-1.5240193E-3,1.23925686E-1,1.9655148E-2,-1.5695095E-3,-4.3882687E-2,-1.0359923E-2,5.834549E-2,-1.4166287E-2,1.5877283E-1,5.281922E-2,-5.7464935E-2,-2.8833857E-1,4.3482468E-2,4.322543E-1,4.2051077E-1,3.5241127E-3,1.0247117E-2,-2.1741682E-1,3.5873413E-1,-9.660196E-2,-2.4131933E-2,2.1591902E-2,-1.2111187E-2,4.159391E-2,1.537931E-2,-1.7733574E-2,1.0406971E-2,-2.5946856E-2,-3.013575E-2,7.811499E-2,-4.1819572E-2,7.587671E-2,4.1839886E-2,2.297548E-1,-2.8669039E-2,6.878968E-2,-2.9127598E-3,-9.286213E-2,-7.5649105E-2,-4.0491518E-1,-8.361667E-2,1.6436982E-1,1.7285664E-1,-1.6698313E-1,1.1046314E-1,-1.9830957E-2,-3.099061E-1,-5.2455258E-2,3.3120155E-2,-1.780231E-1,4.0091276E-3,2.8378725E-2],"categories":[],"categories_nodes":[],"categories_segments":[],"categories_sizes":[],"default_left":[true,true,true,true,true,true,true,true,true,true,true,true,true,true,true,true,true,true,true,true,true,true,true,false,false,false,true,false,false,true,false,true,true,false,true,true,true,true,true,true,true,true,false,false,true,true,true,false,true,false,true,false,false,false,false,false,false,false,false,false,false,false,false,false,false,false,false,false,false,false,false,false,false,false,false,false,false,false,false,false,false],"id":16,"left_children":[1,3,5,7,9,11,13,15,17,19,21,23,25,27,29,31,33,35,37,39,41,43,45,-1,-1,-1,47,-1,-1,49,-1,51,53,-1,55,57,59,61,63,65,67,69,-1,-1,71,73,75,-1,77,-1,79,-1,-1,-1,-1,-1,-1,-1,-1,-1,-1,-1,-1,-1,-1,-1,-1,-1,-1,-1,-1,-1,-1,-1,-1,-1,-1,-1,-1,-1,-1],"loss_changes":[8.0119714E-2,5.5551603E-2,2.990296E-1,5.128321E-2,2.0211982E-2,1.5739113E-1,5.814083E-2,4.5775054E-3,4.4231907E-2,4.7411618E-1,3.7010252E-1,1.483107E-3,1.2252146E-1,1.920747E-2,2.1108253E-2,5.7760207E-4,8.029849E-4,1.7877368E-2,5.5674657E-2,1.000399E-1,2.5224754E-1,3.462723E-1,2.0814742E-1,0E0,0E0,0E0,2.3965241E-1,0E0,0E0,3.134068E-3,0E0,2.5944938E-3,1.0946156E-3,0E0,1.2411047E-3,1.4598662E-2,2.0603025E-2,7.33884E-2,2.0191804E-2,9.384487E-3,9.334162E-2,2.1348487E-1,0E0,0E0,1.7322627E-1,6.549099E-2,6.0029685E-2,0E0,3.7582524E-2,0E0,2.4421967E-4,0E0,0E0,0E0,0E0,0E0,0E0,0E0,0E0,0E0,0E0,0E0,0E0,0E0,0E0,0E0,0E0,0E0,0E0,0E0,0E0,0E0,0E0,0E0,0E0,0E0,0E0,0E0,0E0,0E0,0E0],"parents":[2147483647,0,0,1,1,2,2,3,3,4,4,5,5,6,6,7,7,8,8,9,9,10,10,11,11,12,12,13,13,14,14,15,15,16,16,17,17,18,18,19,19,20,20,21,21,22,22,26,26,29,29,31,31,32,32,34,34,35,35,36,36,37,37,38,38,39,39,40,40,41,41,44,44,45,45,46,46,48,48,50,50],"right_children":[2,4,6,8,10,12,14,16,18,20,22,24,26,28,30,32,34,36,38,40,42,44,46,-1,-1,-1,48,-1,-1,50,-1,52,54,-1,56,58,60,62,64,66,68,70,-1,-1,72,74,76,-1,78,-1,80,-1,-1,-1,-1,-1,-1,-1,-1,-1,-1,-1,-1,-1,-1,-1,-1,-1,-1,-1,-1,-1,-1,-1,-1,-1,-1,-1,-1,-1,-1],"split_conditions":[9.6E0,1.0456707E0,5E-1,2.4284977E-1,2.07015E4,7.515796E2,7.6000004E0,7.515653E2,7.4139294E2,7.5969995E2,8.82E2,3.97E1,2.07015E4,5.6E0,9.55E0,5E-1,5E-1,5E-1,2.07015E4,6.7799997E0,4.03E1,2.424266E1,7.5289197E2,1.756239E-2,4.055023E-3,1.278106E-1,6.3999996E0,2.6244165E-3,-4.1420847E-2,2.07015E4,3.7177708E-2,8.75E0,8.75E0,-1.3164806E-2,6.45E0,3.7199997E1,9.95E0,5E-1,9.7E1,4.4E0,5E-1,5E-1,1.296763E-1,1.2615323E-1,5E-1,3.835E1,5E-1,1.0762025E-1,7.8500004E0,-7.23958E-3,8.35E0,-3.6333562E-3,1.2478174E-2,4.613793E-3,-5.320072E-3,3.1220915E-3,-7.784057E-3,-9.040725E-3,2.3434497E-2,-1.25458725E-2,2.2763014E-2,1.2551966E-2,6.8926446E-2,-8.600712E-3,2.0636905E-2,-8.7382796E-4,-2.785864E-2,-2.2694733E-2,-1.2147456E-1,-2.5085E-2,4.931095E-2,5.1856995E-2,-5.009494E-2,3.3138946E-2,-5.949287E-3,-9.297183E-2,-1.5736578E-2,9.936047E-3,-5.340693E-2,1.2027384E-3,8.513618E-3],"split_indices":[28,25,32,14,33,8,0,8,8,4,22,3,33,0,0,32,32,32,33,1,3,7,8,0,0,0,0,0,0,33,0,0,0,0,0,3,0,32,5,0,32,32,0,0,32,3,32,0,0,0,0,0,0,0,0,0,0,0,0,0,0,0,0,0,0,0,0,0,0,0,0,0,0,0,0,0,0,0,0,0,0],"split_type":[0,0,0,0,0,0,0,0,0,0,0,0,0,0,0,0,0,0,0,0,0,0,0,0,0,0,0,0,0,0,0,0,0,0,0,0,0,0,0,0,0,0,0,0,0,0,0,0,0,0,0,0,0,0,0,0,0,0,0,0,0,0,0,0,0,0,0,0,0,0,0,0,0,0,0,0,0,0,0,0,0],"sum_hessian":[1.13E2,9.4E1,1.9E1,4.2E1,5.2E1,1E1,9E0,8E0,3.4E1,2.1E1,3.1E1,4E0,6E0,4E0,5E0,4E0,4E0,1.2E1,2.2E1,8E0,1.3E1,7E0,2.4E1,2E0,2E0,3E0,3E0,1E0,3E0,4E0,1E0,2E0,2E0,2E0,2E0,6E0,6E0,9E0,1.3E1,4E0,4E0,1.2E1,1E0,3E0,4E0,2E1,4E0,1E0,2E0,2E0,2E0,1E0,1E0,1E0,1E0,1E0,1E0,1E0,5E0,5E0,1E0,4E0,5E0,2E0,1.1E1,2E0,2E0,2E0,2E0,6E0,6E0,2E0,2E0,4E0,1.6E1,2E0,2E0,1E0,1E0,1E0,1E0],"tree_param":{"num_deleted":"0","num_feature":"42","num_nodes":"81","size_leaf_vector":"0"}},{"base_weights":[3.444936E-2,2.3951503E-2,8.259173E-2,4.3674942E-2,7.497552E-3,1.6883291E-1,-2.0532751E-2,-9.5131E-3,5.6104008E-2,-1.0384814E-2,1.955738E-2,3.458786E-2,2.4060324E-1,1.8432796E-2,-1.1759663E-1,9.2237E-3,-2.634728E-2,5.1170057E-3,7.102175E-2,-4.5871343E-2,3.6741614E-1,1.292288E-1,-4.4043303E-2,1.5462041E-2,5.554557E-2,3.3017743E-1,9.087825E-2,-9.030138E-3,1.05336666E-1,1.6706944E-2,-1.3341109E-3,-3.5106104E-2,-8.80603E-3,-3.1392854E-2,2.0033088E-2,8.989051E-2,3.994493E-2,-1.5369046E-1,3.2301225E-2,3.258959E-1,2.7462436E-2,-1.6201586E-1,1.3946772E-2,3.04924E-1,-8.211168E-2,9.906674E-3,-3.7581444E-2,-1.0294437E-2,3.5354853E-2,1.30723715E-2,-1.5073538E-2,8.845806E-3,-2.2054851E-2,1.253446E-3,2.7294254E-2,3.5051312E-2,1.192889E-1,7.721964E-2,2.2887501E-3,-4.5971893E-2,-2.3067093E-1,-6.211526E-2,1.2210325E-1,1.4637232E-1,-9.693994E-2,-4.2352486E-1,1.3999712E-1,1.1602718E-1,-8.987698E-2,2.8152227E-2,-1.5131974E-1,-1.842022E-3,1.8353144E-2],"categories":[],"categories_nodes":[],"categories_segments":[],"categories_sizes":[],"default_left":[true,true,true,true,true,true,true,true,true,true,true,true,true,true,false,true,true,true,true,true,false,true,true,false,false,false,true,true,false,true,true,false,true,false,true,true,true,true,true,false,true,true,true,false,true,true,false,false,false,false,false,false,false,false,false,false,false,false,false,false,false,false,false,false,false,false,false,false,false,false,false,false,false],"id":17,"left_children":[1,3,5,7,9,11,13,15,17,19,21,23,25,27,-1,29,31,33,35,37,-1,39,41,-1,-1,-1,43,45,-1,47,49,-1,51,-1,53,55,57,59,61,-1,63,65,67,-1,69,71,-1,-1,-1,-1,-1,-1,-1,-1,-1,-1,-1,-1,-1,-1,-1,-1,-1,-1,-1,-1,-1,-1,-1,-1,-1,-1,-1],"loss_changes":[5.5636466E-2,3.0502748E-2,1.8133812E-1,2.8960072E-2,1.1632988E-2,9.766099E-2,3.9989106E-2,3.0817874E-3,2.6257947E-2,3.1180447E-1,2.2889733E-1,1.1453186E-3,6.387451E-2,2.0044288E-2,0E0,4.1732227E-4,4.5905774E-4,5.530152E-3,1.2241632E-2,1.8196282E-1,0E0,2.3121923E-1,1.4592558E-1,0E0,0E0,0E0,1.7314887E-1,4.157002E-3,0E0,1.8745163E-3,7.908573E-4,0E0,8.9669094E-4,0E0,9.2032296E-4,2.1613717E-2,1.6666742E-2,6.4025655E-2,1.17808774E-1,0E0,1.4732336E-1,6.1214614E-1,1.6940372E-1,0E0,2.7153444E-2,5.29982E-4,0E0,0E0,0E0,0E0,0E0,0E0,0E0,0E0,0E0,0E0,0E0,0E0,0E0,0E0,0E0,0E0,0E0,0E0,0E0,0E0,0E0,0E0,0E0,0E0,0E0,0E0,0E0],"parents":[2147483647,0,0,1,1,2,2,3,3,4,4,5,5,6,6,7,7,8,8,9,9,10,10,11,11,12,12,13,13,15,15,16,16,17,17,18,18,19,19,21,21,22,22,26,26,27,27,29,29,30,30,32,32,34,34,35,35,36,36,37,37,38,38,40,40,41,41,42,42,44,44,45,45],"right_children":[2,4,6,8,10,12,14,16,18,20,22,24,26,28,-1,30,32,34,36,38,-1,40,42,-1,-1,-1,44,46,-1,48,50,-1,52,-1,54,56,58,60,62,-1,64,66,68,-1,70,72,-1,-1,-1,-1,-1,-1,-1,-1,-1,-1,-1,-1,-1,-1,-1,-1,-1,-1,-1,-1,-1,-1,-1,-1,-1,-1,-1],"split_conditions":[9.6E0,1.0456707E0,5E-1,2.4284977E-1,2.07015E4,7.515796E2,4.175E1,7.515653E2,8.25E1,4.03E1,2.370594E1,9.8E0,2.07015E4,9.55E0,-3.527899E-2,5E-1,5E-1,3.7199997E1,2.07015E4,7.5969995E2,1.1022485E-1,8.82E2,2.70935E3,4.6386123E-3,1.666367E-2,9.9053234E-2,6.3999996E0,7E0,3.1601E-2,8.75E0,8.75E0,-1.05318315E-2,6.45E0,-9.417856E-3,7.3125E2,7.4134656E2,7.51626E2,6.7799997E0,5E-1,9.7768776E-2,5E-1,5E-1,5E-1,9.147721E-2,7.8500004E0,2.07015E4,-1.1274434E-2,-3.0883313E-3,1.0606457E-2,3.921712E-3,-4.5220614E-3,2.653742E-3,-6.6164555E-3,3.760338E-4,8.188277E-3,1.0515394E-2,3.578667E-2,2.3165893E-2,6.866251E-4,-1.3791569E-2,-6.920128E-2,-1.8634578E-2,3.6630977E-2,4.3911695E-2,-2.9081982E-2,-1.2705746E-1,4.199914E-2,3.4808155E-2,-2.6963094E-2,8.445669E-3,-4.5395926E-2,-5.526066E-4,5.505943E-3],"split_indices":[28,25,32,14,33,8,3,8,29,3,7,0,33,0,0,32,32,3,33,4,0,22,19,0,0,0,0,1,0,0,0,0,0,0,2,8,8,1,32,0,32,32,32,0,0,33,0,0,0,0,0,0,0,0,0,0,0,0,0,0,0,0,0,0,0,0,0,0,0,0,0,0,0],"split_type":[0,0,0,0,0,0,0,0,0,0,0,0,0,0,0,0,0,0,0,0,0,0,0,0,0,0,0,0,0,0,0,0,0,0,0,0,0,0,0,0,0,0,0,0,0,0,0,0,0,0,0,0,0,0,0,0,0,0,0,0,0,0,0,0,0,0,0,0,0,0,0,0,0],"sum_hessian":[1.13E2,9.4E1,1.9E1,4.2E1,5.2E1,1E1,9E0,8E0,3.4E1,2.1E1,3.1E1,4E0,6E0,7E0,2E0,4E0,4E0,8E0,2.6E1,2E1,1E0,1.1E1,2E1,3E0,1E0,3E0,3E0,6E0,1E0,2E0,2E0,2E0,2E0,2E0,6E0,1.5E1,1.1E1,8E0,1.2E1,3E0,8E0,6E0,1.4E1,1E0,2E0,4E0,2E0,1E0,1E0,1E0,1E0,1E0,1E0,2E0,4E0,6E0,9E0,5E0,6E0,4E0,4E0,6E0,6E0,4E0,4E0,3E0,3E0,7E0,7E0,1E0,1E0,2E0,2E0],"tree_param":{"num_deleted":"0","num_feature":"42","num_nodes":"73","size_leaf_vector":"0"}},{"base_weights":[2.6809497E-2,1.8264381E-2,6.605832E-2,8.916575E-3,3.6389228E-2,1.3408136E-1,-1.5372848E-2,-3.0386569E-2,4.9169302E-2,1.1699259E-1,-4.1613307E-2,2.8471947E-2,1.9036219E-1,1.6062915E-2,-9.407727E-2,-1.1758115E-1,1.2636343E-2,1.4996995E-1,-3.4659898E-3,2.5559932E-1,4.949041E-2,-1.4730984E-1,6.870692E-2,1.1983037E-2,4.7213793E-2,2.558874E-1,7.724643E-2,-7.224151E-3,8.953619E-2,-2.5471362E-1,9.792056E-2,8.415623E-2,-4.885251E-2,2.5438538E-1,-9.635341E-2,2.9878845E-2,-9.736536E-2,3.0116642E-1,3.666544E-2,-6.137371E-3,7.8071475E-2,1.2865019E-2,-2.780227E-1,1.7472124E-1,-1.3420443E-2,3.0179024E-3,1.3965447E-2,2.591853E-1,-6.9794975E-2,7.9253195E-3,-3.0065218E-2,1.4772713E-2,-4.6052158E-1,-3.8767397E-2,3.223362E-1,-4.946123E-2,4.5695654E-1,5.5874284E-2,-4.1656658E-1,4.1590165E-2,4.5678306E-1,2.9353777E-2,-2.3673749E-1,-1.5063748E-2,6.284504E-2,-2.5842905E-2,-1.602735E-1,9.3924046E-2,-1.04153E-1,3.4309388E-3,1.5185428E-1,-4.4341445E-2,3.8251996E-2,-7.6482296E-2,-3.0928725E-1,2.310853E-1,2.8145313E-3,1.0894179E-2,-4.1366458E-2,2.3929358E-2,-1.2862182E-1,-1.4735857E-3,1.4682452E-2],"categories":[],"categories_nodes":[],"categories_segments":[],"categories_sizes":[],"default_left":[true,true,true,true,true,true,true,true,true,true,true,true,true,true,false,true,true,true,true,true,true,true,true,true,false,false,true,true,false,true,true,true,true,true,true,true,true,false,false,true,true,true,true,true,true,false,false,false,true,true,false,false,false,false,false,false,false,false,false,false,false,false,false,false,false,false,false,false,false,false,false,false,false,false,false,false,false,false,false,false,false,false,false],"id":18,"left_children":[1,3,5,7,9,11,13,15,17,19,21,23,25,27,-1,29,31,33,35,37,39,41,43,45,-1,-1,47,49,-1,51,53,55,57,59,61,63,65,-1,-1,67,69,71,73,75,77,-1,-1,-1,79,81,-1,-1,-1,-1,-1,-1,-1,-1,-1,-1,-1,-1,-1,-1,-1,-1,-1,-1,-1,-1,-1,-1,-1,-1,-1,-1,-1,-1,-1,-1,-1,-1,-1],"loss_changes":[3.7027463E-2,1.5771147E-2,1.1284514E-1,1.02745846E-1,2.0606099E-1,5.9961647E-2,2.6252493E-2,1.2528083E-1,1.7030127E-1,1.3705038E-1,2.0834911E-1,9.793984E-4,3.211716E-2,1.43346405E-2,0E0,3.5001686E-1,1.0525779E-1,3.0743045E-1,7.179247E-2,3.8838506E-2,1.9557966E-2,1.9200903E-1,8.070493E-2,2.8943934E-5,0E0,0E0,1.2510003E-1,2.660487E-3,0E0,3.9504012E-1,1.6587073E-1,5.7054055E-1,5.23899E-1,3.255564E-1,7.753829E-2,2.6133645E-2,2.2854134E-2,0E0,0E0,5.882038E-2,4.3536507E-2,8.957645E-3,7.850319E-3,3.8107045E-2,4.527634E-3,0E0,0E0,0E0,1.9618355E-2,3.391841E-4,0E0,0E0,0E0,0E0,0E0,0E0,0E0,0E0,0E0,0E0,0E0,0E0,0E0,0E0,0E0,0E0,0E0,0E0,0E0,0E0,0E0,0E0,0E0,0E0,0E0,0E0,0E0,0E0,0E0,0E0,0E0,0E0,0E0],"parents":[2147483647,0,0,1,1,2,2,3,3,4,4,5,5,6,6,7,7,8,8,9,9,10,10,11,11,12,12,13,13,15,15,16,16,17,17,18,18,19,19,20,20,21,21,22,22,23,23,26,26,27,27,29,29,30,30,31,31,32,32,33,33,34,34,35,35,36,36,39,39,40,40,41,41,42,42,43,43,44,44,48,48,49,49],"right_children":[2,4,6,8,10,12,14,16,18,20,22,24,26,28,-1,30,32,34,36,38,40,42,44,46,-1,-1,48,50,-1,52,54,56,58,60,62,64,66,-1,-1,68,70,72,74,76,78,-1,-1,-1,80,82,-1,-1,-1,-1,-1,-1,-1,-1,-1,-1,-1,-1,-1,-1,-1,-1,-1,-1,-1,-1,-1,-1,-1,-1,-1,-1,-1,-1,-1,-1,-1,-1,-1],"split_conditions":[9.6E0,2.035E2,5E-1,5E-1,5E-1,7.515796E2,4.175E1,2.2983578E1,2.2983578E1,2.40925E2,2.07015E4,9.8E0,2.07015E4,9.55E0,-2.8223181E-2,2.07015E4,2.07015E4,2.07015E4,1.4385E2,8.85E0,2.07015E4,2.895E1,1.67E1,6.8E0,1.4164139E-2,7.676622E-2,6.3999996E0,7E0,2.6860857E-2,7.5E0,1.125E1,8.5E0,1.05E0,7.5E0,1.125E1,2.07015E4,2.7033813E3,9.034993E-2,1.0999632E-2,9.65E0,3.49639E-1,8.85E0,1.8999999E0,4.005E1,8.5E0,9.0537075E-4,4.189634E-3,7.77556E-2,7.8500004E0,2.07015E4,-9.019566E-3,4.431814E-3,-1.3815647E-1,-1.1630219E-2,9.670086E-2,-1.483837E-2,1.3708697E-1,1.6762286E-2,-1.2496998E-1,1.2477051E-2,1.3703492E-1,8.806134E-3,-7.102125E-2,-4.5191245E-3,1.8853512E-2,-7.7528716E-3,-4.8082054E-2,2.8177215E-2,-3.12459E-2,1.0292816E-3,4.5556284E-2,-1.3302434E-2,1.1475599E-2,-2.2944689E-2,-9.278618E-2,6.9325596E-2,8.4435946E-4,3.268254E-3,-1.2409938E-2,7.1788076E-3,-3.8586546E-2,-4.4207575E-4,4.4047358E-3],"split_indices":[28,21,32,32,32,8,3,7,7,21,33,0,33,0,0,33,33,33,21,0,33,26,27,0,0,0,0,1,0,1,0,1,6,1,0,33,19,0,0,0,24,0,0,3,0,0,0,0,0,33,0,0,0,0,0,0,0,0,0,0,0,0,0,0,0,0,0,0,0,0,0,0,0,0,0,0,0,0,0,0,0,0,0],"split_type":[0,0,0,0,0,0,0,0,0,0,0,0,0,0,0,0,0,0,0,0,0,0,0,0,0,0,0,0,0,0,0,0,0,0,0,0,0,0,0,0,0,0,0,0,0,0,0,0,0,0,0,0,0,0,0,0,0,0,0,0,0,0,0,0,0,0,0,0,0,0,0,0,0,0,0,0,0,0,0,0,0,0,0],"sum_hessian":[1.13E2,9.4E1,1.9E1,6.3E1,3.1E1,1E1,9E0,3.2E1,3.1E1,1.5E1,1.6E1,4E0,6E0,7E0,2E0,1E1,2.2E1,1E1,2.1E1,4E0,1.1E1,8E0,8E0,3E0,1E0,3E0,3E0,6E0,1E0,6E0,4E0,1E1,1.2E1,7E0,3E0,1.6E1,5E0,3E0,1E0,4E0,7E0,4E0,4E0,3E0,5E0,1E0,2E0,1E0,2E0,4E0,2E0,3E0,3E0,3E0,1E0,8E0,2E0,1E1,2E0,4E0,3E0,2E0,1E0,7E0,9E0,3E0,2E0,2E0,2E0,4E0,3E0,1E0,3E0,1E0,3E0,2E0,1E0,3E0,2E0,1E0,1E0,2E0,2E0],"tree_param":{"num_deleted":"0","num_feature":"42","num_nodes":"83","size_leaf_vector":"0"}},{"base_weights":[2.0832216E-2,1.383265E-2,5.3038545E-2,2.842353E-2,1.7337743E-3,1.0680006E-1,-1.1402977E-2,-8.43456E-3,3.708922E-2,7.485258E-3,-1.6538888E-2,2.3782205E-2,1.5084137E-1,-2.958233E-2,7.6105595E-2,8.976626E-3,-2.4158835E-2,5.704337E-3,4.6177175E-2,-1.0285305E-2,2.0501295E-2,-4.2248253E-2,1.1533176E-2,9.661853E-3,4.0131807E-2,1.9831288E-1,6.565952E-2,6.3402653E-3,-5.9588455E-2,1.7669758E-2,-2.7087133E-3,-1.3570428E-2,2.3838233E-2,6.0067564E-2,2.380856E-2,7.878269E-2,-1.0810693E-1,5.7368316E-2,-1.3106704E-1,-2.6843086E-1,1.0191096E-1,2.6360035E-1,-1.4201376E-1,2.5651455E-3,1.1172374E-2,2.2818868E-1,5.4342747E-2,2.2030759E-1,-5.9325695E-2,-1.1789004E-3,1.1746009E-2,-7.0179254E-2,-8.612633E-3,-1.3310909E-3,2.7835727E-2,1.4987946E-2,-1.9051015E-2,1.2179732E-2,-3.4797113E-2,-4.988829E-3,4.471922E-2,3.419837E-2,9.748316E-2,-1.5379588E-2,3.318415E-2,-1.0466845E-1,2.185282E-1,3.7258703E-2,-2.9912865E-1,1.8899763E-2,2.0651758E-1,-1.7889607E-1,-3.9549004E-2,-3.595519E-2,-3.666911E-1,-9.604223E-3,2.7398586E-1,1.2541413E-3,-1.7814428E-1,2.0339966E-2,-1.0932851E-1,7.93314E-3,-9.70149E-3,-1.5476942E-3,1.9166708E-2],"categories":[],"categories_nodes":[],"categories_segments":[],"categories_sizes":[],"default_left":[true,true,true,true,true,true,true,true,true,true,true,true,true,true,false,true,false,true,true,true,true,true,true,true,false,true,true,true,true,true,true,true,true,true,true,true,true,true,true,true,true,false,true,false,false,false,false,false,true,true,true,false,false,false,false,false,false,false,false,false,false,false,false,false,false,false,false,false,false,false,false,false,false,false,false,false,false,false,false,false,false,false,false,false,false],"id":19,"left_children":[1,3,5,7,9,11,13,15,17,19,21,23,25,27,-1,29,-1,31,33,35,37,39,41,43,-1,45,47,49,51,53,55,57,59,61,63,65,67,69,71,73,75,-1,77,-1,-1,-1,-1,-1,79,81,83,-1,-1,-1,-1,-1,-1,-1,-1,-1,-1,-1,-1,-1,-1,-1,-1,-1,-1,-1,-1,-1,-1,-1,-1,-1,-1,-1,-1,-1,-1,-1,-1,-1,-1],"loss_changes":[2.496539E-2,1.6721375E-2,7.050731E-2,1.4047071E-2,5.6938287E-3,3.6631033E-2,1.815987E-2,2.6808693E-3,9.719443E-3,9.694256E-3,9.869551E-3,7.66563E-4,1.5284851E-2,1.0078888E-2,0E0,5.5577327E-4,0E0,3.4692346E-3,6.9590174E-3,1.6534692E-1,1.4162803E-1,2.556002E-1,3.0836388E-1,1.4220132E-5,0E0,4.804492E-3,9.038479E-2,2.170808E-4,2.094943E-3,6.1653793E-4,1.153148E-3,3.156772E-3,3.2327839E-3,1.2152813E-2,4.9193017E-3,2.7923772E-1,2.6105708E-1,1.10847995E-1,1.4810927E-2,5.534491E-2,9.857625E-2,0E0,2.6105128E-2,0E0,0E0,0E0,0E0,0E0,1.4174258E-2,3.099378E-4,3.256099E-4,0E0,0E0,0E0,0E0,0E0,0E0,0E0,0E0,0E0,0E0,0E0,0E0,0E0,0E0,0E0,0E0,0E0,0E0,0E0,0E0,0E0,0E0,0E0,0E0,0E0,0E0,0E0,0E0,0E0,0E0,0E0,0E0,0E0,0E0],"parents":[2147483647,0,0,1,1,2,2,3,3,4,4,5,5,6,6,7,7,8,8,9,9,10,10,11,11,12,12,13,13,15,15,17,17,18,18,19,19,20,20,21,21,22,22,23,23,25,25,26,26,27,27,28,28,29,29,30,30,31,31,32,32,33,33,34,34,35,35,36,36,37,37,38,38,39,39,40,40,42,42,48,48,49,49,50,50],"right_children":[2,4,6,8,10,12,14,16,18,20,22,24,26,28,-1,30,-1,32,34,36,38,40,42,44,-1,46,48,50,52,54,56,58,60,62,64,66,68,70,72,74,76,-1,78,-1,-1,-1,-1,-1,80,82,84,-1,-1,-1,-1,-1,-1,-1,-1,-1,-1,-1,-1,-1,-1,-1,-1,-1,-1,-1,-1,-1,-1,-1,-1,-1,-1,-1,-1,-1,-1,-1,-1,-1,-1],"split_conditions":[9.6E0,1.0456707E0,5E-1,2.4284977E-1,5.1499996E0,7.515796E2,9.55E0,7.515653E2,8.25E1,2.07015E4,5E-1,9.8E0,2.07015E4,1.9900002E1,2.2831678E-2,5E-1,-7.247651E-3,3.79E1,2.07015E4,5E-1,7.5282935E2,2.07015E4,2.07015E4,6.8E0,1.2039543E-2,9.05E0,6.3999996E0,2.07015E4,8.3E0,8.75E0,8.75E0,5E-1,5E-1,7.5855E2,9.7E1,2.8650415E0,2.9732484E-1,5.2565437E1,5E-1,1.01E1,1.1E1,7.9080105E-2,8.35E0,7.695437E-4,3.3517124E-3,6.8456605E-2,1.6302824E-2,6.609228E-2,7.8500004E0,7.05E0,8.35E0,-2.1053776E-2,-2.5837899E-3,-3.9932728E-4,8.350719E-3,4.496384E-3,-5.715305E-3,3.6539198E-3,-1.0439134E-2,-1.4966488E-3,1.3415766E-2,1.0259511E-2,2.9244948E-2,-4.613877E-3,9.955245E-3,-3.140054E-2,6.555846E-2,1.1177612E-2,-8.97386E-2,5.669929E-3,6.1955277E-2,-5.3668823E-2,-1.1864702E-2,-1.0786558E-2,-1.1000734E-1,-2.881267E-3,8.219576E-2,3.7624242E-4,-5.3443287E-2,6.10199E-3,-3.2798555E-2,2.379942E-3,-2.9104473E-3,-4.6430828E-4,5.7500126E-3],"split_indices":[28,25,32,14,28,8,0,8,29,33,32,0,33,27,0,32,0,3,33,32,8,33,33,0,0,0,0,33,0,0,0,32,32,4,5,10,14,11,32,0,0,0,0,0,0,0,0,0,0,0,0,0,0,0,0,0,0,0,0,0,0,0,0,0,0,0,0,0,0,0,0,0,0,0,0,0,0,0,0,0,0,0,0,0,0],"split_type":[0,0,0,0,0,0,0,0,0,0,0,0,0,0,0,0,0,0,0,0,0,0,0,0,0,0,0,0,0,0,0,0,0,0,0,0,0,0,0,0,0,0,0,0,0,0,0,0,0,0,0,0,0,0,0,0,0,0,0,0,0,0,0,0,0,0,0,0,0,0,0,0,0,0,0,0,0,0,0,0,0,0,0,0,0],"sum_hessian":[1.13E2,9.4E1,1.9E1,4.2E1,5.2E1,1E1,9E0,8E0,3.4E1,4E1,1.2E1,4E0,6E0,8E0,1E0,4E0,4E0,8E0,2.6E1,1.7E1,2.3E1,6E0,6E0,3E0,1E0,3E0,3E0,4E0,4E0,2E0,2E0,4E0,4E0,1.5E1,1.1E1,9E0,8E0,1.9E1,4E0,2E0,4E0,2E0,4E0,1E0,2E0,2E0,1E0,1E0,2E0,2E0,2E0,3E0,1E0,1E0,1E0,1E0,1E0,2E0,2E0,2E0,2E0,1E1,5E0,2E0,9E0,4E0,5E0,5E0,3E0,1.6E1,3E0,2E0,2E0,1E0,1E0,3E0,1E0,1E0,3E0,1E0,1E0,1E0,1E0,1E0,1E0],"tree_param":{"num_deleted":"0","num_feature":"42","num_nodes":"85","size_leaf_vector":"0"}},{"base_weights":[1.5775073E-2,9.595311E-3,4.4340186E-2,2.1046735E-2,1.2348972E-4,8.751594E-2,-7.5871586E-3,-5.9614843E-3,2.739037E-2,4.5157275E-3,-1.7057395E-2,1.987958E-2,1.2332535E-1,-2.2805652E-2,6.4689636E-2,7.63011E-3,-1.8360782E-2,3.0541304E-2,-1.6400019E-2,1.678401E-2,-7.957816E-3,-5.962321E-2,2.8351322E-2,7.793486E-3,3.4111977E-2,1.7288923E-2,1.381166E-1,-7.440412E-2,-7.0553273E-3,1.5019258E-2,-2.3024082E-3,6.299391E-2,2.389288E-2,1.4191484E-1,4.06755E-3,-8.4403805E-2,4.175445E-2,-2.2816627E-1,8.168988E-2,2.1088028E-1,-1.1563323E-1,2.180338E-3,8.9377565E-3,5.3892136E-3,-2.0847172E-2,-1.1315346E-3,2.3660421E-2,1.2739778E-2,-1.619339E-2,-1.12458706E-1,2.1744855E-1,5.2332655E-2,-6.1397552E-3,5.856372E-2,-4.168489E-2,6.806879E-2,-2.1999565E-1,-3.6972772E-2,1.90858E-1,-3.0561924E-2,-3.1168747E-1,-4.6338815E-2,2.3288798E-1,1.0660142E-3,-1.5488832E-1,-1.0019938E-3,9.984016E-3],"categories":[],"categories_nodes":[],"categories_segments":[],"categories_sizes":[],"default_left":[true,true,true,true,true,true,true,true,true,true,true,true,true,true,false,true,false,true,false,true,true,true,true,true,false,false,false,false,true,true,true,true,true,false,true,true,true,true,true,false,true,false,false,true,false,false,false,false,false,false,false,false,false,false,false,false,false,false,false,false,false,false,false,false,false,false,false],"id":20,"left_children":[1,3,5,7,9,11,13,15,17,19,21,23,25,27,-1,29,-1,31,-1,33,35,37,39,41,-1,-1,-1,-1,43,45,47,49,51,-1,53,55,57,59,61,-1,63,-1,-1,65,-1,-1,-1,-1,-1,-1,-1,-1,-1,-1,-1,-1,-1,-1,-1,-1,-1,-1,-1,-1,-1,-1,-1],"loss_changes":[1.9698458E-2,1.0301657E-2,4.550404E-2,7.53049E-3,4.0765405E-3,2.4190545E-2,1.2474728E-2,1.6568308E-3,5.3301994E-3,6.71381E-3,2.2951847E-2,5.9421896E-4,8.590989E-3,6.7892885E-3,0E0,4.015447E-4,0E0,5.6149326E-3,0E0,3.442962E-2,8.713091E-2,1.615429E-1,1.8207286E-1,6.2045146E-6,0E0,0E0,0E0,0E0,1.4854153E-3,4.4545758E-4,8.331523E-4,1.5995133E-1,2.509083E-2,0E0,5.480121E-2,2.0104119E-1,1.7139569E-1,3.99867E-2,8.822253E-2,0E0,1.8489271E-2,0E0,0E0,1.5683561E-4,0E0,0E0,0E0,0E0,0E0,0E0,0E0,0E0,0E0,0E0,0E0,0E0,0E0,0E0,0E0,0E0,0E0,0E0,0E0,0E0,0E0,0E0,0E0],"parents":[2147483647,0,0,1,1,2,2,3,3,4,4,5,5,6,6,7,7,8,8,9,9,10,10,11,11,12,12,13,13,15,15,17,17,19,19,20,20,21,21,22,22,23,23,28,28,29,29,30,30,31,31,32,32,34,34,35,35,36,36,37,37,38,38,40,40,43,43],"right_children":[2,4,6,8,10,12,14,16,18,20,22,24,26,28,-1,30,-1,32,-1,34,36,38,40,42,-1,-1,-1,-1,44,46,48,50,52,-1,54,56,58,60,62,-1,64,-1,-1,66,-1,-1,-1,-1,-1,-1,-1,-1,-1,-1,-1,-1,-1,-1,-1,-1,-1,-1,-1,-1,-1,-1,-1],"split_conditions":[9.6E0,1.0456707E0,5E-1,2.4284977E-1,5.3999996E0,7.515796E2,9.55E0,7.515653E2,2.694E3,5E-1,5E-1,9.8E0,5.5E0,2.1641277E1,1.9406892E-2,5E-1,-5.5082347E-3,5.3780776E-2,-4.920006E-3,2.4115949E0,2.07015E4,2.07015E4,2.07015E4,6.8E0,1.0233593E-2,5.186677E-3,4.143498E-2,-2.2321237E-2,9.9E1,8.75E0,8.75E0,5E-1,5E-1,4.2574454E-2,2.07015E4,6.7799997E0,4.9483865E-1,1.01E1,1.01E1,6.326409E-2,8.35E0,6.541014E-4,2.681327E-3,2.07015E4,-6.254152E-3,-3.3946038E-4,7.0981267E-3,3.8219334E-3,-4.858017E-3,-3.3737615E-2,6.5234564E-2,1.5699796E-2,-1.8419266E-3,1.7569117E-2,-1.2505467E-2,2.0420637E-2,-6.5998696E-2,-1.1091832E-2,5.7257403E-2,-9.168577E-3,-9.350625E-2,-1.3901645E-2,6.98664E-2,3.1980427E-4,-4.6466496E-2,-3.0059816E-4,2.995205E-3],"split_indices":[28,25,32,14,28,8,0,8,22,32,32,0,1,7,0,32,0,24,0,10,33,33,33,0,0,0,0,0,5,0,0,32,32,0,33,1,13,0,0,0,0,0,0,33,0,0,0,0,0,0,0,0,0,0,0,0,0,0,0,0,0,0,0,0,0,0,0],"split_type":[0,0,0,0,0,0,0,0,0,0,0,0,0,0,0,0,0,0,0,0,0,0,0,0,0,0,0,0,0,0,0,0,0,0,0,0,0,0,0,0,0,0,0,0,0,0,0,0,0,0,0,0,0,0,0,0,0,0,0,0,0,0,0,0,0,0,0],"sum_hessian":[1.13E2,9.4E1,1.9E1,4.2E1,5.2E1,1E1,9E0,8E0,3.4E1,4.2E1,1E1,4E0,6E0,8E0,1E0,4E0,4E0,3.2E1,2E0,2.1E1,2.1E1,5E0,5E0,3E0,1E0,1E0,5E0,1E0,7E0,2E0,2E0,4E0,2.8E1,1E0,2E1,8E0,1.3E1,2E0,3E0,2E0,3E0,1E0,2E0,4E0,3E0,1E0,1E0,1E0,1E0,2E0,2E0,1.4E1,1.4E1,9E0,1.1E1,4E0,4E0,9E0,4E0,1E0,1E0,2E0,1E0,1E0,2E0,2E0,2E0],"tree_param":{"num_deleted":"0","num_feature":"42","num_nodes":"67","size_leaf_vector":"0"}},{"base_weights":[1.2033799E-2,7.3407805E-3,3.3723943E-2,-9.0389565E-4,1.6521618E-2,6.673303E-2,-5.95845E-3,3.7231697E-3,-1.4715562E-2,3.422107E-2,8.261807E-3,4.0097546E-2,1.6654396E-1,4.125293E-2,-2.2917911E-2,2.4070598E-2,-9.996914E-3,-4.5762643E-2,4.4112302E-2,4.5310736E-2,5.197525E-3,-1.032958E-2,2.3295641E-2,8.347579E-2,-4.5838773E-2,6.8933964E-3,5.4986E-2,-6.324351E-2,-8.122325E-3,9.373006E-2,-5.7305127E-2,7.366663E-3,-1.3399751E-1,-1.4562686E-1,6.3254096E-2,1.4243142E-1,-6.891092E-2,5.6804836E-2,-4.4377646E-4,2.4872938E-2,-1.6210398E-2,1.4014354E-2,-1.1237677E-1,-6.4007216E-3,1.0178633E-1,2.9498577E-2,2.0366955E-1,1.4645974E-2,-1.1364651E-1,1.9424558E-3,-1.6156524E-2,-1.2410045E-2,3.1014696E-1,5.4337263E-2,-2.614882E-1,1.1343765E-1,-3.08613E-3,-1.9387142E-1,-7.124841E-3,-1.3261676E-2,-2.2944975E-1,-1.311776E-2,1.8437076E-1,1.979549E-1,1.5692234E-2,-1.5127206E-1,4.7905684E-2,6.511235E-2,2.1254858E-2,5.025625E-3,-5.69129E-3,-1.8342359E-2,4.4369016E-2,4.625082E-3,-1.8087251E-2,4.3087643E-2,1.2655623E-1,4.159534E-2,3.5367012E-3,-8.09598E-3,7.987261E-3,-1.8746337E-2,-4.1935444E-3],"categories":[],"categories_nodes":[],"categories_segments":[],"categories_sizes":[],"default_left":[true,true,true,true,true,true,true,true,true,true,true,true,false,true,true,true,true,true,true,true,true,true,true,true,true,false,false,false,true,true,true,true,true,true,true,true,true,true,true,false,false,true,false,true,true,true,false,false,false,true,true,false,false,false,false,false,false,false,false,false,false,false,false,false,false,false,false,false,false,false,false,false,false,false,false,false,false,false,false,false,false,false,false],"id":21,"left_children":[1,3,5,7,9,11,13,15,17,19,21,23,-1,25,27,29,31,33,35,37,39,41,43,45,47,-1,-1,-1,49,51,53,55,57,59,61,63,65,67,69,-1,-1,71,-1,73,75,77,-1,-1,-1,79,81,-1,-1,-1,-1,-1,-1,-1,-1,-1,-1,-1,-1,-1,-1,-1,-1,-1,-1,-1,-1,-1,-1,-1,-1,-1,-1,-1,-1,-1,-1,-1,-1],"loss_changes":[1.1356754E-2,7.2057717E-3,2.6595222E-2,3.3140704E-3,6.296007E-3,2.256564E-2,8.9522265E-3,1.11282E-2,2.5762334E-2,4.2705573E-3,9.184629E-3,4.1104097E-2,0E0,1.0365453E-3,4.259442E-3,9.606865E-2,5.2661367E-2,1.0719333E-1,6.5376796E-2,5.2842777E-3,2.5092487E-3,3.8838338E-2,4.2607486E-2,3.940611E-2,1.8069798E-2,0E0,0E0,0E0,5.974205E-4,2.1058357E-1,1.9657245E-1,2.474232E-2,2.140779E-2,5.2433282E-2,4.8668053E-2,1.8004641E-2,3.6110237E-2,9.787027E-4,1.1470456E-4,0E0,0E0,1.3582134E-2,0E0,1.8876023E-3,1.8167943E-3,1.7372179E-3,0E0,0E0,0E0,3.0738622E-4,4.5313966E-5,0E0,0E0,0E0,0E0,0E0,0E0,0E0,0E0,0E0,0E0,0E0,0E0,0E0,0E0,0E0,0E0,0E0,0E0,0E0,0E0,0E0,0E0,0E0,0E0,0E0,0E0,0E0,0E0,0E0,0E0,0E0,0E0],"parents":[2147483647,0,0,1,1,2,2,3,3,4,4,5,5,6,6,7,7,8,8,9,9,10,10,11,11,13,13,14,14,15,15,16,16,17,17,18,18,19,19,20,20,21,21,22,22,23,23,24,24,28,28,29,29,30,30,31,31,32,32,33,33,34,34,35,35,36,36,37,37,38,38,41,41,43,43,44,44,45,45,49,49,50,50],"right_children":[2,4,6,8,10,12,14,16,18,20,22,24,-1,26,28,30,32,34,36,38,40,42,44,46,48,-1,-1,-1,50,52,54,56,58,60,62,64,66,68,70,-1,-1,72,-1,74,76,78,-1,-1,-1,80,82,-1,-1,-1,-1,-1,-1,-1,-1,-1,-1,-1,-1,-1,-1,-1,-1,-1,-1,-1,-1,-1,-1,-1,-1,-1,-1,-1,-1,-1,-1,-1,-1],"split_conditions":[9.6E0,5.3642525E1,5E-1,5.218471E-1,9.65E1,1.1347847E0,7.5140094E2,2.07015E4,2.07015E4,5.9559986E1,2.07015E4,2.07015E4,4.996319E-2,7.55E0,2.1641277E1,5E-1,7.6319995E2,5E-1,5E-1,2.07015E4,5E-1,9.65E0,2.719675E3,7.4425E2,8.35E0,2.068019E-3,1.6495802E-2,-1.8973053E-2,9.9E1,1.06E1,7.2799997E0,2.2344587E1,5E-1,9.6E0,8.5E0,1.2E1,1.2E1,1.04E1,6.25E0,7.4618817E-3,-4.8631197E-3,5E-1,-3.371303E-2,5E-1,9.75E0,2.3701832E1,6.1100867E-2,4.3937922E-3,-3.4093954E-2,2.07015E4,8.3E0,-3.7230134E-3,9.304409E-2,1.630118E-2,-7.844646E-2,3.4031298E-2,-9.25839E-4,-5.816143E-2,-2.1374524E-3,-3.978503E-3,-6.883493E-2,-3.935328E-3,5.531123E-2,5.938647E-2,4.7076703E-3,-4.538162E-2,1.4371705E-2,1.9533707E-2,6.376458E-3,1.5076876E-3,-1.707387E-3,-5.502708E-3,1.3310705E-2,1.3875247E-3,-5.4261754E-3,1.2926294E-2,3.796687E-2,1.2478602E-2,1.0610104E-3,-2.428794E-3,2.3961784E-3,-5.6239013E-3,-1.2580634E-3],"split_indices":[28,11,32,13,5,25,8,33,33,11,33,33,0,0,7,32,4,32,32,33,32,0,19,2,0,0,0,0,5,0,1,7,32,0,1,0,0,0,0,0,0,32,0,32,0,7,0,0,0,33,0,0,0,0,0,0,0,0,0,0,0,0,0,0,0,0,0,0,0,0,0,0,0,0,0,0,0,0,0,0,0,0,0],"split_type":[0,0,0,0,0,0,0,0,0,0,0,0,0,0,0,0,0,0,0,0,0,0,0,0,0,0,0,0,0,0,0,0,0,0,0,0,0,0,0,0,0,0,0,0,0,0,0,0,0,0,0,0,0,0,0,0,0,0,0,0,0,0,0,0,0,0,0,0,0,0,0,0,0,0,0,0,0,0,0,0,0,0,0],"sum_hessian":[1.13E2,9.4E1,1.9E1,5E1,4.4E1,1E1,9E0,3.8E1,1.2E1,1.3E1,3.1E1,9E0,1E0,2E0,7E0,1.5E1,2.3E1,8E0,4E0,9E0,4E0,1.4E1,1.7E1,6E0,3E0,1E0,1E0,1E0,6E0,8E0,7E0,2.1E1,2E0,4E0,4E0,2E0,2E0,7E0,2E0,2E0,2E0,1.2E1,2E0,1.3E1,4E0,5E0,1E0,2E0,1E0,3E0,3E0,6E0,2E0,5E0,2E0,1E0,2E1,1E0,1E0,2E0,2E0,3E0,1E0,1E0,1E0,1E0,1E0,5E0,2E0,1E0,1E0,6E0,6E0,7E0,6E0,2E0,2E0,3E0,2E0,1E0,2E0,2E0,1E0],"tree_param":{"num_deleted":"0","num_feature":"42","num_nodes":"83","size_leaf_vector":"0"}},{"base_weights":[9.72602E-3,5.7794936E-3,2.7985716E-2,9.087689E-3,-9.933857E-3,5.5340637E-2,-4.903269E-3,1.8471755E-2,-5.235694E-4,-6.0454957E-2,4.1691005E-2,3.2562207E-2,1.4156246E-1,3.5065014E-2,-1.9278467E-2,5.8718827E-2,-5.2521285E-2,-3.6969177E-2,6.9801785E-2,-1.7832355E-1,6.950463E-2,1.6746382E-1,-9.242002E-2,6.909581E-2,-3.9512157E-2,5.859375E-3,4.6738148E-2,-5.3756952E-2,-6.673404E-3,1.3769424E-1,3.335829E-2,3.9666753E-2,-1.183874E-1,-1.16405584E-1,-1.8093036E-2,8.320315E-3,1.1487284E-1,-2.9076514E-1,-6.4407983E-3,-3.6453743E-2,1.522948E-1,2.4166282E-1,3.744356E-2,1.3690293E-3,-1.1620954E-1,2.290543E-2,1.7311907E-1,1.1716843E-2,-9.659958E-2,-1.2028599E-2,4.4763885E-3,2.4910212E-2,1.878587E-1,-2.0548726E-2,7.550094E-2,-9.3337014E-2,2.4811745E-1,-2.8260572E-2,-2.8922087E-1,-8.831511E-2,1.3387203E-3,-8.491337E-2,1.6093636E-1,5.294906E-2,2.7416968E-1,-2.411604E-2,1.4454842E-2,6.0535192E-2,-4.369855E-3,-3.413105E-2,-1.3219202E-1,3.223622E-2,2.8292339E-3,-1.4997085E-2,-5.0505796E-3,-6.8814754E-3,1.3596058E-2],"categories":[],"categories_nodes":[],"categories_segments":[],"categories_sizes":[],"default_left":[true,true,true,true,true,true,true,true,true,true,true,true,false,true,true,true,true,true,true,true,true,true,true,true,true,false,false,false,true,true,true,true,true,false,true,true,true,false,true,false,false,false,true,false,true,true,false,false,false,true,true,false,false,false,false,false,false,false,false,false,false,false,false,false,false,false,false,false,false,false,false,false,false,false,false,false,false],"id":22,"left_children":[1,3,5,7,9,11,13,15,17,19,21,23,-1,25,27,29,31,33,35,37,39,41,43,45,47,-1,-1,-1,49,51,53,55,57,-1,59,61,63,-1,65,-1,-1,-1,67,-1,69,71,-1,-1,-1,73,75,-1,-1,-1,-1,-1,-1,-1,-1,-1,-1,-1,-1,-1,-1,-1,-1,-1,-1,-1,-1,-1,-1,-1,-1,-1,-1],"loss_changes":[8.053365E-3,5.028646E-3,1.8264862E-2,7.1348944E-3,4.685889E-2,1.6994387E-2,6.42152E-3,1.1737448E-1,1.05102524E-1,1.502577E-1,1.6728471E-1,2.9061493E-2,0E0,7.4890745E-4,3.1180857E-3,4.7481082E-2,9.577706E-2,3.837909E-2,3.7838712E-2,9.476109E-2,4.941327E-2,3.9188147E-2,1.1315074E-2,2.9668748E-2,1.2829969E-2,0E0,0E0,0E0,4.7180982E-4,2.9266909E-2,4.9258932E-2,2.1723163E-1,1.3039654E-1,0E0,3.150261E-2,1.1326834E-1,6.4397074E-2,0E0,1.4565999E-3,0E0,0E0,0E0,3.1611505E-3,0E0,7.3542073E-4,1.0327569E-3,0E0,0E0,0E0,2.7826813E-5,4.0430084E-4,0E0,0E0,0E0,0E0,0E0,0E0,0E0,0E0,0E0,0E0,0E0,0E0,0E0,0E0,0E0,0E0,0E0,0E0,0E0,0E0,0E0,0E0,0E0,0E0,0E0,0E0],"parents":[2147483647,0,0,1,1,2,2,3,3,4,4,5,5,6,6,7,7,8,8,9,9,10,10,11,11,13,13,14,14,15,15,16,16,17,17,18,18,19,19,20,20,21,21,22,22,23,23,24,24,28,28,29,29,30,30,31,31,32,32,34,34,35,35,36,36,38,38,42,42,44,44,45,45,49,49,50,50],"right_children":[2,4,6,8,10,12,14,16,18,20,22,24,-1,26,28,30,32,34,36,38,40,42,44,46,48,-1,-1,-1,50,52,54,56,58,-1,60,62,64,-1,66,-1,-1,-1,68,-1,70,72,-1,-1,-1,74,76,-1,-1,-1,-1,-1,-1,-1,-1,-1,-1,-1,-1,-1,-1,-1,-1,-1,-1,-1,-1,-1,-1,-1,-1,-1,-1],"split_conditions":[9.6E0,5.1499996E0,5E-1,5E-1,5E-1,1.1347847E0,7.5140094E2,2.649E3,2.649E3,2.07015E4,2.07015E4,2.07015E4,4.246874E-2,7.55E0,2.1641277E1,3.7949997E1,2.07015E4,5.8675885E0,2.07015E4,-3.2109788E-3,9.6E0,-3.2109788E-3,8.35E0,7.4425E2,8.35E0,1.7578126E-3,1.4021445E-2,-1.6127087E-2,7.4425E2,8.229941E-1,2.07015E4,7.432E2,1.05E0,-3.4921676E-2,3.7949997E1,1.795E1,1.255E1,-8.722954E-2,8.85E0,-1.0936123E-2,4.5688443E-2,7.249885E-2,8.85E0,4.107088E-4,9.6E0,2.3701832E1,5.193572E-2,3.5150528E-3,-2.8979875E-2,7.6000004E0,2.07015E4,7.4730637E-3,5.635761E-2,-6.164618E-3,2.2650283E-2,-2.8001105E-2,7.4435234E-2,-8.478172E-3,-8.6766265E-2,-2.6494533E-2,4.0161613E-4,-2.5474014E-2,4.828091E-2,1.5884718E-2,8.225091E-2,-7.2348122E-3,4.3364526E-3,1.816056E-2,-1.3109565E-3,-1.0239315E-2,-3.9657608E-2,9.670866E-3,8.487702E-4,-4.4991258E-3,-1.5151739E-3,-2.0644427E-3,4.0788176E-3],"split_indices":[28,28,32,32,32,25,8,22,22,33,33,33,0,0,7,3,33,18,33,9,0,9,0,2,0,0,0,0,2,16,33,2,6,0,3,27,0,0,0,0,0,0,0,0,0,7,0,0,0,0,33,0,0,0,0,0,0,0,0,0,0,0,0,0,0,0,0,0,0,0,0,0,0,0,0,0,0],"split_type":[0,0,0,0,0,0,0,0,0,0,0,0,0,0,0,0,0,0,0,0,0,0,0,0,0,0,0,0,0,0,0,0,0,0,0,0,0,0,0,0,0,0,0,0,0,0,0,0,0,0,0,0,0,0,0,0,0,0,0,0,0,0,0,0,0,0,0,0,0,0,0,0,0,0,0,0,0],"sum_hessian":[1.13E2,9.4E1,1.9E1,7.8E1,1.6E1,1E1,9E0,3.9E1,3.9E1,8E0,8E0,9E0,1E0,2E0,7E0,2.5E1,1.4E1,2.6E1,1.3E1,4E0,4E0,4E0,4E0,6E0,3E0,1E0,1E0,1E0,6E0,5E0,2E1,6E0,8E0,4E0,2.2E1,6E0,7E0,2E0,2E0,2E0,2E0,2E0,2E0,1E0,3E0,5E0,1E0,2E0,1E0,4E0,2E0,2E0,3E0,9E0,1.1E1,4E0,2E0,6E0,2E0,4E0,1.8E1,4E0,2E0,6E0,1E0,1E0,1E0,1E0,1E0,1E0,2E0,3E0,2E0,2E0,2E0,1E0,1E0],"tree_param":{"num_deleted":"0","num_feature":"42","num_nodes":"77","size_leaf_vector":"0"}},{"base_weights":[8.133063E-3,4.8448336E-3,2.33455E-2,1.4649093E-2,3.1494553E-4,4.596192E-2,-3.8671135E-3,-1.6061068E-2,1.7416285E-2,1.1227749E-2,-4.6738335E-3,2.6492525E-2,1.2032795E-1,2.9805183E-2,-1.6010836E-2,-3.3473969E-3,-2.0744205E-2,1.2290961E-2,2.5412774E-2,5.145643E-2,-2.3231795E-2,-3.007162E-2,2.2031415E-2,5.728919E-2,-3.4024775E-2,4.980564E-3,3.972721E-2,-4.5693398E-2,-5.242842E-3,1.7471805E-2,-2.116414E-2,5.4063678E-2,-1.4050866E-2,1.14815235E-2,2.0561528E-1,-6.3750744E-2,2.791228E-2,-1.6201591E-1,-1.7290741E-2,1.6952968E-1,7.621054E-3,1.778706E-2,1.47151E-1,9.373426E-3,-8.210969E-2,-9.622884E-3,3.8048427E-3,7.0652165E-3,2.593708E-2,-3.0822277E-2,-9.239316E-4,1.9589067E-3,1.0551548E-1,3.3026755E-2,-1.0118067E-1,3.0755281E-2,-1.0088539E-2,-1.8994991E-1,2.4718905E-2,9.622121E-2,-4.993749E-3,-4.8478074E-2,2.5743742E-3,3.4590006E-2,-1.0260491E-2,2.4983048E-2,2.263387E-3,-1.199774E-2,-4.0404E-3,-5.8493614E-3,1.1556625E-2],"categories":[],"categories_nodes":[],"categories_segments":[],"categories_sizes":[],"default_left":[true,true,true,true,true,true,true,true,true,true,true,true,false,true,true,false,false,true,true,true,true,true,true,true,true,false,false,false,true,true,true,true,true,true,false,true,true,false,true,false,true,true,false,false,false,true,true,false,false,false,false,false,false,false,false,false,false,false,false,false,false,false,false,false,false,false,false,false,false,false,false],"id":23,"left_children":[1,3,5,7,9,11,13,15,17,19,21,23,-1,25,27,-1,-1,29,31,33,35,37,39,41,43,-1,-1,-1,45,47,49,51,53,55,-1,57,59,-1,61,-1,63,65,-1,-1,-1,67,69,-1,-1,-1,-1,-1,-1,-1,-1,-1,-1,-1,-1,-1,-1,-1,-1,-1,-1,-1,-1,-1,-1,-1,-1],"loss_changes":[5.589402E-3,4.2145457E-3,1.248678E-2,2.8291522E-3,3.64562E-3,1.273869E-2,4.566276E-3,1.0918046E-4,8.3522126E-4,3.0306924E-2,3.1862214E-2,2.0586563E-2,0E0,5.410677E-4,2.3174102E-3,0E0,0E0,3.6629632E-3,1.2066333E-2,5.9264082E-2,2.6647076E-2,3.7671365E-2,4.7594577E-2,2.2230748E-2,9.116845E-3,0E0,0E0,0E0,3.1401822E-4,1.3143574E-3,5.579705E-4,1.587861E-2,2.3850989E-2,4.0519014E-3,0E0,8.284892E-2,1.3967156E-2,0E0,1.437422E-2,0E0,1.0964333E-2,6.137027E-4,0E0,0E0,0E0,1.7812301E-5,2.9211075E-4,0E0,0E0,0E0,0E0,0E0,0E0,0E0,0E0,0E0,0E0,0E0,0E0,0E0,0E0,0E0,0E0,0E0,0E0,0E0,0E0,0E0,0E0,0E0,0E0],"parents":[2147483647,0,0,1,1,2,2,3,3,4,4,5,5,6,6,7,7,8,8,9,9,10,10,11,11,13,13,14,14,17,17,18,18,19,19,20,20,21,21,22,22,23,23,24,24,28,28,29,29,30,30,31,31,32,32,33,33,35,35,36,36,38,38,40,40,41,41,45,45,46,46],"right_children":[2,4,6,8,10,12,14,16,18,20,22,24,-1,26,28,-1,-1,30,32,34,36,38,40,42,44,-1,-1,-1,46,48,50,52,54,56,-1,58,60,-1,62,-1,64,66,-1,-1,-1,68,70,-1,-1,-1,-1,-1,-1,-1,-1,-1,-1,-1,-1,-1,-1,-1,-1,-1,-1,-1,-1,-1,-1,-1,-1],"split_conditions":[9.6E0,7.5136865E2,5E-1,7.3115E2,2.2382334E1,1.1347847E0,7.5140094E2,5E-1,2.07015E4,5E-1,5E-1,2.07015E4,3.6098387E-2,7.55E0,2.1641277E1,-1.004219E-3,-6.223262E-3,1.17E1,5E-1,7.4365E2,2.07015E4,7.5769995E2,7.5769995E2,7.4425E2,8.35E0,1.4941694E-3,1.1918164E-2,-1.370802E-2,7.4425E2,5E-1,5E-1,7.74E0,7.4355E2,2.07015E4,6.1684586E-2,8.745E2,7.5969995E2,-4.8604775E-2,-8.035714E-4,5.0858904E-2,-8.035714E-4,2.3701832E1,4.41453E-2,2.812028E-3,-2.4632908E-2,7.6000004E0,2.07015E4,2.1195651E-3,7.781124E-3,-9.246684E-3,-2.771795E-4,5.87672E-4,3.1654645E-2,9.908027E-3,-3.0354204E-2,9.226585E-3,-3.0265618E-3,-5.6984976E-2,7.415672E-3,2.8866364E-2,-1.4981247E-3,-1.45434225E-2,7.723123E-4,1.0377002E-2,-3.0781473E-3,7.494915E-3,6.790161E-4,-3.5993222E-3,-1.21212E-3,-1.7548085E-3,3.4669877E-3],"split_indices":[28,8,32,2,7,25,8,32,33,32,32,33,0,0,7,0,0,0,32,2,33,4,4,2,0,0,0,0,2,32,32,1,2,33,0,22,4,0,9,0,9,7,0,0,0,0,33,0,0,0,0,0,0,0,0,0,0,0,0,0,0,0,0,0,0,0,0,0,0,0,0],"split_type":[0,0,0,0,0,0,0,0,0,0,0,0,0,0,0,0,0,0,0,0,0,0,0,0,0,0,0,0,0,0,0,0,0,0,0,0,0,0,0,0,0,0,0,0,0,0,0,0,0,0,0,0,0,0,0,0,0,0,0,0,0,0,0,0,0,0,0,0,0,0,0],"sum_hessian":[1.13E2,9.4E1,1.9E1,2.9E1,6.5E1,1E1,9E0,2E0,2.7E1,2E1,4.5E1,9E0,1E0,2E0,7E0,1E0,1E0,1.8E1,9E0,9E0,1.1E1,2.3E1,2.2E1,6E0,3E0,1E0,1E0,1E0,6E0,1.6E1,2E0,5E0,4E0,8E0,1E0,6E0,5E0,1E0,2.2E1,1E0,2.1E1,5E0,1E0,2E0,1E0,4E0,2E0,8E0,8E0,1E0,1E0,3E0,2E0,3E0,1E0,4E0,4E0,2E0,4E0,1E0,4E0,8E0,1.4E1,8E0,1.3E1,3E0,2E0,2E0,2E0,1E0,1E0],"tree_param":{"num_deleted":"0","num_feature":"42","num_nodes":"71","size_leaf_vector":"0"}},{"base_weights":[6.6546476E-3,3.8799113E-3,1.9501913E-2,6.2429574E-3,-7.3295324E-3,3.822758E-2,-3.0465126E-3,9.800274E-3,-3.4191934E-3,-3.7014063E-2,2.316939E-2,2.1594595E-2,1.0227871E-1,-1.0889053E-2,3.3768177E-2,2.0035991E-2,-4.20929E-4,-1.1630555E-2,5.8494913E-3,-1.2773743E-1,6.1112113E-2,1.1921568E-1,-7.7510774E-2,4.7576565E-2,-2.9272497E-2,-3.883934E-2,-2.54035E-3,1.2871924E-1,-2.5020968E-3,-1.1489433E-2,1.6028285E-1,1.6140651E-2,-2.753374E-2,-1.671352E-2,2.7437588E-2,-2.1156247E-1,-1.3332367E-3,-2.4572542E-2,1.2642606E-1,-7.6048374E-3,1.5282202E-1,2.7027428E-3,-9.823984E-2,1.3813257E-2,1.250782E-1,7.498821E-3,-6.9793224E-2,4.5422316E-3,-7.698345E-3,-9.625196E-3,1.6571164E-1,8.793812E-3,-1.3680196E-1,-4.106529E-2,3.38318E-2,3.835678E-3,3.2680273E-2,-1.3518612E-2,-4.638608E-2,5.558014E-3,-2.923879E-2,1.1102766E-2,4.0071487E-2,-1.32267475E-2,1.12268925E-2,3.6949873E-2,1.5268922E-1,4.6266556E-2,1.7291832E-1,1.9361854E-2,1.8107096E-3,9.335279E-3,1.9129515E-3,-4.924138E-4,9.823084E-3,-9.598255E-3,-3.23232E-3],"categories":[],"categories_nodes":[],"categories_segments":[],"categories_sizes":[],"default_left":[true,true,true,true,true,true,true,true,true,true,true,true,false,true,false,true,true,true,true,true,true,true,true,true,true,false,true,true,true,true,false,true,true,true,true,false,true,false,true,false,true,false,false,true,false,true,false,true,true,false,false,false,false,false,false,false,false,false,false,false,false,false,false,false,false,false,false,false,false,false,false,false,false,false,false,false,false],"id":24,"left_children":[1,3,5,7,9,11,13,15,17,19,21,23,-1,25,-1,27,29,31,33,35,37,39,41,43,45,-1,47,49,51,53,-1,55,57,59,61,-1,63,-1,65,-1,67,-1,-1,69,-1,71,-1,73,75,-1,-1,-1,-1,-1,-1,-1,-1,-1,-1,-1,-1,-1,-1,-1,-1,-1,-1,-1,-1,-1,-1,-1,-1,-1,-1,-1,-1],"loss_changes":[3.988181E-3,2.5621587E-3,8.561147E-3,2.7488444E-3,1.624848E-2,9.5103085E-3,3.2549107E-3,6.076471E-3,1.7424205E-3,8.7927334E-2,9.627011E-2,1.4608957E-2,0E0,2.0014723E-3,0E0,7.1357936E-2,5.5204075E-2,5.7442198E-3,5.8165956E-3,5.269713E-2,3.1088626E-2,2.2472054E-2,8.579273E-3,1.6589243E-2,6.483369E-3,0E0,3.2722304E-4,2.7183473E-2,3.912899E-2,4.026133E-2,0E0,8.922471E-4,1.4866688E-3,1.8362515E-3,7.9333084E-4,0E0,5.966473E-4,0E0,1.4079325E-3,0E0,5.6514144E-4,0E0,0E0,3.6452513E-4,0E0,1.29167165E-5,0E0,1.1118591E-4,1.1400611E-5,0E0,0E0,0E0,0E0,0E0,0E0,0E0,0E0,0E0,0E0,0E0,0E0,0E0,0E0,0E0,0E0,0E0,0E0,0E0,0E0,0E0,0E0,0E0,0E0,0E0,0E0,0E0,0E0],"parents":[2147483647,0,0,1,1,2,2,3,3,4,4,5,5,6,6,7,7,8,8,9,9,10,10,11,11,13,13,15,15,16,16,17,17,18,18,19,19,20,20,21,21,22,22,23,23,24,24,26,26,27,27,28,28,29,29,31,31,32,32,33,33,34,34,36,36,38,38,40,40,43,43,45,45,47,47,48,48],"right_children":[2,4,6,8,10,12,14,16,18,20,22,24,-1,26,-1,28,30,32,34,36,38,40,42,44,46,-1,48,50,52,54,-1,56,58,60,62,-1,64,-1,66,-1,68,-1,-1,70,-1,72,-1,74,76,-1,-1,-1,-1,-1,-1,-1,-1,-1,-1,-1,-1,-1,-1,-1,-1,-1,-1,-1,-1,-1,-1,-1,-1,-1,-1,-1,-1],"split_conditions":[9.6E0,5.1499996E0,5E-1,1.2193164E3,5E-1,1.1347847E0,9.55E0,5E-1,5E-1,2.07015E4,2.07015E4,2.07015E4,3.0683614E-2,2.1641277E1,1.0130454E-2,4.6783686E-1,9.5E0,7.584E2,7.74E2,-3.2109788E-3,9.6E0,7.3615E2,8.35E0,7.4425E2,8.35E0,-1.1651803E-2,-1.0417143E-2,6.5E0,9.5E0,2.07015E4,4.808486E-2,8.9E0,1.02E1,2.07015E4,9.5E0,-6.346875E-2,8.85E0,-7.371763E-3,1.1E1,-2.2814514E-3,6.5E0,8.108229E-4,-2.9471952E-2,2.3701832E1,3.7523463E-2,7.6000004E0,-2.0937968E-2,2.07015E4,7.6000004E0,-2.8875591E-3,4.9713496E-2,2.6381437E-3,-4.104059E-2,-1.2319588E-2,1.014954E-2,1.1507035E-3,9.804082E-3,-4.055584E-3,-1.3915825E-2,1.6674042E-3,-8.771637E-3,3.3308298E-3,1.2021447E-2,-3.9680246E-3,3.3680678E-3,1.1084963E-2,4.5806766E-2,1.3879967E-2,5.18755E-2,5.8085565E-3,5.432129E-4,2.8005838E-3,5.7388545E-4,-1.4772415E-4,2.9469253E-3,-2.8794766E-3,-9.6969603E-4],"split_indices":[28,28,32,15,32,25,0,32,32,33,33,33,0,7,0,13,1,4,22,9,0,2,0,2,0,0,9,1,1,33,0,0,0,33,0,0,0,0,0,0,1,0,0,7,0,0,0,33,0,0,0,0,0,0,0,0,0,0,0,0,0,0,0,0,0,0,0,0,0,0,0,0,0,0,0,0,0],"split_type":[0,0,0,0,0,0,0,0,0,0,0,0,0,0,0,0,0,0,0,0,0,0,0,0,0,0,0,0,0,0,0,0,0,0,0,0,0,0,0,0,0,0,0,0,0,0,0,0,0,0,0,0,0,0,0,0,0,0,0,0,0,0,0,0,0,0,0,0,0,0,0,0,0,0,0,0,0],"sum_hessian":[1.13E2,9.4E1,1.9E1,7.8E1,1.6E1,1E1,9E0,5.7E1,2.1E1,8E0,8E0,9E0,1E0,8E0,1E0,2.8E1,2.9E1,1.1E1,1E1,4E0,4E0,4E0,4E0,6E0,3E0,1E0,7E0,4E0,2.4E1,2.8E1,1E0,4E0,7E0,5E0,5E0,2E0,2E0,2E0,2E0,1E0,3E0,1E0,3E0,5E0,1E0,2E0,1E0,3E0,4E0,1E0,3E0,2.3E1,1E0,1.7E1,1.1E1,3E0,1E0,5E0,2E0,2E0,3E0,3E0,2E0,1E0,1E0,1E0,1E0,1E0,2E0,3E0,2E0,1E0,1E0,2E0,1E0,2E0,2E0],"tree_param":{"num_deleted":"0","num_feature":"42","num_nodes":"77","size_leaf_vector":"0"}},{"base_weights":[5.8008614E-3,8.384845E-3,-3.733513E-3,5.1453826E-3,2.560297E-2,3.3109307E-2,-1.4599684E-2,8.841315E-3,-3.9164294E-3,3.9114058E-2,6.504161E-3,-6.9694044E-3,1.1675143E-1,-5.9442845E-4,-9.3764655E-2,-5.3078863E-3,1.1362623E-2,-3.421431E-2,1.4523395E-2,9.010792E-3,6.696463E-2,-1.9793909E-3,2.8702736E-2,7.521788E-3,-1.9137463E-2,1.237653E-2,-1.4940556E-2,-1.231128E-1,-1.7534181E-2,4.290853E-4,-1.6924858E-2,4.737087E-3,1.7003613E-2,-9.833746E-2,3.67517E-2,9.0067066E-2,-4.0269447E-3,2.3409526E-3,1.2677033E-2,1.0631657E-1,1.8408457E-2,-4.694879E-3,2.301057E-3,2.872944E-4,1.0995388E-2,4.30727E-3,-3.3013463E-2,-8.744202E-3,6.457297E-2,5.961444E-3,-9.107828E-2,6.855631E-3,-1.0424852E-2,2.7017593E-3,-2.8089046E-2,1.1828594E-1,-2.539351E-2,-3.6398016E-3,1.6960192E-1,-5.3372383E-3,-1.5855853E-1,8.577744E-2,-2.4524609E-2,2.5233507E-2,-3.271212E-2,8.693695E-2,-5.9324265E-2,-4.8980713E-3,8.349657E-3,4.4156313E-3,-1.7523227E-2,-5.97545E-3,2.7848085E-2],"categories":[],"categories_nodes":[],"categories_segments":[],"categories_sizes":[],"default_left":[true,true,true,true,true,true,true,true,true,true,true,true,false,true,true,true,true,true,true,true,true,true,false,true,true,true,true,false,false,true,true,true,true,true,true,false,true,false,false,false,true,false,true,false,false,false,false,true,false,true,false,false,false,false,false,false,false,false,false,false,false,false,false,false,false,false,false,false,false,false,false,false,false],"id":25,"left_children":[1,3,5,7,9,11,13,15,17,19,21,23,-1,25,27,29,31,33,35,37,39,41,-1,43,45,47,49,-1,-1,51,53,55,57,59,61,-1,63,-1,-1,-1,65,-1,67,-1,-1,-1,-1,69,-1,71,-1,-1,-1,-1,-1,-1,-1,-1,-1,-1,-1,-1,-1,-1,-1,-1,-1,-1,-1,-1,-1,-1,-1],"loss_changes":[2.8398847E-3,4.8882356E-3,1.0491895E-2,2.6134984E-3,3.3582356E-3,2.0927299E-2,2.2118775E-2,2.0224093E-3,1.3346722E-2,6.10374E-3,1.3750733E-3,1.0255963E-3,0E0,3.5344067E-3,4.5529865E-3,6.070783E-4,1.6760575E-3,4.4569146E-2,2.1383107E-2,9.258988E-5,5.6859925E-3,8.0544225E-5,0E0,7.2230294E-5,1.1181552E-3,1.1588909E-2,1.4865834E-2,0E0,0E0,5.597422E-4,7.332357E-4,8.1693485E-2,7.9371065E-2,2.7156599E-2,1.712424E-2,0E0,1.1736876E-2,0E0,0E0,0E0,2.1138191E-2,0E0,1.7153115E-4,0E0,0E0,0E0,0E0,1.0016202E-3,0E0,2.256473E-3,0E0,0E0,0E0,0E0,0E0,0E0,0E0,0E0,0E0,0E0,0E0,0E0,0E0,0E0,0E0,0E0,0E0,0E0,0E0,0E0,0E0,0E0,0E0],"parents":[2147483647,0,0,1,1,2,2,3,3,4,4,5,5,6,6,7,7,8,8,9,9,10,10,11,11,13,13,14,14,15,15,16,16,17,17,18,18,19,19,20,20,21,21,23,23,24,24,25,25,26,26,29,29,30,30,31,31,32,32,33,33,34,34,36,36,40,40,42,42,47,47,49,49],"right_children":[2,4,6,8,10,12,14,16,18,20,22,24,-1,26,28,30,32,34,36,38,40,42,-1,44,46,48,50,-1,-1,52,54,56,58,60,62,-1,64,-1,-1,-1,66,-1,68,-1,-1,-1,-1,70,-1,72,-1,-1,-1,-1,-1,-1,-1,-1,-1,-1,-1,-1,-1,-1,-1,-1,-1,-1,-1,-1,-1,-1,-1],"split_conditions":[4.045E1,9.5E0,2.07015E4,9.85E1,5E-1,9.15E0,1.15E1,7.86E2,2.07015E4,7.516986E2,9.55E0,5E-1,3.5025433E-2,5E-1,5E-1,2.07015E4,5E-1,5E-1,2.5372927E0,7.4265E2,2.07015E4,7.4425E2,8.610821E-3,5.9E0,5.9E0,2.8180437E3,7.438E2,-3.693384E-2,-5.2602547E-3,8.1E0,5E-1,5E-1,2.5E0,9.35E0,7.436E2,2.7020121E-2,5E-1,7.022858E-4,3.8031102E-3,3.189497E-2,7.15E0,-1.4084638E-3,2.07015E4,8.6188316E-5,3.2986165E-3,1.2921811E-3,-9.904039E-3,2.2378086E1,1.9371891E-2,2.4479847E1,-2.7323486E-2,2.0566892E-3,-3.127456E-3,8.105278E-4,-8.426715E-3,