{"learner":{"attributes":{"scikit_learn":"{\"n_estimators\": 100, \"objective\": \"reg:squarederror\", \"max_depth\": null, \"learning_rate\": null, \"verbosity\": null, \"booster\": null, \"tree_method\": null, \"gamma\": null, \"min_child_weight\": null, \"max_delta_step\": null, \"subsample\": null, \"colsample_bytree\": null, \"colsample_bylevel\": null, \"colsample_bynode\": null, \"reg_alpha\": null, \"reg_lambda\": null, \"scale_pos_weight\": null, \"base_score\": null, \"missing\": NaN, \"num_parallel_tree\": null, \"kwargs\": {}, \"random_state\": null, \"n_jobs\": null, \"monotone_constraints\": null, \"interaction_constraints\": null, \"importance_type\": \"gain\", \"gpu_id\": null, \"validate_parameters\": null, \"n_features_in_\": 42, \"type\": \"XGBRegressor\"}"},"gradient_booster":{"model":{"gbtree_model_param":{"num_trees":"100","size_leaf_vector":"0"},"tree_info":[0,0,0,0,0,0,0,0,0,0,0,0,0,0,0,0,0,0,0,0,0,0,0,0,0,0,0,0,0,0,0,0,0,0,0,0,0,0,0,0,0,0,0,0,0,0,0,0,0,0,0,0,0,0,0,0,0,0,0,0,0,0,0,0,0,0,0,0,0,0,0,0,0,0,0,0,0,0,0,0,0,0,0,0,0,0,0,0,0,0,0,0,0,0,0,0,0,0,0,0],"trees":[{"base_weights":[4.3153124E0,5.2208967E0,3.634556E0,6.3559866E0,3.566548E0,6.010509E0,3.4616468E0,4.8388686E0,7.944583E0,4.932304E0,2.3014183E0,4.6187305E0,1.1537313E1,6.1848907E0,3.353714E0,1.6242354E0,5.090735E0,1.2371644E1,6.9855413E0,3.9693072E0,7.817509E0,4.039362E0,1.6894618E0,5.1798754E0,2.7095044E0,6.3269286E0,1.652439E1,7.39568E0,2.5379739E0,2.9122865E0,4.1546392E0,3.288523E0,5.687844E-1,5.780836E0,4.4191055E0,1.9443516E1,9.204206E0,5.4279184E0,9.523803E0,3.5002732E0,9.566711E0,1.0663954E0,8.007E0,8.105157E-1,5.085625E0,2.3528242E0,1.2348359E0,7.9082866E0,4.692193E0,7.4755054E0,2.3036575E0,1.0041765E0,3.5641766E0,2.2860842E0,3.4311543E0,5.830055E0,3.4482586E0,3.7173954E-1,9.703243E-1,5.956364E0,1.6758012E0,1.1398355E0,4.6205816E0,1.0494332E1,5.88796E0,4.2502723E0,7.7607927E0,8.750693E0,2.0780579E1,1.570016E0,3.9485786E0,9.204905E0,5.980472E0,-1.8176386E-1,1.5023293E0,4.3060594E0,8.491615E0,5.183824E0,2.0816786E0,-4.7147268E-1,1.5174832E0,1.6148363E0,-7.1923155E-1,5.05455E0,8.857442E-1,1.8272713E0,3.1043046E0,3.8202877E0,2.4202952E0,4.377773E0,7.438775E0,3.9369588E0,2.5942972E0],"categories":[],"categories_nodes":[],"categories_segments":[],"categories_sizes":[],"default_left":[true,true,true,true,true,true,true,true,true,true,true,true,true,true,true,true,true,true,true,true,true,true,true,true,false,true,false,false,true,true,true,false,true,true,true,false,true,true,true,true,false,false,true,true,true,true,true,false,false,false,false,true,true,true,true,true,true,false,false,false,false,false,false,false,false,false,false,false,false,false,false,false,false,false,false,false,false,false,false,false,false,false,false,false,false,false,false,false,false,false,false,false,false],"id":0,"left_children":[1,3,5,7,9,11,13,15,17,19,21,23,25,27,29,31,33,35,37,39,41,43,45,47,-1,49,-1,-1,51,53,55,-1,57,59,61,-1,63,65,67,69,-1,-1,71,73,75,77,79,-1,-1,-1,-1,81,83,85,87,89,91,-1,-1,-1,-1,-1,-1,-1,-1,-1,-1,-1,-1,-1,-1,-1,-1,-1,-1,-1,-1,-1,-1,-1,-1,-1,-1,-1,-1,-1,-1,-1,-1,-1,-1,-1,-1],"loss_changes":[9.223926E2,1.2035566E3,3.3866602E2,8.9185156E2,4.5171484E2,3.9285303E2,2.1968945E2,1.5366357E2,7.075293E2,3.246106E2,1.4313568E2,3.7390076E1,1.8128186E2,1.1369934E2,2.6685254E2,2.6234718E1,6.0199707E1,5.378286E2,5.650752E2,2.2380042E2,3.1118896E1,1.1749402E2,2.9062347E1,1.0794312E1,0E0,1.5126221E1,0E0,0E0,1.0586826E1,1.585127E2,3.089043E2,0E0,5.096271E-1,5.3426514E1,5.9481445E1,0E0,4.0890747E1,2.3899731E2,3.2291357E2,7.3412476E1,0E0,0E0,1.7777954E1,7.1377945E0,3.5124878E1,2.1448685E1,3.206389E1,0E0,0E0,0E0,0E0,6.423522E0,1.5482285E1,8.254895E1,1.00107666E2,1.5667627E2,7.241797E1,0E0,0E0,0E0,0E0,0E0,0E0,0E0,0E0,0E0,0E0,0E0,0E0,0E0,0E0,0E0,0E0,0E0,0E0,0E0,0E0,0E0,0E0,0E0,0E0,0E0,0E0,0E0,0E0,0E0,0E0,0E0,0E0,0E0,0E0,0E0,0E0],"parents":[2147483647,0,0,1,1,2,2,3,3,4,4,5,5,6,6,7,7,8,8,9,9,10,10,11,11,12,12,13,13,14,14,15,15,16,16,17,17,18,18,19,19,20,20,21,21,22,22,23,23,25,25,28,28,29,29,30,30,32,32,33,33,34,34,36,36,37,37,38,38,39,39,42,42,43,43,44,44,45,45,46,46,51,51,52,52,53,53,54,54,55,55,56,56],"right_children":[2,4,6,8,10,12,14,16,18,20,22,24,26,28,30,32,34,36,38,40,42,44,46,48,-1,50,-1,-1,52,54,56,-1,58,60,62,-1,64,66,68,70,-1,-1,72,74,76,78,80,-1,-1,-1,-1,82,84,86,88,90,92,-1,-1,-1,-1,-1,-1,-1,-1,-1,-1,-1,-1,-1,-1,-1,-1,-1,-1,-1,-1,-1,-1,-1,-1,-1,-1,-1,-1,-1,-1,-1,-1,-1,-1,-1,-1],"split_conditions":[5.4578056E1,3.475E1,-9.63E0,7.3415E2,2.9599998E1,7.4E1,5.491694E1,7.243222E1,-3.0932195E-2,1.8770608E-1,5E-1,3.025E1,7.495366E2,6.793106E0,1.8614016E0,7.6065E2,7.432597E1,5.4178474E1,-4.65E0,5.456486E1,3.5300003E1,1.454E2,7.294292E1,7.169139E1,8.1285137E-1,-1.063E1,4.957317E0,2.218704E0,5E-1,4.55E0,5.5635002E1,9.8655695E-1,-3.65E0,8.85E1,7.5865E2,5.833055E0,7.4686386E1,6.961888E-1,7.55607E1,6.639269E-1,2.8700135E0,3.1991863E-1,4.35E1,5.3970276E1,6.053E4,7.3E1,7.464591E-1,2.372486E0,1.407658E0,2.2426517E0,6.9109726E-1,-2.0000002E-1,1.7019697E1,1.10063195E-1,3.285E1,2.5E0,1.72655E3,1.1152186E-1,2.9109728E-1,1.7869093E0,5.027404E-1,3.4195065E-1,1.3861746E0,3.1483E0,1.766388E0,1.2750818E0,2.328238E0,2.6252081E0,6.234174E0,4.710048E-1,1.1845737E0,2.7614715E0,1.7941417E0,-5.452916E-2,4.5069882E-1,1.2918179E0,2.5474846E0,1.5551473E0,6.245036E-1,-1.414418E-1,4.55245E-1,4.844509E-1,-2.1576947E-1,1.5163652E0,2.657233E-1,5.481814E-1,9.312914E-1,1.1460863E0,7.260886E-1,1.3133318E0,2.2316327E0,1.1810877E0,7.782892E-1],"split_indices":[35,3,1,2,27,40,38,36,9,24,41,3,8,18,16,4,36,34,0,35,3,21,37,36,0,1,0,0,32,28,34,0,0,29,4,0,36,13,36,23,0,0,40,35,33,29,16,0,0,0,0,0,7,24,3,41,19,0,0,0,0,0,0,0,0,0,0,0,0,0,0,0,0,0,0,0,0,0,0,0,0,0,0,0,0,0,0,0,0,0,0,0,0],"split_type":[0,0,0,0,0,0,0,0,0,0,0,0,0,0,0,0,0,0,0,0,0,0,0,0,0,0,0,0,0,0,0,0,0,0,0,0,0,0,0,0,0,0,0,0,0,0,0,0,0,0,0,0,0,0,0,0,0,0,0,0,0,0,0,0,0,0,0,0,0,0,0,0,0,0,0,0,0,0,0,0,0,0,0,0,0,0,0,0,0,0,0,0,0],"sum_hessian":[1.526E3,6.52E2,8.74E2,3.85E2,2.67E2,5.7E1,8.17E2,1.99E2,1.86E2,1.27E2,1.4E2,4.7E1,1E1,2.9E1,7.88E2,1.5E1,1.84E2,3.1E1,1.55E2,9.7E1,3E1,3.5E1,1.05E2,3.5E1,1.2E1,6E0,4E0,2.1E1,8E0,5.11E2,2.77E2,5E0,1E1,8.7E1,9.7E1,8E0,2.3E1,9.8E1,5.7E1,9.1E1,6E0,1E0,2.9E1,9E0,2.6E1,4.1E1,6.4E1,3E0,3.2E1,4E0,2E0,4E0,4E0,2.34E2,2.77E2,8E1,1.97E2,8E0,2E0,8.3E1,4E0,6E0,9.1E1,1.5E1,8E0,6.7E1,3.1E1,5.5E1,2E0,1.8E1,7.3E1,1.6E1,1.3E1,4E0,5E0,2.3E1,3E0,2E0,3.9E1,9E0,5.5E1,3E0,1E0,2E0,2E0,1.52E2,8.2E1,1.98E2,7.9E1,4.4E1,3.6E1,1.23E2,7.4E1],"tree_param":{"num_deleted":"0","num_feature":"42","num_nodes":"93","size_leaf_vector":"0"}},{"base_weights":[3.066794E0,8.416226E0,3.000995E0,1.0850178E1,3.0414205E0,3.6168554E0,2.5413184E0,1.1605687E1,1.2697883E0,4.3628287E0,2.5567703E0,4.493143E0,2.4366333E0,1.4128276E0,1.248369E1,4.025211E0,7.6404753E0,3.526059E0,1.6587157E0,3.4563224E0,8.597193E0,4.329732E0,2.3523939E0,3.3652923E0,5.149187E0,4.753819E0,9.423444E0,2.5947776E0,5.244987E0,2.625523E0,1.02845E0,4.147714E0,1.507913E0,1.3856267E0,4.911125E0,1.9760122E0,2.7751892E0,3.6163843E-1,3.5843763E0,4.069802E0,8.035055E0,5.200185E0,2.2262654E0,1.0496136E1,4.1061435E0,2.28711E0,6.2645483E0,2.5380542E0,6.4236207E0,2.11542E0,5.3579493E0,1.514483E0,6.7218775E-1,4.3065104E0,1.4947696E0,4.1618118E-1,1.6901686E0,3.2800493E0,5.773583E0,2.4915197E0,1.4704492E0,3.7552822E0,2.4617267E0],"categories":[],"categories_nodes":[],"categories_segments":[],"categories_sizes":[],"default_left":[true,true,true,true,false,true,true,true,false,true,true,true,true,false,false,true,true,true,true,true,false,true,true,true,true,true,true,true,true,true,true,true,false,true,true,true,true,false,false,false,false,false,false,false,false,false,false,false,false,false,false,false,false,false,false,false,false,false,false,false,false,false,false],"id":1,"left_children":[1,3,5,7,-1,9,11,13,-1,15,17,19,21,-1,-1,23,25,27,29,31,-1,33,35,37,39,41,43,45,47,49,51,53,-1,55,57,59,61,-1,-1,-1,-1,-1,-1,-1,-1,-1,-1,-1,-1,-1,-1,-1,-1,-1,-1,-1,-1,-1,-1,-1,-1,-1,-1],"loss_changes":[5.1222754E2,2.0247644E2,4.1828418E2,7.212012E1,0E0,4.9732617E2,1.6640723E2,8.0805664E1,0E0,3.8532373E2,2.2743823E2,1.5325739E2,1.2154004E2,0E0,0E0,2.3708594E2,1.3019434E2,1.9129358E2,8.32175E1,4.22417E1,0E0,5.1392273E1,1.20708496E2,1.4281738E2,3.566692E2,5.346222E0,7.0977905E1,8.164319E1,1.2407776E2,6.5325714E1,1.4046486E1,4.515991E0,0E0,1.3632412E0,2.0450867E1,1.06579346E2,1.0473511E2,0E0,0E0,0E0,0E0,0E0,0E0,0E0,0E0,0E0,0E0,0E0,0E0,0E0,0E0,0E0,0E0,0E0,0E0,0E0,0E0,0E0,0E0,0E0,0E0,0E0,0E0],"parents":[2147483647,0,0,1,1,2,2,3,3,5,5,6,6,7,7,9,9,10,10,11,11,12,12,15,15,16,16,17,17,18,18,19,19,21,21,22,22,23,23,24,24,25,25,26,26,27,27,28,28,29,29,30,30,31,31,33,33,34,34,35,35,36,36],"right_children":[2,4,6,8,-1,10,12,14,-1,16,18,20,22,-1,-1,24,26,28,30,32,-1,34,36,38,40,42,44,46,48,50,52,54,-1,56,58,60,62,-1,-1,-1,-1,-1,-1,-1,-1,-1,-1,-1,-1,-1,-1,-1,-1,-1,-1,-1,-1,-1,-1,-1,-1,-1,-1],"split_conditions":[6.3855005E2,7.395903E1,5.4578056E1,-9.049999E0,9.124262E-1,3.475E1,2.951E2,6.05215E4,3.809365E-1,1.8362883E1,2.9599998E1,7.4E1,5.491694E1,4.238483E-1,3.7451072E0,7.3575E2,6.05215E4,1.5E0,7.4865906E2,6.5E1,2.5791578E0,1.488E3,7.3565E2,9.42E2,-4.65E0,6.05185E4,6.05295E4,6.05325E4,5.3924026E1,5.5146667E1,7.294292E1,-2.1999998E0,4.5237392E-1,7.3185E2,5E-1,7.481715E2,5.5635002E1,1.0849153E-1,1.075313E0,1.2209406E0,2.4105167E0,1.5600555E0,6.6787964E-1,3.148841E0,1.2318431E0,6.86133E-1,1.8793646E0,7.614163E-1,1.9270862E0,6.3462603E-1,1.6073848E0,4.543449E-1,2.0165633E-1,1.2919532E0,4.484309E-1,1.24854356E-1,5.0705063E-1,9.840148E-1,1.732075E0,7.4745595E-1,4.4113478E-1,1.1265846E0,7.38518E-1],"split_indices":[19,37,35,0,0,3,2,33,0,7,27,40,38,0,0,2,33,41,8,40,0,22,2,22,0,33,33,33,35,34,37,0,0,2,32,8,34,0,0,0,0,0,0,0,0,0,0,0,0,0,0,0,0,0,0,0,0,0,0,0,0,0,0],"split_type":[0,0,0,0,0,0,0,0,0,0,0,0,0,0,0,0,0,0,0,0,0,0,0,0,0,0,0,0,0,0,0,0,0,0,0,0,0,0,0,0,0,0,0,0,0,0,0,0,0,0,0,0,0,0,0,0,0,0,0,0,0,0,0],"sum_hessian":[1.526E3,1.7E1,1.509E3,1.1E1,6E0,6.42E2,8.67E2,1E1,1E0,3.75E2,2.67E2,4.2E1,8.25E2,1E0,9E0,3.42E2,3.3E1,1.27E2,1.4E2,3.5E1,7E0,3.3E1,7.92E2,2.18E2,1.24E2,1.4E1,1.9E1,8.4E1,4.3E1,5.4E1,8.6E1,2.5E1,1E1,6E0,2.7E1,4.22E2,3.7E2,1.5E1,2.03E2,9.2E1,3.2E1,1.1E1,3E0,1.5E1,4E0,7.9E1,5E0,1.4E1,2.9E1,4.7E1,7E0,3.5E1,5.1E1,2.3E1,2E0,2E0,4E0,1.1E1,1.6E1,2.07E2,2.15E2,8.7E1,2.83E2],"tree_param":{"num_deleted":"0","num_feature":"42","num_nodes":"63","size_leaf_vector":"0"}},{"base_weights":[2.1704702E0,4.1344585E0,2.038754E0,1.0039083E1,3.6235955E0,1.651085E0,2.499291E0,3.0459225E0,6.7664585E0,-5.3607947E-1,1.7092707E0,1.2715677E0,2.9391336E0,2.7547414E0,5.5641994E0,8.091564E0,1.7620788E0,2.8169823E-1,-4.082059E0,2.1580937E0,1.4267908E0,3.9930993E-1,1.8409628E0,2.6942313E0,5.7168355E0,2.8707712E0,-8.321877E-1,5.1285825E0,1.0028831E1,-1.3555278E-1,1.7759649E0,2.0597403E0,4.725683E0,3.2401245E0,1.3305107E0,-2.4110184E0,4.7498164E-1,1.0553347E0,2.3479636E0,2.552184E0,6.864659E0,3.520902E0,9.668946E0,3.8781383E0,2.4104087E0,1.9911252E-1,-8.447058E-1,1.9380455E0,4.1048193E0,5.783303E0,3.3013567E-1,4.314768E0,6.858229E-1,1.473455E0,3.0358946E-1,7.886072E-1,-1.4592488E-1,6.688149E-1,2.9476056E0,3.236519E0,1.3860339E0,2.9220521E0,1.704268E0,1.0313647E1,4.4536986E0,-2.4268024E-1,3.8446453E0,1.1899905E0,1.1102394E1],"categories":[],"categories_nodes":[],"categories_segments":[],"categories_sizes":[],"default_left":[true,true,true,false,true,true,true,true,true,true,true,true,true,true,false,true,false,true,false,true,true,true,true,true,true,true,false,false,false,true,false,true,true,true,true,false,true,true,true,true,true,true,true,false,false,false,false,false,false,false,false,false,false,false,false,false,false,false,false,false,false,false,false,false,false,false,false,false,false],"id":2,"left_children":[1,3,5,-1,7,9,11,13,15,17,19,21,23,25,-1,27,-1,29,-1,31,33,35,37,39,41,43,-1,-1,-1,45,-1,47,49,51,53,-1,55,57,59,61,63,65,67,-1,-1,-1,-1,-1,-1,-1,-1,-1,-1,-1,-1,-1,-1,-1,-1,-1,-1,-1,-1,-1,-1,-1,-1,-1,-1],"loss_changes":[3.8658936E2,2.5018567E2,2.5171533E2,0E0,1.4097351E2,1.0030762E2,3.4888623E2,4.1134216E1,7.19494E1,6.204619E1,9.3403076E1,8.568359E1,3.11125E2,3.1938538E1,0E0,5.967102E0,0E0,1.1463453E1,0E0,6.400537E1,7.774524E1,1.6031551E1,3.9345093E1,2.4491211E2,2.957423E2,2.2651123E1,0E0,0E0,0E0,3.7281253E0,0E0,6.247644E1,4.4578888E1,6.0174973E1,6.5315674E1,0E0,1.3551595E1,2.9478802E1,4.936194E1,1.2987524E2,7.048132E1,3.2612335E1,1.4479211E2,0E0,0E0,0E0,0E0,0E0,0E0,0E0,0E0,0E0,0E0,0E0,0E0,0E0,0E0,0E0,0E0,0E0,0E0,0E0,0E0,0E0,0E0,0E0,0E0,0E0,0E0],"parents":[2147483647,0,0,1,1,2,2,4,4,5,5,6,6,7,7,8,8,9,9,10,10,11,11,12,12,13,13,15,15,17,17,19,19,20,20,21,21,22,22,23,23,24,24,25,25,29,29,31,31,32,32,33,33,34,34,36,36,37,37,38,38,39,39,40,40,41,41,42,42],"right_children":[2,4,6,-1,8,10,12,14,16,18,20,22,24,26,-1,28,-1,30,-1,32,34,36,38,40,42,44,-1,-1,-1,46,-1,48,50,52,54,-1,56,58,60,62,64,66,68,-1,-1,-1,-1,-1,-1,-1,-1,-1,-1,-1,-1,-1,-1,-1,-1,-1,-1,-1,-1,-1,-1,-1,-1,-1,-1],"split_conditions":[-9.63E0,5.437722E1,1.6688646E1,3.011725E0,7.4E1,5.4178474E1,6.1743954E1,6.0532E4,3.105E1,2.5E0,3.271893E0,1.9246754E-1,6.05315E4,2.4585296E-1,1.6692599E0,7.4994604E2,5.2862364E-1,2.652E3,-1.2246177E0,7.425537E-1,5.3970276E1,2.7668047E0,6.05175E4,2.1208562E3,7.639E2,-5.8135577E-3,-2.4965632E-1,1.5385748E0,3.0086493E0,-5.56E0,5.3278947E-1,8.5E1,5.4895973E1,3.475E1,7.55E1,-7.233055E-1,1.866676E1,7.524736E1,7.432597E1,5.5635002E1,5.419014E1,8.9497817E-1,3.1004987E0,1.1634415E0,7.2312266E-1,5.973376E-2,-2.5341177E-1,5.814137E-1,1.2314458E0,1.734991E0,9.904071E-2,1.2944304E0,2.0574687E-1,4.420365E-1,9.107684E-2,2.3658216E-1,-4.3777466E-2,2.0064448E-1,8.842817E-1,9.709558E-1,4.158102E-1,8.766157E-1,5.112804E-1,3.0940943E0,1.3361096E0,-7.280407E-2,1.1533936E0,3.5699716E-1,3.3307183E0],"split_indices":[1,34,7,0,40,34,11,33,3,41,10,17,33,24,0,8,0,22,0,13,35,10,33,19,4,9,0,0,0,1,0,40,34,3,40,0,7,36,36,34,34,16,10,0,0,0,0,0,0,0,0,0,0,0,0,0,0,0,0,0,0,0,0,0,0,0,0,0,0],"split_type":[0,0,0,0,0,0,0,0,0,0,0,0,0,0,0,0,0,0,0,0,0,0,0,0,0,0,0,0,0,0,0,0,0,0,0,0,0,0,0,0,0,0,0,0,0,0,0,0,0,0,0,0,0,0,0,0,0,0,0,0,0,0,0,0,0,0,0,0,0],"sum_hessian":[1.526E3,9.4E1,1.432E3,6E0,8.8E1,7.8E2,6.52E2,7.6E1,1.2E1,2E1,7.6E2,1.73E2,4.79E2,7E1,6E0,9E0,3E0,1.7E1,3E0,2.91E2,4.69E2,6.9E1,1.04E2,4.42E2,3.7E1,6.8E1,2E0,5E0,4E0,1.4E1,3E0,2.82E2,9E0,2.2E1,4.47E2,1E0,6.8E1,4.2E1,6.2E1,4.29E2,1.3E1,2.5E1,1.2E1,1.9E1,4.9E1,1E1,4E0,2.68E2,1.4E1,7E0,2E0,1.5E1,7E0,3.92E2,5.5E1,4.5E1,2.3E1,3.6E1,6E0,3.1E1,3.1E1,2.97E2,1.32E2,4E0,9E0,2E0,2.3E1,2E0,1E1],"tree_param":{"num_deleted":"0","num_feature":"42","num_nodes":"69","size_leaf_vector":"0"}},{"base_weights":[1.5381346E0,3.014055E0,1.4392158E0,7.4576035E0,2.6306968E0,1.231184E0,1.9885269E0,2.175083E0,5.126971E0,4.244052E0,1.1529483E0,1.1873109E0,2.7517579E0,2.8530388E0,1.5102183E0,6.1188173E0,1.3656111E0,7.838372E0,3.2342496E0,1.0123557E0,2.1665857E0,-3.3506227E0,1.30108E0,1.5816219E0,3.411902E0,3.073134E0,-6.6575027E-1,1.6973822E0,3.5865325E-1,3.8464367E0,7.621911E0,3.4563792E0,6.753028E-1,9.38103E-1,2.1980639E0,1.8897213E0,8.322643E0,-3.8766608E-1,1.4488895E0,7.3490376E0,1.319346E0,2.9743762E0,4.6708727E0,3.2603786E0,-1.0935386E-2,1.1280395E0,1.7994307E0,4.6303448E-1,-1.3381708E-1,2.286295E0,4.045911E0,2.0410414E0,8.76346E-1,8.265067E-1,3.0294588E0,2.3843923E0,1.0232759E0,1.2796973E1,1.074099E0,-1.2123445E0,3.8845545E-1,1.7913688E0,8.6132693E-1,1.0199301E0,2.887022E0,6.5736938E0,2.7073078E0,2.3176625E0,6.0351286E0],"categories":[],"categories_nodes":[],"categories_segments":[],"categories_sizes":[],"default_left":[true,true,true,false,true,true,true,true,true,true,true,true,true,true,true,true,false,false,true,true,true,false,true,true,true,true,false,true,true,false,false,true,false,true,true,true,true,true,true,false,true,true,true,false,false,false,false,false,false,false,false,false,false,false,false,false,false,false,false,false,false,false,false,false,false,false,false,false,false],"id":3,"left_children":[1,3,5,-1,7,9,11,13,15,17,19,21,23,25,27,29,-1,-1,31,33,35,-1,37,39,41,43,-1,45,47,-1,-1,49,-1,51,53,55,57,59,61,-1,63,65,67,-1,-1,-1,-1,-1,-1,-1,-1,-1,-1,-1,-1,-1,-1,-1,-1,-1,-1,-1,-1,-1,-1,-1,-1,-1,-1],"loss_changes":[2.1859863E2,1.4221112E2,1.6130664E2,0E0,9.007141E1,2.407207E2,2.364458E2,3.0398956E1,4.0143066E1,6.901709E1,1.4273926E2,1.04000824E2,1.4909534E2,3.0701294E1,8.22802E0,4.8387756E0,0E0,0E0,1.0171082E1,7.673547E1,1.9391296E2,0E0,4.7738495E1,1.0224051E2,5.6062744E1,2.0247284E1,0E0,3.692627E-3,4.217946E-1,0E0,0E0,4.545883E0,0E0,5.5699707E1,5.6792007E1,4.8564148E1,1.4841666E2,1.0711753E1,3.3470734E1,0E0,3.0851303E1,7.544556E1,8.553436E1,0E0,0E0,0E0,0E0,0E0,0E0,0E0,0E0,0E0,0E0,0E0,0E0,0E0,0E0,0E0,0E0,0E0,0E0,0E0,0E0,0E0,0E0,0E0,0E0,0E0,0E0],"parents":[2147483647,0,0,1,1,2,2,4,4,5,5,6,6,7,7,8,8,9,9,10,10,11,11,12,12,13,13,14,14,15,15,18,18,19,19,20,20,22,22,23,23,24,24,25,25,27,27,28,28,31,31,33,33,34,34,35,35,36,36,37,37,38,38,40,40,41,41,42,42],"right_children":[2,4,6,-1,8,10,12,14,16,18,20,22,24,26,28,30,-1,-1,32,34,36,-1,38,40,42,44,-1,46,48,-1,-1,50,-1,52,54,56,58,60,62,-1,64,66,68,-1,-1,-1,-1,-1,-1,-1,-1,-1,-1,-1,-1,-1,-1,-1,-1,-1,-1,-1,-1,-1,-1,-1,-1,-1,-1],"split_conditions":[-9.63E0,5.437722E1,2.5E0,2.237281E0,7.4E1,-3.0932195E-2,1.7140832E0,5.465014E1,3.105E1,5.4178474E1,2.6530182E-2,5.4178474E1,3.12E1,2.4494185E0,3.14E1,7.4994604E2,4.0968335E-1,2.3515117E0,7.541264E1,6.05315E4,7.55607E1,-1.0051868E0,2.9377723E0,5.419014E1,6.05265E4,7.541264E1,-1.9972509E-1,7.3225E2,-1.02E1,1.153931E0,2.2865734E0,6.05175E4,2.0259085E-1,-7.7570085E-3,9.092372E-1,7.7E2,7.3785E2,6.05075E4,3.5144782E0,2.2047114E0,7.55E1,1.0619857E0,3.32E1,9.781136E-1,-3.280616E-3,3.3841187E-1,5.3982925E-1,1.3891035E-1,-4.0145125E-2,6.858885E-1,1.2137733E0,6.1231244E-1,2.629038E-1,2.4795201E-1,9.088377E-1,7.153177E-1,3.0698276E-1,3.839092E0,3.2222968E-1,-3.6370337E-1,1.1653664E-1,5.374107E-1,2.583981E-1,3.0597904E-1,8.661066E-1,1.9721082E0,8.121924E-1,6.952988E-1,1.8105386E0],"split_indices":[1,34,41,0,40,9,16,35,3,34,9,34,26,16,3,8,0,0,36,33,36,0,10,34,33,36,0,2,0,0,0,33,0,9,23,4,2,33,10,0,40,23,3,0,0,0,0,0,0,0,0,0,0,0,0,0,0,0,0,0,0,0,0,0,0,0,0,0,0],"split_type":[0,0,0,0,0,0,0,0,0,0,0,0,0,0,0,0,0,0,0,0,0,0,0,0,0,0,0,0,0,0,0,0,0,0,0,0,0,0,0,0,0,0,0,0,0,0,0,0,0,0,0,0,0,0,0,0,0,0,0,0,0,0,0,0,0,0,0,0,0],"sum_hessian":[1.526E3,9.4E1,1.432E3,6E0,8.8E1,1.041E3,3.91E2,7.6E1,1.2E1,2.5E1,1.016E3,1.92E2,1.99E2,3.6E1,4E1,9E0,3E0,4E0,2.1E1,8.94E2,1.22E2,4E0,1.88E2,7.3E1,1.26E2,3.4E1,2E0,3.4E1,6E0,5E0,4E0,1.9E1,2E0,8.43E2,5.1E1,1.18E2,4E0,1.5E1,1.73E2,2E0,7.1E1,9.6E1,3E1,3.2E1,2E0,7E0,2.7E1,5E0,1E0,8E0,1.1E1,4.3E1,8E2,2E1,3.1E1,7.4E1,4.4E1,2E0,2E0,7E0,8E0,1.08E2,6.5E1,6.1E1,1E1,5E0,9.1E1,1.2E1,1.8E1],"tree_param":{"num_deleted":"0","num_feature":"42","num_nodes":"69","size_leaf_vector":"0"}},{"base_weights":[1.0948471E0,2.173862E0,1.018519E0,5.539934E0,1.9000707E0,1.3618635E0,8.233556E-1,1.5622077E0,3.8850477E0,1.0415758E0,2.214625E0,7.300472E-1,1.6382251E0,2.6945908E0,1.2684712E0,5.792652E0,2.3935955E0,8.682848E-1,2.3007827E0,1.434226E0,3.2312531E0,5.674462E-1,1.2287796E0,2.8739343E0,7.7045417E-1,-5.3260016E-1,3.193661E0,3.8979766E0,1.0843073E0,2.8848276E0,1.0583487E0,1.0839988E0,-3.4574145E-1,1.0610732E0,3.440458E0,1.2662169E0,3.734722E0,3.8757474E0,1.0393872E0,1.1374825E0,3.8667902E-1,7.844799E-1,1.9340869E0,9.4565175E-2,4.0027676E0,6.1824155E-1,2.5946577E0,1.0690571E0,3.4586735E0,6.7017525E-1,1.2852771E0,8.637799E-1,1.9054438E0,5.852039E-1,-1.4174385E0,3.9902747E0,5.9208846E-1,3.9572263E0,2.3729365E0,1.7659199E0,9.0968466E-1,4.2197022E0,8.9740026E-1,4.5629954E0,1.5482947E0,1.5946633E0,4.9201843E-1,1.7964275E0,8.620421E-1,2.1673128E-1,1.2445332E0,-2.5464733E0,9.156393E-1,2.8155243E0,1.1716592E0,-6.8570936E-1,9.891246E-1,2.1132193E0,5.3735247E0,1.5831488E0,3.8489348E-1],"categories":[],"categories_nodes":[],"categories_segments":[],"categories_sizes":[],"default_left":[true,true,true,false,true,true,true,true,true,true,true,true,true,true,true,false,true,true,true,true,true,true,true,true,true,false,true,false,true,false,false,true,true,true,true,true,true,true,true,true,true,true,true,true,true,true,false,false,false,false,false,false,false,false,false,false,false,false,false,false,false,false,false,false,false,false,false,false,false,false,false,false,false,false,false,false,false,false,false,false,false],"id":4,"left_children":[1,3,5,-1,7,9,11,13,15,17,19,21,23,25,27,-1,29,31,33,35,37,39,41,43,45,-1,47,-1,49,-1,-1,51,53,55,57,59,61,63,65,67,69,71,73,75,77,79,-1,-1,-1,-1,-1,-1,-1,-1,-1,-1,-1,-1,-1,-1,-1,-1,-1,-1,-1,-1,-1,-1,-1,-1,-1,-1,-1,-1,-1,-1,-1,-1,-1,-1,-1],"loss_changes":[1.23548096E2,8.163382E1,9.456653E1,0E0,5.6971893E1,1.386278E2,6.822327E1,2.385701E1,2.3121048E1,8.026712E1,1.0643829E2,6.5881226E1,9.751083E1,2.7470451E1,2.8218819E1,0E0,2.85009E0,8.7581635E1,5.992839E1,2.6577896E1,8.0730286E1,6.3550385E1,6.1469696E1,1.1884433E2,1.3945213E1,0E0,4.185135E0,0E0,4.465233E0,0E0,0E0,4.9548187E1,5.1711754E1,2.9233665E1,3.2979736E0,1.2111908E1,3.09346E0,6.6513855E1,3.7745075E0,2.5494904E1,6.8689125E1,5.6942383E1,4.844763E1,9.0542755E0,5.8577606E1,1.1324099E1,0E0,0E0,0E0,0E0,0E0,0E0,0E0,0E0,0E0,0E0,0E0,0E0,0E0,0E0,0E0,0E0,0E0,0E0,0E0,0E0,0E0,0E0,0E0,0E0,0E0,0E0,0E0,0E0,0E0,0E0,0E0,0E0,0E0,0E0,0E0],"parents":[2147483647,0,0,1,1,2,2,4,4,5,5,6,6,7,7,8,8,9,9,10,10,11,11,12,12,13,13,14,14,16,16,17,17,18,18,19,19,20,20,21,21,22,22,23,23,24,24,26,26,28,28,31,31,32,32,33,33,34,34,35,35,36,36,37,37,38,38,39,39,40,40,41,41,42,42,43,43,44,44,45,45],"right_children":[2,4,6,-1,8,10,12,14,16,18,20,22,24,26,28,-1,30,32,34,36,38,40,42,44,46,-1,48,-1,50,-1,-1,52,54,56,58,60,62,64,66,68,70,72,74,76,78,80,-1,-1,-1,-1,-1,-1,-1,-1,-1,-1,-1,-1,-1,-1,-1,-1,-1,-1,-1,-1,-1,-1,-1,-1,-1,-1,-1,-1,-1,-1,-1,-1,-1,-1,-1],"split_conditions":[-9.27E0,5.437722E1,2.8849998E1,1.6619803E0,7.4E1,7.6285E2,7.524736E1,5.4785694E1,2.9199607E0,7.55E1,6.05175E4,2.5E0,7.450569E1,7.6745E2,7.169139E1,1.7377957E0,3.105E1,5.65E1,1.3400567E0,7.45E1,4.35E1,1.4603313E3,1.8614016E0,2.322E3,4.1800003E1,-1.5978006E-1,6.05195E4,1.1693931E0,5.5255554E1,8.654483E-1,3.175046E-1,4.95E1,1.6266534E-1,7.319E2,6.0516E4,1.5E0,1.15E0,7.37E2,7.65E1,5.4739723E1,3.2272052E-2,5.4178474E1,5.5635002E1,9.95E1,7.6595E2,2.995E1,7.783973E-1,3.2071716E-1,1.0376021E0,2.0105259E-1,3.8558316E-1,2.59134E-1,5.7163316E-1,1.7556117E-1,-4.2523158E-1,1.1970824E0,1.7762655E-1,1.1871679E0,7.11881E-1,5.29776E-1,2.729054E-1,1.2659107E0,2.6922008E-1,1.3688986E0,4.6448842E-1,4.78399E-1,1.4760554E-1,5.389283E-1,2.5861266E-1,6.5019384E-2,3.7335998E-1,-7.63942E-1,2.746918E-1,8.4465736E-1,3.5149777E-1,-2.0571281E-1,2.967374E-1,6.339658E-1,1.6120574E0,4.7494468E-1,1.1546805E-1],"split_indices":[1,34,27,0,40,4,36,34,10,40,33,41,37,4,36,0,3,40,16,40,40,19,16,22,26,0,33,0,34,0,0,40,17,2,33,41,0,2,29,35,9,34,34,5,4,3,0,0,0,0,0,0,0,0,0,0,0,0,0,0,0,0,0,0,0,0,0,0,0,0,0,0,0,0,0,0,0,0,0,0,0],"split_type":[0,0,0,0,0,0,0,0,0,0,0,0,0,0,0,0,0,0,0,0,0,0,0,0,0,0,0,0,0,0,0,0,0,0,0,0,0,0,0,0,0,0,0,0,0,0,0,0,0,0,0,0,0,0,0,0,0,0,0,0,0,0,0,0,0,0,0,0,0,0,0,0,0,0,0,0,0,0,0,0,0],"sum_hessian":[1.526E3,9.9E1,1.427E3,6E0,9.3E1,5.15E2,9.12E2,8.1E1,1.2E1,3.76E2,1.39E2,8.2E2,9.2E1,1.5E1,6.6E1,4E0,8E0,3.32E2,4.4E1,8E1,5.9E1,6.2E2,2E2,3.7E1,5.5E1,2E0,1.3E1,3E0,6.3E1,5E0,3E0,2.82E2,5E1,2.2E1,2.2E1,7.6E1,4E0,4.5E1,1.4E1,1.48E2,4.72E2,1.24E2,7.6E1,1.1E1,2.6E1,5.2E1,3E0,2E0,1.1E1,2.2E1,4.1E1,2.24E2,5.8E1,2.7E1,2.3E1,2E0,2E1,1.3E1,9E0,3E1,4.6E1,3E0,1E0,3.4E1,1.1E1,6E0,8E0,4.2E1,1.06E2,3.95E2,7.7E1,4E0,1.2E2,3.4E1,4.2E1,6E0,5E0,1.2E1,1.4E1,9E0,4.3E1],"tree_param":{"num_deleted":"0","num_feature":"42","num_nodes":"81","size_leaf_vector":"0"}},{"base_weights":[7.806942E-1,1.5723735E0,7.199322E-1,2.9504678E0,1.2639717E0,9.515418E-1,5.4332745E-1,3.161239E0,7.7260894E-1,9.468578E-1,2.9178143E0,1.9891192E0,8.436541E-1,2.052711E0,4.8450226E-1,1.5764996E0,3.5275817E0,2.7831213E0,8.607825E-1,4.564149E0,1.4960566E0,6.061042E0,1.2006208E0,-2.5289813E-1,1.0812339E0,2.7383249E0,1.4868695E-1,2.7883846E-1,8.7783945E-1,4.3041644E-1,2.1970828E0,7.7013654E-1,2.277214E0,2.0854044E0,6.0749733E-1,2.213971E0,-3.7943566E-1,2.7785712E-1,-9.0777355E-1,-1.7413886E-1,1.198498E0,1.6773113E0,3.2248104E0,-7.6391053E-1,1.031547E0,-6.470247E-1,4.72069E-1,1.5492854E0,5.9253746E-1,-2.335658E-1,8.7919044E-1,6.162627E-1,1.2701787E0,2.9942002E0,1.040152E0,2.6045034E0,8.711705E-1,8.2022023E-1,-1.2169719E-1,2.54158E0,6.7610264E-2,-1.6050917E0,1.6596849E0,-1.3721728E0,6.2301546E-1,-1.7810073E0,-6.073923E-1,-6.007823E-1,1.6075326E0,-1.8291895E0,1.2469128E0,2.2780652E0,7.4109507E-1,7.3337555E-4,3.47276E0,-1.661899E0,3.8871476E-1,2.0513785E0,-3.321334E-1,-9.3867576E-1,1.5063806E0,-8.8392687E-1,5.6264496E-1,-9.211498E-2,1.8446424E0,8.9091945E-1,1.2711792E-1],"categories":[],"categories_nodes":[],"categories_segments":[],"categories_sizes":[],"default_left":[true,true,true,true,true,true,true,true,false,true,true,true,true,true,true,true,false,false,true,false,true,false,true,true,true,true,true,true,true,true,false,true,true,true,true,true,true,true,true,true,true,true,true,true,true,true,true,true,true,false,false,false,false,false,false,false,false,false,false,false,false,false,false,false,false,false,false,false,false,false,false,false,false,false,false,false,false,false,false,false,false,false,false,false,false,false,false],"id":5,"left_children":[1,3,5,7,9,11,13,15,-1,17,19,21,23,25,27,29,-1,-1,31,-1,33,-1,35,37,39,41,43,45,47,49,-1,51,53,55,57,59,61,63,65,67,69,71,73,75,77,79,81,83,85,-1,-1,-1,-1,-1,-1,-1,-1,-1,-1,-1,-1,-1,-1,-1,-1,-1,-1,-1,-1,-1,-1,-1,-1,-1,-1,-1,-1,-1,-1,-1,-1,-1,-1,-1,-1,-1,-1],"loss_changes":[7.2322876E1,4.2171417E1,5.7565735E1,6.2791595E0,4.4438324E1,6.69422E1,7.0747604E1,4.308258E0,0E0,9.774727E0,2.5941414E1,1.7573315E2,1.4538235E2,3.8755615E1,6.27726E1,2.6105394E0,0E0,0E0,7.8757668E0,0E0,3.4461575E0,0E0,7.9296425E1,3.501009E1,6.763098E1,5.9466705E0,8.039272E0,9.208374E1,5.0229813E1,1.0992827E0,0E0,4.75716E0,4.3340302E-1,8.8257027E-1,8.754003E-1,2.0923172E1,5.2649155E1,3.2748096E1,1.0721867E1,3.1371311E1,6.369995E1,3.3736591E0,1.1189163E1,5.821226E0,7.6349516E0,5.7309822E1,5.2696114E1,3.846904E1,2.6133705E1,0E0,0E0,0E0,0E0,0E0,0E0,0E0,0E0,0E0,0E0,0E0,0E0,0E0,0E0,0E0,0E0,0E0,0E0,0E0,0E0,0E0,0E0,0E0,0E0,0E0,0E0,0E0,0E0,0E0,0E0,0E0,0E0,0E0,0E0,0E0,0E0,0E0,0E0],"parents":[2147483647,0,0,1,1,2,2,3,3,4,4,5,5,6,6,7,7,9,9,10,10,11,11,12,12,13,13,14,14,15,15,18,18,20,20,22,22,23,23,24,24,25,25,26,26,27,27,28,28,29,29,31,31,32,32,33,33,34,34,35,35,36,36,37,37,38,38,39,39,40,40,41,41,42,42,43,43,44,44,45,45,46,46,47,47,48,48],"right_children":[2,4,6,8,10,12,14,16,-1,18,20,22,24,26,28,30,-1,-1,32,-1,34,-1,36,38,40,42,44,46,48,50,-1,52,54,56,58,60,62,64,66,68,70,72,74,76,78,80,82,84,86,-1,-1,-1,-1,-1,-1,-1,-1,-1,-1,-1,-1,-1,-1,-1,-1,-1,-1,-1,-1,-1,-1,-1,-1,-1,-1,-1,-1,-1,-1,-1,-1,-1,-1,-1,-1,-1,-1],"split_conditions":[-9.35E0,5.405875E1,5.4578056E1,3.26E1,7.4E1,-3.0932195E-2,5.491694E1,6.05195E4,2.3178269E-1,7.169139E1,3.0097132E0,5.4178474E1,5.3821526E1,6.793106E0,1.8614016E0,5E-1,1.0582745E0,8.3493644E-1,6.0532E4,1.3692447E0,3.02E1,1.8183126E0,6.05225E4,1.5E0,7.243222E1,5E-1,5E-1,5.5220554E1,5.5635002E1,-2.1E1,6.5912485E-1,3.485E1,-1.045E1,5E-1,-1.07E1,7.541264E1,6.05325E4,4.7326064E-1,8.5920654E-2,3.765E1,4.004069E-1,1.5E0,2.97E1,1.7019697E1,1.7019697E1,7.3685E2,6.05025E4,3.478174E-1,1.72655E3,-7.0069745E-2,2.6375714E-1,1.8487881E-1,3.8105363E-1,8.982601E-1,3.120456E-1,7.8135103E-1,2.6135117E-1,2.4606608E-1,-3.6509156E-2,7.62474E-1,2.028308E-2,-4.8152754E-1,4.979055E-1,-4.1165188E-1,1.8690464E-1,-5.3430223E-1,-1.822177E-1,-1.8023469E-1,4.822598E-1,-5.487569E-1,3.7407386E-1,6.834196E-1,2.2232853E-1,2.2001268E-4,1.041828E0,-4.985697E-1,1.1661443E-1,6.1541355E-1,-9.964003E-2,-2.8160274E-1,4.519142E-1,-2.6517808E-1,1.687935E-1,-2.7634494E-2,5.5339277E-1,2.6727584E-1,3.8135376E-2],"split_indices":[0,35,35,3,40,9,38,33,0,36,10,34,35,18,16,32,0,0,33,0,3,0,33,41,36,32,32,34,34,0,0,27,0,32,0,36,33,16,17,3,13,41,26,7,7,2,33,14,19,0,0,0,0,0,0,0,0,0,0,0,0,0,0,0,0,0,0,0,0,0,0,0,0,0,0,0,0,0,0,0,0,0,0,0,0,0,0],"split_type":[0,0,0,0,0,0,0,0,0,0,0,0,0,0,0,0,0,0,0,0,0,0,0,0,0,0,0,0,0,0,0,0,0,0,0,0,0,0,0,0,0,0,0,0,0,0,0,0,0,0,0,0,0,0,0,0,0,0,0,0,0,0,0,0,0,0,0,0,0,0,0,0,0,0,0,0,0,0,0,0,0,0,0,0,0,0,0],"sum_hessian":[1.526E3,1.07E2,1.419E3,1.8E1,8.9E1,6.12E2,8.07E2,1.6E1,2E0,7.6E1,1.3E1,5.6E1,5.56E2,2.9E1,7.78E2,4E0,1.2E1,2E0,7.4E1,5E0,8E0,8E0,4.8E1,9.9E1,4.57E2,2.1E1,8E0,5.12E2,2.66E2,2E0,2E0,7.1E1,3E0,4E0,4E0,2.9E1,1.9E1,5.5E1,4.4E1,3.9E1,4.18E2,8E0,1.3E1,4E0,4E0,8.8E1,4.24E2,7.8E1,1.88E2,1E0,1E0,5.6E1,1.5E1,1E0,2E0,2E0,2E0,3E0,1E0,2.5E1,4E0,1.2E1,7E0,9E0,4.6E1,1E1,3.4E1,3.2E1,7E0,6E0,4.12E2,4E0,4E0,1E0,1.2E1,2E0,2E0,2E0,2E0,7.8E1,1E1,2.6E1,3.98E2,1.2E1,6.6E1,1.14E2,7.4E1],"tree_param":{"num_deleted":"0","num_feature":"42","num_nodes":"87","size_leaf_vector":"0"}},{"base_weights":[5.54453E-1,1.2495595E0,5.0538784E-1,3.4037726E0,1.0758462E0,7.5361884E-1,3.6454162E-1,8.723111E-1,2.276925E0,-1.1334734E0,8.2018006E-1,3.1537297E-1,1.1258385E0,2.561265E0,7.7575254E-1,2.7057343E0,6.3567066E-1,-2.7508147E0,-2.9981798E-1,6.178371E-1,1.4206476E0,1.859197E-1,6.9987553E-1,6.637857E-1,8.913491E0,1.5681319E0,5.655366E-1,8.8448656E-1,-7.43558E-1,3.1621167E-1,9.6444905E-1,1.9635279E0,5.0887036E-1,4.3220562E-1,2.4409872E-2,9.568457E-1,7.462059E-2,8.996682E-1,-1.7806201E0,-5.493327E-1,1.9098649E0,6.330115E-1,8.285541E-2,1.7539167E-1,-8.6515146E-1,2.2024934E0,2.1683845E-1,1.5871748E-1,1.3556284E0,5.886253E-1,2.3088477E0,1.370325E0,2.749366E-1,3.4187558E-1,1.5362064E0,-5.151164E-1,1.5238474E-1,1.0707918E0,-6.1143976E-1,-4.5435363E-1,8.652119E-1,1.6480154E0,-3.6867017E-1],"categories":[],"categories_nodes":[],"categories_segments":[],"categories_sizes":[],"default_left":[true,true,true,false,true,true,true,true,true,true,true,true,true,false,true,false,false,false,true,true,true,true,true,true,false,true,true,false,true,true,true,true,true,true,true,true,true,true,false,false,false,false,false,false,false,false,false,false,false,false,false,false,false,false,false,false,false,false,false,false,false,false,false],"id":6,"left_children":[1,3,5,-1,7,9,11,13,15,17,19,21,23,-1,25,-1,-1,-1,27,29,31,33,35,37,-1,39,41,-1,43,45,47,49,51,53,55,57,59,61,-1,-1,-1,-1,-1,-1,-1,-1,-1,-1,-1,-1,-1,-1,-1,-1,-1,-1,-1,-1,-1,-1,-1,-1,-1],"loss_changes":[5.144763E1,3.3759613E1,4.965158E1,0E0,2.0993202E1,6.574292E1,3.382029E1,1.1385899E1,7.4292526E0,2.3444752E1,5.9751007E1,4.2626717E1,1.9199023E2,0E0,1.2272255E1,0E0,0E0,0E0,7.48947E0,3.8900146E1,6.0874054E1,2.5606222E1,3.463372E1,3.216137E1,0E0,1.2626873E1,2.0319595E0,0E0,1.2691231E0,3.7386475E1,5.462712E1,3.567389E1,9.296367E0,2.4904545E1,2.7006361E1,2.7995834E1,2.7158064E1,4.7116283E1,0E0,0E0,0E0,0E0,0E0,0E0,0E0,0E0,0E0,0E0,0E0,0E0,0E0,0E0,0E0,0E0,0E0,0E0,0E0,0E0,0E0,0E0,0E0,0E0,0E0],"parents":[2147483647,0,0,1,1,2,2,4,4,5,5,6,6,7,7,8,8,9,9,10,10,11,11,12,12,14,14,18,18,19,19,20,20,21,21,22,22,23,23,25,25,26,26,28,28,29,29,30,30,31,31,32,32,33,33,34,34,35,35,36,36,37,37],"right_children":[2,4,6,-1,8,10,12,14,16,18,20,22,24,-1,26,-1,-1,-1,28,30,32,34,36,38,-1,40,42,-1,44,46,48,50,52,54,56,58,60,62,-1,-1,-1,-1,-1,-1,-1,-1,-1,-1,-1,-1,-1,-1,-1,-1,-1,-1,-1,-1,-1,-1,-1,-1,-1],"split_conditions":[-9.27E0,5.437722E1,2.8849998E1,1.0211319E0,7.4E1,6.05015E4,3.4329586E-2,7.169139E1,3.105E1,2.625E1,7.6295E2,2.5E0,7.55607E1,7.683795E-1,5.4785694E1,8.117203E-1,1.907012E-1,-8.252444E-1,3.15E1,7.4551487E-1,7.0622375E1,7.4865906E2,5.65E1,6.0532E4,2.6740475E0,7.6745E2,7.541264E1,2.65346E-1,5E-1,7.169139E1,9.101187E-1,5.3970276E1,2.9849998E1,6.0531E4,5.4849583E1,4.786819E-3,1.8614016E0,3.245E1,-5.3418607E-1,-1.6479981E-1,5.729595E-1,1.8990347E-1,2.4856625E-2,5.2617505E-2,-2.5954545E-1,6.6074806E-1,6.505154E-2,4.761525E-2,4.0668854E-1,1.765876E-1,6.926543E-1,4.110975E-1,8.248098E-2,1.0256268E-1,4.6086192E-1,-1.5453492E-1,4.5715425E-2,3.2123756E-1,-1.8343194E-1,-1.3630609E-1,2.595636E-1,4.9440464E-1,-1.1060105E-1],"split_indices":[1,34,27,0,40,33,9,36,3,27,4,41,36,0,34,0,0,0,26,25,11,8,40,33,0,4,36,0,32,36,23,35,3,33,34,9,16,3,0,0,0,0,0,0,0,0,0,0,0,0,0,0,0,0,0,0,0,0,0,0,0,0,0],"split_type":[0,0,0,0,0,0,0,0,0,0,0,0,0,0,0,0,0,0,0,0,0,0,0,0,0,0,0,0,0,0,0,0,0,0,0,0,0,0,0,0,0,0,0,0,0,0,0,0,0,0,0,0,0,0,0,0,0,0,0,0,0,0,0],"sum_hessian":[1.526E3,9.9E1,1.427E3,6E0,9.3E1,5.15E2,9.12E2,8.1E1,1.2E1,1.7E1,4.98E2,8.58E2,5.4E1,3E0,7.8E1,9E0,3E0,5E0,1.2E1,3.74E2,1.24E2,6.43E2,2.15E2,5.2E1,2E0,1.5E1,6.3E1,3E0,9E0,2.01E2,1.73E2,7.7E1,4.7E1,2.54E2,3.89E2,1.52E2,6.3E1,4.8E1,4E0,2E0,1.3E1,5.5E1,8E0,1E0,8E0,9E0,1.92E2,5.7E1,1.16E2,1.6E1,6.1E1,9E0,3.8E1,2.36E2,1.8E1,7.4E1,3.15E2,1.42E2,1E1,3.8E1,2.5E1,3E1,1.8E1],"tree_param":{"num_deleted":"0","num_feature":"42","num_nodes":"63","size_leaf_vector":"0"}},{"base_weights":[3.9363793E-1,-2.3294657E-1,4.3119463E-1,7.634758E-1,-1.31872E0,5.003808E-1,9.6357904E-2,1.964874E0,1.18771024E-1,-5.740336E-1,-2.935787E0,1.0422809E0,4.221173E-1,2.9026082E-1,-9.8284936E-1,8.926739E-1,3.6030953E0,-4.1302732E-1,2.0010836E0,9.927021E-1,-8.5325074E-1,-3.8471699E0,-7.0814E-1,3.5896795E0,7.74355E-1,-2.4276495E-1,4.9040458E-1,7.4190897E-1,-7.894287E-2,-1.9935769E0,-4.3968368E-1,1.4364333E0,-4.712403E-2,3.7057093E-1,-8.035777E-1,3.0519564E0,4.4993973E-1,-1.5740199E0,-4.4546333E-1,-1.2392117E0,5.897824E-2,3.941013E0,-4.8882985E-1,-1.0732769E-1,9.625648E-1,1.9330242E-1,-7.6065105E-1,7.8871423E-1,3.21521E-1,4.9586713E-1,1.6397725E0,8.8959527E-1,-2.4118254E-1,-3.0385907E0,-2.6796237E-1,6.399697E-1,-1.0489101E0,6.491022E-1,-3.8345614E-1,5.4240394E-1,-5.020466E-1,-1.5704695E0,5.2600488E-2,1.777242E-1,6.3329315E-1,-7.8217804E-1,-1.8395779E0,2.6207826E-1,-7.377546E-1,1.1857951E-1,-3.0112147E-2,6.693198E-1,-1.5624032E0,1.7050792E0,6.979121E-1,3.7276536E-1,-1.3045287E0,-1.4314826E0,-4.4339192E-1,1.1417601E0,3.1822333E-1,2.2391036E-1,8.0832374E-1,6.826793E-1,-2.4734582E-1,3.812426E0,8.5833246E-1,1.2950875E0,-1.4343976E0,3.7358713E-1,-6.5043455E-1,1.8145962E-1,9.1539985E-1,-1.5469162E0,-2.9528883E-1],"categories":[],"categories_nodes":[],"categories_segments":[],"categories_sizes":[],"default_left":[true,true,true,true,true,true,true,true,true,true,true,true,true,true,true,true,false,true,true,false,true,false,true,true,true,true,true,true,true,true,true,false,true,true,true,false,true,true,true,false,true,false,false,true,true,true,true,true,true,true,true,true,true,false,false,true,true,false,false,false,false,false,false,false,false,false,false,false,false,false,false,false,false,false,false,false,false,false,false,false,false,false,false,false,false,false,false,false,false,false,false,false,false,false,false],"id":7,"left_children":[1,3,5,7,9,11,13,15,17,19,21,23,25,27,29,31,-1,33,35,-1,37,-1,39,41,43,45,47,49,51,53,55,-1,57,59,61,-1,63,65,67,-1,69,-1,-1,71,73,75,77,79,81,83,85,87,89,-1,-1,91,93,-1,-1,-1,-1,-1,-1,-1,-1,-1,-1,-1,-1,-1,-1,-1,-1,-1,-1,-1,-1,-1,-1,-1,-1,-1,-1,-1,-1,-1,-1,-1,-1,-1,-1,-1,-1,-1,-1],"loss_changes":[3.6034485E1,9.513115E1,3.3334106E1,3.5395798E1,4.889148E1,5.0198822E1,5.2182117E1,2.488763E1,3.1857832E1,1.3970805E1,2.3668777E1,9.959743E1,4.75652E1,3.5242855E1,1.9985176E1,5.6889544E0,0E0,7.948648E0,1.00371895E1,0E0,6.940769E0,0E0,2.11006E0,2.1987335E1,2.2837273E1,2.2278692E1,4.7506256E1,2.017353E1,1.8599386E1,2.2628555E1,1.777286E1,0E0,1.4197184E0,1.6218125E0,1.124474E1,0E0,8.709508E-2,4.536419E-1,3.9158967E0,0E0,1.9500384E-2,0E0,0E0,2.9297766E1,2.1015457E1,1.5001763E1,8.942524E0,5.6444534E1,2.8661903E1,1.0720789E1,3.0683647E1,1.7877808E1,2.5654163E1,0E0,0E0,1.096767E0,5.9234486E0,0E0,0E0,0E0,0E0,0E0,0E0,0E0,0E0,0E0,0E0,0E0,0E0,0E0,0E0,0E0,0E0,0E0,0E0,0E0,0E0,0E0,0E0,0E0,0E0,0E0,0E0,0E0,0E0,0E0,0E0,0E0,0E0,0E0,0E0,0E0,0E0,0E0,0E0],"parents":[2147483647,0,0,1,1,2,2,3,3,4,4,5,5,6,6,7,7,8,8,9,9,10,10,11,11,12,12,13,13,14,14,15,15,17,17,18,18,20,20,22,22,23,23,24,24,25,25,26,26,27,27,28,28,29,29,30,30,32,32,33,33,34,34,36,36,37,37,38,38,40,40,43,43,44,44,45,45,46,46,47,47,48,48,49,49,50,50,51,51,52,52,55,55,56,56],"right_children":[2,4,6,8,10,12,14,16,18,20,22,24,26,28,30,32,-1,34,36,-1,38,-1,40,42,44,46,48,50,52,54,56,-1,58,60,62,-1,64,66,68,-1,70,-1,-1,72,74,76,78,80,82,84,86,88,90,-1,-1,92,94,-1,-1,-1,-1,-1,-1,-1,-1,-1,-1,-1,-1,-1,-1,-1,-1,-1,-1,-1,-1,-1,-1,-1,-1,-1,-1,-1,-1,-1,-1,-1,-1,-1,-1,-1,-1,-1,-1],"split_conditions":[6.05025E4,3.2950053E0,3.6985645E0,5E-1,6.05015E4,-4.447245E-3,7.45E1,3.0454998E0,7.519087E2,5.772984E-1,1.5E0,5.4178474E1,5.3821526E1,3.335E1,3.19E1,1.854E3,1.0809287E0,1.2055905E3,1.05E0,2.9781064E-1,3.4541085E0,-1.154151E0,-4E0,7.3615E2,6.301136E-2,1.5E0,5.4578056E1,7.420375E1,6.05075E4,1.3858752E3,-4.5E0,4.3093002E-1,9.8E1,1.6903797E1,1.3116523E3,9.1558695E-1,5E-1,1.5744048E-1,3.275E1,-3.7176353E-1,-2.35E0,1.182304E0,-1.4664896E-1,6.05225E4,5E-1,3.4936194E0,3.03E1,7.6530005E2,2.5167375E0,2.691E3,7.432097E1,2.75E0,5.4785694E1,-9.115772E-1,-8.038871E-2,3.109724E0,1.5134576E-1,1.9473067E-1,-1.15036845E-1,1.6272119E-1,-1.5061398E-1,-4.7114086E-1,1.5780147E-2,5.331726E-2,1.8998796E-1,-2.3465343E-1,-5.518734E-1,7.862348E-2,-2.2132638E-1,3.5573855E-2,-9.033645E-3,2.0079595E-1,-4.6872097E-1,5.115238E-1,2.0937364E-1,1.11829616E-1,-3.9135864E-1,-4.294448E-1,-1.3301758E-1,3.4252805E-1,9.5467E-2,6.717311E-2,2.4249713E-1,2.048038E-1,-7.420375E-2,1.1437279E0,2.5749975E-1,3.8852626E-1,-4.3031928E-1,1.1207614E-1,-1.9513038E-1,5.4437887E-2,2.7461997E-1,-4.6407488E-1,-8.858665E-2],"split_indices":[33,10,10,41,33,9,40,10,8,13,41,34,35,3,3,22,0,15,6,0,10,0,1,2,17,41,35,36,33,15,1,0,5,7,15,0,32,17,26,0,0,0,0,33,32,10,27,4,23,22,36,0,34,0,0,12,17,0,0,0,0,0,0,0,0,0,0,0,0,0,0,0,0,0,0,0,0,0,0,0,0,0,0,0,0,0,0,0,0,0,0,0,0,0,0],"split_type":[0,0,0,0,0,0,0,0,0,0,0,0,0,0,0,0,0,0,0,0,0,0,0,0,0,0,0,0,0,0,0,0,0,0,0,0,0,0,0,0,0,0,0,0,0,0,0,0,0,0,0,0,0,0,0,0,0,0,0,0,0,0,0,0,0,0,0,0,0,0,0,0,0,0,0,0,0,0,0,0,0,0,0,0,0,0,0,0,0,0,0,0,0,0,0],"sum_hessian":[1.526E3,8.6E1,1.44E3,4.5E1,4.1E1,1.193E3,2.47E2,1.5E1,3E1,2.9E1,1.2E1,1.49E2,1.044E3,2.1E2,3.7E1,1E1,5E0,2.4E1,6E0,4E0,2.5E1,8E0,4E0,1.3E1,1.36E2,9.7E1,9.47E2,9.4E1,1.16E2,1.2E1,2.5E1,6E0,4E0,8E0,1.6E1,3E0,3E0,8E0,1.7E1,2E0,2E0,1.2E1,1E0,2.4E1,1.12E2,5.3E1,4.4E1,3.41E2,6.06E2,7.5E1,1.9E1,1.6E1,1E2,7E0,5E0,9E0,1.6E1,1E0,3E0,7E0,1E0,8E0,8E0,2E0,1E0,3E0,5E0,5E0,1.2E1,1E0,1E0,1.6E1,8E0,2.8E1,8.4E1,4.8E1,5E0,1.3E1,3.1E1,1.94E2,1.47E2,5.06E2,1E2,6E1,1.5E1,4E0,1.5E1,1.4E1,2E0,4E1,6E1,4E0,5E0,9E0,7E0],"tree_param":{"num_deleted":"0","num_feature":"42","num_nodes":"95","size_leaf_vector":"0"}},{"base_weights":[2.7670056E-1,-7.3056483E-1,2.932707E-1,-1.2736658E0,1.2015324E0,6.0760087E-1,2.4455725E-1,-1.9841372E0,-5.1199484E-1,1.3120612E0,3.2444417E-1,9.04704E-1,-8.273653E-1,6.897148E-1,1.8908548E-1,-6.409528E-1,-2.239814E0,-7.56986E-1,3.936437E-1,7.4974453E-1,3.2625926E0,-1.3686622E0,-3.5295948E-1,1.5691034E0,4.5431155E-1,-1.4285871E0,2.0155941E-1,2.084716E0,5.29897E-1,-9.932685E-1,5.2284284E0,5.0578326E-1,-1.6725675E0,-5.03649E-1,-1.8388176E-1,2.2468743E0,-5.7562584E-1,-6.0124004E-1,7.104769E-1,-3.161295E-2,-1.8232063E0,1.4509678E-1,5.224215E-1,2.5847774E0,3.2042256E-1,8.932655E-1,-1.0035712E-1,4.58982E-2,-1.3549567E0,3.0795105E0,7.0671487E0,-1.8114039E0,-5.5969954E-1,-1.4848316E-1,-5.738801E-1,-6.2601104E-2,-3.8047263E-1,3.2393873E-1,2.7630265E0,5.24643E-1,-1.8070555E0,-2.1517498E0,-5.1001232E-2,2.8488836E0,4.756988E-1,2.6701355E-1,-3.1443298E-1,7.312943E-1,8.506416E-2,1.4541313E-1,9.441789E-1],"categories":[],"categories_nodes":[],"categories_segments":[],"categories_sizes":[],"default_left":[true,true,true,true,true,true,true,true,true,false,false,true,true,true,true,false,false,false,false,true,true,true,true,true,true,true,true,true,true,true,true,false,true,true,true,true,true,true,true,true,false,true,true,false,false,false,false,false,false,false,false,false,false,false,false,false,false,false,false,false,false,false,false,false,false,false,false,false,false,false,false],"id":8,"left_children":[1,3,5,7,9,11,13,15,17,-1,-1,19,21,23,25,-1,-1,-1,-1,27,29,31,33,35,37,39,41,43,45,47,49,-1,51,53,55,57,59,61,63,65,-1,67,69,-1,-1,-1,-1,-1,-1,-1,-1,-1,-1,-1,-1,-1,-1,-1,-1,-1,-1,-1,-1,-1,-1,-1,-1,-1,-1,-1,-1],"loss_changes":[2.5700699E1,2.7763443E1,2.2865524E1,9.807041E0,1.5597153E-1,8.644143E1,3.204544E1,1.9985962E0,2.7385912E0,0E0,0E0,5.8571854E1,8.504721E0,2.9096718E1,2.3695278E1,0E0,0E0,0E0,0E0,4.526677E1,8.8856476E1,9.960417E0,4.169531E-1,4.4902412E1,3.1522676E1,4.90382E0,2.0794655E1,1.858139E1,3.1464634E1,1.565608E0,5.895462E0,0E0,1.1492538E0,1.6422534E-1,2.3845136E-1,2.1933075E1,1.1787289E1,1.9512724E1,4.533554E1,3.3733052E-1,0E0,3.4460136E1,2.7211746E1,0E0,0E0,0E0,0E0,0E0,0E0,0E0,0E0,0E0,0E0,0E0,0E0,0E0,0E0,0E0,0E0,0E0,0E0,0E0,0E0,0E0,0E0,0E0,0E0,0E0,0E0,0E0,0E0],"parents":[2147483647,0,0,1,1,2,2,3,3,4,4,5,5,6,6,7,7,8,8,11,11,12,12,13,13,14,14,19,19,20,20,21,21,22,22,23,23,24,24,25,25,26,26,27,27,28,28,29,29,30,30,32,32,33,33,34,34,35,35,36,36,37,37,38,38,39,39,41,41,42,42],"right_children":[2,4,6,8,10,12,14,16,18,-1,-1,20,22,24,26,-1,-1,-1,-1,28,30,32,34,36,38,40,42,44,46,48,50,-1,52,54,56,58,60,62,64,66,-1,68,70,-1,-1,-1,-1,-1,-1,-1,-1,-1,-1,-1,-1,-1,-1,-1,-1,-1,-1,-1,-1,-1,-1,-1,-1,-1,-1,-1,-1],"split_conditions":[4.6299505E-1,5.3E1,5.3970276E1,6.05225E4,5.565764E1,2.4678826E0,2.160625E2,5.4391808E1,3.9E0,3.9361838E-1,9.733326E-2,2.588474E-2,3.765E1,5.495034E1,4.027525E-1,-1.9228585E-1,-6.7194426E-1,-2.2709581E-1,1.1809312E-1,-3.1616442E-2,5.4391808E1,6.05195E4,7.4827155E2,8.296822E0,7.249856E-2,7.372722E1,2.499584E0,7.473722E1,7.48469E2,5E-1,6.0527E4,1.5173498E-1,2.1E0,6.05195E4,7.473722E1,6.05065E4,6.0514E4,5.463639E1,5.456486E1,6.05205E4,-5.469619E-1,7.1964584E1,2.5E0,7.7543324E-1,9.612677E-2,2.6797965E-1,-3.0107139E-2,1.376946E-2,-4.0648705E-1,9.2385316E-1,2.1201446E0,-5.434212E-1,-1.6790986E-1,-4.454495E-2,-1.7216402E-1,-1.8780332E-2,-1.1414179E-1,9.7181626E-2,8.2890797E-1,1.573929E-1,-5.4211664E-1,-6.45525E-1,-1.530037E-2,8.546651E-1,1.4270964E-1,8.010407E-2,-9.43299E-2,2.1938829E-1,2.5519248E-2,4.362394E-2,2.8325367E-1],"split_indices":[23,40,35,33,34,16,20,34,0,0,0,9,26,38,13,0,0,0,0,9,34,33,8,18,24,36,16,36,8,32,33,0,0,33,36,33,33,35,35,33,0,36,41,0,0,0,0,0,0,0,0,0,0,0,0,0,0,0,0,0,0,0,0,0,0,0,0,0,0,0,0],"split_type":[0,0,0,0,0,0,0,0,0,0,0,0,0,0,0,0,0,0,0,0,0,0,0,0,0,0,0,0,0,0,0,0,0,0,0,0,0,0,0,0,0,0,0,0,0,0,0,0,0,0,0,0,0,0,0,0,0,0,0,0,0,0,0,0,0,0,0,0,0,0,0],"sum_hessian":[1.526E3,2.4E1,1.502E3,1.9E1,5E0,2E2,1.302E3,9E0,1E1,4E0,1E0,1.66E2,3.4E1,1.43E2,1.159E3,2E0,7E0,8E0,2E0,1.57E2,9E0,1.5E1,1.9E1,2.9E1,1.14E2,8E0,1.151E3,2.1E1,1.36E2,3E0,6E0,2E0,1.3E1,9E0,1E1,2.2E1,7E0,2.2E1,9.2E1,2E0,6E0,9.8E2,1.71E2,1.6E1,5E0,8.6E1,5E1,1E0,2E0,4E0,2E0,1.1E1,2E0,2E0,7E0,7E0,3E0,5E0,1.7E1,4E0,3E0,5E0,1.7E1,8E0,8.4E1,1E0,1E0,9E1,8.9E2,9.1E1,8E1],"tree_param":{"num_deleted":"0","num_feature":"42","num_nodes":"71","size_leaf_vector":"0"}},{"base_weights":[1.9582379E-1,6.249538E-1,1.6304782E-1,4.8312923E-1,1.542695E0,1.5453255E-1,1.646677E0,3.801012E-1,1.9480286E0,2.5973768E0,6.681633E-1,-6.3932616E-1,1.6929176E-1,5.3394E-1,7.0087254E-2,1.9283612E-1,2.7774158E0,1.1339037E0,2.4630909E-1,-8.943846E-1,3.5993296E-1,2.0824364E-1,-1.3096532E-1,6.5647995E-1,-3.4462947E-1,-4.0984377E-1,6.093366E-1,1.5940895E0,-1.3048353E0,1.332544E0,2.689916E-1,5.0348E-1,-1.7868853E-1,-1.0859281E0,-6.4260006E-2,2.8458686E0,-7.064279E-1,-2.8572792E-1,2.392304E-1,-1.7667969E-1,2.3203132E0,4.6011227E-1,1.7035341E0,2.1727614E0,-1.0146512E0,-9.919992E-1,-8.461243E-2,1.5159065E0,1.4186516E-1,1.06541395E-1,-1.1671163E0,-4.801023E-1,1.5972614E-1,7.045099E-1,-9.1753167E-1,1.2499187E-1,4.210658E-1,1.1147931E0,-2.6216996E-1],"categories":[],"categories_nodes":[],"categories_segments":[],"categories_sizes":[],"default_left":[true,true,true,true,true,true,false,true,true,false,true,true,true,true,true,true,false,true,true,true,true,true,true,true,true,true,true,false,false,false,false,false,false,true,true,false,false,true,true,true,false,false,false,false,false,false,false,false,false,false,false,false,false,false,false,false,false,false,false],"id":9,"left_children":[1,3,5,7,9,11,-1,13,15,-1,17,19,21,23,25,27,-1,29,31,33,35,37,39,41,43,45,47,-1,-1,-1,-1,-1,-1,49,51,-1,-1,53,55,57,-1,-1,-1,-1,-1,-1,-1,-1,-1,-1,-1,-1,-1,-1,-1,-1,-1,-1,-1],"loss_changes":[2.1375584E1,1.3311771E1,1.768512E1,1.3597494E1,1.1177464E1,1.6663975E1,0E0,4.254875E0,8.198818E0,0E0,1.4889808E0,6.9485264E0,1.626073E1,6.685831E0,8.27261E0,8.375875E0,0E0,3.2878208E-1,7.4574816E-1,3.2693233E0,1.7915825E1,1.8880142E1,1.8339336E1,1.0113388E1,1.569825E1,3.1347628E0,6.141879E0,0E0,0E0,0E0,0E0,0E0,0E0,1.7701893E0,5.4239947E-1,0E0,0E0,4.6317837E1,2.398127E1,1.7736782E1,0E0,0E0,0E0,0E0,0E0,0E0,0E0,0E0,0E0,0E0,0E0,0E0,0E0,0E0,0E0,0E0,0E0,0E0,0E0],"parents":[2147483647,0,0,1,1,2,2,3,3,4,4,5,5,7,7,8,8,10,10,11,11,12,12,13,13,14,14,15,15,17,17,18,18,19,19,20,20,21,21,22,22,23,23,24,24,25,25,26,26,33,33,34,34,37,37,38,38,39,39],"right_children":[2,4,6,8,10,12,-1,14,16,-1,18,20,22,24,26,28,-1,30,32,34,36,38,40,42,44,46,48,-1,-1,-1,-1,-1,-1,50,52,-1,-1,54,56,58,-1,-1,-1,-1,-1,-1,-1,-1,-1,-1,-1,-1,-1,-1,-1,-1,-1,-1,-1],"split_conditions":[-9.35E0,7.4E1,2.0105355E0,6.05315E4,3.0097132E0,1.3094505E1,4.9400312E-1,4.35E1,-1.063E1,7.792131E-1,5E-1,7.539741E2,8.477142E0,3.375E1,2.934375E2,5E-1,8.332248E-1,-1.063E1,-1.07E1,5.6822777E1,6.0505E4,6.05025E4,8.45E1,4.1E1,6.0505E4,5.552403E1,6.05085E4,4.7822687E-1,-3.914506E-1,3.997632E-1,8.069748E-2,1.5104401E-1,-5.360656E-2,5.5458054E1,7.322E2,8.537606E-1,-2.1192837E-1,3.207016E0,4.6499996E0,5.3970276E1,6.96094E-1,1.3803369E-1,5.1106024E-1,6.5182847E-1,-3.0439538E-1,-2.9759976E-1,-2.538373E-2,4.5477197E-1,4.255955E-2,3.196242E-2,-3.501349E-1,-1.4403069E-1,4.7917847E-2,2.1135299E-1,-2.7525952E-1,3.749756E-2,1.2631975E-1,3.3443794E-1,-7.865099E-2],"split_indices":[0,40,17,33,10,7,0,40,1,0,32,8,18,3,20,32,0,1,0,35,33,33,40,40,33,34,33,0,0,0,0,0,0,34,2,0,0,10,28,35,0,0,0,0,0,0,0,0,0,0,0,0,0,0,0,0,0,0,0],"split_type":[0,0,0,0,0,0,0,0,0,0,0,0,0,0,0,0,0,0,0,0,0,0,0,0,0,0,0,0,0,0,0,0,0,0,0,0,0,0,0,0,0,0,0,0,0,0,0,0,0,0,0,0,0,0,0,0,0,0,0],"sum_hessian":[1.526E3,1.07E2,1.419E3,9.4E1,1.3E1,1.412E3,7E0,8.9E1,5E0,5E0,8E0,2.5E1,1.387E3,5.9E1,3E1,2E0,3E0,3E0,5E0,2E1,5E0,1.228E3,1.59E2,5.2E1,7E0,1.6E1,1.4E1,1E0,1E0,2E0,1E0,3E0,2E0,1.6E1,4E0,1E0,4E0,7.2E1,1.156E3,1.57E2,2E0,4.5E1,7E0,1E0,6E0,5E0,1.1E1,4E0,1E1,1E0,1.5E1,1E0,3E0,2.8E1,4.4E1,7.11E2,4.45E2,9E0,1.48E2],"tree_param":{"num_deleted":"0","num_feature":"42","num_nodes":"59","size_leaf_vector":"0"}},{"base_weights":[1.4049599E-1,1.1577436E-1,5.119233E-1,-1.0982743E-1,1.6262177E-1,3.4327093E-1,5.569506E0,-1.818694E-1,1.4523338E0,2.9862604E-1,3.0407626E-2,1.6437439E0,-2.7168936E-1,-3.5011807E-1,5.4377204E-1,-6.416345E-2,1.6103998E0,2.2339232E-1,7.573964E-1,1.7592287E-1,-2.273873E-1,2.1685705E0,3.7723374E-1,1.0972624E0,-7.9018813E-1,-1.7647824E0,-2.631704E-1,8.6511046E-1,-8.3770484E-1,3.778011E-1,1.8713244E0,1.8668427E-1,1.2639886E0,-2.0655595E-1,1.2887393E0,7.976274E-1,8.737497E-2,-6.720801E-2,-1.0091506E0,1.1853775E0,2.8071837E0,1.8796442E0,-9.3764716E-1,1.8837214E0,1.0150109E-1,9.421468E-1,-1.4802617E0,-2.726014E0,-6.6102125E-2,-8.0483705E-2,-9.1426325E-1,2.4070252E-1,1.585549E0,-9.946286E-1,2.0884275E-1,3.1129304E-1,-1.2842187E-1,1.4165536E0,-5.885252E-1,-1.767889E0,2.5743935E-1,2.1645966E0,5.4509556E-1,9.749439E-1,-2.1871016E0,-9.1755617E-1,1.432799E-1,-1.2400348E-1,1.9681523E0,-2.199905E0,-2.7249599E-1,2.2362695E0,1.1207136E-1,2.380484E0,-6.185794E-2,-1.1004335E0,-6.185794E-2,1.9925611E0,4.5208168E-1,-1.1994022E0,1.3821042E0,-8.233746E-2,1.5204533E0,2.6194176E-2,-1.7408987E0],"categories":[],"categories_nodes":[],"categories_segments":[],"categories_sizes":[],"default_left":[true,true,true,true,true,true,false,true,true,true,true,true,true,true,true,false,true,true,true,true,true,true,true,true,true,true,true,true,true,false,false,true,true,true,true,true,true,true,true,true,false,true,true,true,true,true,true,false,false,false,false,false,false,false,false,false,false,false,false,false,false,false,false,false,false,false,false,false,false,false,false,false,false,false,false,false,false,false,false,false,false,false,false,false,false],"id":10,"left_children":[1,3,5,7,9,11,-1,13,15,17,19,21,23,25,27,-1,29,31,33,35,37,39,41,43,45,47,49,51,53,-1,-1,55,57,59,61,63,65,67,69,71,-1,73,75,77,79,81,83,-1,-1,-1,-1,-1,-1,-1,-1,-1,-1,-1,-1,-1,-1,-1,-1,-1,-1,-1,-1,-1,-1,-1,-1,-1,-1,-1,-1,-1,-1,-1,-1,-1,-1,-1,-1,-1,-1],"loss_changes":[1.3962088E1,1.5163034E1,7.9120636E1,2.8061802E1,2.1335184E1,7.482234E1,0E0,2.9125292E1,2.7401047E0,2.002208E1,2.2660397E1,1.9122879E1,4.6294228E1,2.327491E1,2.070118E1,0E0,2.5091648E0,1.9015959E1,4.2265717E1,2.1179852E1,2.7230637E1,9.85791E0,2.151735E1,1.3905058E1,5.758024E1,1.7780876E1,2.1693531E1,1.626271E1,1.6857748E0,0E0,0E0,1.9201292E1,5.638363E0,2.2188662E1,3.3340355E1,2.7535902E1,1.917669E1,2.128312E1,3.1856003E1,1.1028665E1,0E0,5.009161E0,7.8732824E-1,6.573944E-1,1.6651167E1,8.419712E0,1.3395302E1,0E0,0E0,0E0,0E0,0E0,0E0,0E0,0E0,0E0,0E0,0E0,0E0,0E0,0E0,0E0,0E0,0E0,0E0,0E0,0E0,0E0,0E0,0E0,0E0,0E0,0E0,0E0,0E0,0E0,0E0,0E0,0E0,0E0,0E0,0E0,0E0,0E0,0E0],"parents":[2147483647,0,0,1,1,2,2,3,3,4,4,5,5,7,7,8,8,9,9,10,10,11,11,12,12,13,13,14,14,16,16,17,17,18,18,19,19,20,20,21,21,22,22,23,23,24,24,25,25,26,26,27,27,28,28,31,31,32,32,33,33,34,34,35,35,36,36,37,37,38,38,39,39,41,41,42,42,43,43,44,44,45,45,46,46],"right_children":[2,4,6,8,10,12,-1,14,16,18,20,22,24,26,28,-1,30,32,34,36,38,40,42,44,46,48,50,52,54,-1,-1,56,58,60,62,64,66,68,70,72,-1,74,76,78,80,82,84,-1,-1,-1,-1,-1,-1,-1,-1,-1,-1,-1,-1,-1,-1,-1,-1,-1,-1,-1,-1,-1,-1,-1,-1,-1,-1,-1,-1,-1,-1,-1,-1,-1,-1,-1,-1,-1,-1],"split_conditions":[6.05315E4,7.471343E2,7.7135E2,8.5E1,7.4888416E2,7.4715283E2,1.670852E0,4.0515E2,5E-1,7.516236E1,3.295E1,1.752E3,3.18E1,2.845E1,7.310806E1,-1.9249035E-2,1.895968E0,7.642857E-1,3.275E1,5.5012115E1,6.05255E4,7.5894995E2,5E-1,5E-1,6.0742044E-1,6.0518E4,7.469789E2,7.3147644E1,7.473722E1,1.1334033E-1,5.613974E-1,5.3403005E-3,3.7131357E-1,2.9986358E0,6.05105E4,5.376462E-1,7.490048E2,1.565E1,1.31475E2,5E-1,8.4215516E-1,7.3280005E2,7.3365E2,3.05E0,3.1849998E1,9.9E1,3.155E1,-8.178042E-1,-1.9830639E-2,-2.4145113E-2,-2.74279E-1,7.221076E-2,4.756647E-1,-2.983886E-1,6.265283E-2,9.338792E-2,-3.8526565E-2,4.249661E-1,-1.7655756E-1,-5.303667E-1,7.723181E-2,6.49379E-1,1.6352868E-1,2.9248318E-1,-6.561305E-1,-2.7526686E-1,4.298397E-2,-3.7201043E-2,5.904457E-1,-6.599715E-1,-8.17488E-2,6.7088085E-1,3.3621408E-2,7.1414524E-1,-1.8557383E-2,-3.3013004E-1,-1.8557383E-2,5.9776837E-1,1.3562451E-1,-3.5982066E-1,4.1463128E-1,-2.470124E-2,4.5613602E-1,7.858253E-3,-5.2226967E-1],"split_indices":[33,8,4,40,8,8,0,21,32,36,3,22,3,26,37,0,12,17,3,38,33,4,32,32,13,33,8,36,36,0,0,9,14,10,33,14,8,28,21,32,0,2,2,0,27,5,26,0,0,0,0,0,0,0,0,0,0,0,0,0,0,0,0,0,0,0,0,0,0,0,0,0,0,0,0,0,0,0,0,0,0,0,0,0,0],"split_type":[0,0,0,0,0,0,0,0,0,0,0,0,0,0,0,0,0,0,0,0,0,0,0,0,0,0,0,0,0,0,0,0,0,0,0,0,0,0,0,0,0,0,0,0,0,0,0,0,0,0,0,0,0,0,0,0,0,0,0,0,0,0,0,0,0,0,0,0,0,0,0,0,0,0,0,0,0,0,0,0,0,0,0,0,0],"sum_hessian":[1.526E3,1.432E3,9.4E1,2.46E2,1.186E3,9.2E1,2E0,2.36E2,1E1,5.84E2,6.02E2,2.9E1,6.3E1,1.92E2,4.4E1,1E0,9E0,5.03E2,8.1E1,3.85E2,2.17E2,2E1,9E0,1.7E1,4.6E1,1E1,1.82E2,3.6E1,8E0,2E0,7E0,4.87E2,1.6E1,2.9E1,5.2E1,4.7E1,3.38E2,1.81E2,3.6E1,9E0,1.1E1,4E0,5E0,9E0,8E0,1.3E1,3.3E1,6E0,4E0,1.43E2,3.9E1,2E1,1.6E1,7E0,1E0,3.49E2,1.38E2,1.5E1,1E0,6E0,2.3E1,2.3E1,2.9E1,4.5E1,2E0,1.7E1,3.21E2,1.77E2,4E0,1.3E1,2.3E1,4E0,5E0,3E0,1E0,4E0,1E0,8E0,1E0,4E0,4E0,5E0,8E0,5E0,2.8E1],"tree_param":{"num_deleted":"0","num_feature":"42","num_nodes":"85","size_leaf_vector":"0"}},{"base_weights":[1.0095348E-1,-6.301745E-1,1.1304746E-1,-1.0171862E0,7.6489365E-1,3.9341953E-1,9.12758E-2,-1.5334519E0,-4.553823E-1,2.853702E-1,1.09851E0,-1.0126199E-2,1.7565767E-1,-5.8565515E-1,-1.6971942E0,-6.3173264E-1,2.2546291E-1,2.1905477E-1,1.2325398E0,1.6863921E0,2.697148E-1,1.4210518E-1,-1.6328607E-1,9.814139E-1,1.3783687E-1,-1.9082357E0,-7.0937985E-1,6.672892E-2,5.2148217E-1,8.459473E-2,1.7853637E0,3.704456E-1,-1.6733503E-1,9.292251E-2,1.2069473E0,-4.6359375E-1,5.630368E-2,2.3556263E0,5.378912E-1,8.5124E-2,5.963581E-1,7.337173E-1,7.0504807E-3,6.632551E-1,-1.5615194E-1,1.0560918E0,-9.291997E-1,4.8594108E-1,1.912126E-1,6.6535723E-1,3.7391577E-2,-2.2718617E-1,3.1569896E0,-2.66961E-1,-1.5089527E0,1.4799914E0,-2.5371645E-2,8.117683E-1,-3.605817E-1,1.6416265E-1,-4.1937077E-1,1.3314255E0,-5.5062395E-1],"categories":[],"categories_nodes":[],"categories_segments":[],"categories_sizes":[],"default_left":[true,true,true,true,false,true,true,true,true,true,true,true,true,false,true,false,false,true,true,false,true,true,true,true,true,false,false,true,true,true,false,true,false,true,true,true,true,false,true,true,true,false,false,false,false,false,false,false,false,false,false,false,false,false,false,false,false,false,false,false,false,false,false],"id":11,"left_children":[1,3,5,7,-1,9,11,13,15,17,19,21,23,-1,25,-1,-1,27,29,-1,31,33,35,37,39,-1,-1,41,43,45,-1,47,-1,49,51,53,55,-1,57,59,61,-1,-1,-1,-1,-1,-1,-1,-1,-1,-1,-1,-1,-1,-1,-1,-1,-1,-1,-1,-1,-1,-1],"loss_changes":[1.3573346E1,1.4275732E1,9.138649E0,5.102495E0,0E0,7.9144497E0,1.194664E1,5.5797386E-1,1.4631727E0,5.6971426E0,6.3664284E0,1.4828697E1,2.3086182E1,0E0,3.1409454E-1,0E0,0E0,4.111278E0,3.6566362E0,0E0,3.701592E-1,1.6594444E1,2.0930504E1,1.9455738E1,1.7569143E1,0E0,0E0,2.4229214E0,2.985673E0,3.936015E0,0E0,3.1285584E-2,0E0,9.702199E0,3.986992E1,2.714111E1,2.14331E1,0E0,6.9366302E0,2.6186695E1,6.396631E1,0E0,0E0,0E0,0E0,0E0,0E0,0E0,0E0,0E0,0E0,0E0,0E0,0E0,0E0,0E0,0E0,0E0,0E0,0E0,0E0,0E0,0E0],"parents":[2147483647,0,0,1,1,2,2,3,3,5,5,6,6,7,7,8,8,9,9,10,10,11,11,12,12,14,14,17,17,18,18,20,20,21,21,22,22,23,23,24,24,27,27,28,28,29,29,31,31,33,33,34,34,35,35,36,36,38,38,39,39,40,40],"right_children":[2,4,6,8,-1,10,12,14,16,18,20,22,24,-1,26,-1,-1,28,30,-1,32,34,36,38,40,-1,-1,42,44,46,-1,48,-1,50,52,54,56,-1,58,60,62,-1,-1,-1,-1,-1,-1,-1,-1,-1,-1,-1,-1,-1,-1,-1,-1,-1,-1,-1,-1,-1,-1],"split_conditions":[4.6299505E-1,5.3E1,-9.35E0,6.05225E4,2.294681E-1,7.4E1,1.6298595E1,5.4391808E1,3.9E0,6.05315E4,3.1666288E0,3.408722E0,7.169139E1,-1.7569655E-1,7.3415E2,-1.8951981E-1,6.7638874E-2,6.735803E-4,-1.063E1,5.0591767E-1,-8.13E0,8.5E1,6.05115E4,3.175E1,7.55E1,-5.724707E-1,-2.1281396E-1,5.419014E1,5.35E1,5E-1,5.356091E-1,5E-1,-5.020051E-2,6.5611506E-1,1.0692505E0,7.3602356E1,6.05125E4,7.066879E-1,3.52E1,5.55E1,2.088E3,2.201152E-1,2.1151444E-3,1.9897653E-1,-4.684558E-2,3.1682754E-1,-2.7875993E-1,1.4578234E-1,5.7363782E-2,1.9960718E-1,1.1217473E-2,-6.8155855E-2,9.470969E-1,-8.00883E-2,-4.5268583E-1,4.4399744E-1,-7.6114936E-3,2.435305E-1,-1.0817451E-1,4.9248796E-2,-1.2581123E-1,3.9942768E-1,-1.651872E-1],"split_indices":[23,40,0,33,0,40,7,34,0,33,10,10,36,0,2,0,0,9,1,0,1,40,33,26,40,0,0,34,40,32,0,32,0,16,16,37,33,0,27,40,22,0,0,0,0,0,0,0,0,0,0,0,0,0,0,0,0,0,0,0,0,0,0],"split_type":[0,0,0,0,0,0,0,0,0,0,0,0,0,0,0,0,0,0,0,0,0,0,0,0,0,0,0,0,0,0,0,0,0,0,0,0,0,0,0,0,0,0,0,0,0,0,0,0,0,0,0,0,0,0,0,0,0,0,0,0,0,0,0],"sum_hessian":[1.526E3,2.4E1,1.502E3,1.9E1,5E0,1.07E2,1.395E3,9E0,1E1,9.4E1,1.3E1,6.34E2,7.61E2,2E0,7E0,8E0,2E0,8.9E1,5E0,7E0,6E0,3.18E2,3.16E2,3.3E1,7.28E2,5E0,2E0,6E1,2.9E1,2E0,3E0,5E0,1E0,3.05E2,1.3E1,1.33E2,1.83E2,7E0,2.6E1,6.54E2,7.4E1,4E0,5.6E1,2.4E1,5E0,1E0,1E0,2E0,3E0,2.6E1,2.79E2,8E0,5E0,1.13E2,2E1,9E0,1.74E2,2E1,6E0,5.66E2,8.8E1,4.5E1,2.9E1],"tree_param":{"num_deleted":"0","num_feature":"42","num_nodes":"63","size_leaf_vector":"0"}},{"base_weights":[7.246615E-2,8.668745E-2,-3.3259365E-1,2.281382E-2,1.8476342E-1,-1.2955177E0,-1.2807298E-1,-6.573978E-3,6.8575895E-1,1.22782424E-1,7.534869E-1,-1.55504E0,-5.8235466E-1,6.0123646E-1,-3.8939542E-1,3.927073E-1,-6.766322E-2,1.8537441E0,-2.479459E-1,2.639928E-1,-1.1247511E-1,1.5217099E0,1.8905044E-1,1.5570893E0,-3.0395696E-1,-9.331771E-1,-3.4225985E-2,7.18294E-2,1.288771E0,-2.7466616E-1,4.1268095E-2,5.8819896E-1,2.3320382E0,-8.61634E-1,2.0109205E0,7.680297E-1,1.14711374E-1,1.15295365E-1,-7.377961E-1,7.8195345E-1,2.6677537E0,-3.7715122E-1,4.762404E-1,2.34766E0,-1.1978822E0,2.7120972E-1,-4.450197E-1,-1.0334882E0,1.3527775E-1,-1.8348544E0,1.4754815E-1,-7.1195865E-1,6.0831475E-1,6.946284E-1,4.1205583E0,-7.4010473E-1,-7.1450174E-2,7.137638E-1,-4.2117305E-2,-1.5257995E-2,8.9374197E-1,2.8713949E0,5.3547573E-1,-3.0012405E-1,-2.2615352E0,3.222444E-1,2.3525286E0,1.7737406E0,5.8601665E-1,-7.199192E-2,3.7783197E-1,8.0908704E-1,-4.176856E-2,-3.1418762E0,-4.2191538E-1,1.1345732E0,-5.595493E-1,1.5344956E0,4.4227715E0,-7.9077095E-2,-7.7863955E-1,1.4322016E0,2.6123616E-1,-5.881347E-1,1.3527775E-1,6.471475E-1,-6.212813E-2],"categories":[],"categories_nodes":[],"categories_segments":[],"categories_sizes":[],"default_left":[true,true,true,true,true,true,true,true,true,true,true,false,false,true,true,true,true,true,true,true,true,true,true,true,true,true,true,true,true,true,true,true,true,true,true,true,true,true,true,true,true,true,true,false,false,false,true,false,false,false,true,false,false,false,false,false,false,false,false,false,false,false,false,false,false,false,false,false,false,false,false,false,false,false,false,false,false,false,false,false,false,false,false,false,false,false,false],"id":12,"left_children":[1,3,5,7,9,11,13,15,17,19,21,-1,-1,23,25,27,29,31,33,35,37,39,41,43,45,47,49,51,53,55,57,59,61,63,65,67,69,71,73,75,77,79,81,-1,-1,-1,83,-1,-1,-1,85,-1,-1,-1,-1,-1,-1,-1,-1,-1,-1,-1,-1,-1,-1,-1,-1,-1,-1,-1,-1,-1,-1,-1,-1,-1,-1,-1,-1,-1,-1,-1,-1,-1,-1,-1,-1],"loss_changes":[8.825082E0,9.242139E0,1.0074847E1,1.7441345E1,2.0423014E1,7.601509E-1,8.619856E0,2.095473E1,4.1900658E1,1.7503836E1,2.4428265E1,0E0,0E0,1.085607E1,6.341504E0,3.268551E1,1.6810415E1,8.918438E0,3.2229946E1,2.466696E1,2.8286139E1,1.8260975E1,5.708267E0,1.5880219E1,6.8863565E-1,1.5331202E0,7.144191E0,3.6174812E1,4.761231E1,2.425535E1,2.7451384E1,1.1199291E0,1.0090294E1,1.347031E1,2.126236E0,1.2689495E1,1.2554199E1,1.5943363E1,3.892273E1,8.203498E0,1.1113274E1,1.3745068E0,4.3531785E0,0E0,0E0,0E0,5.7785726E-1,0E0,0E0,0E0,2.1352887E0,0E0,0E0,0E0,0E0,0E0,0E0,0E0,0E0,0E0,0E0,0E0,0E0,0E0,0E0,0E0,0E0,0E0,0E0,0E0,0E0,0E0,0E0,0E0,0E0,0E0,0E0,0E0,0E0,0E0,0E0,0E0,0E0,0E0,0E0,0E0,0E0],"parents":[2147483647,0,0,1,1,2,2,3,3,4,4,5,5,6,6,7,7,8,8,9,9,10,10,13,13,14,14,15,15,16,16,17,17,18,18,19,19,20,20,21,21,22,22,23,23,24,24,25,25,26,26,27,27,28,28,29,29,30,30,31,31,32,32,33,33,34,34,35,35,36,36,37,37,38,38,39,39,40,40,41,41,42,42,46,46,50,50],"right_children":[2,4,6,8,10,12,14,16,18,20,22,-1,-1,24,26,28,30,32,34,36,38,40,42,44,46,48,50,52,54,56,58,60,62,64,66,68,70,72,74,76,78,80,82,-1,-1,-1,84,-1,-1,-1,86,-1,-1,-1,-1,-1,-1,-1,-1,-1,-1,-1,-1,-1,-1,-1,-1,-1,-1,-1,-1,-1,-1,-1,-1,-1,-1,-1,-1,-1,-1,-1,-1,-1,-1,-1,-1],"split_conditions":[3.42E0,7.3575E2,5.419014E1,8.5E1,7.4807556E1,1.9170539E0,5E-1,2.6650002E1,7.319E2,7.429E1,5.546514E1,-4.6651202E-1,-1.747064E-1,5.448639E1,5.5099724E1,5.5220554E1,7.2002914E1,7.8E1,7.6705E2,5E-1,3.3379822E0,3.3033175E0,1.2184498E0,4.8E0,6.0508E4,6.05295E4,6.05025E4,6.05205E4,4.02E1,1.2034216E3,7.3079445E1,-3.5E0,2.25225E2,7.651E2,-1.785E1,5.4485275E1,7.6919995E2,3.055E1,7.432597E1,2.289596E0,6.05255E4,-3.95E0,6.957634E1,7.04298E-1,-3.5936466E-1,8.136292E-2,4.8E0,-3.1004646E-1,4.0583327E-2,-5.5045635E-1,5.5458054E1,-2.135876E-1,1.8249443E-1,2.0838854E-1,1.2361676E0,-2.2203143E-1,-2.1435052E-2,2.1412914E-1,-1.2635192E-2,-4.5773988E-3,2.681226E-1,8.614185E-1,1.6064273E-1,-9.003722E-2,-6.784606E-1,9.6673325E-2,7.057586E-1,5.321222E-1,1.75805E-1,-2.1597577E-2,1.13349594E-1,2.4272612E-1,-1.2530568E-2,-9.425629E-1,-1.2657462E-1,3.4037197E-1,-1.6786478E-1,4.603487E-1,1.3268315E0,-2.372313E-2,-2.3359187E-1,4.296605E-1,7.8370854E-2,-1.7644042E-1,4.0583327E-2,1.9414425E-1,-1.863844E-2],"split_indices":[1,2,34,40,39,16,32,27,2,36,34,0,0,34,34,34,37,29,4,32,10,10,23,0,33,33,33,33,26,15,36,1,21,4,0,34,4,3,36,12,33,0,11,0,0,0,0,0,0,0,34,0,0,0,0,0,0,0,0,0,0,0,0,0,0,0,0,0,0,0,0,0,0,0,0,0,0,0,0,0,0,0,0,0,0,0,0],"split_type":[0,0,0,0,0,0,0,0,0,0,0,0,0,0,0,0,0,0,0,0,0,0,0,0,0,0,0,0,0,0,0,0,0,0,0,0,0,0,0,0,0,0,0,0,0,0,0,0,0,0,0,0,0,0,0,0,0,0,0,0,0,0,0,0,0,0,0,0,0,0,0,0,0,0,0,0,0,0,0,0,0,0,0,0,0,0,0],"sum_hessian":[1.526E3,1.475E3,5.1E1,8.94E2,5.81E2,8E0,4.3E1,8.57E2,3.7E1,5.25E2,5.6E1,5E0,3E0,1.1E1,3.2E1,1.13E2,7.44E2,1.6E1,2.1E1,3.28E2,1.97E2,2.3E1,3.3E1,5E0,6E0,1.2E1,2E1,8.4E1,2.9E1,2.56E2,4.88E2,5E0,1.1E1,1.7E1,4E0,7.4E1,2.54E2,1.45E2,5.2E1,1.5E1,8E0,1.1E1,2.2E1,4E0,1E0,1E0,5E0,1.1E1,1E0,1E0,1.9E1,3.4E1,5E1,2.5E1,4E0,7.7E1,1.79E2,5.3E1,4.35E2,2E0,3E0,8E0,3E0,1.3E1,4E0,1E0,3E0,1E1,6.4E1,1.49E2,1.05E2,2.6E1,1.19E2,5E0,4.7E1,1.2E1,3E0,6E0,2E0,7E0,4E0,3E0,1.9E1,4E0,1E0,5E0,1.4E1],"tree_param":{"num_deleted":"0","num_feature":"42","num_nodes":"87","size_leaf_vector":"0"}},{"base_weights":[5.325871E-2,3.9820924E-1,3.491657E-2,-8.8797665E-1,6.733404E-1,7.128357E-2,-2.8574216E-1,-1.5452138E0,-3.5115445E-1,2.0073526E0,5.2626556E-1,3.5196686E-1,3.5864208E-2,1.0835318E-1,-4.589717E-1,-2.1718888E0,-6.889041E-1,-5.829416E-1,3.0673376E-1,2.5955484E0,1.0643674E0,-1.5363412E-1,7.2175103E-1,2.5017159E-2,5.610805E-1,-3.4908065E-1,7.095714E-2,2.4023266E-1,-3.904362E-1,-8.699056E-1,-3.161095E-1,-6.581676E-2,-8.7466097E-1,-2.3969205E-1,-6.72303E-1,3.0848448E0,8.084779E-1,1.0154839E0,-9.1597563E-1,4.4194898E-1,1.9955671E0,1.5010425E-1,-1.7011847E0,8.462295E-1,1.5611145E-1,2.0826764E-2,-1.3600134E0,-2.333262E-2,1.994526E-1,-3.2740736E-1,4.3438148E-1,-5.0292856E-1,-9.5965564E-2,-9.092647E-1,-2.6506448E-1,-4.711104E-1,1.201195E-2,-3.0827028E-1,-1.3404859E0,-2.5912222E-1,5.526689E-1,2.539219E0,8.1711054E-1,-5.0677642E-2,9.578389E-1,2.3163836E-1,1.0891275E0,-5.1960844E-1,2.7423894E-1,3.8499507E-1,-9.452606E-1,-1.8571348E0,2.546211E-1,6.6126347E-1,-8.652207E-2,5.251914E-1,8.4749304E-2,-6.647281E-1,-8.788017E-2,5.6640655E-1,-1.441114E-1,-9.423122E-1,-3.6382818E-1,-5.642102E-1,5.354894E-1,-4.7314048E-1,4.6165264E-1],"categories":[],"categories_nodes":[],"categories_segments":[],"categories_sizes":[],"default_left":[true,true,true,true,true,true,true,true,true,true,true,true,true,true,true,false,true,true,false,true,false,true,true,true,true,true,true,true,true,true,true,false,false,false,false,false,false,false,true,true,true,true,false,true,true,true,true,true,true,true,true,false,false,true,false,true,true,false,false,false,false,false,false,false,false,false,false,false,false,false,false,false,false,false,false,false,false,false,false,false,false,false,false,false,false,false,false],"id":13,"left_children":[1,3,5,7,9,11,13,15,17,19,21,23,25,27,29,-1,31,33,-1,35,-1,37,39,41,43,45,47,49,51,53,55,-1,-1,-1,-1,-1,-1,-1,57,59,61,63,-1,65,67,69,71,73,75,77,79,-1,-1,81,-1,83,85,-1,-1,-1,-1,-1,-1,-1,-1,-1,-1,-1,-1,-1,-1,-1,-1,-1,-1,-1,-1,-1,-1,-1,-1,-1,-1,-1,-1,-1,-1],"loss_changes":[9.647627E0,2.7845884E1,1.6941057E1,4.396865E0,1.1500374E1,1.2951254E1,1.0153536E1,1.7235451E0,1.5512182E0,5.6534195E-1,7.9526043E0,9.967934E0,1.5681518E1,3.1196795E0,5.7718277E0,0E0,4.054036E-1,5.356717E-2,0E0,1.2919426E-1,0E0,1.34079E1,1.551321E1,1.2779038E1,1.0145302E1,3.6301624E1,1.2883755E1,4.219866E0,2.8299308E-1,3.7794304E-1,3.9726706E0,0E0,0E0,0E0,0E0,0E0,0E0,0E0,1.9085627E0,3.1704888E0,3.050537E0,8.968358E0,0E0,7.510433E0,3.1756988E0,2.5694845E1,2.1342274E1,2.6618395E1,1.6768984E1,7.4955845E-1,2.220141E0,0E0,0E0,8.976555E-2,0E0,5.268981E0,5.8901777E0,0E0,0E0,0E0,0E0,0E0,0E0,0E0,0E0,0E0,0E0,0E0,0E0,0E0,0E0,0E0,0E0,0E0,0E0,0E0,0E0,0E0,0E0,0E0,0E0,0E0,0E0,0E0,0E0,0E0,0E0],"parents":[2147483647,0,0,1,1,2,2,3,3,4,4,5,5,6,6,7,7,8,8,9,9,10,10,11,11,12,12,13,13,14,14,16,16,17,17,19,19,21,21,22,22,23,23,24,24,25,25,26,26,27,27,28,28,29,29,30,30,38,38,39,39,40,40,41,41,43,43,44,44,45,45,46,46,47,47,48,48,49,49,50,50,53,53,55,55,56,56],"right_children":[2,4,6,8,10,12,14,16,18,20,22,24,26,28,30,-1,32,34,-1,36,-1,38,40,42,44,46,48,50,52,54,56,-1,-1,-1,-1,-1,-1,-1,58,60,62,64,-1,66,68,70,72,74,76,78,80,-1,-1,82,-1,84,86,-1,-1,-1,-1,-1,-1,-1,-1,-1,-1,-1,-1,-1,-1,-1,-1,-1,-1,-1,-1,-1,-1,-1,-1,-1,-1,-1,-1,-1,-1],"split_conditions":[7.2580005E2,7.1964584E1,3.505E1,5.969327E-1,1.2817815E3,7.20168E1,7.65E1,6.05105E4,-2.55E0,5E-1,7.240489E1,1.6006746E1,7.2523605E1,2.02225E2,3.785E1,-6.515667E-1,-3.75E0,6.05105E4,9.202013E-2,-1.75E0,3.1931025E-1,6.0518E4,6.0526E4,8.596652E0,3.4300003E1,1.335E1,4.6499996E0,3.35E1,6.05105E4,3.862601E0,7.451569E1,-1.974503E-2,-2.623983E-1,-7.190762E-2,-2.0169091E-1,9.254535E-1,2.4254337E-1,3.0464518E-1,2.033E2,2.777143E0,3.306415E0,8.25E1,-5.103555E-1,3.07E1,4.1762787E-1,2.028125E-1,3.005E1,7.298805E1,5E-1,5E-1,1.455391E-2,-1.5087858E-1,-2.8789671E-2,6.0532E4,-7.951935E-2,8.5E1,3.8563043E-1,-9.2481084E-2,-4.021458E-1,-7.773667E-2,1.6580069E-1,7.617657E-1,2.4513318E-1,-1.5203293E-2,2.8735167E-1,6.949151E-2,3.2673827E-1,-1.5588254E-1,8.227169E-2,1.1549853E-1,-2.835782E-1,-5.5714047E-1,7.638633E-2,1.9837905E-1,-2.5956623E-2,1.5755743E-1,2.5424791E-2,-1.9941844E-1,-2.6364053E-2,1.6992196E-1,-4.323342E-2,-2.8269365E-1,-1.0914846E-1,-1.6926306E-1,1.6064683E-1,-1.4194214E-1,1.384958E-1],"split_indices":[2,36,27,13,15,36,29,33,0,32,39,7,36,21,26,0,0,33,0,0,0,33,33,18,3,28,28,40,33,10,36,0,0,0,0,0,0,0,2,10,10,29,0,3,16,17,28,36,32,32,9,0,0,33,0,40,14,0,0,0,0,0,0,0,0,0,0,0,0,0,0,0,0,0,0,0,0,0,0,0,0,0,0,0,0,0,0],"split_type":[0,0,0,0,0,0,0,0,0,0,0,0,0,0,0,0,0,0,0,0,0,0,0,0,0,0,0,0,0,0,0,0,0,0,0,0,0,0,0,0,0,0,0,0,0,0,0,0,0,0,0,0,0,0,0,0,0,0,0,0,0,0,0,0,0,0,0,0,0,0,0,0,0,0,0,0,0,0,0,0,0,0,0,0,0,0,0],"sum_hessian":[1.526E3,7.6E1,1.45E3,1.3E1,6.3E1,1.303E3,1.47E2,5E0,8E0,5E0,5.8E1,1.45E2,1.158E3,4.5E1,1.02E2,2E0,3E0,6E0,2E0,2E0,3E0,1.3E1,4.5E1,5.7E1,8.8E1,9.6E1,1.062E3,3.6E1,9E0,2.5E1,7.7E1,1E0,2E0,2E0,4E0,1E0,1E0,5E0,8E0,3.8E1,7E0,5.4E1,3E0,5.1E1,3.7E1,7.1E1,2.5E1,6.13E2,4.49E2,9E0,2.7E1,6E0,3E0,2.3E1,2E0,5.2E1,2.5E1,4E0,4E0,5E0,3.3E1,4E0,3E0,4.4E1,1E1,1.5E1,3.6E1,5E0,3.2E1,5.2E1,1.9E1,1.9E1,6E0,5.1E1,5.62E2,1.16E2,3.33E2,3E0,6E0,2.2E1,5E0,2.1E1,2E0,4.8E1,4E0,1.2E1,1.3E1],"tree_param":{"num_deleted":"0","num_feature":"42","num_nodes":"87","size_leaf_vector":"0"}},{"base_weights":[3.7481327E-2,6.073093E-2,-1.5350325E-1,1.8925838E-1,2.3778072E-2,-2.7991095E-1,2.9478064E-1,2.6309496E-1,-1.9109336E-1,8.365482E-2,-1.6054954E-1,-2.1846025E-1,-2.1609929E0,-1.1067154E0,1.1000376E0,5.3321966E-3,4.161083E-1,8.843901E-1,-4.487456E-1,-1.2571277E-2,1.8484783E-1,-4.869723E-1,-8.996351E-2,-6.8915015E-1,5.735315E-2,-2.617883E0,-3.9516115E-1,1.1311885E-1,-1.79697E0,1.8477436E0,4.8408095E-2,2.3131323E-1,-5.5174005E-1,9.6832335E-1,2.812254E-1,1.6490114E-1,1.5708989E0,-1.1498011E-2,-9.544271E-1,4.4114906E-2,-7.895328E-1,1.171276E-1,4.4579962E-1,-7.5739765E-1,-2.4232984E-2,4.7673738E-1,-2.0660022E-1,-9.6175325E-1,2.9043755E-1,6.6595113E-1,-5.8141436E-2,-3.3450207E-1,4.2055482E-1,2.514985E0,8.2121885E-1,-4.6979704E-1,5.5854523E-1,1.5171811E-1,1.9318331E0,-7.132567E-1,1.0319842E0,5.0408083E-1,3.97594E0,1.07839294E-1,6.063361E-1,5.644681E-1,-4.2282185E-1,2.3479366E0,2.7022824E-1,6.3587916E-1,-3.3446798E-1,-1.9252479E0,1.1183641E-1,-3.2256745E-2,3.9949283E-1,-2.0247812E0,-4.992922E-1,2.902625E-1,-1.2168863E-2,-1.4772007E0,4.8884013E-1,-8.8786155E-1,1.4477959E0,-2.2719502E-1,3.271638E-1,1.4890946E0,4.6638604E-2,-9.1249174E-1,-1.2201301E-1,-4.2618844E-1,-1.2692193E0,1.0002141E0,2.1574523E-2,-1.2337747E0,9.2707616E-1,-6.293606E-1,1.7150907E-1,3.4007406E0,1.3033834E0,-5.4137874E-1,-5.5944324E-2,7.9624295E-1,5.5433195E-2],"categories":[],"categories_nodes":[],"categories_segments":[],"categories_sizes":[],"default_left":[true,true,true,true,true,true,true,true,true,true,true,true,true,true,true,true,true,true,true,true,true,true,true,true,true,false,false,true,false,true,true,true,true,true,true,true,true,true,true,true,true,true,true,true,true,true,true,true,true,true,true,false,false,true,false,true,true,false,false,false,false,false,false,false,false,false,false,false,false,false,false,false,false,false,false,false,false,false,false,false,false,false,false,false,false,false,false,false,false,false,false,false,false,false,false,false,false,false,false,false,false,false,false],"id":14,"left_children":[1,3,5,7,9,11,13,15,17,19,21,23,25,27,29,31,33,35,37,39,41,43,45,47,49,-1,-1,51,-1,53,55,57,59,61,63,65,67,69,71,73,75,77,79,81,83,85,87,89,91,93,95,-1,-1,97,-1,99,101,-1,-1,-1,-1,-1,-1,-1,-1,-1,-1,-1,-1,-1,-1,-1,-1,-1,-1,-1,-1,-1,-1,-1,-1,-1,-1,-1,-1,-1,-1,-1,-1,-1,-1,-1,-1,-1,-1,-1,-1,-1,-1,-1,-1,-1,-1],"loss_changes":[6.789684E0,6.46426E0,9.489158E0,8.587775E0,1.170155E1,1.4555101E1,4.297431E1,1.0055271E1,1.4251903E1,7.79225E0,5.946821E0,1.6526993E1,2.1926804E0,1.1991217E1,1.878199E1,1.2212851E1,1.1645178E1,4.6803126E0,9.054455E0,1.8136497E1,6.839753E0,5.7379227E0,1.430959E1,1.2830147E1,5.732191E0,0E0,0E0,9.6636504E-1,0E0,7.5238037E0,3.1703153E0,9.0462675E0,7.89841E0,4.127997E1,7.2626715E0,1.6476774E0,4.418873E0,5.021599E0,1.9883177E1,1.0434953E1,9.02758E0,6.965493E0,7.3434706E0,9.628689E0,1.3580937E0,1.6040854E1,1.0576645E1,5.5517883E0,2.0775805E0,7.5926604E0,9.159414E0,0E0,0E0,4.152996E0,0E0,1.4745867E-1,6.7339325E-1,0E0,0E0,0E0,0E0,0E0,0E0,0E0,0E0,0E0,0E0,0E0,0E0,0E0,0E0,0E0,0E0,0E0,0E0,0E0,0E0,0E0,0E0,0E0,0E0,0E0,0E0,0E0,0E0,0E0,0E0,0E0,0E0,0E0,0E0,0E0,0E0,0E0,0E0,0E0,0E0,0E0,0E0,0E0,0E0,0E0,0E0],"parents":[2147483647,0,0,1,1,2,2,3,3,4,4,5,5,6,6,7,7,8,8,9,9,10,10,11,11,12,12,13,13,14,14,15,15,16,16,17,17,18,18,19,19,20,20,21,21,22,22,23,23,24,24,27,27,29,29,30,30,31,31,32,32,33,33,34,34,35,35,36,36,37,37,38,38,39,39,40,40,41,41,42,42,43,43,44,44,45,45,46,46,47,47,48,48,49,49,50,50,53,53,55,55,56,56],"right_children":[2,4,6,8,10,12,14,16,18,20,22,24,26,28,30,32,34,36,38,40,42,44,46,48,50,-1,-1,52,-1,54,56,58,60,62,64,66,68,70,72,74,76,78,80,82,84,86,88,90,92,94,96,-1,-1,98,-1,100,102,-1,-1,-1,-1,-1,-1,-1,-1,-1,-1,-1,-1,-1,-1,-1,-1,-1,-1,-1,-1,-1,-1,-1,-1,-1,-1,-1,-1,-1,-1,-1,-1,-1,-1,-1,-1,-1,-1,-1,-1,-1,-1,-1,-1,-1,-1],"split_conditions":[8.490011E0,-6.5249996E0,5.55E1,3.1407362E-1,4.5109743E-1,7.431972E1,7.632E2,4.1E1,6.0508E4,1.5255114E-1,5.5255554E1,-4.65E0,6.0513E4,9.977679E-2,5.565764E1,2.760416E0,9.608877E-1,6.05055E4,5.5129307E1,1.4632139E-1,4.1012985E-1,3.2499108E0,2.845E1,5.465014E1,5.4060417E1,-7.853649E-1,-1.1854835E-1,3.6E-1,-5.3909105E-1,-3.78E0,7.33E2,2.7535954E0,3.66E1,7.431972E1,6.05185E4,3.0766814E0,-8.049999E0,7.8E1,1.05E0,1.8518668E-2,6.05075E4,1.2218665E3,6.05015E4,6.053E4,6E-1,5.5635002E1,5E-1,7.662E2,5.547708E1,6.05175E4,2.3007501E2,-1.00350626E-1,1.2616645E-1,5E-1,2.4636567E-1,3.41E1,7.3515E2,4.5515433E-2,5.7954997E-1,-2.1397702E-1,3.095953E-1,1.5122426E-1,1.192782E0,3.2351788E-2,1.8190084E-1,1.6934043E-1,-1.2684657E-1,7.04381E-1,8.106847E-2,1.9076376E-1,-1.00340396E-1,-5.775744E-1,3.3550926E-2,-9.677024E-3,1.1984786E-1,-6.074344E-1,-1.4978766E-1,8.707875E-2,-3.650659E-3,-4.4316024E-1,1.4665204E-1,-2.6635846E-1,4.3433878E-1,-6.815851E-2,9.814914E-2,4.467284E-1,1.3991582E-2,-2.7374753E-1,-3.6603905E-2,-1.2785654E-1,-3.807658E-1,3.0006424E-1,6.472357E-3,-3.7013242E-1,2.7812287E-1,-1.8880819E-1,5.1452722E-2,1.0202222E0,3.9101502E-1,-1.6241363E-1,-1.6783297E-2,2.388729E-1,1.6629959E-2],"split_indices":[18,1,40,17,14,37,4,40,33,17,34,0,33,17,34,12,23,33,34,17,14,12,27,35,35,0,0,1,0,1,2,12,3,37,33,12,0,29,6,9,33,15,33,33,0,34,32,4,34,33,21,0,0,32,0,3,2,0,0,0,0,0,0,0,0,0,0,0,0,0,0,0,0,0,0,0,0,0,0,0,0,0,0,0,0,0,0,0,0,0,0,0,0,0,0,0,0,0,0,0,0,0,0],"split_type":[0,0,0,0,0,0,0,0,0,0,0,0,0,0,0,0,0,0,0,0,0,0,0,0,0,0,0,0,0,0,0,0,0,0,0,0,0,0,0,0,0,0,0,0,0,0,0,0,0,0,0,0,0,0,0,0,0,0,0,0,0,0,0,0,0,0,0,0,0,0,0,0,0,0,0,0,0,0,0,0,0,0,0,0,0,0,0,0,0,0,0,0,0,0,0,0,0,0,0,0,0,0,0],"sum_hessian":[1.526E3,1.361E3,1.65E2,3.03E2,1.058E3,1.29E2,3.6E1,2.54E2,4.9E1,7.99E2,2.59E2,1.26E2,3E0,1.3E1,2.3E1,9.5E1,1.59E2,9E0,4E1,4.1E2,3.89E2,4.5E1,2.14E2,4.6E1,8E1,2E0,1E0,5E0,8E0,1.3E1,1E1,6.8E1,2.7E1,3E1,1.29E2,5E0,4E0,2.2E1,1.8E1,3.83E2,2.7E1,3.1E2,7.9E1,2.8E1,1.7E1,3.6E1,1.78E2,3.6E1,1E1,1.2E1,6.8E1,2E0,3E0,7E0,6E0,5E0,5E0,6.6E1,2E0,2.5E1,2E0,2.7E1,3E0,8.5E1,4.4E1,3E0,2E0,2E0,2E0,7E0,1.5E1,9E0,9E0,3.16E2,6.7E1,4E0,2.3E1,1.32E2,1.78E2,1E0,7.8E1,2.7E1,1E0,1.1E1,6E0,1E1,2.6E1,1.8E1,1.6E2,1.4E1,2.2E1,2E0,8E0,1E0,1.1E1,1.9E1,4.9E1,3E0,4E0,4E0,1E0,3E0,2E0],"tree_param":{"num_deleted":"0","num_feature":"42","num_nodes":"103","size_leaf_vector":"0"}},{"base_weights":[2.7564198E-2,2.2482172E-2,7.2591597E-1,9.754568E-3,2.8544056E-1,8.657278E-1,2.648133E-1,6.377698E-2,-6.982067E-2,-2.2338559E-1,5.557713E-1,4.7576237E-2,1.2087146E0,-4.4844863E-1,4.560566E-2,4.9498186E-1,-7.35296E-1,3.2863063E-1,1.3406146E0,7.1513E-2,-5.486577E-1,-2.9085612E-1,1.3714806E0,-4.825538E-1,2.0949275E0,2.1011657E-3,9.342403E-1,9.369747E-1,1.0856097E-1,-4.9717158E-1,-1.1121106E0,-1.0380015E-1,5.403494E-1,8.27864E-1,2.261078E0,2.2960315E-2,3.719975E-1,-1.9380966E0,-1.6811214E-1,1.7525997E0,7.6178145E-1,-4.2374396E-1,-2.317342E0,4.1904068E-1,-8.013441E-2,-2.3030376E-1,1.6685984E0,-8.982087E-3,2.6827908E-1,-6.593019E-1,-1.7075482E-1,1.4669198E-1,-9.876712E-1,6.32228E-1,-3.4416947E-1,-8.3304726E-2,1.145471E0],"categories":[],"categories_nodes":[],"categories_segments":[],"categories_sizes":[],"default_left":[true,true,true,true,true,false,false,true,true,true,true,true,true,true,true,true,true,true,true,true,true,false,true,true,false,true,true,false,true,true,false,true,true,true,false,false,false,false,false,false,false,false,false,false,false,false,false,false,false,false,false,false,false,false,false,false,false],"id":15,"left_children":[1,3,5,7,9,-1,-1,11,13,15,17,19,21,23,25,27,29,31,33,35,37,-1,39,41,-1,43,45,-1,47,49,-1,51,53,55,-1,-1,-1,-1,-1,-1,-1,-1,-1,-1,-1,-1,-1,-1,-1,-1,-1,-1,-1,-1,-1,-1,-1],"loss_changes":[5.4030666E0,5.074357E0,4.798875E-1,6.229182E0,9.752745E0,0E0,0E0,1.5950137E1,2.5630783E1,9.557453E0,7.759844E0,1.2198902E1,3.3278542E0,1.2894606E1,1.7394857E1,1.777029E0,7.930212E-1,3.443576E0,2.8478165E0,1.195471E1,1.712276E1,0E0,1.2209492E0,1.369293E1,0E0,1.47771015E1,1.8343327E1,0E0,1.3382599E-1,4.6956372E-1,0E0,3.0231192E0,2.249302E0,2.410572E0,0E0,0E0,0E0,0E0,0E0,0E0,0E0,0E0,0E0,0E0,0E0,0E0,0E0,0E0,0E0,0E0,0E0,0E0,0E0,0E0,0E0,0E0,0E0],"parents":[2147483647,0,0,1,1,2,2,3,3,4,4,7,7,8,8,9,9,10,10,11,11,12,12,13,13,14,14,15,15,16,16,17,17,18,18,19,19,20,20,22,22,23,23,25,25,26,26,28,28,29,29,31,31,32,32,33,33],"right_children":[2,4,6,8,10,-1,-1,12,14,16,18,20,22,24,26,28,30,32,34,36,38,-1,40,42,-1,44,46,-1,48,50,-1,52,54,56,-1,-1,-1,-1,-1,-1,-1,-1,-1,-1,-1,-1,-1,-1,-1,-1,-1,-1,-1,-1,-1,-1,-1],"split_conditions":[2.009593E0,7.8600006E1,1.1704233E0,7.432597E1,7.240489E1,2.5971836E-1,7.944399E-2,2.2249062E3,7.475554E2,6.0514E4,6.05255E4,2.709E3,6.05095E4,3.7911277E0,1.485E1,3.335E1,2.408E2,1.2973873E-1,-1.05E0,7.420375E1,5.4570137E1,-8.725684E-2,5E-1,3.7097504E0,6.284783E-1,7.481073E2,5.2450144E-1,2.8109244E-1,6.05095E4,6.05225E4,-3.3363318E-1,6.0523E4,6.05245E4,5E-1,6.783234E-1,6.888095E-3,1.1159926E-1,-5.81429E-1,-5.0433647E-2,5.2577996E-1,2.2853445E-1,-1.2712319E-1,-6.9520265E-1,1.2571222E-1,-2.4040323E-2,-6.9091134E-2,5.0057954E-1,-2.694626E-3,8.048373E-2,-1.9779058E-1,-5.122645E-2,4.4007596E-2,-2.9630136E-1,1.8966842E-1,-1.03250846E-1,-2.499142E-2,3.436413E-1],"split_indices":[17,27,23,36,39,0,0,19,8,33,33,22,33,10,28,3,2,17,0,36,35,0,32,10,0,8,25,0,33,33,0,33,33,32,0,0,0,0,0,0,0,0,0,0,0,0,0,0,0,0,0,0,0,0,0,0,0],"split_type":[0,0,0,0,0,0,0,0,0,0,0,0,0,0,0,0,0,0,0,0,0,0,0,0,0,0,0,0,0,0,0,0,0,0,0,0,0,0,0,0,0,0,0,0,0,0,0,0,0,0,0,0,0,0,0,0,0],"sum_hessian":[1.526E3,1.516E3,1E1,1.447E3,6.9E1,7E0,3E0,8.62E2,5.85E2,2.4E1,4.5E1,8.51E2,1.1E1,1.36E2,4.49E2,1E1,1.4E1,3.6E1,9E0,8.19E2,3.2E1,1E0,1E1,1.35E2,1E0,4.29E2,2E1,4E0,6E0,1E1,4E0,1.2E1,2.4E1,7E0,2E0,7.06E2,1.13E2,6E0,2.6E1,5E0,5E0,1.32E2,3E0,7E1,3.59E2,8E0,1.2E1,4E0,2E0,6E0,4E0,1E1,2E0,2.2E1,2E0,2E0,5E0],"tree_param":{"num_deleted":"0","num_feature":"42","num_nodes":"57","size_leaf_vector":"0"}},{"base_weights":[2.0237615E-2,-5.427206E-1,2.6181461E-2,5.352472E-1,-1.0813649E0,2.2661197E-1,9.675244E-3,1.1189394E0,-4.2142487E-1,-3.238164E-1,-1.4679902E0,-2.7987656E-1,4.2525667E-1,-7.864141E-2,8.222489E-2,8.47075E-2,-4.4712424E-1,-6.503847E-1,-1.6649554E0,-1.224329E0,1.253068E-1,-1.8308477E-1,6.906294E-1,-1.7438939E-1,1.2856744E-1,4.009178E-2,5.787274E-1,-1.4707754E0,4.9519825E-1,4.0753365E-2,-2.497562E0,-5.8267343E-1,2.960365E-1,6.5616615E-2,-7.50865E-1,-9.365096E-2,8.76177E-1,-4.9515814E-2,-5.831383E-1,-7.351315E-1,2.0766698E-1,3.930177E-1,-1.3828882E-2,1.5762087E0,2.4088077E-1,-5.1267284E-1,4.4563466E-1,2.0432472E-3,-7.293634E-1,-4.6491255E-3,7.476461E-1,-6.806048E-1,4.6238074E-1,-2.6890677E-1,-9.862585E-1,-1.5780303E0,5.764789E-1,1.4042628E0,4.9997675E-1,8.933548E-1,-9.0740494E-2,-7.8398967E-1,1.320964E-1,-1.0113581E0,1.3008419E-1,5.20973E-1,-1.2535237E-1,1.0576954E0,1.5001829E-1,1.868857E-1,-9.0753466E-2,2.5825696E0,3.7282178E-1,8.3161986E-1,5.3686023E-2],"categories":[],"categories_nodes":[],"categories_segments":[],"categories_sizes":[],"default_left":[true,true,true,true,true,true,true,false,false,true,true,true,true,true,true,false,false,true,false,true,true,true,true,true,true,true,true,false,false,true,false,true,true,true,true,true,true,true,true,true,true,true,true,true,true,false,false,false,false,false,false,false,false,false,false,false,false,false,false,false,false,false,false,false,false,false,false,false,false,false,false,false,false,false,false],"id":16,"left_children":[1,3,5,7,9,11,13,-1,-1,15,17,19,21,23,25,-1,-1,27,-1,29,31,33,35,37,39,41,43,-1,-1,45,-1,47,49,51,53,55,57,59,61,63,65,67,69,71,73,-1,-1,-1,-1,-1,-1,-1,-1,-1,-1,-1,-1,-1,-1,-1,-1,-1,-1,-1,-1,-1,-1,-1,-1,-1,-1,-1,-1,-1,-1],"loss_changes":[5.1237597E0,9.869055E0,5.0000324E0,3.8219614E0,2.7464027E0,1.1689314E1,8.96393E0,0E0,0E0,2.8974575E-1,4.441738E-2,1.2781738E1,1.3525736E1,1.2541353E1,1.6042744E1,0E0,0E0,3.547802E0,0E0,1.6209229E1,3.073451E0,3.7206697E0,8.522293E0,2.202124E1,1.3816298E1,1.3497704E1,1.9840065E1,0E0,0E0,1.5728961E0,0E0,4.3035054E-1,2.7193265E0,5.9401026E0,6.423874E-1,1.2846424E1,8.635204E0,1.298575E1,1.4612804E1,4.1944876E0,1.926331E1,1.5023856E1,9.52793E0,1.7202785E1,5.0421834E0,0E0,0E0,0E0,0E0,0E0,0E0,0E0,0E0,0E0,0E0,0E0,0E0,0E0,0E0,0E0,0E0,0E0,0E0,0E0,0E0,0E0,0E0,0E0,0E0,0E0,0E0,0E0,0E0,0E0,0E0],"parents":[2147483647,0,0,1,1,2,2,3,3,4,4,5,5,6,6,9,9,10,10,11,11,12,12,13,13,14,14,17,17,19,19,20,20,21,21,22,22,23,23,24,24,25,25,26,26,29,29,31,31,32,32,33,33,34,34,35,35,36,36,37,37,38,38,39,39,40,40,41,41,42,42,43,43,44,44],"right_children":[2,4,6,8,10,12,14,-1,-1,16,18,20,22,24,26,-1,-1,28,-1,30,32,34,36,38,40,42,44,-1,-1,46,-1,48,50,52,54,56,58,60,62,64,66,68,70,72,74,-1,-1,-1,-1,-1,-1,-1,-1,-1,-1,-1,-1,-1,-1,-1,-1,-1,-1,-1,-1,-1,-1,-1,-1,-1,-1,-1,-1,-1,-1],"split_conditions":[3.9052004E-1,5.4391808E1,5.791086E0,2.25E0,7.429E1,6.05115E4,5.5220554E1,3.3568183E-1,-1.2642747E-1,6.05165E4,6.05125E4,3.05E1,5.5901504E-1,7.3595E2,4.145E1,2.541225E-2,-1.3413727E-1,6.0503E4,-4.9948663E-1,6.05105E4,-5.875E0,-5.8E0,5.419014E1,7.356847E1,6.0505E4,7.5975E2,5.4578613E1,-4.4123262E-1,1.4855948E-1,-1.8999999E0,-7.492686E-1,6.05055E4,3.085E1,6.05215E4,6.05215E4,7.3165E2,7.14206E-1,2.165E2,6.891943E1,4.05E1,3.415E1,5.5347084E1,5E-1,7.681E2,4.45E1,-1.5380186E-1,1.336904E-1,6.1297417E-4,-2.1880902E-1,-1.3947377E-3,2.2429384E-1,-2.0418145E-1,1.3871422E-1,-8.067203E-2,-2.9587758E-1,-4.7340912E-1,1.7294368E-1,4.2127886E-1,1.4999303E-1,2.6800644E-1,-2.722215E-2,-2.351969E-1,3.962892E-2,-3.0340746E-1,3.902526E-2,1.5629192E-1,-3.760571E-2,3.1730863E-1,4.500549E-2,5.6065712E-2,-2.722604E-2,7.747709E-1,1.1184654E-1,2.4948597E-1,1.6105808E-2],"split_indices":[13,34,18,0,36,33,34,0,0,33,33,3,16,2,26,0,0,33,0,33,1,0,34,37,33,4,35,0,0,0,0,33,27,33,33,2,16,20,11,26,3,34,41,4,40,0,0,0,0,0,0,0,0,0,0,0,0,0,0,0,0,0,0,0,0,0,0,0,0,0,0,0,0,0,0],"split_type":[0,0,0,0,0,0,0,0,0,0,0,0,0,0,0,0,0,0,0,0,0,0,0,0,0,0,0,0,0,0,0,0,0,0,0,0,0,0,0,0,0,0,0,0,0,0,0,0,0,0,0,0,0,0,0,0,0,0,0,0,0,0,0,0,0,0,0,0,0,0,0,0,0,0,0],"sum_hessian":[1.526E3,1.5E1,1.511E3,5E0,1E1,1.14E2,1.397E3,3E0,2E0,4E0,6E0,3.2E1,8.2E1,6.3E2,7.67E2,1E0,3E0,2E0,4E0,9E0,2.3E1,2.5E1,5.7E1,4.31E2,1.99E2,7.08E2,5.9E1,1E0,1E0,5E0,4E0,4E0,1.9E1,1.8E1,7E0,1.1E1,4.6E1,3.31E2,1E2,1.6E1,1.83E2,9.3E1,6.15E2,1.4E1,4.5E1,2E0,3E0,1E0,3E0,1.2E1,7E0,6E0,1.2E1,3E0,4E0,3E0,8E0,1.8E1,2.8E1,1.3E1,3.18E2,7.8E1,2.2E1,1.2E1,4E0,9.4E1,8.9E1,2.4E1,6.9E1,1.7E2,4.45E2,7E0,7E0,1E1,3.5E1],"tree_param":{"num_deleted":"0","num_feature":"42","num_nodes":"75","size_leaf_vector":"0"}},{"base_weights":[1.4045408E-2,-1.1768401E-2,1.5320839E-1,5.0670085E-3,-3.757384E-1,7.020639E-2,8.304861E-1,5.0339155E-2,-1.0883719E-1,-2.9188354E-2,-1.1894333E0,-4.389088E-2,5.249627E-1,5.550311E-2,1.6011996E0,3.7881147E-2,9.514261E-1,2.0953535E-1,-2.8805706E-1,-5.0988895E-1,2.1220438E-1,-6.500054E-1,-2.3540595E0,-3.4813982E-1,2.0637552E-1,1.5637903E0,2.7952987E-1,3.6200884E-1,-4.13506E-1,2.875902E0,7.151207E-1,1.21798E-1,-6.329618E-2,1.3457876E0,4.774839E-1,-4.9381416E-2,8.915274E-1,7.3584926E-1,-3.6469728E-1,-5.5297237E-2,-8.439206E-1,9.5635486E-1,1.492227E-1,-2.7960131E-2,-1.1791928E0,-2.6235738E0,-6.3800097E-1,-1.378036E-1,-8.7727726E-1,5.1144713E-1,-1.9077314E-1,-4.731083E-1,2.880551E0,-2.3167697E-1,7.49119E-1,-1.2858963E-1,6.2873966E-1,-5.4217625E-1,-2.136268E-1,9.149645E-1,-4.418149E-1,1.317141E-1,-1.4888508E0,2.1393623E-2,-2.704199E-1,-2.4363955E-2,6.830958E-1,-1.961957E-1,3.364937E-1,3.8172978E-1,2.8761852E0,1.1840582E0,2.5568035E-1,-4.082278E-1,1.1833783E0,-3.2394633E-1,1.1695166E-1,-3.4084517E-1,-1.2617847E0,-4.2504507E-1,2.3871638E-1,-3.123315E-1,4.5531216E-1,-3.917039E-1,-2.09861E0,-2.3977172E-1,7.6888746E-1,-6.8733966E-1,-1.851102E0,8.4376353E-1,2.685708E-2,2.1204157E-1,-6.8955106E-1,-5.9066373E-1,-6.0220957E-2,4.66839E-1,-7.1862704E-1,9.264691E-1,6.724501E-2,-1.0193586E-3,-1.7077327E-1,7.405063E-1,2.7013764E-1,-2.3496866E-2,-2.6917115E-1,4.925723E-1,1.2142136E0],"categories":[],"categories_nodes":[],"categories_segments":[],"categories_sizes":[],"default_left":[true,true,true,true,true,true,true,true,true,true,true,true,true,true,true,true,true,true,true,true,true,true,true,true,true,true,true,true,true,false,true,true,true,false,true,true,true,true,true,true,true,false,true,true,true,false,false,true,true,true,true,true,false,true,true,true,true,false,true,true,false,false,false,false,false,false,false,false,false,false,false,false,false,false,false,false,false,false,false,false,false,false,false,false,false,false,false,false,false,false,false,false,false,false,false,false,false,false,false,false,false,false,false,false,false,false,false],"id":17,"left_children":[1,3,5,7,9,11,13,15,17,19,21,23,25,27,29,31,33,35,37,39,41,43,45,47,49,51,53,55,57,-1,59,61,63,-1,65,67,69,71,73,75,77,-1,79,81,83,-1,-1,85,87,89,91,93,-1,95,97,99,101,-1,103,105,-1,-1,-1,-1,-1,-1,-1,-1,-1,-1,-1,-1,-1,-1,-1,-1,-1,-1,-1,-1,-1,-1,-1,-1,-1,-1,-1,-1,-1,-1,-1,-1,-1,-1,-1,-1,-1,-1,-1,-1,-1,-1,-1,-1,-1,-1,-1],"loss_changes":[5.4872856E0,7.90036E0,1.3377176E1,6.3636746E0,1.6038486E1,1.1126743E1,1.5440668E1,9.876294E0,2.0087957E1,4.8657436E0,9.14979E0,1.3168492E1,1.0526258E1,2.1622486E0,1.2626709E1,7.4114103E0,1.6002626E0,2.246958E1,1.7924652E1,2.0792053E0,1.1695899E0,4.24635E0,6.3866997E-1,8.560256E0,1.1607656E1,2.2819677E1,8.815612E0,1.258569E0,3.8487673E-2,0E0,2.4851031E0,7.8144403E0,6.952126E0,0E0,7.389442E-1,5.3346524E0,3.4314156E1,3.1407156E0,1.4634682E1,3.6180758E-1,1.2516642E0,0E0,1.4890854E0,1.1042099E0,4.2461815E0,0E0,0E0,5.454212E0,2.796915E0,8.673348E0,8.584646E0,1.5857834E-1,0E0,6.458046E0,2.2353783E0,2.1351434E-2,4.0439844E-2,0E0,3.5917893E-2,4.1311598E-1,0E0,0E0,0E0,0E0,0E0,0E0,0E0,0E0,0E0,0E0,0E0,0E0,0E0,0E0,0E0,0E0,0E0,0E0,0E0,0E0,0E0,0E0,0E0,0E0,0E0,0E0,0E0,0E0,0E0,0E0,0E0,0E0,0E0,0E0,0E0,0E0,0E0,0E0,0E0,0E0,0E0,0E0,0E0,0E0,0E0,0E0,0E0],"parents":[2147483647,0,0,1,1,2,2,3,3,4,4,5,5,6,6,7,7,8,8,9,9,10,10,11,11,12,12,13,13,14,14,15,15,16,16,17,17,18,18,19,19,20,20,21,21,22,22,23,23,24,24,25,25,26,26,27,27,28,28,30,30,31,31,32,32,34,34,35,35,36,36,37,37,38,38,39,39,40,40,42,42,43,43,44,44,47,47,48,48,49,49,50,50,51,51,53,53,54,54,55,55,56,56,58,58,59,59],"right_children":[2,4,6,8,10,12,14,16,18,20,22,24,26,28,30,32,34,36,38,40,42,44,46,48,50,52,54,56,58,-1,60,62,64,-1,66,68,70,72,74,76,78,-1,80,82,84,-1,-1,86,88,90,92,94,-1,96,98,100,102,-1,104,106,-1,-1,-1,-1,-1,-1,-1,-1,-1,-1,-1,-1,-1,-1,-1,-1,-1,-1,-1,-1,-1,-1,-1,-1,-1,-1,-1,-1,-1,-1,-1,-1,-1,-1,-1,-1,-1,-1,-1,-1,-1,-1,-1,-1,-1,-1,-1],"split_conditions":[7.506194E1,2.709E3,4.1550003E1,7.432597E1,3.295E1,2.9605E2,1.4941164E1,2.2249062E3,9.95E1,7.2E1,5.15E1,3.289627E0,3.35E1,-1.09E1,6.05115E4,1.2793123E3,5E-1,6.05255E4,3.02E1,4.95E1,5.4849583E1,6.05085E4,3.46E1,2.751875E2,7.457486E1,7.3545E2,2.9349998E1,5.35E1,-8.85E0,8.627706E-1,-7.1E0,4.45E0,3.5323207E0,4.0373632E-1,6.05195E4,1.5E-1,2.5E0,-2.3623512E-3,3.94E1,7.3715E2,-5.65E0,2.8690648E-1,5.4570137E1,7.2368896E-1,7.3505E2,-7.870722E-1,-1.914003E-1,7.6985E2,6.05255E4,7.491466E2,4.040179E-3,7.0000005E-1,8.6416537E-1,3.4315E2,1.3661548E3,6.05175E4,7.568139E1,-1.6265288E-1,6.05195E4,7.457486E1,-1.3254447E-1,3.9514232E-2,-4.4665527E-1,6.418087E-3,-8.1125975E-2,-7.3091867E-3,2.0492876E-1,-5.8858715E-2,1.0094812E-1,1.1451894E-1,8.628556E-1,3.5521746E-1,7.670411E-2,-1.22468345E-1,3.5501352E-1,-9.7183906E-2,3.50855E-2,-1.02253556E-1,-3.7853542E-1,-1.2751353E-1,7.161491E-2,-9.3699455E-2,1.3659365E-1,-1.17511176E-1,-6.29583E-1,-7.193152E-2,2.3066625E-1,-2.0620191E-1,-5.5533063E-1,2.5312907E-1,8.057124E-3,6.3612476E-2,-2.0686533E-1,-1.7719913E-1,-1.8066287E-2,1.4005171E-1,-2.1558812E-1,2.7794075E-1,2.0173503E-2,-3.058076E-4,-5.1231984E-2,2.2215189E-1,8.104129E-2,-7.04906E-3,-8.0751345E-2,1.477717E-1,3.642641E-1],"split_indices":[36,22,26,36,3,21,7,19,5,29,40,10,40,0,33,15,32,33,3,40,34,33,3,20,37,2,27,40,0,0,0,0,10,0,33,0,41,9,27,2,0,0,35,13,2,0,0,4,33,8,9,0,0,21,15,33,36,0,33,37,0,0,0,0,0,0,0,0,0,0,0,0,0,0,0,0,0,0,0,0,0,0,0,0,0,0,0,0,0,0,0,0,0,0,0,0,0,0,0,0,0,0,0,0,0,0,0],"split_type":[0,0,0,0,0,0,0,0,0,0,0,0,0,0,0,0,0,0,0,0,0,0,0,0,0,0,0,0,0,0,0,0,0,0,0,0,0,0,0,0,0,0,0,0,0,0,0,0,0,0,0,0,0,0,0,0,0,0,0,0,0,0,0,0,0,0,0,0,0,0,0,0,0,0,0,0,0,0,0,0,0,0,0,0,0,0,0,0,0,0,0,0,0,0,0,0,0,0,0,0,0,0,0,0,0,0,0],"sum_hessian":[1.526E3,1.288E3,2.38E2,1.232E3,5.6E1,2.13E2,2.5E1,8.82E2,3.5E2,4E1,1.6E1,1.71E2,4.2E1,1.3E1,1.2E1,8.71E2,1.1E1,1.26E2,2.24E2,1.3E1,2.7E1,1.2E1,4E0,7.7E1,9.4E1,7E0,3.5E1,8E0,5E0,4E0,8E0,4.76E2,3.95E2,5E0,6E0,9.2E1,3.4E1,1.5E1,2.09E2,6E0,7E0,1E0,2.6E1,6E0,6E0,3E0,1E0,5.6E1,2.1E1,5.3E1,4.1E1,3E0,4E0,1.7E1,1.8E1,3E0,5E0,2E0,3E0,7E0,1E0,4.74E2,2E0,2.81E2,1.14E2,2E0,4E0,6.7E1,2.5E1,2.8E1,6E0,7E0,8E0,2.04E2,5E0,2E0,4E0,4E0,3E0,3E0,2.3E1,4E0,2E0,4E0,2E0,5.1E1,5E0,1.9E1,2E0,3.1E1,2.2E1,2.3E1,1.8E1,2E0,1E0,7E0,1E1,1.4E1,4E0,1E0,2E0,3E0,2E0,1E0,2E0,4E0,3E0],"tree_param":{"num_deleted":"0","num_feature":"42","num_nodes":"107","size_leaf_vector":"0"}},{"base_weights":[1.0787223E-2,3.716162E-2,-6.5935224E-2,-2.293802E-1,6.308598E-2,2.9927528E-1,-1.907815E-1,-4.661623E-1,1.1434136E-1,8.044908E-3,2.2099099E-1,-5.7036537E-1,4.4747683E-1,-5.222301E-1,-4.75705E-2,-5.7798284E-1,8.7946045E-1,9.147694E-1,-1.0089964E-1,5.980489E-1,-2.853667E-2,-6.6769445E-1,3.0714387E-1,-9.456217E-1,-2.8817502E-1,1.216261E0,3.303176E-1,-8.686446E-1,-6.471841E-2,-1.9845715E-1,2.593402E-1,-2.8998438E-1,-9.2350155E-1,1.3267164E-1,1.5139134E0,1.17531575E-1,-9.6021026E-1,-2.4379224E-1,1.8743547E0,-3.4376284E-1,2.004345E-2,-3.503193E-1,-1.2586547E0,1.2628905E-1,6.4004654E-1,-2.4341033E-1,-1.2358749E0,-8.48008E-2,-4.7458905E-1,1.6530898E0,3.614486E-1,6.6102415E-1,1.6156089E-2,-2.8387257E-1,-1.2490302E0,7.9651766E-2,-1.3478703E0,-4.2502698E-2,-4.7208694E-1,1.0516517E-1,1.1430389E0,1.4021932E-1,-4.6442145E-1,-1.0580629E0,4.1596922E-1,-3.727571E-1,5.9387654E-1,5.101663E-1,-3.764029E-2,-3.4232676E-2,-1.6461353E0,-5.0187385E-1,6.021489E-1,2.2756765E0,-8.908131E-1,1.901934E-1,-8.290997E-1,-1.4680344E-1,1.0441456E-1,2.4012947E-1,-9.018437E-1,8.047569E-2,1.1161417E0,3.4505227E-1,1.1792006E0,-2.0789146E-2,-3.4432635E-1,-1.2644494E-1,-1.0083517E-3,7.880949E-1,2.543718E0,5.6112766E-1,-2.1863389E-1,4.4478217E-1,1.3893036E0,6.6188526E-1,-1.926648E-1,1.9556193E-1,-7.375005E-1,-1.4680655E0,-1.2821138E-1,-1.24378465E-1,8.093049E-1,9.3034655E-1,-1.3689649E-1,-7.6805174E-1,-6.0493015E-2,9.993803E-1,3.8604338E-3,1.2116551E0,2.627462E-1],"categories":[],"categories_nodes":[],"categories_segments":[],"categories_sizes":[],"default_left":[true,true,true,true,true,true,true,true,true,true,true,true,true,true,true,true,false,true,true,true,true,true,true,true,true,true,true,true,true,true,true,true,true,true,false,true,true,true,true,true,true,true,false,true,true,true,false,true,false,true,true,true,true,true,true,true,false,true,true,true,true,false,false,false,false,false,false,false,false,false,false,false,false,false,false,false,false,false,false,false,false,false,false,false,false,false,false,false,false,false,false,false,false,false,false,false,false,false,false,false,false,false,false,false,false,false,false,false,false,false,false],"id":18,"left_children":[1,3,5,7,9,11,13,15,17,19,21,23,25,27,29,31,-1,33,35,37,39,41,43,45,47,49,51,53,55,57,59,61,63,65,-1,67,69,71,73,75,77,79,-1,81,83,85,-1,87,-1,89,91,93,95,97,99,101,-1,103,105,107,109,-1,-1,-1,-1,-1,-1,-1,-1,-1,-1,-1,-1,-1,-1,-1,-1,-1,-1,-1,-1,-1,-1,-1,-1,-1,-1,-1,-1,-1,-1,-1,-1,-1,-1,-1,-1,-1,-1,-1,-1,-1,-1,-1,-1,-1,-1,-1,-1,-1,-1],"loss_changes":[3.0923471E0,7.8710575E0,1.788481E1,8.273399E0,9.01106E0,1.3143435E1,1.3835547E1,9.536411E0,7.3282676E0,1.6636189E1,2.0723913E1,1.3159013E0,7.344282E0,1.3890785E1,9.544757E0,5.304695E0,0E0,4.016449E0,6.4946637E0,4.880706E1,1.1124655E1,4.0604143E0,1.4669893E1,9.220896E-1,3.3887255E-1,3.509966E0,7.8853617E0,1.076738E1,7.332066E0,5.868917E0,9.144403E0,2.466512E0,4.946146E0,1.3869026E0,0E0,1.7251269E0,4.3897066E0,6.4152155E0,2.2002201E1,2.529511E1,8.883874E0,5.752557E0,0E0,7.165934E0,1.3271187E1,6.023988E-2,0E0,2.0809285E-2,0E0,3.388031E0,7.018332E-1,5.208992E0,5.5211916E0,4.711409E0,7.1767426E0,5.4600267E0,0E0,8.300314E0,6.044405E0,5.3408475E0,2.856655E-1,0E0,0E0,0E0,0E0,0E0,0E0,0E0,0E0,0E0,0E0,0E0,0E0,0E0,0E0,0E0,0E0,0E0,0E0,0E0,0E0,0E0,0E0,0E0,0E0,0E0,0E0,0E0,0E0,0E0,0E0,0E0,0E0,0E0,0E0,0E0,0E0,0E0,0E0,0E0,0E0,0E0,0E0,0E0,0E0,0E0,0E0,0E0,0E0,0E0,0E0],"parents":[2147483647,0,0,1,1,2,2,3,3,4,4,5,5,6,6,7,7,8,8,9,9,10,10,11,11,12,12,13,13,14,14,15,15,17,17,18,18,19,19,20,20,21,21,22,22,23,23,24,24,25,25,26,26,27,27,28,28,29,29,30,30,31,31,32,32,33,33,35,35,36,36,37,37,38,38,39,39,40,40,41,41,43,43,44,44,45,45,47,47,49,49,50,50,51,51,52,52,53,53,54,54,55,55,57,57,58,58,59,59,60,60],"right_children":[2,4,6,8,10,12,14,16,18,20,22,24,26,28,30,32,-1,34,36,38,40,42,44,46,48,50,52,54,56,58,60,62,64,66,-1,68,70,72,74,76,78,80,-1,82,84,86,-1,88,-1,90,92,94,96,98,100,102,-1,104,106,108,110,-1,-1,-1,-1,-1,-1,-1,-1,-1,-1,-1,-1,-1,-1,-1,-1,-1,-1,-1,-1,-1,-1,-1,-1,-1,-1,-1,-1,-1,-1,-1,-1,-1,-1,-1,-1,-1,-1,-1,-1,-1,-1,-1,-1,-1,-1,-1,-1,-1,-1],"split_conditions":[2.7E-1,5.4391808E1,5.4785694E1,7.6755E2,2.5E0,6.801124E-1,5.458389E1,9.4774926E-1,3.99814E-2,5.405875E1,5.4674168E1,6.05225E4,4.1786786E-2,7.4734924E2,6.680466E-1,9.95E1,2.6383814E-1,-2E1,3.5238214E0,3.5677395E0,5.558179E-1,1.8744625E3,6.05175E4,6.05195E4,3.61E1,5.419014E1,5E-1,3.6610782E-1,3.665E1,2.624375E2,6.351452E-1,6.05175E4,-6.5E-1,5E-1,4.5417404E-1,6.0521E4,5E-1,1.2423634E-3,7.4912445E2,6.0517E4,7.3295E2,6.05225E4,-3.7759644E-1,3.66E2,7.3530005E2,3.45E0,-3.7076247E-1,3.9E0,-1.4237672E-1,3.4E0,6.0527E4,6.05325E4,1.109467E3,3.63E1,7.541264E1,6.0524E4,-4.0436113E-1,6.05025E4,5.5774307E1,1.1764766E3,4.6E0,4.2065796E-2,-1.3932644E-1,-3.1741887E-1,1.2479077E-1,-1.11827135E-1,1.7816296E-1,1.5304989E-1,-1.1292087E-2,-1.0269803E-2,-4.938406E-1,-1.5056217E-1,1.8064468E-1,6.8270296E-1,-2.6724395E-1,5.705802E-2,-2.4872993E-1,-4.4041034E-2,3.1324368E-2,7.2038844E-2,-2.7055314E-1,2.4142707E-2,3.348425E-1,1.03515685E-1,3.537602E-1,-6.236744E-3,-1.0329791E-1,-3.7933484E-2,-3.025055E-4,2.3642847E-1,7.6311547E-1,1.683383E-1,-6.559017E-2,1.3343465E-1,4.1679108E-1,1.9856559E-1,-5.7799444E-2,5.866858E-2,-2.2125016E-1,-4.4041967E-1,-3.8463414E-2,-3.731354E-2,2.4279147E-1,2.7910396E-1,-4.106895E-2,-2.3041554E-1,-1.8147904E-2,2.998141E-1,1.1581302E-3,3.6349654E-1,7.8823864E-2],"split_indices":[1,34,34,4,41,23,35,25,24,35,34,33,17,8,25,5,0,0,10,10,16,19,33,33,3,34,32,14,3,20,13,33,0,32,0,33,32,9,8,33,2,33,0,20,2,0,0,0,0,0,33,33,15,3,36,33,0,33,35,15,0,0,0,0,0,0,0,0,0,0,0,0,0,0,0,0,0,0,0,0,0,0,0,0,0,0,0,0,0,0,0,0,0,0,0,0,0,0,0,0,0,0,0,0,0,0,0,0,0,0,0],"split_type":[0,0,0,0,0,0,0,0,0,0,0,0,0,0,0,0,0,0,0,0,0,0,0,0,0,0,0,0,0,0,0,0,0,0,0,0,0,0,0,0,0,0,0,0,0,0,0,0,0,0,0,0,0,0,0,0,0,0,0,0,0,0,0,0,0,0,0,0,0,0,0,0,0,0,0,0,0,0,0,0,0,0,0,0,0,0,0,0,0,0,0,0,0,0,0,0,0,0,0,0,0,0,0,0,0,0,0,0,0,0,0],"sum_hessian":[1.526E3,1.136E3,3.9E2,1E2,1.036E3,9.9E1,2.91E2,5.9E1,4.1E1,7.69E2,2.67E2,1.4E1,8.5E1,8.7E1,2.04E2,5.5E1,4E0,8E0,3.3E1,4.4E1,7.25E2,2.3E1,2.44E2,5E0,9E0,1E1,7.5E1,4.9E1,3.8E1,1.37E2,6.7E1,3.1E1,2.4E1,4E0,4E0,2.7E1,6E0,2.7E1,1.7E1,9.6E1,6.29E2,1.6E1,7E0,1.59E2,8.5E1,2E0,3E0,5E0,4E0,6E0,4E0,3.6E1,3.9E1,2E1,2.9E1,3.5E1,3E0,8.8E1,4.9E1,5.8E1,9E0,9E0,2.2E1,2.2E1,2E0,2E0,2E0,7E0,2E1,3E0,3E0,2.1E1,6E0,1.5E1,2E0,4.6E1,5E1,2.11E2,4.18E2,8E0,8E0,1.53E2,6E0,5.6E1,2.9E1,1E0,1E0,3E0,2E0,4E0,2E0,3E0,1E0,2.9E1,7E0,9E0,3E1,1E1,1E1,2.4E1,5E0,2.8E1,7E0,7E0,8.1E1,2.8E1,2.1E1,5E0,5.3E1,8E0,1E0],"tree_param":{"num_deleted":"0","num_feature":"42","num_nodes":"111","size_leaf_vector":"0"}},{"base_weights":[8.623878E-3,-1.0749206E-2,1.1307275E-1,2.7252098E-3,-3.020335E-1,4.918294E-2,6.345861E-1,-7.11343E-2,3.9071154E-2,-1.573172E-2,-8.738091E-1,-2.8203906E-2,3.865208E-1,3.170424E-2,1.2350292E0,-6.351163E-1,2.4897645E-3,2.2449063E-2,4.5132467E-1,-3.8739547E-1,1.8499999E-1,-5.064334E-1,-1.8011744E0,-2.0582962E-1,1.3062555E-1,5.9619468E-2,7.827547E-1,2.470985E-1,-2.9667118E-1,2.155479E0,5.864427E-1,2.2433572E-1,-8.7346375E-1,3.1447333E-1,-4.06856E-2,-1.079083E-1,6.435102E-2,1.9877259E0,9.318644E-2,-7.4428834E-2,-6.128169E-1,-6.204512E-2,3.1943828E-1,1.0373796E-2,-8.521242E-1,-5.9412277E-1,-8.127193E-2,-3.5690928E-1,2.6908588E-1,7.7521497E-1,-4.557787E-1,2.2651479E-1,1.8574821E0,-1.4264286E-1,4.6574298E-1,-4.5462385E-1,-1.04038894E-1,7.575492E-1,-3.9120483E-1,-6.062796E-1,7.855844E-1,-1.2057399E0,-1.6728161E-1,1.4974468E0,5.0195985E-2,-1.3338953E-1,1.24116905E-1,-1.9162865E-1,2.525167E-1,1.124761E-1,-1.9098118E-1,-3.8432086E-1,9.4338095E-1,-2.4485183E-1,1.1460137E-1,-8.254782E-1,-1.9378597E-1,-1.7145488E-1,4.6132135E-1,9.6450694E-2,6.2421334E-1,-3.0031157E-1,3.184657E-1,-3.67115E-1,-1.6997709E0,-1.4206644E0,-2.9869583E-1,-1.2425647E-1,5.945603E-1,2.980412E-1,-7.0567316E-1,1.933553E-1,1.2603508E0,1.048712E0,1.0279131E-1,2.840704E-1,-8.983694E-1,-3.8603842E-1,4.4888458E-1,-1.2937784E-2,-1.8156528E-1,5.521941E-1,1.9522715E-1,-1.3622165E-1,-4.7904093E-2,4.220501E-1,9.8753583E-1],"categories":[],"categories_nodes":[],"categories_segments":[],"categories_sizes":[],"default_left":[true,true,true,true,true,true,true,true,true,true,true,true,true,true,true,true,true,true,true,true,true,true,false,true,true,true,true,true,true,false,true,true,true,true,true,true,true,false,true,true,true,true,true,true,true,true,true,true,true,true,true,true,false,true,true,false,true,true,false,false,false,false,false,false,false,false,false,false,false,false,false,false,false,false,false,false,false,false,false,false,false,false,false,false,false,false,false,false,false,false,false,false,false,false,false,false,false,false,false,false,false,false,false,false,false,false,false],"id":19,"left_children":[1,3,5,7,9,11,13,15,17,19,21,23,25,27,29,31,33,35,37,39,41,43,-1,45,47,49,51,53,55,-1,57,59,61,63,65,67,69,-1,71,73,75,77,79,81,83,85,87,89,91,93,95,97,-1,99,101,-1,103,105,-1,-1,-1,-1,-1,-1,-1,-1,-1,-1,-1,-1,-1,-1,-1,-1,-1,-1,-1,-1,-1,-1,-1,-1,-1,-1,-1,-1,-1,-1,-1,-1,-1,-1,-1,-1,-1,-1,-1,-1,-1,-1,-1,-1,-1,-1,-1,-1,-1],"loss_changes":[3.091095E0,5.060001E0,7.932122E0,3.3127599E0,9.317175E0,5.5974813E0,9.372746E0,1.6901299E1,5.656898E0,2.9812517E0,5.5609646E0,4.9640207E0,5.1345086E0,1.0635296E0,6.4968243E0,9.8238125E0,4.875466E0,4.3548775E0,1.742258E1,9.4208E-1,8.833401E-1,2.6886723E0,0E0,3.9660013E0,6.3739333E0,8.836109E0,1.03397665E1,8.333681E-1,1.3526219E-1,0E0,1.801894E0,5.6042833E0,8.480261E0,1.3680691E1,4.874909E0,5.902322E0,7.431074E0,0E0,1.1323861E1,2.5356603E-1,5.5292726E-1,6.517098E-1,1.0951321E0,7.656765E-1,3.0760365E0,4.459307E0,1.9330997E0,5.007204E0,5.236347E0,1.7312603E0,4.8395042E0,1.9440601E0,0E0,1.7844692E-2,3.251517E-2,0E0,7.0071593E-4,2.0049238E-1,0E0,0E0,0E0,0E0,0E0,0E0,0E0,0E0,0E0,0E0,0E0,0E0,0E0,0E0,0E0,0E0,0E0,0E0,0E0,0E0,0E0,0E0,0E0,0E0,0E0,0E0,0E0,0E0,0E0,0E0,0E0,0E0,0E0,0E0,0E0,0E0,0E0,0E0,0E0,0E0,0E0,0E0,0E0,0E0,0E0,0E0,0E0,0E0,0E0],"parents":[2147483647,0,0,1,1,2,2,3,3,4,4,5,5,6,6,7,7,8,8,9,9,10,10,11,11,12,12,13,13,14,14,15,15,16,16,17,17,18,18,19,19,20,20,21,21,23,23,24,24,25,25,26,26,27,27,28,28,30,30,31,31,32,32,33,33,34,34,35,35,36,36,38,38,39,39,40,40,41,41,42,42,43,43,44,44,45,45,46,46,47,47,48,48,49,49,50,50,51,51,53,53,54,54,56,56,57,57],"right_children":[2,4,6,8,10,12,14,16,18,20,22,24,26,28,30,32,34,36,38,40,42,44,-1,46,48,50,52,54,56,-1,58,60,62,64,66,68,70,-1,72,74,76,78,80,82,84,86,88,90,92,94,96,98,-1,100,102,-1,104,106,-1,-1,-1,-1,-1,-1,-1,-1,-1,-1,-1,-1,-1,-1,-1,-1,-1,-1,-1,-1,-1,-1,-1,-1,-1,-1,-1,-1,-1,-1,-1,-1,-1,-1,-1,-1,-1,-1,-1,-1,-1,-1,-1,-1,-1,-1,-1,-1,-1],"split_conditions":[7.506194E1,2.709E3,4.1550003E1,2.353847E0,3.215E1,3.0315E2,1.4941164E1,1.2675E2,8.5E1,7.2E1,5.15E1,3.2952828E0,7.442472E1,-1.09E1,6.05115E4,7.369208E1,7.298805E1,7.3115E2,7.3E1,4.95E1,1.2611191E3,6.0506E4,-5.4035234E-1,7.375284E0,3.35E1,1.2355015E3,8.15E1,5.35E1,-8.85E0,6.466437E-1,-7.1E0,7.485204E2,7.4420135E1,7.480203E2,4.6000004E0,6.0528E4,6.05295E4,5.9631777E-1,7.137622E0,7.3794995E2,1.3217021E3,7.447722E1,7.432597E1,1.6129999E2,8.0076486E-1,6.05105E4,9.15E1,2.262E3,3.4489624E-2,6.05175E4,-3.35E0,5.546514E1,5.5724466E-1,6.05175E4,7.568139E1,-1.3638715E-1,5E-1,7.457486E1,-1.17361456E-1,-1.8188389E-1,2.3567532E-1,-3.6172196E-1,-5.0184485E-2,4.4923404E-1,1.5058796E-2,-4.001686E-2,3.7235074E-2,-5.7488598E-2,7.575501E-2,3.3742834E-2,-5.7294358E-2,-1.1529626E-1,2.830143E-1,-7.345555E-2,3.4380414E-2,-2.4764347E-1,-5.8135793E-2,-5.1436465E-2,1.3839641E-1,2.8935209E-2,1.8726401E-1,-9.009347E-2,9.553972E-2,-1.10134505E-1,-5.099313E-1,-4.2619935E-1,-8.960875E-2,-3.7276942E-2,1.783681E-1,8.941236E-2,-2.1170196E-1,5.8006596E-2,3.7810525E-1,3.146136E-1,3.0837394E-2,8.522113E-2,-2.6951084E-1,-1.15811534E-1,1.3466538E-1,-3.8813355E-3,-5.446959E-2,1.6565824E-1,5.8568146E-2,-4.0866494E-2,-1.4371228E-2,1.2661503E-1,2.9626077E-1],"split_indices":[36,22,26,12,3,21,7,21,40,29,40,10,37,0,33,36,36,2,29,40,15,33,0,18,40,15,29,40,0,0,0,8,36,8,28,33,33,0,18,2,15,36,36,21,16,33,29,22,9,33,0,34,0,33,36,0,32,37,0,0,0,0,0,0,0,0,0,0,0,0,0,0,0,0,0,0,0,0,0,0,0,0,0,0,0,0,0,0,0,0,0,0,0,0,0,0,0,0,0,0,0,0,0,0,0,0,0],"split_type":[0,0,0,0,0,0,0,0,0,0,0,0,0,0,0,0,0,0,0,0,0,0,0,0,0,0,0,0,0,0,0,0,0,0,0,0,0,0,0,0,0,0,0,0,0,0,0,0,0,0,0,0,0,0,0,0,0,0,0,0,0,0,0,0,0,0,0,0,0,0,0,0,0,0,0,0,0,0,0,0,0,0,0,0,0,0,0,0,0,0,0,0,0,0,0,0,0,0,0,0,0,0,0,0,0,0,0],"sum_hessian":[1.526E3,1.288E3,2.38E2,1.232E3,5.6E1,2.13E2,2.5E1,4.06E2,8.26E2,3.8E1,1.8E1,1.74E2,3.9E1,1.3E1,1.2E1,4.6E1,3.6E2,7.95E2,3.1E1,1.3E1,2.5E1,1.4E1,4E0,8.2E1,9.2E1,2.2E1,1.7E1,8E0,5E0,4E0,8E0,1E1,3.6E1,4.3E1,3.17E2,1.93E2,6.02E2,5E0,2.6E1,6E0,7E0,9E0,1.6E1,6E0,8E0,1.9E1,6.3E1,2E1,7.2E1,9E0,1.3E1,1.2E1,5E0,3E0,5E0,2E0,3E0,7E0,1E0,4E0,6E0,2.4E1,1.2E1,7E0,3.6E1,2.03E2,1.14E2,1.57E2,3.6E1,5.07E2,9.5E1,1.7E1,9E0,3E0,3E0,4E0,3E0,8E0,1E0,1E1,6E0,3E0,3E0,6E0,2E0,4E0,1.5E1,6E1,3E0,7E0,1.3E1,6.8E1,4E0,6E0,3E0,5E0,8E0,3E0,9E0,1E0,2E0,3E0,2E0,1E0,2E0,4E0,3E0],"tree_param":{"num_deleted":"0","num_feature":"42","num_nodes":"107","size_leaf_vector":"0"}},{"base_weights":[6.8672146E-3,1.2556102E-2,-2.8742623E-1,2.3112478E-2,-1.4913884E-1,-1.168135E0,-6.887612E-3,-2.006869E-3,7.949094E-2,1.1773515E-1,-3.4773922E-1,6.136066E-1,-3.167042E-1,-1.1911456E-1,4.1643687E-2,1.4691976E-1,-2.1617936E-1,-2.667304E-3,4.7920924E-1,-1.0120332E0,-2.574579E-1,8.33666E-1,1.851306E-1,2.3231252E-1,-8.9476E-1,2.9027354E-2,-3.3140048E-1,-9.1985665E-2,8.7792136E-2,1.9007632E-1,-2.169631E-1,-6.721384E-1,2.023923E-1,-7.30518E-2,1.7750056E-1,6.5783596E-1,1.6901532E-1,2.1089065E0,-2.0580025E0,3.349359E-1,-3.667675E-1,2.0998271E-1,5.5287123E-2,-1.16687894E-1,4.262607E-1,-1.1966437E0,6.092129E-1,1.5854328E0,-2.2025287E-2,1.6940799E0,-3.6584085E-1,-2.2334771E-1,3.158212E-1,-2.6792877E-3,2.8391987E-1,2.929955E-1,1.6823901E-3,2.2453408E-1,