{"learner":{"attributes":{"scikit_learn":"{\"n_estimators\": 100, \"objective\": \"reg:squarederror\", \"max_depth\": null, \"learning_rate\": null, \"verbosity\": null, \"booster\": null, \"tree_method\": null, \"gamma\": null, \"min_child_weight\": null, \"max_delta_step\": null, \"subsample\": null, \"colsample_bytree\": null, \"colsample_bylevel\": null, \"colsample_bynode\": null, \"reg_alpha\": null, \"reg_lambda\": null, \"scale_pos_weight\": null, \"base_score\": null, \"missing\": NaN, \"num_parallel_tree\": null, \"kwargs\": {}, \"random_state\": null, \"n_jobs\": null, \"monotone_constraints\": null, \"interaction_constraints\": null, \"importance_type\": \"gain\", \"gpu_id\": null, \"validate_parameters\": null, \"n_features_in_\": 42, \"type\": \"XGBRegressor\"}"},"gradient_booster":{"model":{"gbtree_model_param":{"num_trees":"100","size_leaf_vector":"0"},"tree_info":[0,0,0,0,0,0,0,0,0,0,0,0,0,0,0,0,0,0,0,0,0,0,0,0,0,0,0,0,0,0,0,0,0,0,0,0,0,0,0,0,0,0,0,0,0,0,0,0,0,0,0,0,0,0,0,0,0,0,0,0,0,0,0,0,0,0,0,0,0,0,0,0,0,0,0,0,0,0,0,0,0,0,0,0,0,0,0,0,0,0,0,0,0,0,0,0,0,0,0,0],"trees":[{"base_weights":[6.7606535E0,1.1245489E1,6.479488E0,5.883801E0,1.5487943E1,9.51861E0,6.013333E0,6.5008507E0,4.0202942E-1,1.22256975E1,2.4562029E1,1.3077534E1,8.488718E0,6.850165E0,4.839086E0,8.479355E0,4.9546213E0,1.304799E1,4.235518E0,9.484882E0,1.5992693E1,8.801477E0,4.1068363E-1,7.2889366E0,4.154613E0,5.5483985E0,3.0437815E0,1.3530575E1,5.1597023E0,1.3091773E0,4.7745724E0,6.8664565E0,9.752907E0,6.6370316E0,1.0267541E1,2.8175873E-1,4.755344E0,1.143611E1,5.413833E0,5.4936957E0,2.2691836E0,7.4162087E0,2.7900336E0,3.0051694E0,1.0026526E1,2.8296275E0,7.009197E0,1.1749167E1,5.7570534E0,-1.2719648E0,3.318766E0,5.771142E0,3.0487487E0,3.5569878E0,5.6315455E0,9.159471E0,3.8540049E0,2.806543E0,-1.9341961E0],"categories":[],"categories_nodes":[],"categories_segments":[],"categories_sizes":[],"default_left":[true,true,true,true,true,true,true,true,false,true,false,true,true,true,true,false,false,true,true,false,false,true,false,true,true,true,true,false,false,false,false,true,true,true,true,true,true,false,true,true,true,false,false,false,false,false,false,false,false,false,false,false,false,false,false,false,false,false,false],"id":0,"left_children":[1,3,5,7,9,11,13,15,-1,17,-1,19,21,23,25,-1,-1,27,29,-1,-1,31,-1,33,35,37,39,-1,-1,-1,-1,41,43,45,47,49,51,-1,53,55,57,-1,-1,-1,-1,-1,-1,-1,-1,-1,-1,-1,-1,-1,-1,-1,-1,-1,-1],"loss_changes":[1.2814258E3,1.319168E3,1.3778789E3,9.5479614E1,7.0617676E2,3.7647363E2,8.3256445E2,3.752771E1,0E0,1.2213208E2,0E0,1.4155908E2,2.6419238E2,5.7527734E2,4.5428125E2,0E0,0E0,2.1548828E1,5.9059143E-2,0E0,0E0,1.2081787E2,0E0,7.8428906E2,1.7082434E2,1.4724951E2,1.9058752E2,0E0,0E0,0E0,0E0,6.222644E1,9.17251E1,4.9453223E2,4.4693994E2,5.6126717E1,9.3352905E1,0E0,8.507568E1,1.14967834E2,1.9290271E2,0E0,0E0,0E0,0E0,0E0,0E0,0E0,0E0,0E0,0E0,0E0,0E0,0E0,0E0,0E0,0E0,0E0,0E0],"parents":[2147483647,0,0,1,1,2,2,3,3,4,4,5,5,6,6,7,7,9,9,11,11,12,12,13,13,14,14,17,17,18,18,21,21,23,23,24,24,25,25,26,26,31,31,32,32,33,33,34,34,35,35,36,36,38,38,39,39,40,40],"right_children":[2,4,6,8,10,12,14,16,-1,18,-1,20,22,24,26,-1,-1,28,30,-1,-1,32,-1,34,36,38,40,-1,-1,-1,-1,42,44,46,48,50,52,-1,54,56,58,-1,-1,-1,-1,-1,-1,-1,-1,-1,-1,-1,-1,-1,-1,-1,-1,-1,-1],"split_conditions":[5.4647778E1,2.59E1,4.898111E1,6.958383E1,6.512642E-2,5.04095E4,3.465E1,1.8085344E1,1.2060883E-1,8.8E1,7.368609E0,8.938962E-1,5.5344307E1,5.556028E1,4.3E0,2.5438066E0,1.4863864E0,1.7712402E1,5E-1,2.8454647E0,4.797808E0,2.6655E3,1.23205096E-1,5.5363335E1,4.994889E1,3.8802576E2,2.9078069E0,4.0591726E0,1.5479108E0,3.927532E-1,1.4323717E0,5.0425E4,3.9951065E-1,5.47975E1,5.5401527E1,4.6E0,2.4046023E0,3.430833E0,4.967278E1,4.940236E1,9.45E1,2.2248628E0,8.370101E-1,9.015508E-1,3.0079582E0,8.488883E-1,2.1027594E0,3.5247505E0,1.7271161E0,-3.8158944E-1,9.9562985E-1,1.7313427E0,9.1462463E-1,1.0670964E0,1.6894637E0,2.7478414E0,1.1562015E0,8.41963E-1,-5.8025885E-1],"split_indices":[34,27,36,11,24,33,3,7,0,29,0,23,34,35,0,0,0,7,32,0,0,22,0,35,36,15,10,0,0,0,0,33,16,34,35,0,12,0,37,36,40,0,0,0,0,0,0,0,0,0,0,0,0,0,0,0,0,0,0],"split_type":[0,0,0,0,0,0,0,0,0,0,0,0,0,0,0,0,0,0,0,0,0,0,0,0,0,0,0,0,0,0,0,0,0,0,0,0,0,0,0,0,0,0,0,0,0,0,0,0,0,0,0,0,0,0,0,0,0,0,0],"sum_hessian":[1.073E3,6.1E1,1.012E3,2.8E1,3.3E1,1.32E2,8.8E2,2.5E1,3E0,2.6E1,7E0,2.7E1,1.05E2,5.11E2,3.69E2,9E0,1.6E1,2.3E1,3E0,1.4E1,1.3E1,1.01E2,4E0,4.38E2,7.3E1,2.63E2,1.06E2,2.1E1,2E0,1E0,2E0,3.6E1,6.5E1,3.62E2,7.6E1,1E1,6.3E1,4E0,2.59E2,2.4E1,8.2E1,3.1E1,5E0,3E0,6.2E1,3.3E1,3.29E2,5.6E1,2E1,7E0,3E0,3.8E1,2.5E1,2.9E1,2.3E2,6E0,1.8E1,7.3E1,9E0],"tree_param":{"num_deleted":"0","num_feature":"42","num_nodes":"59","size_leaf_vector":"0"}},{"base_weights":[4.7841387E0,8.177513E0,4.571727E0,5.087828E0,1.2259853E1,6.7738376E0,4.2340965E0,5.500098E0,3.1157282E-1,8.201725E0,1.7048054E1,9.427247E0,6.0090327E0,3.5219347E0,5.105418E0,7.030942E0,3.5556698E0,1.017284E1,4.214171E0,6.829115E0,1.1537585E1,6.229381E0,3.1211957E-1,3.7747884E0,5.140887E-1,4.3317804E0,6.375872E0,2.0568109E0,4.0087934E0,5.991606E0,1.3155754E1,4.7303643E0,1.22779255E1,7.691585E0,5.1204967E0,3.1430578E0,4.696294E0,1.9421494E0,-1.900285E0,2.4787998E0,4.884381E0,7.5459433E0,4.093128E0,7.546454E-1,2.5192323E0,2.7409782E0,5.2355385E0,7.647248E0,3.2519732E0,2.030014E0,8.401797E0,-1.0684848E-1,5.2094E0,6.908807E0,2.8141625E0,3.666941E0,7.2482333E0,-8.618062E-1,3.0804546E0,1.112594E0,-2.449389E0,1.4361156E0,4.0483875E0,5.505735E0,2.819583E0,8.989327E0,4.6494985E0,6.314462E0,2.2327107E-1],"categories":[],"categories_nodes":[],"categories_segments":[],"categories_sizes":[],"default_left":[true,true,true,true,true,true,true,true,false,true,false,true,true,true,true,false,true,true,false,false,true,true,false,true,true,true,true,true,true,true,false,false,false,true,true,true,true,true,true,true,true,true,true,false,false,false,false,false,false,false,false,false,false,false,false,false,false,false,false,false,false,false,false,false,false,false,false,false,false],"id":1,"left_children":[1,3,5,7,9,11,13,15,-1,17,-1,19,21,23,25,-1,27,29,-1,-1,31,33,-1,35,37,39,41,43,45,47,-1,-1,-1,49,51,53,55,57,59,61,63,65,67,-1,-1,-1,-1,-1,-1,-1,-1,-1,-1,-1,-1,-1,-1,-1,-1,-1,-1,-1,-1,-1,-1,-1,-1,-1,-1],"loss_changes":[7.3674805E2,7.1963916E2,7.244824E2,7.114331E1,3.6538574E2,2.1325342E2,5.286992E2,7.620532E1,0E0,8.2888794E1,0E0,7.473096E1,1.3111816E2,3.6920508E2,3.596328E2,0E0,3.3005219E0,4.589856E1,0E0,0E0,1.2476074E1,1.2599951E2,0E0,2.4720361E2,1.3815764E2,2.4183398E2,3.617461E2,1.7117691E0,4.3129425E0,2.346466E0,0E0,0E0,0E0,1.5182275E2,2.8904907E1,3.1496216E2,4.4888013E2,8.244869E1,2.7540932E1,9.074451E1,2.2824072E2,3.595498E2,4.4559485E2,0E0,0E0,0E0,0E0,0E0,0E0,0E0,0E0,0E0,0E0,0E0,0E0,0E0,0E0,0E0,0E0,0E0,0E0,0E0,0E0,0E0,0E0,0E0,0E0,0E0,0E0],"parents":[2147483647,0,0,1,1,2,2,3,3,4,4,5,5,6,6,7,7,9,9,11,11,12,12,13,13,14,14,16,16,17,17,20,20,21,21,23,23,24,24,25,25,26,26,27,27,28,28,29,29,33,33,34,34,35,35,36,36,37,37,38,38,39,39,40,40,41,41,42,42],"right_children":[2,4,6,8,10,12,14,16,-1,18,-1,20,22,24,26,-1,28,30,-1,-1,32,34,-1,36,38,40,42,44,46,48,-1,-1,-1,50,52,54,56,58,60,62,64,66,68,-1,-1,-1,-1,-1,-1,-1,-1,-1,-1,-1,-1,-1,-1,-1,-1,-1,-1,-1,-1,-1,-1,-1,-1,-1,-1],"split_conditions":[5.4647778E1,2.87E1,4.898111E1,6.958383E1,6.149654E-2,5.04095E4,1.5E0,1.8085344E1,9.347185E-2,3.3449997E1,5.114416E0,8.938962E-1,5.5344307E1,9.45E1,7.8E1,2.1092827E0,5E-1,5E-1,1.2642514E0,2.0487347E0,-7.8E0,8.707425E-1,9.363587E-2,7.05E1,3.605E1,6.191525E1,4.2989957E-1,3.58E1,2.4E0,3.4800003E1,3.9467263E0,1.4191093E0,3.6833777E0,4.0791094E-1,7.522E2,2.6E1,7.6585E2,1.1370647E3,-8.3E0,5.0369583E1,5.568361E1,3.48E1,9.4E1,2.2639363E-1,7.557697E-1,8.222935E-1,1.5706617E0,2.2941744E0,9.7559196E-1,6.0900426E-1,2.5205393E0,-3.2054543E-2,1.5628201E0,2.072642E0,8.442488E-1,1.1000823E0,2.1744702E0,-2.5854188E-1,9.241364E-1,3.337782E-1,-7.3481673E-1,4.308347E-1,1.2145163E0,1.6517205E0,8.458749E-1,2.6967983E0,1.3948495E0,1.8943387E0,6.698132E-2],"split_indices":[34,27,36,11,24,33,41,7,0,27,0,23,34,40,40,0,32,32,0,0,0,23,0,40,3,11,14,3,28,3,0,0,0,16,4,26,4,15,0,36,34,3,40,0,0,0,0,0,0,0,0,0,0,0,0,0,0,0,0,0,0,0,0,0,0,0,0,0,0],"split_type":[0,0,0,0,0,0,0,0,0,0,0,0,0,0,0,0,0,0,0,0,0,0,0,0,0,0,0,0,0,0,0,0,0,0,0,0,0,0,0,0,0,0,0,0,0,0,0,0,0,0,0,0,0,0,0,0,0,0,0,0,0,0,0,0,0,0,0,0,0],"sum_hessian":[1.073E3,6.1E1,1.012E3,3.6E1,2.5E1,1.32E2,8.8E2,3.3E1,3E0,1.5E1,1E1,2.7E1,1.05E2,4.87E2,3.93E2,1.7E1,1.6E1,9E0,6E0,1.4E1,1.3E1,1.01E2,4E0,4.49E2,3.8E1,2.47E2,1.46E2,5E0,1.1E1,5E0,4E0,2E0,1.1E1,4.1E1,6E1,2.69E2,1.8E2,2.4E1,1.4E1,5.8E1,1.89E2,9.5E1,5.1E1,2E0,3E0,7E0,4E0,2E0,3E0,5E0,3.6E1,1E0,5.9E1,2E1,2.49E2,1.3E2,5E1,7E0,1.7E1,2E0,1.2E1,3.6E1,2.2E1,1.44E2,4.5E1,6.2E1,3.3E1,3.2E1,1.9E1],"tree_param":{"num_deleted":"0","num_feature":"42","num_nodes":"69","size_leaf_vector":"0"}},{"base_weights":[3.3933387E0,5.087396E0,3.1042383E0,7.4296985E0,4.208076E0,5.178845E0,2.9246438E0,9.324924E0,3.8856E0,1.5775157E0,4.884515E0,4.252204E0,6.8549514E0,3.0983973E0,1.1166174E0,1.0142192E1,3.8639624E0,4.8347616E0,1.4978712E0,3.373988E0,1.5493506E-1,1.5169457E0,5.4770994E0,4.4205313E0,1.9767575E-1,7.643203E0,4.3230486E0,2.684876E0,4.0588183E0,3.4613671E0,5.313294E-1,4.606411E0,1.077382E1,1.1727068E0,5.0836964E0,1.946282E0,-3.7209165E-1,3.1961918E-1,4.479424E0,8.125789E-1,-2.7465E0,-1.9854342E0,2.9710324E0,4.383363E0,7.5767374E0,2.5515728E0,4.920725E0,-7.4786556E-1,7.5151706E0,2.2316597E0,3.1897695E0,7.625762E0,3.6658106E0,5.449542E0,1.5304124E0,1.3062184E0,-7.50004E-1,5.411937E0,1.0949166E0,1.9570075E0,-2.296273E0,6.1035604E0,1.3293974E0,1.9153577E0,4.3795025E-1,1.0734535E0,3.273444E0,3.6450315E0,8.080846E0,8.2225275E0,3.3490734E0,2.8332725E0,5.326894E0,-2.6878207E0,7.947264E-1,3.7974489E0,1.857295E0,2.236603E0,3.687331E0,8.5311575E0,1.4186943E0,1.2424204E0,4.2287116E0,2.6542537E0,8.2918415E0,7.3745483E-1,1.803982E0,1.7337785E0,-4.4024277E0,-1.485641E0,4.8946686E0],"categories":[],"categories_nodes":[],"categories_segments":[],"categories_sizes":[],"default_left":[true,true,true,true,true,true,true,true,true,true,true,true,true,true,true,true,false,true,true,true,true,true,true,true,false,false,true,true,true,true,true,true,false,false,false,false,false,true,true,true,false,false,true,true,true,false,true,true,false,true,true,true,true,true,true,true,true,false,false,false,false,false,false,false,false,false,false,false,false,false,false,false,false,false,false,false,false,false,false,false,false,false,false,false,false,false,false,false,false,false,false],"id":2,"left_children":[1,3,5,7,9,11,13,15,17,19,21,23,25,27,29,31,-1,33,35,37,39,41,43,45,-1,-1,47,49,51,53,55,57,-1,-1,-1,-1,-1,59,61,63,-1,-1,65,67,69,-1,71,73,-1,75,77,79,81,83,85,87,89,-1,-1,-1,-1,-1,-1,-1,-1,-1,-1,-1,-1,-1,-1,-1,-1,-1,-1,-1,-1,-1,-1,-1,-1,-1,-1,-1,-1,-1,-1,-1,-1,-1,-1],"loss_changes":[5.1020215E2,2.8797827E2,3.2763477E2,2.3915869E2,1.96927E2,8.26781E1,2.632544E2,7.685083E1,2.9019562E1,6.3367924E1,1.7328833E2,3.2568115E1,1.4856689E1,2.965E2,1.0245978E2,2.729541E1,0E0,4.0660706E0,5.755266E0,3.5708794E1,3.0853413E1,8.229025E1,1.4361523E2,3.1381897E1,0E0,0E0,1.3511615E2,1.1736279E2,2.9586914E2,4.924608E1,6.2538925E1,5.3887787E0,0E0,0E0,0E0,0E0,0E0,2.1626747E1,3.2814514E1,4.531893E0,0E0,0E0,2.798462E0,1.152334E2,4.0716675E1,0E0,1.543042E1,1.4106319E1,0E0,1.6293811E2,1.1268872E2,1.1153357E2,2.8121338E2,3.360666E1,6.2200546E-1,1.02823586E2,1.06930046E2,0E0,0E0,0E0,0E0,0E0,0E0,0E0,0E0,0E0,0E0,0E0,0E0,0E0,0E0,0E0,0E0,0E0,0E0,0E0,0E0,0E0,0E0,0E0,0E0,0E0,0E0,0E0,0E0,0E0,0E0,0E0,0E0,0E0,0E0],"parents":[2147483647,0,0,1,1,2,2,3,3,4,4,5,5,6,6,7,7,8,8,9,9,10,10,11,11,12,12,13,13,14,14,15,15,17,17,18,18,19,19,20,20,21,21,22,22,23,23,26,26,27,27,28,28,29,29,30,30,31,31,37,37,38,38,39,39,42,42,43,43,44,44,46,46,47,47,49,49,50,50,51,51,52,52,53,53,54,54,55,55,56,56],"right_children":[2,4,6,8,10,12,14,16,18,20,22,24,26,28,30,32,-1,34,36,38,40,42,44,46,-1,-1,48,50,52,54,56,58,-1,-1,-1,-1,-1,60,62,64,-1,-1,66,68,70,-1,72,74,-1,76,78,80,82,84,86,88,90,-1,-1,-1,-1,-1,-1,-1,-1,-1,-1,-1,-1,-1,-1,-1,-1,-1,-1,-1,-1,-1,-1,-1,-1,-1,-1,-1,-1,-1,-1,-1,-1,-1,-1],"split_conditions":[1.0843292E3,5.04095E4,4.887097E1,1.769606E1,1.6777937E3,3.44E1,5.5794067E1,3.8E1,3.64E1,5.0415E4,5.15E1,5.0417E4,8.3E1,2.945E1,2.905E1,5.0402E4,1.1591887E0,-5.7E0,3E0,5E-1,3.447494E0,1.188E3,1.5621142E0,2.658E3,5.930273E-2,2.292961E0,5E-1,5.04285E4,2.8099998E1,1.5E0,5.042E4,5E-1,3.232146E0,3.5181206E-1,1.5251089E0,5.8388466E-1,-1.116275E-1,3.345E1,7.691648E1,7.218E2,-8.2395005E-1,-5.956303E-1,5.04225E4,5.04305E4,5.556861E1,7.654719E-1,-1.3499999E0,5.45E0,2.2545512E0,3.140634E-1,5.457972E1,5.0437E4,5.0369583E1,5.04255E4,5.0415E4,8.75E0,4.3895414E-1,1.6235813E0,3.28475E-1,5.871023E-1,-6.8888193E-1,1.8310682E0,3.9881924E-1,5.746073E-1,1.3138509E-1,3.220361E-1,9.820332E-1,1.0935094E0,2.424254E0,2.4667583E0,1.0047221E0,8.499818E-1,1.5980682E0,-8.0634624E-1,2.3841792E-1,1.1392347E0,5.571885E-1,6.7098093E-1,1.1061994E0,2.5593474E0,4.256083E-1,3.7272614E-1,1.2686136E0,7.9627615E-1,2.4875526E0,2.2123645E-1,5.411946E-1,5.2013355E-1,-1.3207283E0,-4.4569233E-1,1.4684006E0],"split_indices":[15,33,36,7,19,3,38,27,3,33,40,33,40,27,26,33,0,0,0,32,10,22,16,22,0,0,32,33,26,1,33,0,0,0,0,0,0,3,11,2,0,0,33,33,35,0,0,0,0,14,35,33,36,33,33,28,14,0,0,0,0,0,0,0,0,0,0,0,0,0,0,0,0,0,0,0,0,0,0,0,0,0,0,0,0,0,0,0,0,0,0],"split_type":[0,0,0,0,0,0,0,0,0,0,0,0,0,0,0,0,0,0,0,0,0,0,0,0,0,0,0,0,0,0,0,0,0,0,0,0,0,0,0,0,0,0,0,0,0,0,0,0,0,0,0,0,0,0,0,0,0,0,0,0,0,0,0,0,0,0,0,0,0,0,0,0,0,0,0,0,0,0,0,0,0,0,0,0,0,0,0,0,0,0,0],"sum_hessian":[1.073E3,1.54E2,9.19E2,4E1,1.14E2,7.1E1,8.48E2,2.5E1,1.5E1,2.4E1,9E1,4.8E1,2.3E1,7.73E2,7.5E1,2.1E1,4E0,1E1,5E0,1E1,1.4E1,1.4E1,7.6E1,4.6E1,2E0,1.6E1,7E0,5.43E2,2.3E2,1.4E1,6.1E1,3E0,1.8E1,1E0,9E0,4E0,1E0,3E0,7E0,1.2E1,2E0,4E0,1E1,5.2E1,2.4E1,1.1E1,3.5E1,3E0,4E0,2.89E2,2.54E2,2.1E1,2.09E2,6E0,8E0,3.8E1,2.3E1,2E0,1E0,2E0,1E0,4E0,3E0,2E0,1E1,2E0,8E0,4.5E1,7E0,2E1,4E0,7E0,2.8E1,1E0,2E0,5.4E1,2.35E2,8.9E1,1.65E2,1.8E1,3E0,4E1,1.69E2,4E0,2E0,3E0,5E0,3.6E1,2E0,2.1E1,2E0],"tree_param":{"num_deleted":"0","num_feature":"42","num_nodes":"91","size_leaf_vector":"0"}},{"base_weights":[2.4107385E0,4.723571E0,2.2668033E0,2.361648E0,6.599223E0,4.162055E-1,2.4122005E0,2.729357E0,5.0774455E-2,4.911514E0,1.1470339E1,9.036107E-1,-1.177445E0,2.8511395E0,1.8606504E0,3.0513508E0,1.663701E0,4.797809E-1,-1.7642239E-1,2.1151671E0,6.432002E0,-5.930249E-2,2.2702088E0,8.1791496E-1,-3.2636845E0,3.1184359E0,1.4818864E0,4.6167827E0,1.613062E0,1.803116E0,3.39274E0,3.880245E0,5.522304E-1,7.7600794E0,3.426166E0,-1.2583443E0,2.853988E-1,-3.289034E-1,3.5903213E0,-8.966969E-1,2.110439E0,2.4614747E0,3.8367982E0,3.542147E0,4.9573332E-1,3.5687706E0,6.0352044E0,2.120789E0,9.0543073E-1,2.5304809E0,2.3225737E-1,3.68447E0,1.1921501E0,-1.2702763E-2,9.7910595E-1,3.8338394E0,4.9006295E-1,-2.193169E0,-2.588156E-1,7.1079206E-1,-6.916305E-1,1.0696152E0,-8.812823E-1,1.6029743E0,4.6224318E0,-2.2251336E-1,-1.2719815E0,2.5496728E0,-4.286492E-2,1.9250263E0,3.5663517E0,2.9619775E0,5.0975327E0,1.734055E0,4.6100855E0,1.3089492E0,-1.196146E0,1.1726499E0,5.1374197E0,1.7356223E0,3.849165E0,4.3641386E0,6.749599E-1],"categories":[],"categories_nodes":[],"categories_segments":[],"categories_sizes":[],"default_left":[true,true,true,true,true,true,true,true,true,true,false,true,true,true,true,true,false,false,false,true,true,true,true,true,false,true,true,true,true,true,true,false,true,false,true,true,true,true,true,true,true,true,true,true,true,true,false,true,true,false,false,false,false,false,false,false,false,false,false,false,false,false,false,false,false,false,false,false,false,false,false,false,false,false,false,false,false,false,false,false,false,false,false],"id":3,"left_children":[1,3,5,7,9,11,13,15,17,19,-1,21,23,25,27,29,-1,-1,-1,31,33,35,37,39,-1,41,43,45,47,49,51,-1,53,-1,55,57,59,61,63,65,67,69,71,73,75,77,-1,79,81,-1,-1,-1,-1,-1,-1,-1,-1,-1,-1,-1,-1,-1,-1,-1,-1,-1,-1,-1,-1,-1,-1,-1,-1,-1,-1,-1,-1,-1,-1,-1,-1,-1,-1],"loss_changes":[3.468252E2,2.5908386E2,2.7156592E2,2.4503555E1,2.231781E2,5.9320473E1,2.2202393E2,3.501831E0,5.7198864E-1,1.01194214E2,0E0,7.645772E1,7.759979E1,1.8606299E2,2.784729E2,1.5529022E0,0E0,0E0,0E0,2.8202972E1,4.1276367E1,1.4825025E1,8.352776E1,2.4054195E1,0E0,1.9584814E2,1.7500475E2,2.900354E1,1.3676324E2,6.267803E0,3.9532776E0,0E0,1.7005303E0,0E0,6.499977E0,6.907448E0,1.2129013E1,7.895242E0,2.540895E1,9.8202085E-1,5.784115E0,1.2945776E2,2.1210205E2,4.60719E1,8.411748E1,7.666638E1,0E0,1.4243903E2,1.2698677E2,0E0,0E0,0E0,0E0,0E0,0E0,0E0,0E0,0E0,0E0,0E0,0E0,0E0,0E0,0E0,0E0,0E0,0E0,0E0,0E0,0E0,0E0,0E0,0E0,0E0,0E0,0E0,0E0,0E0,0E0,0E0,0E0,0E0,0E0],"parents":[2147483647,0,0,1,1,2,2,3,3,4,4,5,5,6,6,7,7,8,8,9,9,11,11,12,12,13,13,14,14,15,15,19,19,20,20,21,21,22,22,23,23,25,25,26,26,27,27,28,28,29,29,30,30,32,32,34,34,35,35,36,36,37,37,38,38,39,39,40,40,41,41,42,42,43,43,44,44,45,45,47,47,48,48],"right_children":[2,4,6,8,10,12,14,16,18,20,-1,22,24,26,28,30,-1,-1,-1,32,34,36,38,40,-1,42,44,46,48,50,52,-1,54,-1,56,58,60,62,64,66,68,70,72,74,76,78,-1,80,82,-1,-1,-1,-1,-1,-1,-1,-1,-1,-1,-1,-1,-1,-1,-1,-1,-1,-1,-1,-1,-1,-1,-1,-1,-1,-1,-1,-1,-1,-1,-1,-1,-1,-1],"split_conditions":[5.4647778E1,2.59E1,7.348422E2,2.5E0,6.512642E-2,5.4693336E1,3.455E1,1.8908482E1,3.27E1,5E-1,3.4411018E0,5.47975E1,5.85E0,5.541153E1,4.898111E1,5E-1,4.9911034E-1,1.4393428E-1,-5.292672E-2,3.375E1,7.885628E-1,7.423E2,1.8215562E3,7.95E1,-9.791054E-1,5.0616806E1,2.655E3,4.868222E1,2.385E0,8.5E-1,1.5598261E0,1.1640736E0,-5E-1,2.328024E0,4E0,5.04255E4,3.33E1,-3.75E0,7.19E2,7.186E2,3.41E1,1.05E0,2.5E0,5.0417E4,8.2E1,5E-1,1.8105614E0,5.216986E1,7.3085E2,7.591443E-1,6.967721E-2,1.1053411E0,3.5764503E-1,-3.810829E-3,2.937318E-1,1.1501518E0,1.470189E-1,-6.5795076E-1,-7.7644676E-2,2.1323763E-1,-2.0748915E-1,3.208846E-1,-2.6438472E-1,4.808923E-1,1.3867296E0,-6.675401E-2,-3.8159445E-1,7.649019E-1,-1.2859476E-2,5.775079E-1,1.0699055E0,8.8859326E-1,1.5292599E0,5.202165E-1,1.3830256E0,3.926848E-1,-3.588438E-1,3.5179496E-1,1.541226E0,5.206867E-1,1.1547495E0,1.3092417E0,2.0248798E-1],"split_indices":[34,27,8,41,24,35,3,7,3,32,0,34,28,35,36,32,0,0,0,3,17,4,19,29,0,36,22,36,1,0,17,0,1,0,0,33,27,0,2,2,3,6,41,33,40,32,0,37,2,0,0,0,0,0,0,0,0,0,0,0,0,0,0,0,0,0,0,0,0,0,0,0,0,0,0,0,0,0,0,0,0,0,0],"split_type":[0,0,0,0,0,0,0,0,0,0,0,0,0,0,0,0,0,0,0,0,0,0,0,0,0,0,0,0,0,0,0,0,0,0,0,0,0,0,0,0,0,0,0,0,0,0,0,0,0,0,0,0,0,0,0,0,0,0,0,0,0,0,0,0,0,0,0,0,0,0,0,0,0,0,0,0,0,0,0,0,0,0,0],"sum_hessian":[1.073E3,6.1E1,1.012E3,2.8E1,3.3E1,7.4E1,9.38E2,2.4E1,4E0,2.6E1,7E0,5.7E1,1.7E1,5.2E2,4.18E2,1.7E1,7E0,1E0,3E0,1E1,1.6E1,3.4E1,2.3E1,9E0,8E0,4.34E2,8.6E1,3.3E1,3.85E2,5E0,1.2E1,4E0,6E0,1E1,6E0,7E0,2.7E1,8E0,1.5E1,4E0,5E0,2.29E2,2.05E2,2.7E1,5.9E1,2.1E1,1.2E1,2.23E2,1.62E2,3E0,2E0,1E1,2E0,3E0,3E0,5E0,1E0,3E0,4E0,1.9E1,8E0,2E0,6E0,6E0,9E0,2E0,2E0,4E0,1E0,1.56E2,7.3E1,1.23E2,8.2E1,1.1E1,1.6E1,4E1,1.9E1,9E0,1.2E1,1.84E2,3.9E1,9E0,1.53E2],"tree_param":{"num_deleted":"0","num_feature":"42","num_nodes":"83","size_leaf_vector":"0"}},{"base_weights":[1.7106214E0,3.4904063E0,1.600002E0,1.795986E0,4.9250183E0,-3.2436195E-1,1.6960579E0,2.0619562E0,5.374367E-2,3.6481001E0,8.459375E0,7.450437E-2,-9.580722E-1,2.2104342E0,1.404968E0,2.3050013E0,1.2269797E0,4.078138E-1,-1.367273E-1,1.6127981E0,4.819364E0,3.6736184E-1,-9.820586E-1,-1.5224632E0,-1.6180852E-1,2.0751493E0,5.0663986E0,1.54757E0,-3.6345598E-1,7.7294683E-1,2.4397757E0,5.320071E-1,3.3711808E0,5.3001847E0,9.6907806E-1,-2.595833E-1,7.362424E-1,-1.6798227E-1,-1.2740927E0,-3.4538046E-1,-1.7456615E0,-1.0320712E0,7.598323E-2,-1.8582228E0,2.153004E0,8.140342E0,3.20857E0,1.7275358E0,1.856544E-1,4.0724177E0,-1.1119355E0,1.4003181E0,2.7561898E0,-7.749385E-2,9.132064E-1,6.022506E0,1.9887545E0,-9.9920964E-1,4.0003586E-1,2.490133E-1,-5.009867E-1,-3.2664526E-1,1.8016519E-1,-3.029081E0,-7.840632E-1,2.3581386E0,5.776969E-1,3.7304294E0,1.8362528E0,1.4260372E0,2.4683287E0,3.8691459E0,-4.3878216E-2,5.3237014E0,6.294721E-1,-2.1045601E0,2.1756573E0],"categories":[],"categories_nodes":[],"categories_segments":[],"categories_sizes":[],"default_left":[true,true,true,true,true,true,true,true,true,true,false,true,true,true,true,true,false,false,false,true,true,true,true,true,true,true,true,true,true,false,true,true,false,true,false,true,false,true,false,false,false,false,true,true,true,false,true,true,true,true,true,false,false,false,false,false,false,false,false,false,false,false,false,false,false,false,false,false,false,false,false,false,false,false,false,false,false],"id":4,"left_children":[1,3,5,7,9,11,13,15,17,19,-1,21,23,25,27,29,-1,-1,-1,31,33,35,37,39,41,43,45,47,49,-1,51,53,-1,55,-1,57,-1,59,-1,-1,-1,-1,61,63,65,-1,67,69,71,73,75,-1,-1,-1,-1,-1,-1,-1,-1,-1,-1,-1,-1,-1,-1,-1,-1,-1,-1,-1,-1,-1,-1,-1,-1,-1,-1],"loss_changes":[2.0586304E2,1.4186652E2,1.8779932E2,1.3790726E1,1.1807117E2,1.2456898E1,1.4138354E2,2.448166E0,3.9295968E-1,5.420813E1,0E0,9.952864E0,8.292328E0,1.2355664E2,1.5666235E2,2.0373383E0,0E0,0E0,0E0,1.9111393E1,2.4484436E1,5.9728136E0,1.450141E0,2.287035E0,1.9408917E0,1.05975586E2,5.9544037E1,1.401206E2,1.605758E2,0E0,1.7317352E0,1.9294987E0,0E0,2.1509583E1,0E0,5.278437E0,0E0,5.4133654E-1,0E0,0E0,0E0,0E0,3.944231E-1,6.428831E0,1.0430798E2,0E0,1.02771E0,1.0949414E2,5.7662514E1,2.6805595E1,1.3837598E2,0E0,0E0,0E0,0E0,0E0,0E0,0E0,0E0,0E0,0E0,0E0,0E0,0E0,0E0,0E0,0E0,0E0,0E0,0E0,0E0,0E0,0E0,0E0,0E0,0E0,0E0],"parents":[2147483647,0,0,1,1,2,2,3,3,4,4,5,5,6,6,7,7,8,8,9,9,11,11,12,12,13,13,14,14,15,15,19,19,20,20,21,21,22,22,23,23,24,24,25,25,26,26,27,27,28,28,30,30,31,31,33,33,35,35,37,37,42,42,43,43,44,44,46,46,47,47,48,48,49,49,50,50],"right_children":[2,4,6,8,10,12,14,16,18,20,-1,22,24,26,28,30,-1,-1,-1,32,34,36,38,40,42,44,46,48,50,-1,52,54,-1,56,-1,58,-1,60,-1,-1,-1,-1,62,64,66,-1,68,70,72,74,76,-1,-1,-1,-1,-1,-1,-1,-1,-1,-1,-1,-1,-1,-1,-1,-1,-1,-1,-1,-1,-1,-1,-1,-1,-1,-1],"split_conditions":[5.4647778E1,2.68E1,5.47975E1,2.5E0,6.512642E-2,7.213E2,1.2423804E3,1.8908482E1,3.27E1,5E-1,2.5378127E0,8.45E1,1.5E0,5.3992363E1,9.7E1,2.035E1,3.6809394E-1,1.2234414E-1,-4.101819E-2,6.915054E1,3.48E1,7.766902E0,5E-1,3.133996E0,5.04255E4,5.02E1,6.802245E1,5.5827084E1,2.9787195E0,2.3188406E-1,5E-1,1.537E2,1.0113543E0,4.9866834E-1,2.9072344E-1,5.04255E4,2.2087273E-1,5.04255E4,-3.822278E-1,-1.03614144E-1,-5.2369845E-1,-3.096214E-1,4.9999982E-2,7.05E1,5.566986E1,2.4421027E0,2.5E0,7.25E1,7.2665E2,3.35E0,7.5229913E2,4.2009547E-1,8.26857E-1,-2.3248155E-2,2.7396193E-1,1.806752E0,5.966264E-1,-2.997629E-1,1.2001076E-1,7.470399E-2,-1.5029602E-1,-9.799358E-2,5.404956E-2,-9.0872437E-1,-2.3521897E-1,7.0744157E-1,1.7330909E-1,1.1191288E0,5.5087584E-1,4.2781118E-1,7.4049866E-1,1.1607438E0,-1.3163465E-2,1.5971105E0,1.8884163E-1,-6.3136804E-1,6.526972E-1],"split_indices":[34,27,34,41,24,2,15,7,3,32,0,29,41,36,40,27,0,0,0,11,28,18,32,10,33,21,11,34,10,0,32,21,0,14,0,33,0,33,0,0,0,0,0,40,35,0,1,40,2,0,8,0,0,0,0,0,0,0,0,0,0,0,0,0,0,0,0,0,0,0,0,0,0,0,0,0,0],"split_type":[0,0,0,0,0,0,0,0,0,0,0,0,0,0,0,0,0,0,0,0,0,0,0,0,0,0,0,0,0,0,0,0,0,0,0,0,0,0,0,0,0,0,0,0,0,0,0,0,0,0,0,0,0,0,0,0,0,0,0,0,0,0,0,0,0,0,0,0,0,0,0,0,0,0,0,0,0],"sum_hessian":[1.073E3,6.1E1,1.012E3,2.9E1,3.2E1,4.8E1,9.64E2,2.5E1,4E0,2.5E1,7E0,3E1,1.8E1,3.46E2,6.18E2,1.8E1,7E0,1E0,3E0,1E1,1.5E1,2.4E1,6E0,1E1,8E0,3.32E2,1.4E1,5.72E2,4.6E1,2E0,1.6E1,7E0,3E0,1.3E1,2E0,9E0,1.5E1,2E0,4E0,2E0,8E0,1E0,7E0,6E0,3.26E2,4E0,1E1,5.05E2,6.7E1,6E0,4E1,5E0,1.1E1,3E0,4E0,1E1,3E0,4E0,5E0,1E0,1E0,1E0,6E0,2E0,4E0,2.88E2,3.8E1,6E0,4E0,3.61E2,1.44E2,3E0,6.4E1,4E0,2E0,3.1E1,9E0],"tree_param":{"num_deleted":"0","num_feature":"42","num_nodes":"77","size_leaf_vector":"0"}},{"base_weights":[1.2113984E0,2.5791266E0,1.1264917E0,1.3926622E0,3.7982666E0,1.9221946E0,1.0030031E0,1.546057E0,-1.0596362E-1,1.9340193E0,5.1101017E0,4.2942104E0,1.6122571E0,5.789403E-1,1.4345089E0,1.9073266E0,1.1575962E0,2.9785588E0,1.0227687E0,2.8358324E0,5.821395E0,3.3396063E0,1.080576E0,3.6247306E0,4.8615915E-1,6.279942E-1,2.0177002E0,2.0814316E0,9.517057E-1,5.333794E-1,1.3732383E0,1.308136E0,3.486736E0,1.4768201E-1,1.4356984E0,5.2868905E0,1.7686052E0,3.9113447E-1,1.8551427E0,2.295471E0,6.0416975E0,1.9598097E0,3.228519E-1,1.4929827E0,-2.7241156E-1,1.461047E0,4.130576E0,-9.4257675E-2,8.7076235E-1,6.4433223E-1,1.9947556E0,1.8845615E0,7.764244E-2,4.931221E-1,-1.3183872E-1,5.273077E-1,1.7580669E0,2.9590077E0,6.5269485E0,2.4720688E0,1.0289738E0,-1.3862958E0,8.5846615E-1,1.4529487E0,3.7734609E0,1.4346714E0,3.8257792E0,2.4217297E-1,2.7806628E0,5.11308E-1,-8.886477E-1,6.486792E-1,5.5684204E0,2.4182274E0,-5.608855E-1,1.8363383E0,-4.8292883E-2,5.1606355E0,2.3642676E0],"categories":[],"categories_nodes":[],"categories_segments":[],"categories_sizes":[],"default_left":[true,true,true,true,true,true,true,true,false,true,true,false,true,true,true,true,true,true,true,false,false,true,true,true,true,true,true,false,false,true,true,true,false,true,true,true,true,true,true,true,false,true,true,true,true,true,true,false,false,false,false,false,false,false,false,false,false,false,false,false,false,false,false,false,false,false,false,false,false,false,false,false,false,false,false,false,false,false,false],"id":5,"left_children":[1,3,5,7,9,11,13,15,-1,17,19,-1,21,23,25,27,29,31,33,-1,-1,35,37,39,41,43,45,-1,-1,47,49,51,-1,53,55,57,59,61,63,65,-1,67,69,71,73,75,77,-1,-1,-1,-1,-1,-1,-1,-1,-1,-1,-1,-1,-1,-1,-1,-1,-1,-1,-1,-1,-1,-1,-1,-1,-1,-1,-1,-1,-1,-1,-1,-1],"loss_changes":[1.2181763E2,8.4391205E1,9.760962E1,7.7499084E0,6.3484528E1,9.23255E1,1.600138E2,2.0022507E0,0E0,1.0279346E1,1.0991913E1,0E0,1.0751758E2,1.2399115E2,2.0333612E2,3.4838867E-1,1.5558681E0,5.321007E-1,3.0401173E0,0E0,0E0,7.630676E1,4.9472115E1,2.7897552E1,1.035721E2,1.4371338E2,2.9035205E2,0E0,0E0,1.3526002E0,4.1510487E0,1.9815416E0,0E0,4.5124322E-1,8.299761E-1,1.532724E1,6.3014717E0,4.3553207E1,2.846495E1,7.684147E0,0E0,5.9953476E1,8.972535E1,3.1983313E2,7.198866E1,1.1394357E2,8.240784E1,0E0,0E0,0E0,0E0,0E0,0E0,0E0,0E0,0E0,0E0,0E0,0E0,0E0,0E0,0E0,0E0,0E0,0E0,0E0,0E0,0E0,0E0,0E0,0E0,0E0,0E0,0E0,0E0,0E0,0E0,0E0,0E0],"parents":[2147483647,0,0,1,1,2,2,3,3,4,4,5,5,6,6,7,7,9,9,10,10,12,12,13,13,14,14,15,15,16,16,17,17,18,18,21,21,22,22,23,23,24,24,25,25,26,26,29,29,30,30,31,31,33,33,34,34,35,35,36,36,37,37,38,38,39,39,41,41,42,42,43,43,44,44,45,45,46,46],"right_children":[2,4,6,8,10,12,14,16,-1,18,20,-1,22,24,26,28,30,32,34,-1,-1,36,38,40,42,44,46,-1,-1,48,50,52,-1,54,56,58,60,62,64,66,-1,68,70,72,74,76,78,-1,-1,-1,-1,-1,-1,-1,-1,-1,-1,-1,-1,-1,-1,-1,-1,-1,-1,-1,-1,-1,-1,-1,-1,-1,-1,-1,-1,-1,-1,-1,-1],"split_conditions":[5.4647778E1,2.75E1,4.816764E1,6.958383E1,7.414236E-1,2.818718E0,5.04285E4,1.8085344E1,-3.1789087E-2,9.9797986E2,1.6364983E1,1.2882632E0,5.04095E4,4.26598E0,5.8E1,6.675609E-1,5E-1,5E-1,5E-1,8.5074973E-1,1.7464186E0,5E-1,8.790029E-1,5.5830696E1,7.25E1,8.148016E-1,3.335E1,6.244295E-1,2.8551173E-1,3.58E1,2.3900002E1,-5.3E0,1.0460209E0,7.1295E2,1.05E0,3.425E1,3.025E1,6.3328068E1,3.29E1,7.38E2,1.8125093E0,6.1374795E-1,5.04235E4,1.6625E2,1.1210437E3,8.2815087E-1,5.0434E4,-2.8277304E-2,2.612287E-1,1.9329968E-1,5.984267E-1,5.653685E-1,2.3292733E-2,1.4793664E-1,-3.955162E-2,1.581923E-1,5.274201E-1,8.8770235E-1,1.9580846E0,7.4162066E-1,3.0869216E-1,-4.1588876E-1,2.5753987E-1,4.3588462E-1,1.1320384E0,4.3040144E-1,1.1477338E0,7.265189E-2,8.341989E-1,1.533924E-1,-2.6659432E-1,1.9460377E-1,1.6705261E0,7.254683E-1,-1.6826566E-1,5.5090153E-1,-1.4487865E-2,1.5481907E0,7.092803E-1],"split_indices":[34,27,37,11,16,10,33,7,0,15,7,0,33,18,40,13,32,32,32,0,0,41,25,34,29,16,27,0,0,3,27,0,0,2,6,3,26,11,27,2,0,17,33,21,19,25,33,0,0,0,0,0,0,0,0,0,0,0,0,0,0,0,0,0,0,0,0,0,0,0,0,0,0,0,0,0,0,0,0],"split_type":[0,0,0,0,0,0,0,0,0,0,0,0,0,0,0,0,0,0,0,0,0,0,0,0,0,0,0,0,0,0,0,0,0,0,0,0,0,0,0,0,0,0,0,0,0,0,0,0,0,0,0,0,0,0,0,0,0,0,0,0,0,0,0,0,0,0,0,0,0,0,0,0,0,0,0,0,0,0,0],"sum_hessian":[1.073E3,6.1E1,1.012E3,3.2E1,2.9E1,1.34E2,8.78E2,2.9E1,3E0,1.3E1,1.6E1,1.4E1,1.2E2,4.44E2,4.34E2,1.3E1,1.6E1,5E0,8E0,5E0,1.1E1,2.7E1,9.3E1,1.2E1,4.32E2,1.83E2,2.51E2,1E1,3E0,5E0,1.1E1,2E0,3E0,3E0,5E0,1.1E1,1.6E1,5E1,4.3E1,9E0,3E0,4.2E1,3.9E2,9.3E1,9E1,2E2,5.1E1,2E0,3E0,6E0,5E0,1E0,1E0,1E0,2E0,2E0,3E0,5E0,6E0,7E0,9E0,1E1,4E1,3.7E1,6E0,7E0,2E0,1.4E1,2.8E1,3.38E2,5.2E1,7.8E1,1.5E1,8E0,8.2E1,1.6E2,4E1,3.1E1,2E1],"tree_param":{"num_deleted":"0","num_feature":"42","num_nodes":"79","size_leaf_vector":"0"}},{"base_weights":[8.693226E-1,9.4702435E-1,-1.2131371E-1,3.505555E-1,1.0890286E0,-1.24861E0,7.5816816E-1,1.8873398E0,-1.3849414E-2,3.0365362E0,1.0096207E0,-4.593054E-1,-3.175941E0,1.8955864E0,6.526205E-2,2.148111E-1,2.7843423E0,-2.7980098E-1,1.9325252E0,1.0454146E0,3.5737212E0,1.1120471E0,-4.6422946E-1,1.8449989E-1,-8.109964E-1,-4.0584868E-1,2.41774E0,-6.7539126E-1,8.015646E-1,1.455094E0,-8.972877E-1,9.2383766E-1,3.0061364E0,1.5060087E0,-4.7600365E-1,3.75199E0,-5.059902E-1,2.063121E0,3.6232558E-1,2.8368707E0,6.5487556E0,1.4686822E0,7.762223E-1,1.280952E0,-2.191556E0,7.477477E-1,-1.3789943E0,-2.7478266E-1,-1.0115203E0,7.176025E-1,-1.0195333E0,5.7446074E-1,2.8682292E0,-1.441587E0,4.062019E-1,-1.1282899E0,1.8793207E0,1.6200461E0,2.3269033E-1,-5.03306E-1,-1.8275802E0,1.9911609E0,3.3713984E0,-1.0871313E-1,4.434251E0,-9.775282E-1,2.107982E-1,-1.1414849E0,1.1454941E0,-1.781323E-1,5.060436E-1,1.8150661E0,4.27042E0,1.6555543E0,2.584545E-1,2.4461743E-1,1.3631973E0,1.9536313E-1,3.3098016E0,-1.0661632E0,-3.885568E0,8.639467E-1,2.6610056E-1,-1.008046E0,3.438605E-1,-2.0745607E-1,-1.3876204E0,9.781804E-1,1.13827385E-1,1.065809E0,3.745925E0,-6.183306E-3,5.7239264E-1,-1.8869996E-1,-2.0049798E0,2.2179976E0,-5.8438516E-1],"categories":[],"categories_nodes":[],"categories_segments":[],"categories_sizes":[],"default_left":[true,true,true,true,true,true,true,true,true,true,true,true,false,true,true,true,true,true,true,true,true,true,true,true,true,true,true,true,true,true,true,false,true,true,true,false,true,false,true,true,false,true,true,true,true,true,false,true,true,false,false,true,true,false,true,true,true,false,false,false,false,false,false,false,false,false,false,false,false,false,false,false,false,false,false,false,false,false,false,false,false,false,false,false,false,false,false,false,false,false,false,false,false,false,false,false,false],"id":6,"left_children":[1,3,5,7,9,11,13,15,17,19,21,23,-1,25,27,29,31,33,35,37,39,41,43,45,47,49,51,53,55,57,59,-1,61,63,65,-1,67,-1,69,71,-1,73,75,77,79,81,-1,83,85,-1,-1,87,89,-1,91,93,95,-1,-1,-1,-1,-1,-1,-1,-1,-1,-1,-1,-1,-1,-1,-1,-1,-1,-1,-1,-1,-1,-1,-1,-1,-1,-1,-1,-1,-1,-1,-1,-1,-1,-1,-1,-1,-1,-1,-1,-1],"loss_changes":[8.278516E1,8.398053E1,7.927016E1,1.0810841E2,1.21270996E2,5.178507E1,3.5341873E1,5.4911606E1,8.181042E1,2.94216E1,1.1736023E2,6.036563E0,0E0,2.141019E1,1.635637E1,2.0616077E1,7.126404E0,4.9419765E1,8.6197525E1,4.8139505E0,3.4033752E1,8.557117E1,1.5654668E2,9.837487E0,1.5499535E0,3.489398E0,9.977592E0,1.3016256E1,3.331911E1,1.0344982E0,2.0123153E0,0E0,1.0723724E0,6.6678215E1,4.3606506E1,0E0,1.075315E1,0E0,5.56184E-1,2.3009872E1,0E0,7.8727356E1,1.1668106E2,5.6618298E1,4.542449E1,2.1783829E-1,0E0,3.0683975E0,3.341034E0,0E0,0E0,6.325233E-1,1.3409294E1,0E0,4.832815E-1,4.5640345E0,9.640167E0,0E0,0E0,0E0,0E0,0E0,0E0,0E0,0E0,0E0,0E0,0E0,0E0,0E0,0E0,0E0,0E0,0E0,0E0,0E0,0E0,0E0,0E0,0E0,0E0,0E0,0E0,0E0,0E0,0E0,0E0,0E0,0E0,0E0,0E0,0E0,0E0,0E0,0E0,0E0,0E0],"parents":[2147483647,0,0,1,1,2,2,3,3,4,4,5,5,6,6,7,7,8,8,9,9,10,10,11,11,13,13,14,14,15,15,16,16,17,17,18,18,19,19,20,20,21,21,22,22,23,23,24,24,25,25,26,26,27,27,28,28,29,29,30,30,32,32,33,33,34,34,36,36,38,38,39,39,41,41,42,42,43,43,44,44,45,45,47,47,48,48,51,51,52,52,54,54,55,55,56,56],"right_children":[2,4,6,8,10,12,14,16,18,20,22,24,-1,26,28,30,32,34,36,38,40,42,44,46,48,50,52,54,56,58,60,-1,62,64,66,-1,68,-1,70,72,-1,74,76,78,80,82,-1,84,86,-1,-1,88,90,-1,92,94,96,-1,-1,-1,-1,-1,-1,-1,-1,-1,-1,-1,-1,-1,-1,-1,-1,-1,-1,-1,-1,-1,-1,-1,-1,-1,-1,-1,-1,-1,-1,-1,-1,-1,-1,-1,-1,-1,-1,-1,-1],"split_conditions":[7.535012E2,5.8601635E1,4.988514E1,4.8614445E1,4.8109955E-1,7.666E2,-1.4174107E-3,8.25E1,5.04375E4,5.061125E1,9.7E1,-2.4E0,-9.5278233E-1,5.8E1,5.5130833E1,5.0414E4,5.04095E4,5.82E2,2.293415E0,5.0409E4,5.5830696E1,9.0075E-1,3.4693387E0,5.0433E4,5.5095833E1,-2.4E0,5.4950974E1,7.395E2,3.565E1,8.15E0,7.3565E2,2.7715132E-1,5E-1,9.1E1,5.04285E4,1.1255971E0,1.05E0,6.1893636E-1,5.0412E4,1.7643683E0,1.9646268E0,5.04385E4,7.4858997E2,2.5929317E0,4.6354067E-1,5.0424E4,-4.1369832E-1,3.705E1,3.705E1,2.1528076E-1,-3.0585998E-1,-1.0999999E0,-5.5E0,-4.324761E-1,-1.00000024E-1,5.0434E4,8.35E1,4.8601386E-1,6.9807105E-2,-1.509918E-1,-5.482741E-1,5.973483E-1,1.0114195E0,-3.261394E-2,1.3302753E0,-2.932585E-1,6.323946E-2,-3.4244546E-1,3.4364825E-1,-5.343969E-2,1.5181309E-1,5.4451984E-1,1.281126E0,4.966663E-1,7.753635E-2,7.338523E-2,4.089592E-1,5.860894E-2,9.929405E-1,-3.1984895E-1,-1.1656704E0,2.59184E-1,7.983017E-2,-3.0241382E-1,1.0315815E-1,-6.2236823E-2,-4.1628614E-1,2.9345414E-1,3.4148216E-2,3.197427E-1,1.1237775E0,-1.8549919E-3,1.717178E-1,-5.6609992E-2,-6.0149395E-1,6.653993E-1,-1.7531556E-1],"split_indices":[8,11,37,37,13,4,9,29,33,36,40,0,0,40,34,33,33,22,12,33,34,16,10,33,34,0,34,2,3,0,2,0,32,40,33,0,6,0,33,16,0,33,8,16,14,33,0,3,3,0,0,0,1,0,0,33,40,0,0,0,0,0,0,0,0,0,0,0,0,0,0,0,0,0,0,0,0,0,0,0,0,0,0,0,0,0,0,0,0,0,0,0,0,0,0,0,0],"split_type":[0,0,0,0,0,0,0,0,0,0,0,0,0,0,0,0,0,0,0,0,0,0,0,0,0,0,0,0,0,0,0,0,0,0,0,0,0,0,0,0,0,0,0,0,0,0,0,0,0,0,0,0,0,0,0,0,0,0,0,0,0,0,0,0,0,0,0,0,0,0,0,0,0,0,0,0,0,0,0,0,0,0,0,0,0,0,0,0,0,0,0,0,0,0,0,0,0],"sum_hessian":[1.073E3,9.95E2,7.8E1,1.92E2,8.03E2,3.4E1,4.4E1,3.6E1,1.56E2,3E1,7.73E2,2.5E1,9E0,1.6E1,2.8E1,1.3E1,2.3E1,1.38E2,1.8E1,7E0,2.3E1,7.23E2,5E1,9E0,1.6E1,3E0,1.3E1,1.4E1,1.4E1,6E0,7E0,3E0,2E1,1.3E1,1.25E2,1E1,8E0,2E0,5E0,2E1,3E0,3.49E2,3.74E2,2.5E1,2.5E1,7E0,2E0,5E0,1.1E1,1E0,2E0,3E0,1E1,8E0,6E0,5E0,9E0,5E0,1E0,6E0,1E0,7E0,1.3E1,9E0,4E0,7.2E1,5.3E1,6E0,2E0,1E0,4E0,1.3E1,7E0,3.02E2,4.7E1,1.97E2,1.77E2,1.7E1,8E0,1.6E1,9E0,5E0,2E0,2E0,3E0,4E0,7E0,1E0,2E0,4E0,6E0,2E0,4E0,3E0,2E0,8E0,1E0],"tree_param":{"num_deleted":"0","num_feature":"42","num_nodes":"97","size_leaf_vector":"0"}},{"base_weights":[6.165442E-1,1.6230731E0,5.543316E-1,4.416537E0,1.3542733E0,4.7259432E-1,1.3213291E0,8.412531E-1,1.953327E0,4.472981E-1,3.2909625E0,6.893922E-1,3.1137319E0,9.436665E-1,-1.3716075E-1,9.8766637E-1,2.7104883E0,1.0752919E0,3.5691094E-1,-1.3460248E0,4.1456785E0,-1.6525742E0,1.0445527E0,3.7436562E0,9.5911866E-1,4.2350712E-1,1.0074023E0,2.5519612E0,-7.1772355E-1,1.3076744E0,3.9264915E0,2.1711879E0,7.1023E-1,-1.3001586E-1,5.942578E-1,-2.8842802E0,1.5598774E-1,-6.837692E-1,1.5421582E0,2.4880052E0,5.159176E0,2.2065394E0,1.884241E-2,1.0342169E0,1.6851902E-1,3.1914177E0,6.355464E-1,-7.765652E-1,-1.823368E-1,3.5404363E-1,1.566544E0,3.6392946E0,1.0071602E0,1.0316924E0,-4.1825342E-1,-9.2796594E-1,5.8275986E-1,9.6463716E-1,2.1749114E-1,-1.7198968E-1,2.809795E-1,-1.2861592E0,1.294343E0,1.2798877E0,4.2382975E0,2.8549283E0,1.040427E0,3.2359758E-1,-2.9219356E-1],"categories":[],"categories_nodes":[],"categories_segments":[],"categories_sizes":[],"default_left":[true,true,true,false,true,true,true,true,true,true,true,true,true,true,false,true,true,true,true,false,false,true,true,true,true,false,true,true,true,true,false,true,true,true,true,false,true,true,true,true,false,false,true,false,false,false,false,false,false,false,false,false,false,false,false,false,false,false,false,false,false,false,false,false,false,false,false,false,false],"id":7,"left_children":[1,3,5,-1,7,9,11,13,15,17,19,21,23,25,-1,27,29,31,33,-1,-1,35,37,39,41,-1,43,45,47,49,-1,51,53,55,57,-1,59,61,63,65,-1,-1,67,-1,-1,-1,-1,-1,-1,-1,-1,-1,-1,-1,-1,-1,-1,-1,-1,-1,-1,-1,-1,-1,-1,-1,-1,-1,-1],"loss_changes":[6.635281E1,4.0573517E1,6.2882874E1,0E0,1.6181702E1,6.3904556E1,1.0772392E2,3.436123E0,1.6333122E1,5.1270157E1,3.7286644E1,6.2445698E1,3.034047E1,5.6794167E-1,0E0,3.6512123E1,1.8747002E1,4.4065918E1,9.218697E1,0E0,0E0,2.272608E1,5.6095924E1,2.093454E1,8.168863E0,0E0,4.1056633E-1,6.5499573E0,7.8924894E-2,1.4203033E0,0E0,4.418431E1,3.1992054E1,1.4955576E2,7.458719E1,0E0,2.5329798E-1,1.9538656E1,2.993135E1,3.4034576E0,0E0,0E0,5.6850225E-1,0E0,0E0,0E0,0E0,0E0,0E0,0E0,0E0,0E0,0E0,0E0,0E0,0E0,0E0,0E0,0E0,0E0,0E0,0E0,0E0,0E0,0E0,0E0,0E0,0E0,0E0],"parents":[2147483647,0,0,1,1,2,2,4,4,5,5,6,6,7,7,8,8,9,9,10,10,11,11,12,12,13,13,15,15,16,16,17,17,18,18,21,21,22,22,23,23,24,24,26,26,27,27,28,28,29,29,31,31,32,32,33,33,34,34,36,36,37,37,38,38,39,39,42,42],"right_children":[2,4,6,-1,8,10,12,14,16,18,20,22,24,26,-1,28,30,32,34,-1,-1,36,38,40,42,-1,44,46,48,50,-1,52,54,56,58,-1,60,62,64,66,-1,-1,68,-1,-1,-1,-1,-1,-1,-1,-1,-1,-1,-1,-1,-1,-1,-1,-1,-1,-1,-1,-1,-1,-1,-1,-1,-1,-1],"split_conditions":[5.4647778E1,3.125E1,2.707451E0,1.3249611E0,2.75E1,4.118125E2,3.245E1,6.958383E1,5E-1,4.887097E1,5.041E4,4.95E1,5.1132637E1,-4.2E0,-4.1148227E-2,3.375E1,6.881963E-1,5.04095E4,4.976097E1,-4.0380743E-1,1.2437036E0,3.6010878E0,1.7895636E1,1.7916218E0,4E-1,1.2705214E-1,4.113978E0,3.51E1,9.85E1,-4.246544E-3,1.1779475E0,5E-1,6.2390625E-1,1.8235348E1,5.1882637E1,-8.652841E-1,5E-1,8.2E1,7.2401166E0,5.0432E4,1.5477529E0,6.6196185E-1,8.5E-1,3.1026506E-1,5.055571E-2,9.5742536E-1,1.9066392E-1,-2.3296957E-1,-5.4701045E-2,1.0621309E-1,4.6996322E-1,1.0917884E0,3.0214807E-1,3.0950773E-1,-1.2547603E-1,-2.7838978E-1,1.7482796E-1,2.8939116E-1,6.524734E-2,-5.1596906E-2,8.429386E-2,-3.8584778E-1,3.8830292E-1,3.8396633E-1,1.2714893E0,8.564785E-1,3.121281E-1,9.707928E-2,-8.765807E-2],"split_indices":[34,3,16,0,27,20,26,11,32,36,33,40,36,0,0,3,16,33,37,0,0,16,7,23,0,0,17,27,5,9,0,41,13,7,36,0,32,40,18,33,0,0,0,0,0,0,0,0,0,0,0,0,0,0,0,0,0,0,0,0,0,0,0,0,0,0,0,0,0],"split_type":[0,0,0,0,0,0,0,0,0,0,0,0,0,0,0,0,0,0,0,0,0,0,0,0,0,0,0,0,0,0,0,0,0,0,0,0,0,0,0,0,0,0,0,0,0,0,0,0,0,0,0,0,0,0,0,0,0,0,0,0,0,0,0,0,0,0,0,0,0],"sum_hessian":[1.073E3,6.1E1,1.012E3,4E0,5.7E1,9.16E2,9.6E1,3.2E1,2.5E1,9.09E2,7E0,7.2E1,2.4E1,2.9E1,3E0,1.2E1,1.3E1,1.13E2,7.96E2,1E0,6E0,9E0,6.3E1,1.8E1,6E0,4E0,2.5E1,6E0,6E0,7E0,6E0,2.7E1,8.6E1,2.61E2,5.35E2,5E0,4E0,1.4E1,4.9E1,1.1E1,7E0,2E0,4E0,2.4E1,1E0,4E0,2E0,5E0,1E0,2E0,5E0,1.1E1,1.6E1,6.7E1,1.9E1,1.23E2,1.38E2,2.69E2,2.66E2,1E0,3E0,1.1E1,3E0,4.6E1,3E0,8E0,3E0,2E0,2E0],"tree_param":{"num_deleted":"0","num_feature":"42","num_nodes":"69","size_leaf_vector":"0"}},{"base_weights":[4.4207272E-1,1.7446445E-1,6.0705E-1,5.9232164E-2,1.08752E0,7.1212715E-1,-4.0665603E-1,4.3570808E-1,-3.034678E-1,4.0465826E-1,3.5053563E0,2.396635E-1,1.0334721E0,-8.8832897E-1,1.1939193E0,-4.8988074E-2,1.2539119E0,2.0215263E0,-4.4624448E-1,-1.9908155E0,8.41164E-1,5.422965E0,-7.267983E-1,6.4065474E-1,-9.803863E-1,8.0434287E-1,1.7379508E0,-1.4512002E-1,-2.278774E0,2.365898E0,-9.583646E-1,-6.652258E-1,3.478646E-1,2.2766902E0,3.0994457E-1,2.7762294E-1,2.6407871E0,-6.1886644E-1,1.4593308E0,1.904921E0,-2.0949927E-1,1.3801551E0,5.866741E0,-8.7517244E-1,-1.4083791E-1,4.0265206E-1,2.2995148E0,-1.6388557E0,2.613938E-1,3.4045677E0,7.126521E-1,5.6653124E-1,2.4092035E0,-5.517705E-1,2.242477E0,-3.43516E0,-1.3605711E-1,2.838878E0,9.467083E-1,-5.14433E-1,-1.5890112E0,-1.3236321E0,2.239636E-1,-3.1377253E-1,8.5193676E-1,3.2373915E0,1.4489794E0,-4.2952366E-2,2.5064962E0,-3.0103365E-2,6.004009E-1,9.5348847E-1,3.4624689E0,-1.1378481E0,-1.1723077E-1,2.0888724E0,-1.7551266E0,2.2868204E0,-5.1224995E-1,-6.891346E-1,5.7414186E-1,1.4650679E0,-8.040865E-2,3.6583178E0,7.490855E-1,-9.448543E-2,-2.1504962E0,-5.758531E-1,1.7985575E0,-1.2837385E0,8.0452573E-1,-2.2191851E-1,2.4021575E0,2.7195852E0,-1.238531E0,-1.2564975E0,7.156462E-1,-1.2753258E0,3.440759E0,3.5863176E-1,-1.5520952E0],"categories":[],"categories_nodes":[],"categories_segments":[],"categories_sizes":[],"default_left":[true,true,true,true,true,true,true,true,true,true,true,true,true,true,true,true,true,true,true,false,true,true,true,true,true,true,true,true,true,true,true,true,true,true,true,true,true,true,true,true,true,false,false,false,false,true,true,true,true,false,true,true,true,true,true,false,true,false,false,false,false,false,false,false,false,false,false,false,false,false,false,false,false,false,false,false,false,false,false,false,false,false,false,false,false,false,false,false,false,false,false,false,false,false,false,false,false,false,false,false,false],"id":8,"left_children":[1,3,5,7,9,11,13,15,17,19,21,23,25,27,29,31,33,35,37,-1,39,41,43,45,47,49,51,53,55,57,59,61,63,65,67,69,71,73,75,77,79,-1,-1,-1,-1,81,83,85,87,-1,89,91,93,95,97,-1,99,-1,-1,-1,-1,-1,-1,-1,-1,-1,-1,-1,-1,-1,-1,-1,-1,-1,-1,-1,-1,-1,-1,-1,-1,-1,-1,-1,-1,-1,-1,-1,-1,-1,-1,-1,-1,-1,-1,-1,-1,-1,-1,-1,-1],"loss_changes":[4.7310425E1,4.317832E1,7.1017075E1,5.0108723E1,7.4529724E1,9.115024E1,4.9630688E1,7.144588E1,6.297766E1,4.0363213E1,8.509758E1,1.2048925E2,5.638922E1,5.030548E1,4.010385E1,2.8110746E1,6.398079E1,1.1146099E1,5.912625E1,0E0,3.6163895E1,4.4617004E0,2.2450829E-1,7.2114525E1,5.0306515E1,6.2423065E1,6.704483E1,3.327761E1,4.1655342E1,4.024891E0,8.623433E-1,2.6641602E1,2.3613213E1,2.0754944E1,2.8013288E1,4.1538316E-1,7.789955E0,4.2301987E1,3.402076E1,1.5941284E1,6.7853146E0,0E0,0E0,0E0,0E0,8.377125E1,4.5714348E1,3.1403313E1,2.9349388E1,0E0,4.9454544E1,4.8293957E1,6.563876E1,2.680151E1,2.5464687E1,0E0,5.4601183E0,0E0,0E0,0E0,0E0,0E0,0E0,0E0,0E0,0E0,0E0,0E0,0E0,0E0,0E0,0E0,0E0,0E0,0E0,0E0,0E0,0E0,0E0,0E0,0E0,0E0,0E0,0E0,0E0,0E0,0E0,0E0,0E0,0E0,0E0,0E0,0E0,0E0,0E0,0E0,0E0,0E0,0E0,0E0,0E0],"parents":[2147483647,0,0,1,1,2,2,3,3,4,4,5,5,6,6,7,7,8,8,9,9,10,10,11,11,12,12,13,13,14,14,15,15,16,16,17,17,18,18,20,20,21,21,22,22,23,23,24,24,25,25,26,26,27,27,28,28,29,29,30,30,31,31,32,32,33,33,34,34,35,35,36,36,37,37,38,38,39,39,40,40,45,45,46,46,47,47,48,48,50,50,51,51,52,52,53,53,54,54,56,56],"right_children":[2,4,6,8,10,12,14,16,18,20,22,24,26,28,30,32,34,36,38,-1,40,42,44,46,48,50,52,54,56,58,60,62,64,66,68,70,72,74,76,78,80,-1,-1,-1,-1,82,84,86,88,-1,90,92,94,96,98,-1,100,-1,-1,-1,-1,-1,-1,-1,-1,-1,-1,-1,-1,-1,-1,-1,-1,-1,-1,-1,-1,-1,-1,-1,-1,-1,-1,-1,-1,-1,-1,-1,-1,-1,-1,-1,-1,-1,-1,-1,-1,-1,-1,-1,-1],"split_conditions":[6.2745872E1,5.04375E4,9.05E1,5.04185E4,4.0006626E-1,6.101685E-1,7.65E2,6.554365E-2,5.326835E-1,7.2209823E-1,2.2627232E0,5.04335E4,4.615485E-1,4.646157E-1,8.39203E-3,5.5156803E-1,1.2272346E3,5.0437916E1,7.65E0,-5.972447E-1,2.293415E0,-6.5000004E-1,2.1E0,8.2E1,7.685E2,1.6498501E3,5E-1,1.514638E3,6.816272E1,7.529201E2,1E0,9.65E1,5E-1,5.04125E4,5.1374863E1,5.04325E4,5.5707916E1,5.04305E4,5.5825554E1,1.57E1,5.5535716E-1,4.1404656E-1,1.7600224E0,-2.6255175E-1,-4.2251375E-2,9.55E1,6.447655E-1,6.252054E0,7.3405E2,1.0213704E0,4.9093056E1,7.05E1,4.255E1,4.5381457E-1,5E-1,-1.030548E0,5.0415E4,8.516634E-1,2.840125E-1,-1.5432991E-1,-4.7670338E-1,-3.9708966E-1,6.718908E-2,-9.413176E-2,2.5558105E-1,9.7121745E-1,4.3469384E-1,-1.288571E-2,7.519489E-1,-9.03101E-3,1.8012029E-1,2.8604656E-1,1.0387408E0,-3.4135446E-1,-3.5169233E-2,6.266618E-1,-5.26538E-1,6.860461E-1,-1.5367499E-1,-2.067404E-1,1.7224257E-1,4.395204E-1,-2.4122596E-2,1.0974954E0,2.2472565E-1,-2.8345631E-2,-6.451489E-1,-1.7275594E-1,5.395673E-1,-3.8512155E-1,2.4135773E-1,-6.657556E-2,7.206473E-1,8.158756E-1,-3.7155932E-1,-3.7694928E-1,2.1469387E-1,-3.8259774E-1,1.0322278E0,1.07589535E-1,-4.6562856E-1],"split_indices":[11,33,40,33,14,25,4,24,25,17,12,33,14,14,9,13,15,36,0,0,12,0,0,40,4,19,41,15,11,8,1,5,32,33,36,33,34,33,34,28,16,0,0,0,0,5,13,18,2,0,36,40,27,14,32,0,33,0,0,0,0,0,0,0,0,0,0,0,0,0,0,0,0,0,0,0,0,0,0,0,0,0,0,0,0,0,0,0,0,0,0,0,0,0,0,0,0,0,0,0,0],"split_type":[0,0,0,0,0,0,0,0,0,0,0,0,0,0,0,0,0,0,0,0,0,0,0,0,0,0,0,0,0,0,0,0,0,0,0,0,0,0,0,0,0,0,0,0,0,0,0,0,0,0,0,0,0,0,0,0,0,0,0,0,0,0,0,0,0,0,0,0,0,0,0,0,0,0,0,0,0,0,0,0,0,0,0,0,0,0,0,0,0,0,0,0,0,0,0,0,0,0,0,0,0],"sum_hessian":[1.073E3,4.1E2,6.63E2,3.65E2,4.5E1,6.01E2,6.2E1,1.79E2,1.86E2,3.6E1,9E0,2.44E2,3.57E2,4.8E1,1.4E1,1.13E2,6.6E1,1E1,1.76E2,5E0,3.1E1,6E0,3E0,1.84E2,6E1,2.71E2,8.6E1,3.2E1,1.6E1,9E0,5E0,4.4E1,6.9E1,3.1E1,3.5E1,3E0,7E0,1.62E2,1.4E1,1.5E1,1.6E1,1E0,5E0,2E0,1E0,1.62E2,2.2E1,3.9E1,2.1E1,8E0,2.63E2,3.2E1,5.4E1,2.8E1,4E0,1E1,6E0,6E0,3E0,4E0,1E0,2.5E1,1.9E1,3E1,3.9E1,1.3E1,1.8E1,3.1E1,4E0,2E0,1E0,3E0,4E0,7.9E1,8.3E1,1.2E1,2E0,1.3E1,2E0,1E1,6E0,5E1,1.12E2,1.1E1,1.1E1,1E1,2.9E1,1.4E1,7E0,1.1E1,2.52E2,2.3E1,9E0,5E1,4E0,1.8E1,1E1,1E0,3E0,5E0,1E0],"tree_param":{"num_deleted":"0","num_feature":"42","num_nodes":"101","size_leaf_vector":"0"}},{"base_weights":[3.168775E-1,3.9769536E-1,-1.7976199E-1,3.7480754E-1,2.4521608E0,-8.288307E-1,6.036071E-1,3.4783766E-1,1.7789913E0,4.9280796E0,6.870416E-1,-4.7416255E-1,-2.2843685E0,9.810199E-2,1.8371896E0,4.3972725E-1,-1.5347613E-1,3.9027581E0,8.253125E-1,-1.8304049E0,1.4116834E0,-1.2971953E-1,-1.0614158E0,-2.8776608E0,1.2457849E0,-4.8181245E-1,1.1558284E0,1.4462644E-1,2.7374446E0,6.229074E-1,6.79875E-2,-7.4471134E-1,4.3159342E-1,1.5166029E0,4.9879937E0,-9.96869E-1,1.2472427E0,1.8375467E0,-3.588164E-1,-3.6325476E-1,8.1883466E-1,-3.4845528E-1,-1.2682214E0,-1.0670233E-1,-3.0826037E0,-5.8055687E-1,2.4492342E0,-8.141834E-1,1.1495543E0,2.5814042E0,4.0896034E-1,-1.3742162E0,2.007023E0,3.9716208E0,1.1122048E0,3.3799836E-1,1.0761652E0,2.596649E-1,-9.247831E-1,1.6685308E0,-1.0830091E0,-6.0103625E-1,9.3891674E-1,-2.009191E-1,-1.6117103E0,-5.515814E-2,3.9053886E0,6.0931265E-1,-1.8285834E0,-1.8449743E0,-5.646465E-1,-7.7595043E-1,-3.4314542E0,-2.3890395E0,-3.679521E-1,1.9248195E0,-2.6731744E-1,-1.5114467E-1,7.7791905E-1,-2.2271354E0,-6.322479E-2,3.7125826E-1,2.4285252E0,1.1505674E0,4.869929E0,1.5276392E0,4.9079258E-2],"categories":[],"categories_nodes":[],"categories_segments":[],"categories_sizes":[],"default_left":[true,true,true,true,true,true,true,true,true,false,true,true,true,true,true,true,true,true,true,false,true,true,true,true,true,true,true,true,true,true,true,true,true,false,false,false,false,false,false,true,true,true,true,false,true,false,false,true,true,false,true,true,true,true,true,false,false,false,false,false,false,false,false,false,false,false,false,false,false,false,false,false,false,false,false,false,false,false,false,false,false,false,false,false,false,false,false],"id":9,"left_children":[1,3,5,7,9,11,13,15,17,-1,19,21,23,25,27,29,31,33,35,-1,37,39,41,43,45,47,49,51,53,55,57,59,61,-1,-1,-1,-1,-1,-1,63,65,67,69,-1,71,-1,-1,73,75,-1,77,79,81,83,85,-1,-1,-1,-1,-1,-1,-1,-1,-1,-1,-1,-1,-1,-1,-1,-1,-1,-1,-1,-1,-1,-1,-1,-1,-1,-1,-1,-1,-1,-1,-1,-1],"loss_changes":[4.3178978E1,4.2529465E1,7.727781E1,3.4032883E1,4.0317127E1,4.176418E1,4.2846947E1,4.1480385E1,3.1210655E1,0E0,1.53536825E1,1.3617031E1,3.709555E1,3.122643E1,3.0078857E1,5.1710114E1,4.874933E1,5.382904E0,1.1238172E1,0E0,5.1832867E0,1.0044362E1,3.2441883E0,7.6215134E0,8.015649E0,1.8829174E1,1.8109217E1,2.5387583E1,2.165857E1,6.5367096E1,4.819364E1,5.8954662E1,3.7759598E1,0E0,0E0,0E0,0E0,0E0,0E0,6.972255E0,2.4494047E1,1.1037513E1,6.668228E0,0E0,7.798149E0,0E0,0E0,1.879795E1,7.105246E0,0E0,2.8041012E0,5.45004E0,1.8563042E0,1.213604E1,3.0166368E0,0E0,0E0,0E0,0E0,0E0,0E0,0E0,0E0,0E0,0E0,0E0,0E0,0E0,0E0,0E0,0E0,0E0,0E0,0E0,0E0,0E0,0E0,0E0,0E0,0E0,0E0,0E0,0E0,0E0,0E0,0E0,0E0],"parents":[2147483647,0,0,1,1,2,2,3,3,4,4,5,5,6,6,7,7,8,8,10,10,11,11,12,12,13,13,14,14,15,15,16,16,17,17,18,18,20,20,21,21,22,22,23,23,24,24,25,25,26,26,27,27,28,28,29,29,30,30,31,31,32,32,39,39,40,40,41,41,42,42,44,44,47,47,48,48,50,50,51,51,52,52,53,53,54,54],"right_children":[2,4,6,8,10,12,14,16,18,-1,20,22,24,26,28,30,32,34,36,-1,38,40,42,44,46,48,50,52,54,56,58,60,62,-1,-1,-1,-1,-1,-1,64,66,68,70,-1,72,-1,-1,74,76,-1,78,80,82,84,86,-1,-1,-1,-1,-1,-1,-1,-1,-1,-1,-1,-1,-1,-1,-1,-1,-1,-1,-1,-1,-1,-1,-1,-1,-1,-1,-1,-1,-1,-1,-1,-1],"split_conditions":[7.5272614E2,1.6203271E3,5.0243195E1,5.3992363E1,5.4609863E1,7.684E2,9.95E-1,5.5610054E1,1.1689725E3,1.478424E0,5.0403E4,3.563522E0,5.632611E1,7.55E1,5.04285E4,8.25E1,7.95E1,-5E-1,9.5E1,-5.491215E-1,5.04225E4,2.62E1,7.3675E2,5.04045E4,-1.13E1,5.216986E1,6.4742744E1,7.5347876E2,2.25E0,5.539764E1,5.5449165E1,5.04115E4,2.405E1,4.5498088E-1,1.4963982E0,-2.9906073E-1,3.741728E-1,5.5126405E-1,-1.0764492E-1,5.597597E1,5.04345E4,5.04175E4,5.04175E4,-3.20107E-2,-5.45E0,-1.7416707E-1,7.347703E-1,6.343655E1,-1.7E0,7.744213E-1,-1.15E1,2.95E0,1.5999999E0,5.0434E4,2.65E0,1.0139951E-1,3.2284957E-1,7.789947E-2,-2.7743495E-1,5.005593E-1,-3.2490274E-1,-1.8031088E-1,2.8167504E-1,-6.0275733E-2,-4.8351312E-1,-1.6547441E-2,1.1716167E0,1.827938E-1,-5.4857504E-1,-5.534923E-1,-1.6939396E-1,-2.3278514E-1,-1.0294363E0,-7.167119E-1,-1.10385634E-1,5.7744586E-1,-8.019523E-2,-4.5343403E-2,2.3337573E-1,-6.6814065E-1,-1.8967438E-2,1.11377485E-1,7.285576E-1,3.4517023E-1,1.4609787E0,4.5829177E-1,1.4723778E-2],"split_indices":[8,15,37,36,35,4,1,38,15,0,33,10,34,40,33,29,29,0,5,0,33,27,2,33,0,37,11,8,0,34,34,33,27,0,0,0,0,0,0,34,33,33,33,0,0,0,0,11,0,0,0,0,0,33,0,0,0,0,0,0,0,0,0,0,0,0,0,0,0,0,0,0,0,0,0,0,0,0,0,0,0,0,0,0,0,0,0],"split_type":[0,0,0,0,0,0,0,0,0,0,0,0,0,0,0,0,0,0,0,0,0,0,0,0,0,0,0,0,0,0,0,0,0,0,0,0,0,0,0,0,0,0,0,0,0,0,0,0,0,0,0,0,0,0,0,0,0,0,0,0,0,0,0,0,0,0,0,0,0,0,0,0,0,0,0,0,0,0,0,0,0,0,0,0,0,0,0],"sum_hessian":[1.073E3,9.23E2,1.5E2,9.14E2,9E0,8.2E1,6.8E1,8.98E2,1.6E1,3E0,6E0,6.7E1,1.5E1,4.9E1,1.9E1,7.59E2,1.39E2,4E0,1.2E1,1E0,5E0,4.3E1,2.4E1,1.3E1,2E0,3.2E1,1.7E1,7E0,1.2E1,5.08E2,2.51E2,6.9E1,7E1,2E0,2E0,2E0,1E1,4E0,1E0,3.5E1,8E0,6E0,1.8E1,1E0,1.2E1,1E0,1E0,2.7E1,5E0,5E0,1.2E1,4E0,3E0,6E0,6E0,3.13E2,1.95E2,2.11E2,4E1,8E0,6.1E1,2.3E1,4.7E1,3.2E1,3E0,7E0,1E0,4E0,2E0,9E0,9E0,2E0,1E1,5E0,2.2E1,3E0,2E0,5E0,7E0,2E0,2E0,1E0,2E0,2E0,4E0,4E0,2E0],"tree_param":{"num_deleted":"0","num_feature":"42","num_nodes":"87","size_leaf_vector":"0"}},{"base_weights":[2.2717246E-1,2.968296E-1,-1.4498566E-1,2.4938447E0,2.793925E-1,6.7067987E-1,-5.733721E-1,3.3416154E0,2.4961202E-1,4.099212E-1,-2.6209155E-2,2.392694E0,3.9285696E-1,-1.6025857E0,-3.7232772E-1,3.3295205E-1,1.536892E0,-1.1907225E0,2.9800075E-1,9.551401E-1,3.0641983E0,-9.100791E-2,2.0133238E0,-3.5436356E-1,-1.8286059E0,-2.5373697E-1,-2.0891345E0,2.902379E-1,2.0726538E0,3.7516135E-1,4.5655313E0,-1.5116501E0,1.896079E0,2.3314118E0,1.8579519E-1,-4.1317326E-1,9.4902194E-1,-3.132752E-1,2.5099711E0,-7.5628227E-1,4.2569625E-1,-2.0569286E0,-9.605745E-1,-1.470074E0,-1.3344258E-1,-2.5304651E0,-8.043153E-1,4.7148353E-1,-1.3679074E-1,2.2583058E0,-1.7041183E-1,2.6664195E0,2.1820819E-2,4.9666452E0,1.840346E0,-3.36539E0,-8.4179616E-1,-6.9180155E-1,2.5520153E0,2.1627495E-1,3.509165E0,-8.83443E-2,8.8471746E-1,-9.398989E-2,-1.7806362E0,3.8349673E-1,3.0193744E0,-8.099563E-1,3.4004354E-1,2.7613692E0,1.0029196E0,-1.7214255E0,-7.883663E-1,-4.1107893E-1,4.2659593E-1],"categories":[],"categories_nodes":[],"categories_segments":[],"categories_sizes":[],"default_left":[true,true,true,true,true,true,true,false,false,true,true,true,true,true,true,true,true,true,true,false,false,true,true,true,true,true,true,true,true,true,true,true,true,true,true,true,true,true,true,false,false,false,false,true,true,false,false,false,false,false,false,false,false,false,false,false,false,false,false,false,false,false,false,false,false,false,false,false,false,false,false,false,false,false,false],"id":10,"left_children":[1,3,5,7,9,11,13,-1,-1,15,17,19,21,23,25,27,29,31,33,-1,-1,35,37,39,41,43,45,47,49,51,53,55,57,59,61,63,65,67,69,-1,-1,-1,-1,71,73,-1,-1,-1,-1,-1,-1,-1,-1,-1,-1,-1,-1,-1,-1,-1,-1,-1,-1,-1,-1,-1,-1,-1,-1,-1,-1,-1,-1,-1,-1],"loss_changes":[2.7884842E1,3.3973366E1,5.978596E1,1.2484058E1,3.587166E1,2.7286499E1,2.2578083E1,0E0,0E0,5.4135727E1,1.02292465E2,4.795849E0,4.0955753E1,4.430229E0,1.8811665E1,4.3315567E1,1.3902571E2,6.1313942E1,4.7936756E1,0E0,0E0,1.4129635E1,1.4652298E1,1.5760291E0,9.970398E-1,1.2972496E1,1.36689E0,4.4800003E1,6.214863E0,2.4229649E1,2.8838654E0,6.422072E1,1.1950399E1,2.6643253E1,3.8781803E1,1.3799725E1,1.0550445E1,1.2488937E0,1.0192642E0,0E0,0E0,0E0,0E0,1.3671875E-2,1.308079E1,0E0,0E0,0E0,0E0,0E0,0E0,0E0,0E0,0E0,0E0,0E0,0E0,0E0,0E0,0E0,0E0,0E0,0E0,0E0,0E0,0E0,0E0,0E0,0E0,0E0,0E0,0E0,0E0,0E0,0E0],"parents":[2147483647,0,0,1,1,2,2,3,3,4,4,5,5,6,6,9,9,10,10,11,11,12,12,13,13,14,14,15,15,16,16,17,17,18,18,21,21,22,22,23,23,24,24,25,25,26,26,27,27,28,28,29,29,30,30,31,31,32,32,33,33,34,34,35,35,36,36,37,37,38,38,43,43,44,44],"right_children":[2,4,6,8,10,12,14,-1,-1,16,18,20,22,24,26,28,30,32,34,-1,-1,36,38,40,42,44,46,48,50,52,54,56,58,60,62,64,66,68,70,-1,-1,-1,-1,72,74,-1,-1,-1,-1,-1,-1,-1,-1,-1,-1,-1,-1,-1,-1,-1,-1,-1,-1,-1,-1,-1,-1,-1,-1,-1,-1,-1,-1,-1,-1],"split_conditions":[1.5528498E-2,6.6E1,4.941205E1,7.346E2,5.5506386E1,5.04095E4,4.915806E1,1.0024847E0,7.488361E-2,5.547653E1,5.5363335E1,3.455E1,2E0,6.35E0,3.44E2,2.4436922E0,6.530909E1,6.6517696E0,9.495233E2,2.8654206E-1,9.192595E-1,4.949167E1,6.5000004E-1,5E-1,6.4E0,1.0487943E3,3.455E1,9.95E1,5.0437E4,3.0051503E0,1.5E0,7.3394995E2,-3E-1,9.85E1,2.5E0,5.5E0,5.5E0,5E-1,5.04275E4,-2.268847E-1,1.2770888E-1,-6.170786E-1,-2.8817236E-1,5.489347E1,3.375E1,-7.591396E-1,-2.4129461E-1,1.4144507E-1,-4.1037224E-2,6.774918E-1,-5.112355E-2,7.9992586E-1,6.546246E-3,1.4899936E0,5.521038E-1,-1.0096171E0,-2.5253886E-1,-2.0754047E-1,7.656046E-1,6.488249E-2,1.0527495E0,-2.6503291E-2,2.6541525E-1,-2.8196966E-2,-5.341909E-1,1.1504903E-1,9.058123E-1,-2.429869E-1,1.0201307E-1,8.284108E-1,3.0087587E-1,-5.164277E-1,-2.365099E-1,-1.2332369E-1,1.2797879E-1],"split_indices":[9,29,39,2,34,33,37,0,0,34,35,3,41,28,20,23,11,18,15,0,0,36,0,32,0,15,3,5,33,10,1,2,0,5,41,1,1,32,33,0,0,0,0,34,26,0,0,0,0,0,0,0,0,0,0,0,0,0,0,0,0,0,0,0,0,0,0,0,0,0,0,0,0,0,0],"split_type":[0,0,0,0,0,0,0,0,0,0,0,0,0,0,0,0,0,0,0,0,0,0,0,0,0,0,0,0,0,0,0,0,0,0,0,0,0,0,0,0,0,0,0,0,0,0,0,0,0,0,0,0,0,0,0,0,0,0,0,0,0,0,0,0,0,0,0,0,0,0,0,0,0,0,0],"sum_hessian":[1.073E3,9.04E2,1.69E2,6E0,8.98E2,5.8E1,1.11E2,4E0,2E0,6.29E2,2.69E2,7E0,5.1E1,1.7E1,9.4E1,5.9E2,3.9E1,5.8E1,2.11E2,3E0,4E0,4E1,1.1E1,3E0,1.4E1,8.9E1,5E0,5.77E2,1.3E1,2.9E1,1E1,5.3E1,5E0,1E1,2.01E2,3.1E1,9E0,2E0,9E0,2E0,1E0,1E1,4E0,7E0,8.2E1,3E0,2E0,4.05E2,1.72E2,1.2E1,1E0,3E0,2.6E1,8E0,2E0,1.3E1,4E1,1E0,4E0,4E0,6E0,1.45E2,5.6E1,2.6E1,5E0,8E0,1E0,1E0,1E0,7E0,2E0,4E0,3E0,5.5E1,2.7E1],"tree_param":{"num_deleted":"0","num_feature":"42","num_nodes":"75","size_leaf_vector":"0"}},{"base_weights":[1.6386671E-1,7.554365E-1,1.274983E-1,5.435034E-1,2.3429816E0,-7.440492E-1,1.7162092E-1,2.3939085E-1,1.002614E0,-8.4672004E-1,6.2267816E-1,-1.7888899E-1,2.3584257E-1,5.15091E-1,6.8611978E-3,1.2864555E0,3.1294387E-2,-1.2506442E0,-6.6737497E-1,-7.9054874E-1,9.0779945E-2,2.539628E0,2.2136626E-1,1.8208613E-1,6.966853E-1,2.6100886E-1,-9.525528E-2,7.1615845E-1,1.713813E0,-2.5152072E-1,2.3558211E-1,-2.1086113E0,-6.350353E-1,-4.1869193E-1,-9.209751E-1,-1.1174791E0,6.776624E-1,6.833064E-1,-4.6030423E-1,1.8136604E-2,3.597605E-1,6.73022E-1,-6.968357E-1,1.6508055E-1,1.195274E0,3.4880513E-1,-8.898628E-2,1.15880586E-1,-1.8256655E-1,1.5433344E0,-7.03645E-1,2.0795615E0,2.8912878E-1,-3.4305274E-1,-3.4228325E-2,4.0633154E-1,4.322179E-2,3.838079E-1,-1.5268713E0,-4.7296813E-1,2.8437138E-2,-4.3933803E-1,-1.0449092E0,-5.502921E-1,-1.862968E0,1.5588324E0,-3.390401E-1,-1.3723308E-1,1.6121314E0,-2.5461955E0,-2.0079122E-1,-1.0699803E0,1.3051489E-1,2.1388668E-1,1.0031358E0],"categories":[],"categories_nodes":[],"categories_segments":[],"categories_sizes":[],"default_left":[true,true,true,true,false,true,true,true,true,true,false,true,true,true,true,true,true,true,true,true,true,false,true,true,true,true,true,true,true,true,true,false,true,true,true,true,true,true,true,true,true,false,false,false,false,false,false,false,false,false,false,false,false,false,false,false,false,false,false,false,false,false,false,false,false,false,false,false,false,false,false,false,false,false,false],"id":11,"left_children":[1,3,5,7,-1,9,11,13,15,17,-1,19,21,23,25,27,29,31,33,35,37,-1,39,41,43,45,47,49,51,53,55,-1,57,59,61,63,65,67,69,71,73,-1,-1,-1,-1,-1,-1,-1,-1,-1,-1,-1,-1,-1,-1,-1,-1,-1,-1,-1,-1,-1,-1,-1,-1,-1,-1,-1,-1,-1,-1,-1,-1,-1,-1],"loss_changes":[2.30102E1,1.9586689E1,3.908257E1,7.5787773E0,0E0,7.4030647E0,2.1764654E1,2.2402625E0,6.025158E0,2.497673E0,0E0,2.4813614E1,2.6651676E1,8.4069204E-1,5.4391575E-1,2.9158897E0,4.0590772E-1,5.527197E0,1.7586412E0,2.28374E1,3.4600388E1,0E0,2.2831635E1,3.4894452E0,2.4532042E0,2.154085E-1,2.9767406E-1,1.1655804E1,4.088423E0,4.7925517E-2,1.1381926E-1,0E0,8.763796E0,4.745505E-1,4.9599266E-1,1.5042423E1,8.591496E0,3.9090256E1,2.926112E1,4.0492287E1,4.5115772E1,0E0,0E0,0E0,0E0,0E0,0E0,0E0,0E0,0E0,0E0,0E0,0E0,0E0,0E0,0E0,0E0,0E0,0E0,0E0,0E0,0E0,0E0,0E0,0E0,0E0,0E0,0E0,0E0,0E0,0E0,0E0,0E0,0E0,0E0],"parents":[2147483647,0,0,1,1,2,2,3,3,5,5,6,6,7,7,8,8,9,9,11,11,12,12,13,13,14,14,15,15,16,16,17,17,18,18,19,19,20,20,22,22,23,23,24,24,25,25,26,26,27,27,28,28,29,29,30,30,32,32,33,33,34,34,35,35,36,36,37,37,38,38,39,39,40,40],"right_children":[2,4,6,8,-1,10,12,14,16,18,-1,20,22,24,26,28,30,32,34,36,38,-1,40,42,44,46,48,50,52,54,56,-1,58,60,62,64,66,68,70,72,74,-1,-1,-1,-1,-1,-1,-1,-1,-1,-1,-1,-1,-1,-1,-1,-1,-1,-1,-1,-1,-1,-1,-1,-1,-1,-1,-1,-1,-1,-1,-1,-1,-1,-1],"split_conditions":[5.4647778E1,7.1580964E-1,5.47975E1,2.87E1,7.028945E-1,1.5375463E3,5.065443E-1,6.290512E1,3.8800003E1,2.32E1,1.8680346E-1,5.4900528E1,6.65E1,5E-1,2.5263839E0,5E-1,5E-1,5.04255E4,3.31E1,1.7512209E1,5.568361E1,7.6188844E-1,6.2111145E1,5.491557E-1,5.9168884E1,3.4E1,7.4194995E2,3.4800003E1,2.45E0,-1.0650001E1,-2.02E1,-6.3258344E-1,1.6356473E0,3.345E0,5.04255E4,-9.05E-1,7.3935E2,6.6E1,4.869528E1,5.4543888E1,5.1592777E1,2.019066E-1,-2.0905071E-1,4.9524166E-2,3.585822E-1,1.0464154E-1,-2.6695885E-2,3.4764178E-2,-5.4769967E-2,4.6300033E-1,-2.110935E-1,6.2386847E-1,8.673864E-2,-1.0291583E-1,-1.0268498E-2,1.2189946E-1,1.2966538E-2,1.15142375E-1,-4.5806143E-1,-1.4189045E-1,8.531142E-3,-1.3180141E-1,-3.1347278E-1,-1.6508763E-1,-5.588904E-1,4.6764973E-1,-1.0171203E-1,-4.1169927E-2,4.8363942E-1,-7.638587E-1,-6.023737E-2,-3.2099408E-1,3.915447E-2,6.416601E-2,3.0094075E-1],"split_indices":[34,13,34,27,0,15,25,11,27,27,0,38,29,32,12,32,32,33,26,7,34,0,11,16,11,3,4,3,0,0,0,0,23,1,33,1,2,40,37,35,37,0,0,0,0,0,0,0,0,0,0,0,0,0,0,0,0,0,0,0,0,0,0,0,0,0,0,0,0,0,0,0,0,0,0],"split_type":[0,0,0,0,0,0,0,0,0,0,0,0,0,0,0,0,0,0,0,0,0,0,0,0,0,0,0,0,0,0,0,0,0,0,0,0,0,0,0,0,0,0,0,0,0,0,0,0,0,0,0,0,0,0,0,0,0,0,0,0,0,0,0,0,0,0,0,0,0,0,0,0,0,0,0],"sum_hessian":[1.073E3,6.1E1,1.012E3,5.5E1,6E0,4.8E1,9.64E2,3.4E1,2.1E1,4.5E1,3E0,1.49E2,8.15E2,1.5E1,1.9E1,1.6E1,5E0,1.2E1,3.3E1,4.5E1,1.04E2,4E0,8.11E2,6E0,9E0,5E0,1.4E1,8E0,8E0,2E0,3E0,4E0,8E0,1.8E1,1.5E1,3.7E1,8E0,5E1,5.4E1,3.29E2,4.82E2,4E0,2E0,5E0,4E0,4E0,1E0,4E0,1E1,5E0,3E0,6E0,2E0,1E0,1E0,1E0,2E0,4E0,4E0,1.6E1,2E0,4E0,1.1E1,2.2E1,1.5E1,4E0,4E0,2.7E1,2.3E1,5E0,4.9E1,3E1,2.99E2,3.94E2,8.8E1],"tree_param":{"num_deleted":"0","num_feature":"42","num_nodes":"75","size_leaf_vector":"0"}},{"base_weights":[1.1552993E-1,7.337792E-2,5.164944E-1,1.0728453E-1,-7.20176E-1,1.7290317E0,2.1809392E-1,8.924565E-2,1.2065171E0,4.7102678E-1,-1.8203607E0,2.1616685E0,3.5926756E-1,-6.8859476E-1,4.2822516E-1,-3.2705137E-1,1.6628237E-1,6.189708E-1,3.3503788E0,1.3405949E0,2.597962E-3,-2.6561675E0,-1.3015358E-1,1.5259125E0,3.1279979E0,1.1679865E0,-3.3708858E-1,-1.93541E-1,-1.7390049E0,7.7496827E-1,-2.838795E-1,1.4383762E-1,-1.6443691E0,3.3066112E-1,-1.4360906E-1,-8.059294E-1,9.513099E-1,1.7983124E0,1.3086732E-1,3.3805576E-1,-5.0102174E-1,-2.9533398E0,-5.8208925E-1,-9.6036744E-1,1.5736586E0,2.1437228E0,3.5579586E-1,-1.5408198E-3,-6.7186594E-1,-3.5260516E-1,2.4290701E-2,1.0473543E0,-8.922332E-1,-1.0095241E0,2.547152E-1,-8.7263785E-2,1.4636809E0,-2.5163732E0,-8.186336E-1,6.669776E-2,6.1824787E-1,-2.180775E0,-4.8668522E-2,-1.8494129E-3,1.981504E-1,6.468889E-1,-3.838854E-2,-9.0713793E-1,7.6477957E-1,-1.386622E0,-7.190561E-2,6.636136E-1,-7.062054E-2,-8.0888115E-2,-4.4511437E-1,-1.6646504E-1,9.573486E-2,1.9829774E0,5.2342546E-1,-1.2711802E0,-4.8641834E-1,1.7655855E-1,-1.5430678E0,2.2171297E0,-6.6788204E-2],"categories":[],"categories_nodes":[],"categories_segments":[],"categories_sizes":[],"default_left":[true,true,true,true,true,true,true,true,true,true,true,true,true,true,true,true,true,true,false,true,true,true,true,true,false,false,true,true,false,true,true,true,true,true,true,false,false,false,true,true,true,false,false,true,false,false,true,false,false,true,true,true,true,true,true,false,false,false,false,false,false,false,false,false,false,false,false,false,false,false,false,false,false,false,false,false,false,false,false,false,false,false,false,false,false],"id":12,"left_children":[1,3,5,7,9,11,13,15,17,19,21,23,25,27,29,31,33,35,-1,37,39,41,43,45,-1,-1,47,49,-1,51,53,55,57,59,61,-1,-1,-1,63,65,67,-1,-1,69,-1,-1,71,-1,-1,73,75,77,79,81,83,-1,-1,-1,-1,-1,-1,-1,-1,-1,-1,-1,-1,-1,-1,-1,-1,-1,-1,-1,-1,-1,-1,-1,-1,-1,-1,-1,-1,-1,-1],"loss_changes":[1.811427E1,2.6257507E1,3.6528717E1,1.8412544E1,5.327916E1,1.1075592E1,1.6108335E1,2.9558926E1,1.6820478E1,8.143131E0,2.9320717E1,4.442192E0,3.7726538E0,7.983583E0,1.7010376E1,8.956122E1,3.962753E1,6.922839E0,0E0,3.6406546E0,2.5345778E0,6.909912E0,1.28275175E1,7.1892815E0,0E0,0E0,4.4829994E-1,4.2435566E-1,0E0,2.1824114E1,9.246193E0,3.276461E1,2.530172E1,3.852225E1,5.211446E1,0E0,0E0,0E0,2.7155232E-2,1.0711594E0,3.7781348E0,0E0,0E0,2.1725588E0,0E0,0E0,7.031576E-1,0E0,0E0,1.3994986E-1,9.770682E-2,1.8570057E1,4.581504E-1,6.600712E0,8.980999E0,0E0,0E0,0E0,0E0,0E0,0E0,0E0,0E0,0E0,0E0,0E0,0E0,0E0,0E0,0E0,0E0,0E0,0E0,0E0,0E0,0E0,0E0,0E0,0E0,0E0,0E0,0E0,0E0,0E0,0E0],"parents":[2147483647,0,0,1,1,2,2,3,3,4,4,5,5,6,6,7,7,8,8,9,9,10,10,11,11,12,12,13,13,14,14,15,15,16,16,17,17,19,19,20,20,21,21,22,22,23,23,26,26,27,27,29,29,30,30,31,31,32,32,33,33,34,34,38,38,39,39,40,40,43,43,46,46,49,49,50,50,51,51,52,52,53,53,54,54],"right_children":[2,4,6,8,10,12,14,16,18,20,22,24,26,28,30,32,34,36,-1,38,40,42,44,46,-1,-1,48,50,-1,52,54,56,58,60,62,-1,-1,-1,64,66,68,-1,-1,70,-1,-1,72,-1,-1,74,76,78,80,82,84,-1,-1,-1,-1,-1,-1,-1,-1,-1,-1,-1,-1,-1,-1,-1,-1,-1,-1,-1,-1,-1,-1,-1,-1,-1,-1,-1,-1,-1,-1],"split_conditions":[2.707451E0,2.6434952E-1,1.05E0,5.3992363E1,5.457972E1,5.1132637E1,4.95E1,5.04065E4,7.647285E-2,1.3726943E3,8.35E1,5.525986E1,4E-1,4.45E1,3.593559E0,6.95E0,5.5128197E1,7.6055E2,1.0051137E0,5.0432E4,1.8065803E0,3.5305777E0,5.04145E4,7.9999995E-1,9.383994E-1,3.5039598E-1,8.5E-1,2.305E1,-5.2170146E-1,5.556028E1,5E-1,9.3673855E-1,3.255E1,5.457972E1,4.0816896E-2,-2.4177884E-1,2.85393E-1,5.3949374E-1,5E-1,5.4543888E1,5.5095833E1,-8.86002E-1,-1.7462678E-1,5.15E0,4.720976E-1,6.4311683E-1,5.0432E4,-4.6224595E-4,-2.015598E-1,5.0419E4,5E-1,6.9731384E1,5.04235E4,5.04085E4,4.9159584E1,-2.6179137E-2,4.391043E-1,-7.5491196E-1,-2.4559009E-1,2.000933E-2,1.8547437E-1,-6.542325E-1,-1.4600557E-2,-5.548239E-4,5.944512E-2,1.9406669E-1,-1.1516562E-2,-2.721414E-1,2.2943388E-1,-4.159866E-1,-2.1571685E-2,1.9908409E-1,-2.1186162E-2,-2.4266435E-2,-1.3353431E-1,-4.9939517E-2,2.8720459E-2,5.948932E-1,1.5702765E-1,-3.8135406E-1,-1.459255E-1,5.2967567E-2,-4.6292037E-1,6.6513896E-1,-2.0036463E-2],"split_indices":[16,24,0,36,35,36,40,33,24,15,40,34,0,40,16,28,35,4,0,33,23,10,33,0,0,0,0,27,0,35,32,25,3,35,24,0,0,0,32,35,34,0,0,0,0,0,33,0,0,33,32,11,33,33,36,0,0,0,0,0,0,0,0,0,0,0,0,0,0,0,0,0,0,0,0,0,0,0,0,0,0,0,0,0,0],"split_type":[0,0,0,0,0,0,0,0,0,0,0,0,0,0,0,0,0,0,0,0,0,0,0,0,0,0,0,0,0,0,0,0,0,0,0,0,0,0,0,0,0,0,0,0,0,0,0,0,0,0,0,0,0,0,0,0,0,0,0,0,0,0,0,0,0,0,0,0,0,0,0,0,0,0,0,0,0,0,0,0,0,0,0,0,0],"sum_hessian":[1.073E3,9.72E2,1.01E2,9.33E2,3.9E1,1.9E1,8.2E1,9.19E2,1.4E1,1.9E1,2E1,1.4E1,5E0,1.5E1,6.7E1,1.43E2,7.76E2,1.2E1,2E0,6E0,1.3E1,1.3E1,7E0,1E1,4E0,2E0,3E0,1.1E1,4E0,4.5E1,2.2E1,1.06E2,3.7E1,5.07E2,2.69E2,2E0,1E1,4E0,2E0,8E0,5E0,1.1E1,2E0,5E0,2E0,6E0,4E0,2E0,1E0,6E0,5E0,3.9E1,6E0,9E0,1.3E1,9.1E1,1.5E1,1.7E1,2E1,2.65E2,2.42E2,1.1E1,2.58E2,1E0,1E0,4E0,4E0,4E0,1E0,3E0,2E0,2E0,2E0,2E0,4E0,1E0,4E0,1.3E1,2.6E1,2E0,4E0,3E0,6E0,1E0,1.2E1],"tree_param":{"num_deleted":"0","num_feature":"42","num_nodes":"85","size_leaf_vector":"0"}},{"base_weights":[8.2152925E-2,5.463261E-1,4.1706976E-2,1.5908382E0,9.216804E-2,-3.3549824E0,5.544435E-2,1.9039556E0,-3.1185484E0,-5.435689E-2,2.1937375E0,-2.70299E-1,1.16528E-1,2.2193084E0,-1.1484002E0,1.9336848E-1,-1.0200849E0,-9.14646E-1,4.377911E-1,2.7865428E-1,-3.1945435E-3,-5.857913E-1,2.5143554E0,5.3424567E-1,-2.5411022E-1,5.7261977E-2,-2.1069753E0,5.5278206E-1,-1.1031342E0,-1.8439833E0,5.584759E-1,4.9502435E-1,-5.0178956E-2,-2.0681947E-1,3.3023086E-1,3.414972E0,1.554312E0,7.2229314E-1,-1.2108984E0,-5.061165E-1,9.4344556E-1,4.2575163E-1,-5.7597476E-1,-2.5559886E0,6.904507E-2,1.4410369E0,-2.795607E-1,-4.4684464E-1,-1.3960905E0,3.8749748E-1,1.471402E0,3.6300209E0,4.4810486E-1,-7.3706E-1,2.7947426E-1,-6.6592276E-1,1.2875183E-1,1.7090125E-1,1.7724061E0],"categories":[],"categories_nodes":[],"categories_segments":[],"categories_sizes":[],"default_left":[true,true,true,true,true,false,true,true,false,true,false,true,true,true,false,true,true,true,true,true,true,false,true,true,true,true,true,true,true,false,true,true,true,true,true,false,false,false,false,false,false,false,false,false,false,false,false,false,false,false,false,false,false,false,false,false,false,false,false],"id":13,"left_children":[1,3,5,7,9,-1,11,13,-1,15,-1,17,19,21,-1,23,25,27,29,31,33,-1,35,37,39,41,43,45,47,-1,49,51,53,55,57,-1,-1,-1,-1,-1,-1,-1,-1,-1,-1,-1,-1,-1,-1,-1,-1,-1,-1,-1,-1,-1,-1,-1,-1],"loss_changes":[2.014041E1,4.0649498E1,4.6334328E1,4.427694E1,1.8903118E1,0E0,1.9650522E1,2.661287E1,0E0,1.4072902E1,0E0,7.1576324E1,1.6130741E1,2.050853E1,0E0,7.304916E0,1.4172148E1,2.3290398E1,2.1682983E1,2.5140673E1,3.2589394E1,0E0,1.2849319E1,9.735211E0,6.8151164E0,1.8786106E0,6.038847E0,7.796182E0,1.3411453E1,0E0,1.0668367E1,2.970406E1,3.213298E1,4.5996185E1,4.1517273E1,0E0,0E0,0E0,0E0,0E0,0E0,0E0,0E0,0E0,0E0,0E0,0E0,0E0,0E0,0E0,0E0,0E0,0E0,0E0,0E0,0E0,0E0,0E0,0E0],"parents":[2147483647,0,0,1,1,2,2,3,3,4,4,6,6,7,7,9,9,11,11,12,12,13,13,15,15,16,16,17,17,18,18,19,19,20,20,22,22,23,23,24,24,25,25,26,26,27,27,28,28,30,30,31,31,32,32,33,33,34,34],"right_children":[2,4,6,8,10,-1,12,14,-1,16,-1,18,20,22,-1,24,26,28,30,32,34,-1,36,38,40,42,44,46,48,-1,50,52,54,56,58,-1,-1,-1,-1,-1,-1,-1,-1,-1,-1,-1,-1,-1,-1,-1,-1,-1,-1,-1,-1,-1,-1,-1,-1],"split_conditions":[2.65E1,7.329E2,2.73E1,8.7E1,8.45E1,-1.0064948E0,7.45E1,5.04365E4,-9.355646E-1,5.5795E1,6.581213E-1,7.25E1,5.7515556E-1,5.04045E4,-3.4452006E-1,9.55E0,5.5E0,6.85E1,5.0402E4,5.5449165E1,5.5206528E1,-1.757374E-1,5E-1,5.04365E4,5.04365E4,5.593569E1,5.0434E4,5.547653E1,5.25E1,-5.53195E-1,8.9E0,-9.137731E-3,5.523111E1,5E-1,5.287861E1,1.0244917E0,4.662936E-1,2.1668795E-1,-3.6326954E-1,-1.5183496E-1,2.8303367E-1,1.277255E-1,-1.7279243E-1,-7.667966E-1,2.0713521E-2,4.323111E-1,-8.3868206E-2,-1.340534E-1,-4.1882718E-1,1.1624925E-1,4.4142064E-1,1.0890063E0,1.3443147E-1,-2.2111802E-1,8.384228E-2,-1.9977684E-1,3.862555E-2,5.1270377E-2,5.3172183E-1],"split_indices":[26,2,26,40,40,0,29,33,0,34,0,40,13,33,0,28,1,29,33,34,34,0,32,33,33,34,33,34,40,0,28,9,35,32,36,0,0,0,0,0,0,0,0,0,0,0,0,0,0,0,0,0,0,0,0,0,0,0,0],"split_type":[0,0,0,0,0,0,0,0,0,0,0,0,0,0,0,0,0,0,0,0,0,0,0,0,0,0,0,0,0,0,0,0,0,0,0,0,0,0,0,0,0,0,0,0,0,0,0,0,0,0,0,0,0,0,0,0,0,0,0],"sum_hessian":[1.073E3,8.5E1,9.88E2,2.5E1,6E1,3E0,9.85E2,2.4E1,1E0,5.7E1,3E0,1.55E2,8.3E2,2.2E1,2E0,4.6E1,1.1E1,8.1E1,7.4E1,3.52E2,4.78E2,2E0,2E1,2.6E1,2E1,6E0,5E0,9E0,7.2E1,3E0,7.1E1,2.12E2,1.4E2,2.97E2,1.81E2,9E0,1.1E1,2.4E1,2E0,1.7E1,3E0,4E0,2E0,4E0,1E0,4E0,5E0,2.3E1,4.9E1,6.1E1,1E1,2E0,2.1E2,4.5E1,9.5E1,1.25E2,1.72E2,1.64E2,1.7E1],"tree_param":{"num_deleted":"0","num_feature":"42","num_nodes":"59","size_leaf_vector":"0"}},{"base_weights":[5.768211E-2,5.3561527E-1,2.8373588E-2,3.6895075E-1,1.7924147E0,-5.2904654E-1,5.664842E-2,1.3452461E-1,7.25131E-1,-1.6124897E-1,-7.7713966E-1,1.5470403E0,4.727446E-2,-2.0077462E-1,2.9656905E-1,9.1859597E-1,5.6124885E-2,-3.632124E-1,2.945654E-1,-2.484885E-1,-9.666978E-1,4.1349056E-1,1.2143984E-2,-2.8434396E-1,1.4471467E-1,3.7847686E-1,-1.2233953E-2,2.205162E-1,1.0524334E0,-9.394765E-2,1.5464807E-1,-4.8832476E-2,-4.3773803E-1,-2.4043957E-2,4.2681795E-1,-1.0169202E0,-2.5319517E-2,-1.3641328E0,-6.1718917E-1,1.2256237E0,-1.0985338E-1,6.0430497E-2,-6.127077E-1,-5.7614643E-2,-3.3382446E-1,1.909424E-1,4.719601E-1,-2.945609E-1,1.0314362E-1,-3.5701132E-1,5.3202915E-1,3.855021E-1,1.199278E0,-2.0171106E-1,6.0789585E-2,3.1606436E-1,-4.5121512E-3,-6.748287E-2,3.559351E-3,-4.863025E-1,-1.2994377E-1,-2.9247105E-1,2.5640512E-1,5.281415E-1,-4.6302444E-1,-2.828621E-1,-7.907858E-1,9.072394E-1,2.8271282E0,1.4009633E0,-3.760018E-1,1.9602317E0,4.8643276E-2,-2.88026E-1,-2.3047178E0],"categories":[],"categories_nodes":[],"categories_segments":[],"categories_sizes":[],"default_left":[true,true,true,true,false,true,true,true,true,true,true,false,true,true,true,true,true,true,true,true,true,true,true,true,false,true,true,true,true,true,true,true,true,true,false,false,true,false,true,true,true,true,true,false,false,false,false,false,false,false,false,false,false,false,false,false,false,false,false,false,false,false,false,false,false,false,false,false,false,false,false,false,false,false,false],"id":14,"left_children":[1,3,5,7,-1,9,11,13,15,17,19,-1,21,23,25,27,29,31,33,35,37,39,41,43,-1,45,47,49,51,53,55,57,59,61,-1,-1,63,-1,65,67,69,71,73,-1,-1,-1,-1,-1,-1,-1,-1,-1,-1,-1,-1,-1,-1,-1,-1,-1,-1,-1,-1,-1,-1,-1,-1,-1,-1,-1,-1,-1,-1,-1,-1],"loss_changes":[1.5028875E1,1.2325443E1,1.599582E1,4.5783377E0,0E0,4.3458433E0,1.3408755E1,1.9612117E0,2.795888E0,2.0402045E0,2.6658802E0,0E0,1.234571E1,3.8761646E-1,6.116717E-1,1.3562164E0,1.0324257E-1,3.3006454E-1,3.052206E-1,1.5176632E0,2.075119E0,3.583674E1,2.649779E1,9.295356E-2,0E0,2.429781E-1,2.2582728E-1,9.095697E-1,9.0877056E-1,6.2286966E-2,1.04190335E-1,4.1487077E-3,1.1618233E-1,3.0083147E-1,0E0,0E0,2.182563E0,0E0,5.308113E-1,1.4261616E1,2.143604E1,1.815525E1,3.394615E1,0E0,0E0,0E0,0E0,0E0,0E0,0E0,0E0,0E0,0E0,0E0,0E0,0E0,0E0,0E0,0E0,0E0,0E0,0E0,0E0,0E0,0E0,0E0,0E0,0E0,0E0,0E0,0E0,0E0,0E0,0E0,0E0],"parents":[2147483647,0,0,1,1,2,2,3,3,5,5,6,6,7,7,8,8,9,9,10,10,12,12,13,13,14,14,15,15,16,16,17,17,18,18,19,19,20,20,21,21,22,22,23,23,25,25,26,26,27,27,28,28,29,29,30,30,31,31,32,32,33,33,36,36,38,38,39,39,40,40,41,41,42,42],"right_children":[2,4,6,8,-1,10,12,14,16,18,20,-1,22,24,26,28,30,32,34,36,38,40,42,44,-1,46,48,50,52,54,56,58,60,62,-1,-1,64,-1,66,68,70,72,74,-1,-1,-1,-1,-1,-1,-1,-1,-1,-1,-1,-1,-1,-1,-1,-1,-1,-1,-1,-1,-1,-1,-1,-1,-1,-1,-1,-1,-1,-1,-1,-1],"split_conditions":[5.4647778E1,7.1580964E-1,5.47975E1,2.87E1,5.3772444E-1,5E-1,4.543361E1,7.5694114E-1,3.8800003E1,1.4750818E3,3.2411113E0,4.6411213E-1,4.8095608E-1,6.1499996E0,2.5E0,4.1995132E-1,5E-1,5.483371E-1,7.4455005E2,5.04255E4,2.455E1,2.2771812E3,9.7E1,-4.95E0,4.3414403E-2,5E-1,5E-1,5E-1,7.481E2,-1.0650001E1,-2.02E1,7.6205005E2,7.2673595E-1,5.04255E4,1.280454E-1,-3.0507606E-1,7.571E2,-4.0923986E-1,5.04255E4,5.04345E4,4.869528E1,-3.7892535E-2,4.6744978E-1,-1.7284393E-2,-1.00147344E-1,5.7282723E-2,1.4158803E-1,-8.8368274E-2,3.0943086E-2,-1.071034E-1,1.5960875E-1,1.1565063E-1,3.597834E-1,-6.051332E-2,1.8236876E-2,9.4819315E-2,-1.3536455E-3,-2.0244861E-2,1.0678053E-3,-1.4589076E-1,-3.8983133E-2,-8.7741315E-2,7.692154E-2,1.5844245E-1,-1.3890734E-1,-8.485863E-2,-2.3723574E-1,2.7217183E-1,8.481385E-1,4.20289E-1,-1.12800546E-1,5.880695E-1,1.4592984E-2,-8.64078E-2,-6.9141537E-1],"split_indices":[34,13,34,27,0,32,11,17,27,15,10,0,13,28,41,14,32,16,4,33,27,19,40,0,0,32,32,32,4,0,0,4,13,33,0,0,4,0,33,33,37,9,14,0,0,0,0,0,0,0,0,0,0,0,0,0,0,0,0,0,0,0,0,0,0,0,0,0,0,0,0,0,0,0,0],"split_type":[0,0,0,0,0,0,0,0,0,0,0,0,0,0,0,0,0,0,0,0,0,0,0,0,0,0,0,0,0,0,0,0,0,0,0,0,0,0,0,0,0,0,0,0,0,0,0,0,0,0,0,0,0,0,0,0,0,0,0,0,0,0,0,0,0,0,0,0,0,0,0,0,0,0,0],"sum_hessian":[1.073E3,6.1E1,1.012E3,5.5E1,6E0,4.8E1,9.64E2,3.4E1,2.1E1,2E1,2.8E1,5E0,9.59E2,1.1E1,2.3E1,1.6E1,5E0,1.4E1,6E0,8E0,2E1,8.3E1,8.76E2,9E0,2E0,1.8E1,5E0,3E0,1.3E1,2E0,3E0,3E0,1.1E1,2E0,4E0,1E0,7E0,8E0,1.2E1,3.2E1,5.1E1,8.14E2,6.2E1,2E0,7E0,7E0,1.1E1,1E0,4E0,1E0,2E0,3E0,1E1,1E0,1E0,1E0,2E0,2E0,1E0,9E0,2E0,1E0,1E0,3E0,4E0,5E0,7E0,2.8E1,4E0,7E0,4.4E1,4E0,8.1E2,5.3E1,9E0],"tree_param":{"num_deleted":"0","num_feature":"42","num_nodes":"75","size_leaf_vector":"0"}},{"base_weights":[4.2050883E-2,-1.9382566E-1,8.3554246E-2,-3.3704862E-2,-8.138789E-1,2.1846302E-1,-2.6626438E-2,-1.9393481E-1,1.0333357E0,6.4567965E-1,-1.2316709E0,1.1865835E-1,8.6231405E-1,1.339623E-1,-3.1394204E-1,-7.201613E-1,3.213562E-2,2.071578E0,2.7869648E-1,1.2217187E0,-2.3578891E-1,-2.6096525E0,-3.4864217E-1,1.8260776E-1,-6.1092824E-1,1.235737E0,1.988799E-1,3.0586019E0,8.7846175E-2,-6.096904E-1,5.05553E-2,-1.4868934E0,-3.6588933E-2,1.1813658E-1,-1.2815061E0,-1.9306248E-1,4.797389E-1,2.201244E0,-1.650465E-1,-1.9214911E0,9.666089E-1,-2.9709287E0,-7.763648E-1,1.017324E-1,-1.4498876E0,1.4928728E-1,1.5009307E0,8.130459E-2,-1.1043458E0,5.9736097E-1,1.6846509E0,1.3393656E0,-6.059855E-1,6.957073E-1,4.4019623E0,2.5251436E-1,-3.703837E-1,4.4421233E-2,-1.0286212E0,4.807744E-1,-5.4090387E-1,-7.3702645E-1,-2.3457186E0,-4.492629E-1,3.6957712E0,1.808986E-1,-1.4693723E0,-1.8659663E-1,-1.5085843E0,-3.099326E-1,-5.0794918E-2,-2.730646E-1,2.5494874E-2,1.3901496E0,5.9763722E-2,8.0989724E-1,-3.029961E-1,-1.3898195E-1,3.1010827E-1,3.6812801E0,-5.435351E-1,3.476746E-1,-1.9668038E-1,-1.2260418E0,-1.2775008E-1,1.3256598E0,2.7815724E-2,2.088443E0,9.5907795E-1,2.0196457E0,3.912123E-1,-2.8474346E-1,-2.2304454E0,-3.370212E-2,5.390165E-1,9.836083E-2,-8.5263073E-1,9.942081E-1,-4.4970608E-1,-3.1740916E-1,-1.421679E0,8.0216116E-1,-6.731775E-1,-1.4000145E0,3.0389376E-2],"categories":[],"categories_nodes":[],"categories_segments":[],"categories_sizes":[],"default_left":[true,true,true,true,true,true,true,true,true,true,true,true,true,true,true,true,true,false,true,true,true,true,true,true,true,true,true,true,true,true,true,true,true,true,true,true,false,false,true,false,true,false,false,true,false,true,true,true,true,true,true,true,true,false,false,true,true,true,true,true,true,false,false,false,false,false,false,false,false,false,false,false,false,false,false,false,false,false,false,false,false,false,false,false,false,false,false,false,false,false,false,false,false,false,false,false,false,false,false,false,false,false,false,false,false],"id":15,"left_children":[1,3,5,7,9,11,13,15,17,19,21,23,25,27,29,31,33,-1,35,37,39,41,43,45,47,49,51,53,55,57,59,61,63,65,67,69,-1,-1,71,-1,73,-1,-1,75,-1,77,79,81,83,85,87,89,91,-1,-1,93,95,97,99,101,103,-1,-1,-1,-1,-1,-1,-1,-1,-1,-1,-1,-1,-1,-1,-1,-1,-1,-1,-1,-1,-1,-1,-1,-1,-1,-1,-1,-1,-1,-1,-1,-1,-1,-1,-1,-1,-1,-1,-1,-1,-1,-1,-1,-1],"loss_changes":[1.05303E1,1.5957199E1,1.35918255E1,2.2255772E1,2.091839E1,2.6308266E1,2.329644E1,1.3466102E1,1.2742132E1,4.3501496E0,3.0726898E1,1.6767975E1,1.3380016E1,4.3430176E1,1.9542532E1,1.776557E1,9.189349E0,0E0,1.1358988E0,7.1551676E0,9.964869E0,4.3167114E0,8.579041E0,1.4227959E1,9.995024E0,9.023811E0,2.0088324E1,1.280862E1,2.4239412E1,2.744844E1,2.112553E1,8.575218E0,3.0925081E1,7.8380885E0,9.616537E-1,5.0764307E-2,0E0,0E0,6.870751E-2,0E0,1.0691772E0,0E0,0E0,3.9713843E0,0E0,1.4970936E1,3.7662106E1,1.0309899E0,1.8637848E0,6.5999117E0,3.856636E0,5.0149784E0,6.1488786E0,0E0,0E0,1.9370548E1,1.9298172E1,1.9219727E1,1.6601143E1,1.8341507E1,1.7220688E1,0E0,0E0,0E0,0E0,0E0,0E0,0E0,0E0,0E0,0E0,0E0,0E0,0E0,0E0,0E0,0E0,0E0,0E0,0E0,0E0,0E0,0E0,0E0,0E0,0E0,0E0,0E0,0E0,0E0,0E0,0E0,0E0,0E0,0E0,0E0,0E0,0E0,0E0,0E0,0E0,0E0,0E0,0E0,0E0],"parents":[2147483647,0,0,1,1,2,2,3,3,4,4,5,5,6,6,7,7,8,8,9,9,10,10,11,11,12,12,13,13,14,14,15,15,16,16,18,18,19,19,20,20,21,21,22,22,23,23,24,24,25,25,26,26,27,27,28,28,29,29,30,30,31,31,32,32,33,33,34,34,35,35,38,38,40,40,43,43,45,45,46,46,47,47,48,48,49,49,50,50,51,51,52,52,55,55,56,56,57,57,58,58,59,59,60,60],"right_children":[2,4,6,8,10,12,14,16,18,20,22,24,26,28,30,32,34,-1,36,38,40,42,44,46,48,50,52,54,56,58,60,62,64,66,68,70,-1,-1,72,-1,74,-1,-1,76,-1,78,80,82,84,86,88,90,92,-1,-1,94,96,98,100,102,104,-1,-1,-1,-1,-1,-1,-1,-1,-1,-1,-1,-1,-1,-1,-1,-1,-1,-1,-1,-1,-1,-1,-1,-1,-1,-1,-1,-1,-1,-1,-1,-1,-1,-1,-1,-1,-1,-1,-1,-1,-1,-1,-1,-1],"split_conditions":[4.5211162E-2,5.568361E1,9.57136E-1,5.5470833E1,5.2E1,9.730557E-1,5.1003197E1,7.9754466E-1,3.7E1,7.3705E2,1.11024994E2,7.535597E2,5.0421E4,9.35E1,5.3446526E1,5E-1,9.7E1,6.2147343E-1,5.04215E4,5.042E4,5.042E4,5.3147083E1,5.566986E1,9.100111E0,5.5095833E1,4.9147083E1,7.461305E2,5.0434E4,3.323125E2,1.614E3,9.95E1,2.658E3,8.8E1,5.5449165E1,5E-1,5.25E0,1.4392167E-1,6.603733E-1,5.04255E4,-5.7644737E-1,1.35E0,-8.912786E-1,-2.3290946E-1,9.65E1,-4.349663E-1,4.976097E1,5.4609863E1,5.04175E4,5.135236E1,1.3351876E3,1.0206757E0,5.85E1,6.45E0,2.087122E-1,1.3205887E0,4.967278E1,5.0417E4,2.3933393E-1,5E-1,5.0433E4,5.0402E4,-2.2110794E-1,-7.037156E-1,-1.3477887E-1,1.1087314E0,5.4269586E-2,-4.408117E-1,-5.597899E-2,-4.525753E-1,-9.297978E-2,-1.5238476E-2,-8.191939E-2,7.6484624E-3,4.170449E-1,1.7929118E-2,2.4296919E-1,-9.0898834E-2,-4.169459E-2,9.303249E-2,1.1043841E0,-1.6306055E-1,1.04302384E-1,-5.9004117E-2,-3.6781254E-1,-3.8325027E-2,3.9769796E-1,8.344717E-3,6.265329E-1,2.877234E-1,6.0589373E-1,1.173637E-1,-8.542304E-2,-6.6913366E-1,-1.0110636E-2,1.6170496E-1,2.950825E-2,-2.5578922E-1,2.9826245E-1,-1.3491184E-1,-9.522275E-2,-4.2650372E-1,2.4064836E-1,-2.0195325E-1,-4.2000437E-1,9.116814E-3],"split_indices":[24,34,23,34,40,25,37,17,3,2,21,8,33,5,36,32,40,0,33,33,33,36,35,18,34,36,8,33,20,22,5,22,40,34,32,0,0,0,33,0,0,0,0,5,0,37,35,33,36,15,25,40,0,0,0,37,33,24,32,33,33,0,0,0,0,0,0,0,0,0,0,0,0,0,0,0,0,0,0,0,0,0,0,0,0,0,0,0,0,0,0,0,0,0,0,0,0,0,0,0,0,0,0,0,0],"split_type":[0,0,0,0,0,0,0,0,0,0,0,0,0,0,0,0,0,0,0,0,0,0,0,0,0,0,0,0,0,0,0,0,0,0,0,0,0,0,0,0,0,0,0,0,0,0,0,0,0,0,0,0,0,0,0,0,0,0,0,0,0,0,0,0,0,0,0,0,0,0,0,0,0,0,0,0,0,0,0,0,0,0,0,0,0,0,0,0,0,0,0,0,0,0,0,0,0,0,0,0,0,0,0,0,0],"sum_hessian":[1.073E3,1.6E2,9.13E2,1.28E2,3.2E1,4.1E2,5.03E2,1.12E2,1.6E1,7E0,2.5E1,3.56E2,5.4E1,3.23E2,1.8E2,3.3E1,7.9E1,6E0,1E1,4E0,3E0,9E0,1.6E1,3.28E2,2.8E1,3.4E1,2E1,4E0,3.19E2,9.9E1,8.1E1,1.5E1,1.8E1,7.5E1,4E0,3E0,7E0,2E0,2E0,1E0,2E0,7E0,2E0,1.2E1,4E0,3.21E2,7E0,1.2E1,1.6E1,1.5E1,1.9E1,8E0,1.2E1,2E0,2E0,2.35E2,8.4E1,3.9E1,6E1,4.7E1,3.4E1,9E0,6E0,1.7E1,1E0,7.3E1,2E0,1E0,3E0,1E0,2E0,1E0,1E0,1E0,1E0,4E0,8E0,1.15E2,2.06E2,3E0,4E0,6E0,6E0,1.4E1,2E0,6E0,9E0,1.1E1,8E0,4E0,4E0,1.1E1,1E0,1.18E2,1.17E2,4.3E1,4.1E1,1.3E1,2.6E1,2.2E1,3.8E1,3.7E1,1E1,1.3E1,2.1E1],"tree_param":{"num_deleted":"0","num_feature":"42","num_nodes":"105","size_leaf_vector":"0"}},{"base_weights":[3.0826308E-2,3.590323E-2,-1.793603E0,1.452551E-2,4.5495608E-1,4.4125125E-2,-4.7769094E-1,-4.8601082E-1,1.5730013E0,3.4681384E-2,1.1683168E0,1.1424825E-1,-8.6994374E-1,-1.1155729E0,8.217144E-1,2.1787171E0,-2.0002577E0,-2.1469244E-1,7.103178E-2,2.2386148E0,-1.3617183E0,-5.6413555E-1,8.3964336E-1,-1.3304358E0,-2.3995723E-1,-2.9160945E0,-6.262988E-1,1.4381112E0,-8.230467E-2,1.377329E0,3.5847323E0,-6.2588584E-1,2.0676138E-1,6.35125E-2,1.619164E0,6.7324066E-1,2.8529918E0,-1.5162453E-1,-1.4543792E0,-1.4766829E-1,1.5659615E0,-2.6233087E0,-1.0410439E0,-7.692356E-1,2.5717437E-1,-9.042962E-1,9.724547E-1,2.1420374E0,2.0172596E-2,2.0176713E-1,-3.3894157E-1,2.1274488E0,-5.484006E-1,1.9482026E0,4.325079E0],"categories":[],"categories_nodes":[],"categories_segments":[],"categories_sizes":[],"default_left":[true,true,false,true,true,true,true,true,true,true,true,true,true,true,true,true,false,true,true,true,false,true,true,true,true,false,true,true,true,true,true,false,false,false,false,false,false,false,false,false,false,false,false,false,false,false,false,false,false,false,false,false,false,false,false],"id":16,"left_children":[1,3,-1,5,7,9,11,13,15,17,19,21,23,25,27,29,-1,31,33,35,-1,37,39,41,43,-1,45,47,49,51,53,-1,-1,-1,-1,-1,-1,-1,-1,-1,-1,-1,-1,-1,-1,-1,-1,-1,-1,-1,-1,-1,-1,-1,-1],"loss_changes":[1.0012307E1,9.59679E0,0E0,1.4896453E1,5.5470757E1,1.0193857E1,1.35664E1,2.4792213E1,5.6303112E1,8.690298E0,2.4711498E1,1.2283984E1,9.834385E0,1.5792629E1,5.690708E0,1.8724686E1,0E0,2.1271893E1,9.628905E0,3.8496304E0,0E0,4.5535398E0,8.836471E0,4.7519608E0,4.4077635E0,0E0,8.435027E0,5.9455338E0,4.329038E-1,2.2834616E1,5.506897E-2,0E0,0E0,0E0,0E0,0E0,0E0,0E0,0E0,0E0,0E0,0E0,0E0,0E0,0E0,0E0,0E0,0E0,0E0,0E0,0E0,0E0,0E0,0E0,0E0],"parents":[2147483647,0,0,1,1,3,3,4,4,5,5,6,6,7,7,8,8,9,9,10,10,11,11,12,12,13,13,14,14,15,15,17,17,18,18,19,19,21,21,22,22,23,23,24,24,26,26,27,27,28,28,29,29,30,30],"right_children":[2,4,-1,6,8,10,12,14,16,18,20,22,24,26,28,30,-1,32,34,36,-1,38,40,42,44,-1,46,48,50,52,54,-1,-1,-1,-1,-1,-1,-1,-1,-1,-1,-1,-1,-1,-1,-1,-1,-1,-1,-1,-1,-1,-1,-1,-1],"split_conditions":[1.1870982E1,3.8916175E0,-5.3808093E-1,3.7550974E0,5.540139E1,9.469267E0,5.04155E4,5.2901806E1,5.597597E1,7.45E1,5.0847084E1,1.68975E2,5.0629723E1,5.4543888E1,5.041E4,7.6535E2,-6.0007733E-1,7.25E1,7.801921E1,5.04045E4,-4.085155E-1,5.5130833E1,5E-1,5.0424E4,7.291E2,-8.748284E-1,3.315E1,1.35E0,5.04255E4,5.0964302E1,5.0964302E1,-1.8776576E-1,6.2028416E-2,1.905375E-2,4.857492E-1,2.019722E-1,8.558976E-1,-4.548736E-2,-4.3631378E-1,-4.430049E-2,4.6978846E-1,-7.869926E-1,-3.1231317E-1,-2.3077069E-1,7.715231E-2,-2.7128887E-1,2.9173642E-1,6.4261127E-1,6.0517793E-3,6.053014E-2,-1.0168248E-1,6.382347E-1,-1.6452017E-1,5.844608E-1,1.2975237E0],"split_indices":[16,10,0,10,34,18,33,36,34,29,36,21,37,35,33,4,0,40,11,33,0,34,32,33,2,0,3,0,33,36,36,0,0,0,0,0,0,0,0,0,0,0,0,0,0,0,0,0,0,0,0,0,0,0,0],"split_type":[0,0,0,0,0,0,0,0,0,0,0,0,0,0,0,0,0,0,0,0,0,0,0,0,0,0,0,0,0,0,0,0,0,0,0,0,0,0,0,0,0,0,0,0,0,0,0,0,0,0,0,0,0,0,0],"sum_hessian":[1.073E3,1.071E3,2E0,1.02E3,5.1E1,9.63E2,5.7E1,2.8E1,2.3E1,9.56E2,7E0,2.3E1,3.4E1,1.9E1,9E0,2E1,3E0,1.21E2,8.35E2,5E0,2E0,1.2E1,1.1E1,1.9E1,1.5E1,3E0,1.6E1,5E0,4E0,1.4E1,6E0,6.1E1,6E1,8.32E2,3E0,2E0,3E0,9E0,3E0,5E0,6E0,2E0,1.7E1,7E0,8E0,1.4E1,2E0,3E0,2E0,2E0,2E0,1E1,4E0,3E0,3E0],"tree_param":{"num_deleted":"0","num_feature":"42","num_nodes":"55","size_leaf_vector":"0"}},{"base_weights":[2.2220718E-2,-1.9330484E-1,5.2626956E-2,-4.1525666E-2,-5.4515326E-1,7.062925E-1,3.6228113E-2,4.5943677E-2,-1.6076688E0,4.71475E-1,-9.976895E-1,4.5867902E-1,3.0768948E0,-8.088012E-2,1.1952965E-1,-6.5334445E-1,1.724903E-1,-4.562538E-1,1.1083372E0,-1.3429278E0,2.2987257E-1,1.3669466E0,-2.752713E-1,-6.5315136E-4,-8.5416085E-1,3.7530642E-2,4.6135694E-1,2.6188964E-1,-1.9173049E0,-1.7818214E-1,4.847437E-1,-5.7970047E-2,-1.2238363E0,6.558895E-2,1.4449885E0,-1.8387964E0,-5.640061E-1,-4.854805E-1,1.3455034E0,3.2131425E-1,2.348316E0,6.08702E-1,-4.9133027E-1,-3.2861194E-1,1.6052598E-1,2.5962327E-2,-2.4132988E0,1.18779E-1,-2.5061494E-1,2.8541526E-1,1.4862499E0,5.786616E-1,-5.645415E-1,-3.320927E-1,8.7326396E-1,7.140683E-1,-8.530021E-3,4.3310482E-2,-1.3992722E-1,1.5270948E-1,-5.4326057E-2,6.3879013E-1,1.6883901E0,-1.9829022E0,-6.974761E-1,-9.8084044E-1,-2.4524273E-1,-1.22284055E-1,8.056739E-1,-7.106949E-1,3.3054033E-1,-4.082628E-1,1.5053589E0,1.1048317E-1,2.0437386E0,4.0584284E-1,-1.4987522E0,-8.4398955E-1,-3.2886186E0,-1.2730744E-1,2.834607E-1,-3.4635636E-1,7.133696E-1,7.093468E-2,1.2022474E0,2.1912732E0,-3.620514E-1],"categories":[],"categories_nodes":[],"categories_segments":[],"categories_sizes":[],"default_left":[true,true,true,true,true,true,true,true,false,true,true,true,false,true,true,true,true,true,true,true,true,true,true,true,true,true,true,true,false,true,true,true,false,true,true,true,true,false,false,true,false,false,true,true,true,true,true,true,true,true,true,false,false,false,false,false,false,false,false,false,false,false,false,false,false,false,false,false,false,false,false,false,false,false,false,false,false,false,false,false,false,false,false,false,false,false,false],"id":17,"left_children":[1,3,5,7,9,11,13,15,-1,17,19,21,-1,23,25,27,29,31,33,35,37,39,41,43,45,47,49,51,-1,53,55,57,-1,59,61,63,65,-1,-1,67,-1,-1,69,71,73,75,77,79,81,83,85,-1,-1,-1,-1,-1,-1,-1,-1,-1,-1,-1,-1,-1,-1,-1,-1,-1,-1,-1,-1,-1,-1,-1,-1,-1,-1,-1,-1,-1,-1,-1,-1,-1,-1,-1,-1],"loss_changes":[7.0484405E0,7.079996E0,1.0072048E1,1.2950875E1,1.887283E1,1.2089535E1,8.984539E0,8.077025E0,0E0,8.186544E0,1.2175142E1,1.5041992E1,0E0,2.3759983E1,1.5062554E1,1.6697598E1,8.51777E0,1.763348E0,2.7135649E0,7.460251E0,6.2397056E0,9.506969E0,2.7819486E0,1.8448069E1,4.946306E1,1.0213708E1,1.832923E1,2.6827903E0,0E0,6.277664E0,4.644003E0,4.756365E-2,0E0,3.9637282E-2,9.885311E-2,7.5509644E-1,1.0881712E0,0E0,0E0,1.3876878E0,0E0,0E0,2.2180958E0,1.7413471E1,2.182665E1,1.4509282E1,1.5081856E1,1.3814905E1,9.107233E0,1.7612562E1,2.0339787E1,0E0,0E0,0E0,0E0,0E0,0E0,0E0,0E0,0E0,0E0,0E0,0E0,0E0,0E0,0E0,0E0,0E0,0E0,0E0,0E0,0E0,0E0,0E0,0E0,0E0,0E0,0E0,0E0,0E0,0E0,0E0,0E0,0E0,0E0,0E0,0E0],"parents":[2147483647,0,0,1,1,2,2,3,3,4,4,5,5,6,6,7,7,9,9,10,10,11,11,13,13,14,14,15,15,16,16,17,17,18,18,19,19,20,20,21,21,22,22,23,23,24,24,25,25,26,26,27,27,29,29,30,30,31,31,33,33,34,34,35,35,36,36,39,39,42,42,43,43,44,44,45,45,46,46,47,47,48,48,49,49,50,50],"right_children":[2,4,6,8,10,12,14,16,-1,18,20,22,-1,24,26,28,30,32,34,36,38,40,42,44,46,48,50,52,-1,54,56,58,-1,60,62,64,66,-1,-1,68,-1,-1,70,72,74,76,78,80,82,84,86,-1,-1,-1,-1,-1,-1,-1,-1,-1,-1,-1,-1,-1,-1,-1,-1,-1,-1,-1,-1,-1,-1,-1,-1,-1,-1,-1,-1,-1,-1,-1,-1,-1,-1,-1,-1],"split_conditions":[4.7791988E-1,5.5063194E1,5.4958076E0,5.1099997E0,5.0419E4,5.3992363E1,5E-1,5.04055E4,-4.8230064E-1,7.5825E2,1.4105283E-1,5.2095417E1,9.2306846E-1,9.05E1,3.50375E2,8.5E-1,4.0142512E-1,5.04125E4,5.586236E1,5.195903E1,5.04315E4,5.04255E4,5E-1,5E-1,3.54875E2,5.5771248E1,7.6625E2,5.525986E1,-5.751915E-1,5.5454865E1,5.1569305E1,5E-1,-3.671509E-1,5E-1,2.4E0,9.95E1,1E0,-1.4564416E-1,4.0365106E-1,5E-1,7.0449483E-1,1.826106E-1,5.3075764E1,5.597597E1,3.78275E2,3.5120564E0,7.448979E2,5.5140278E1,2.0426945E1,1.2799999E1,5.04325E4,1.735985E-1,-1.6936246E-1,-9.9627815E-2,2.619792E-1,2.142205E-1,-2.5590062E-3,1.2993145E-2,-4.197817E-2,4.5812845E-2,-1.6297817E-2,1.9163705E-1,5.0651705E-1,-5.948707E-1,-2.0924284E-1,-2.9425216E-1,-7.357282E-2,-3.6685217E-2,2.4170218E-1,-2.1320848E-1,9.91621E-2,-1.2247884E-1,4.516077E-1,3.314495E-2,6.131216E-1,1.2175286E-1,-4.496257E-1,-2.5319687E-1,-9.865856E-1,-3.8192235E-2,8.5038215E-2,-1.03906915E-1,2.140109E-1,2.1280406E-2,3.6067423E-1,6.57382E-1,-1.0861542E-1],"split_indices":[23,35,18,1,33,36,32,33,0,4,24,36,0,40,20,0,16,33,34,37,33,33,0,41,20,34,4,34,0,34,37,32,0,32,0,5,0,0,0,32,0,0,39,34,21,10,8,34,7,28,33,0,0,0,0,0,0,0,0,0,0,0,0,0,0,0,0,0,0,0,0,0,0,0,0,0,0,0,0,0,0,0,0,0,0,0,0],"split_type":[0,0,0,0,0,0,0,0,0,0,0,0,0,0,0,0,0,0,0,0,0,0,0,0,0,0,0,0,0,0,0,0,0,0,0,0,0,0,0,0,0,0,0,0,0,0,0,0,0,0,0,0,0,0,0,0,0,0,0,0,0,0,0,0,0,0,0,0,0,0,0,0,0,0,0,0,0,0,0,0,0,0,0,0,0,0,0],"sum_hessian":[1.073E3,1.32E2,9.41E2,9.3E1,3.9E1,2.2E1,9.19E2,8.9E1,4E0,1.2E1,2.7E1,2.1E1,1E0,3.82E2,5.37E2,1.3E1,7.6E1,5E0,7E0,2.1E1,6E0,9E0,1.2E1,3.47E2,3.5E1,4.34E2,1.03E2,8E0,5E0,3.6E1,4E1,4E0,1E0,2E0,5E0,1.2E1,9E0,4E0,2E0,5E0,4E0,2E0,1E1,1.14E2,2.33E2,2.3E1,1.2E1,3.39E2,9.5E1,8.9E1,1.4E1,6E0,2E0,3.2E1,4E0,2.7E1,1.3E1,2E0,2E0,1E0,1E0,2E0,3E0,1E1,2E0,3E0,6E0,3E0,2E0,8E0,2E0,1.1E2,4E0,2.28E2,5E0,1.9E1,4E0,5E0,7E0,1.36E2,2.03E2,8.7E1,8E0,7.3E1,1.6E1,1E1,4E0],"tree_param":{"num_deleted":"0","num_feature":"42","num_nodes":"87","size_leaf_vector":"0"}},{"base_weights":[1.6611222E-2,2.0622816E-2,-1.4224019E0,-1.3939694E-1,5.6139022E-2,1.024154E-1,-1.0501655E0,4.1187044E-2,1.2308824E0,-1.4283948E0,1.844699E-1,-2.4609491E-1,-1.4579765E0,3.8527283E-1,-6.669156E-3,-5.5756774E-2,2.7860007E0,-1.7854424E-1,-2.6336093E0,4.071085E-1,-2.8784195E-1,-1.1704468E0,7.0901877E-1,-2.0546532E0,-7.5715864E-1,5.94725E-1,-1.651636E-1,-2.6651349E-2,7.771942E-1,4.159562E-1,-8.233595E-1,3.0854406E0,7.941208E-1,6.654193E-1,-9.6299297E-1,1.0368253E0,-9.717864E-2,6.327147E-1,-6.122696E-1,-4.5723343E-1,-1.3319789E0,-2.3014224E0,-3.82692E-1,2.9094076E-1,-8.601617E-1,1.8263708E-1,9.521038E-1,2.1079968E-1,-8.3371836E-1,-4.6611053E-1,1.3221634E-2,1.7199427E0,8.3929E-2,6.9526416E-1,-2.0038288E-3,-1.2949457E0,5.9906483E-2],"categories":[],"categories_nodes":[],"categories_segments":[],"categories_sizes":[],"default_left":[true,true,false,true,true,true,true,true,true,true,true,true,true,true,true,true,true,true,false,true,true,true,false,true,true,true,true,true,true,true,true,false,false,false,false,false,false,false,false,false,false,false,false,false,false,false,false,false,false,false,false,false,false,false,false,false,false],"id":18,"left_children":[1,3,-1,5,7,9,11,13,15,17,19,21,23,25,27,29,31,33,-1,35,37,39,-1,41,43,45,47,49,51,53,55,-1,-1,-1,-1,-1,-1,-1,-1,-1,-1,-1,-1,-1,-1,-1,-1,-1,-1,-1,-1,-1,-1,-1,-1,-1,-1],"loss_changes":[6.229252E0,6.100317E0,0E0,4.30534E1,1.5371143E1,1.9733025E1,1.3085457E1,1.4295611E1,2.2164978E1,1.1580486E1,1.56801E1,1.4072784E1,9.734665E0,1.231898E1,1.1971818E1,2.8770986E0,5.32032E-1,3.9510248E0,0E0,3.2174126E1,1.4722785E1,3.126297E-1,0E0,4.8955E0,1.7616615E0,1.1166014E1,7.716309E0,1.3060461E1,1.2273567E1,5.8509105E-1,1.327184E0,0E0,0E0,0E0,0E0,0E0,0E0,0E0,0E0,0E0,0E0,0E0,0E0,0E0,0E0,0E0,0E0,0E0,0E0,0E0,0E0,0E0,0E0,0E0,0E0,0E0,0E0],"parents":[2147483647,0,0,1,1,3,3,4,4,5,5,6,6,7,7,8,8,9,9,10,10,11,11,12,12,13,13,14,14,15,15,16,16,17,17,19,19,20,20,21,21,23,23,24,24,25,25,26,26,27,27,28,28,29,29,30,30],"right_children":[2,4,-1,6,8,10,12,14,16,18,20,22,24,26,28,30,32,34,-1,36,38,40,-1,42,44,46,48,50,52,54,56,-1,-1,-1,-1,-1,-1,-1,-1,-1,-1,-1,-1,-1,-1,-1,-1,-1,-1,-1,-1,-1,-1,-1,-1,-1,-1],"split_conditions":[1.1870982E1,5.04065E4,-4.267206E-1,6.8E0,4.0605345E0,9.35E1,5E-1,5.04105E4,5.15E1,5.04035E4,9.95E1,7.2480005E2,5.4693336E1,8.35E1,7.238728E-1,5.04315E4,3.8500001E0,3.5E0,-7.900828E-1,3.455E1,6.236771E1,5.04015E4,2.1270564E-1,5.65E0,3.45E0,2.745E1,5.497861E1,1.6069687E1,5.0317173E1,2.35E0,5E-1,9.2563224E-1,2.3823625E-1,1.9962579E-1,-2.888979E-1,3.110476E-1,-2.9153593E-2,1.8981442E-1,-1.8368088E-1,-1.3717003E-1,-3.9959368E-1,-6.904267E-1,-1.14807606E-1,8.728223E-2,-2.5804853E-1,5.4791126E-2,2.8563115E-1,6.323991E-2,-2.501155E-1,-1.3983317E-1,3.9664903E-3,5.159828E-1,2.5178703E-2,2.0857926E-1,-6.0114864E-4,-3.8848373E-1,1.7971946E-2],"split_indices":[16,33,0,28,10,5,1,33,40,33,5,2,35,29,13,33,0,0,0,3,11,33,0,0,0,27,34,7,39,0,32,0,0,0,0,0,0,0,0,0,0,0,0,0,0,0,0,0,0,0,0,0,0,0,0,0,0],"split_type":[0,0,0,0,0,0,0,0,0,0,0,0,0,0,0,0,0,0,0,0,0,0,0,0,0,0,0,0,0,0,0,0,0,0,0,0,0,0,0,0,0,0,0,0,0,0,0,0,0,0,0,0,0,0,0,0,0],"sum_hessian":[1.073E3,1.071E3,2E0,1.94E2,8.77E2,1.54E2,4E1,8.67E2,1E1,7E0,1.47E2,1.4E1,2.6E1,1.05E2,7.62E2,6E0,4E0,4E0,3E0,1E2,4.7E1,7E0,7E0,1.3E1,1.3E1,7.6E1,2.9E1,7.44E2,1.8E1,4E0,2E0,3E0,1E0,2E0,2E0,4.4E1,5.6E1,1.2E1,3.5E1,2E0,5E0,1.1E1,2E0,1E0,1.2E1,3.6E1,4E1,1.9E1,1E1,6.1E1,6.83E2,7E0,1.1E1,2E0,2E0,1E0,1E0],"tree_param":{"num_deleted":"0","num_feature":"42","num_nodes":"57","size_leaf_vector":"0"}},{"base_weights":[1.0922214E-2,5.110027E-3,7.8475744E-1,-1.9697972E-2,1.8564956E-1,2.9628674E-2,2.0334291E0,4.887652E-2,-1.4463797E-1,3.3297616E-1,-8.045595E-1,-7.793758E-1,3.4730473E-1,1.4077973E-1,-8.5641444E-2,-2.5532828E-3,-4.406241E-1,4.846854E-1,-3.96706E-1,5.0137156E-1,-1.3904785E0,4.7639784E-1,1.02443375E-1,4.7870994E-1,1.8290712E-2,-5.2769804E-1,7.5135365E-2,-8.0008715E-2,6.8455374E-1,4.0747696E-1,-6.623183E-1,-9.151899E-2,8.439074E-1,-1.2404481E0,-3.2762114E-2,8.1485045E-1,-8.372418E-2,-1.6133332E0,-1.8413621E-1,-4.6128273E-2,1.9979334E-1,7.749284E-2,1.5011724E0,1.3886915E-1,-3.644548E-1,-1.9046677E0,-1.8643318E-1,-7.9888046E-1,1.584235E-1,-3.1381312E-1,1.5687229E-1,9.597048E-1,-2.6843853E0,2.5294729E-2,1.4861108E0,-2.0188363E-1,-1.0226232E0,-1.5455393E0,1.3156042E-1,3.433208E0,5.3485626E-1,-1.9596982E-1,-1.4101498E0,-3.135717E-1,2.5214273E-1,-1.6840649E-1,4.2820215E-2,-1.8701727E0,-7.6053095E-1,-3.0085155E-1,2.4647236E-2],"categories":[],"categories_nodes":[],"categories_segments":[],"categories_sizes":[],"default_left":[true,true,true,true,true,true,false,true,true,true,true,false,true,true,true,true,true,true,true,true,true,false,true,true,true,true,true,true,true,true,true,true,true,true,true,false,true,true,true,false,false,false,false,false,false,false,false,false,false,false,false,false,false,false,false,false,false,false,false,false,false,false,false,false,false,false,false,false,false,false,false],"id":19,"left_children":[1,3,5,7,9,11,-1,13,15,17,19,-1,21,23,25,27,29,31,33,35,37,-1,39,41,43,45,47,49,51,53,55,57,59,61,63,-1,65,67,69,-1,-1,-1,-1,-1,-1,-1,-1,-1,-1,-1,-1,-1,-1,-1,-1,-1,-1,-1,-1,-1,-1,-1,-1,-1,-1,-1,-1,-1,-1,-1,-1],"loss_changes":[4.8264933E0,4.7825623E0,7.483015E0,8.052136E0,1.9086952E1,1.8126891E0,0E0,7.516175E0,1.400322E1,1.2701322E1,1.3705031E1,0E0,1.0924578E-1,1.4934025E1,1.7594543E1,1.2082528E1,2.057594E1,1.9533854E1,6.100856E0,1.1687137E0,2.928997E0,0E0,5.260646E-2,3.9265697E1,1.2326739E1,3.065906E1,1.3375278E1,1.1347529E1,2.3896465E1,9.443808E0,1.406068E1,1.2204725E1,4.4576855E1,7.871504E-1,1.279125E0,0E0,3.9359417E-2,7.680092E-1,8.051985E-2,0E0,0E0,0E0,0E0,0E0,0E0,0E0,0E0,0E0,0E0,0E0,0E0,0E0,0E0,0E0,0E0,0E0,0E0,0E0,0E0,0E0,0E0,0E0,0E0,0E0,0E0,0E0,0E0,0E0,0E0,0E0,0E0],"parents":[2147483647,0,0,1,1,2,2,3,3,4,4,5,5,7,7,8,8,9,9,10,10,12,12,13,13,14,14,15,15,16,16,17,17,18,18,19,19,20,20,22,22,23,23,24,24,25,25,26,26,27,27,28,28,29,29,30,30,31,31,32,32,33,33,34,34,36,36,37,37,38,38],"right_children":[2,4,6,8,10,12,-1,14,16,18,20,-1,22,24,26,28,30,32,34,36,38,-1,40,42,44,46,48,50,52,54,56,58,60,62,64,-1,66,68,70,-1,-1,-1,-1,-1,-1,-1,-1,-1,-1,-1,-1,-1,-1,-1,-1,-1,-1,-1,-1,-1,-1,-1,-1,-1,-1,-1,-1,-1,-1,-1,-1],"split_conditions":[4.118125E2,2.5531483E0,5.5302086E1,7.0976562E0,5.04345E4,5.041E4,6.1002874E-1,5.5128197E1,7.6768935E-2,5.2901806E1,1.7678024E1,-2.3381275E-1,5E-1,7.299E2,5.5363335E1,4.6110207E-1,4.8614445E1,2.5E0,7.1935E2,7.2635E2,1.8597416E1,1.4291936E-1,5.0425E4,5.539764E1,3.4743776E0,7.48979E2,5.1392686E-1,5.4609863E1,9E1,5.530139E1,1E-1,5.4834583E1,5.4834583E1,5.4647778E1,3.0431695E0,2.4445514E-1,5E-1,3.48E1,4.3E0,-1.3838482E-2,5.9938002E-2,2.3247853E-2,4.5035174E-1,4.166075E-2,-1.0933644E-1,-5.7140034E-1,-5.5929955E-2,-2.3966415E-1,4.7527052E-2,-9.414394E-2,4.706169E-2,2.8791144E-1,-8.053156E-1,7.5884187E-3,4.4583327E-1,-6.056509E-2,-3.0678695E-1,-4.636618E-1,3.9468125E-2,1.0299624E0,1.6045688E-1,-5.879095E-2,-4.2304495E-1,-9.4071515E-2,7.5642824E-2,-5.0521947E-2,1.2846065E-2,-5.6105185E-1,-2.281593E-1,-9.025547E-2,7.394171E-3],"split_indices":[20,16,34,18,33,33,0,35,24,36,7,0,32,2,35,14,37,41,2,2,7,0,33,34,10,8,16,35,40,34,0,34,34,34,10,0,32,3,0,0,0,0,0,0,0,0,0,0,0,0,0,0,0,0,0,0,0,0,0,0,0,0,0,0,0,0,0,0,0,0,0],"split_type":[0,0,0,0,0,0,0,0,0,0,0,0,0,0,0,0,0,0,0,0,0,0,0,0,0,0,0,0,0,0,0,0,0,0,0,0,0,0,0,0,0,0,0,0,0,0,0,0,0,0,0,0,0,0,0,0,0,0,0,0,0,0,0,0,0,0,0,0,0,0,0],"sum_hessian":[1.073E3,1.066E3,7E0,9.38E2,1.28E2,5E0,2E0,6.06E2,3.32E2,1.12E2,1.6E1,1E0,4E0,3.6E2,2.46E2,2.25E2,1.07E2,9.3E1,1.9E1,5E0,1.1E1,2E0,2E0,9.5E1,2.65E2,6.5E1,1.81E2,2.03E2,2.2E1,2.2E1,8.5E1,3.6E1,5.7E1,5E0,1.4E1,3E0,2E0,9E0,2E0,1E0,1E0,6.9E1,2.6E1,2.02E2,6.3E1,1.2E1,5.3E1,1.5E1,1.66E2,1.02E2,1.01E2,2.1E1,1E0,1.7E1,5E0,3.8E1,4.7E1,4E0,3.2E1,5E0,5.2E1,1E0,4E0,7E0,7E0,1E0,1E0,6E0,3E0,1E0,1E0],"tree_param":{"num_deleted":"0","num_feature":"42","num_nodes":"71","size_leaf_vector":"0"}},{"base_weights":[6.9695488E-3,1.464525E-2,-5.3591126E-1,1.0480433E-2,1.1115367E0,-1.0208532E0,1.6019583E-2,2.2721268E-1,-8.221814E-3,1.2138176E-1,2.0410008E0,-1.3218035E0,-7.8668274E-2,-3.973929E-1,2.200559E-1,7.55761E-1,-8.042087E-2,-2.1687064E0,6.866921E-4,4.475247E-1,-5.559683E-3,2.1238122E0,2.6825395E-1,-8.7600285E-1,1.9320276E-1,-1.3698226E-1,6.096676E-2,-2.7138042E-1,1.7350738E-1,2.8723485E0,1.1002206E0,1.0749332E0,-2.0226899E-1,-3.8623485E-1,-1.6803383E0,-1.269874E0,3.4212655E-1,-1.1245679E0,-3.367603E-2,2.1177843E0,3.316388E-2,2.4499369E-1,1.5267372E-2],"categories":[],"categories_nodes":[],"categories_segments":[],"categories_sizes":[],"default_left":[true,true,true,true,true,true,true,true,true,false,false,false,false,false,true,true,true,false,true,false,true,true,true,true,true,true,true,false,true,false,false,false,false,false,false,false,false,false,false,false,false,false,false],"id":20,"left_children":[1,3,5,7,9,11,13,15,17,-1,-1,-1,-1,-1,19,21,23,-1,25,-1,27,29,31,33,35,37,39,-1,41,-1,-1,-1,-1,-1,-1,-1,-1,-1,-1,-1,-1,-1,-1],"loss_changes":[4.483196E0,4.830804E0,4.03117E0,4.2862906E0,3.4335136E0,2.164422E0,7.6225793E-1,1.3719112E1,1.8747768E1,0E0,0E0,0E0,0E0,0E0,3.1041113E-1,2.0105251E1,1.1924507E1,0E0,8.066383E0,0E0,2.3748545E-1,2.969345E0,9.326892E0,4.866123E0,9.367823E0,3.0161158E1,3.8587135E1,0E0,3.0195571E-2,0E0,0E0,0E0,0E0,0E0,0E0,0E0,0E0,0E0,0E0,0E0,0E0,0E0,0E0],"parents":[2147483647,0,0,1,1,2,2,3,3,4,4,5,5,6,6,7,7,8,8,14,14,15,15,16,16,18,18,20,20,21,21,22,22,23,23,24,24,25,25,26,26,28,28],"right_children":[2,4,6,8,10,12,14,16,18,-1,-1,-1,-1,-1,20,22,24,-1,26,-1,28,30,32,34,36,38,40,-1,42,-1,-1,-1,-1,-1,-1,-1,-1,-1,-1,-1,-1,-1,-1],"split_conditions":[2.6761181E0,2.6132922E0,5.2895E1,2.65E1,5.0432E4,1.7895636E1,-1.6999999E0,5.7E1,2.73E1,3.641453E-2,6.123003E-1,-3.9654106E-1,-2.3600483E-2,-1.1921787E-1,5E-1,6.4876634E-1,2.9212546E0,-6.5061194E-1,5.024014E1,1.3425742E-1,5.4662224E1,5.0427E4,7.554E2,5.5795E1,4.868222E1,3.2E1,2.805E1,-8.141413E-2,1.6E0,8.617046E-1,3.3006617E-1,3.2247996E-1,-6.06807E-2,-1.1587046E-1,-5.041015E-1,-3.8096222E-1,1.0263797E-1,-3.3737037E-1,-1.01028085E-2,6.353353E-1,9.949164E-3,7.349811E-2,4.580212E-3],"split_indices":[23,23,37,26,33,7,0,40,26,0,0,0,0,0,32,25,10,0,36,0,34,33,4,34,36,3,26,0,0,0,0,0,0,0,0,0,0,0,0,0,0,0,0],"split_type":[0,0,0,0,0,0,0,0,0,0,0,0,0,0,0,0,0,0,0,0,0,0,0,0,0,0,0,0,0,0,0,0,0,0,0,0,0,0,0,0,0,0,0],"sum_hessian":[1.073E3,1.059E3,1.4E1,1.056E3,3E0,7E0,7E0,8.3E1,9.73E2,2E0,1E0,5E0,2E0,2E0,5E0,3E1,5.3E1,3E0,9.7E2,2E0,3E0,7E0,2.3E1,1.3E1,4E1,2.95E2,6.75E2,1E0,2E0,3E0,4E0,8E0,1.5E1,9E0,4E0,3E0,3.7E1,2.7E1,2.68E2,8E0,6.67E2,1E0,1E0],"tree_param":{"num_deleted":"0","num_feature":"42","num_nodes":"43","size_leaf_vector":"0"}},{"base_weights":[5.2910345E-3,-1.4105512E-1,3.1063946E-2,2.3567373E-1,-2.4757245E-1,3.6200756E-1,3.6117358E-3,-1.6742538E-1,9.617279E-1,-3.9649144E-1,1.5094519E-1,-1.3306554E-1,9.540652E-1,8.205555E-2,-1.1664827E-1,2.1282874E-1,-6.3616467E-1,1.2555313E0,-1.321248E-2,-7.449243E-1,-1.1414065E-1,-2.2355181E-1,8.873604E-1,1.0888534E0,-6.5199274E-1,1.1663305E0,-1.6013949E-1,3.1599617E0,6.378932E-2,-7.843147E-2,-1.2317022E0,2.514422E-3,4.2278385E-1,-2.4596763E-1,-8.239962E-1,6.1636925E-2,1.3813376E0,1.9093293E-1,-1.4490525E-1,-2.081605E0,-5.014519E-1,1.2666388E0,-3.9397871E-1,4.0912375E-2,-6.688713E-1,3.734101E-1,1.8219085E0,3.0358425E-1,1.2155488E0,-1.740226E0,4.9260557E-2,1.8372215E0,6.636168E-1,-2.6211512E-1,2.9207865E-2,4.9936853E-2,2.3882105E0,-2.0337798E-2,-6.470716E-1,-1.8269571E0,-4.311637E-1,2.335952E-1,-1.1344504E-1,-9.5994316E-2,-3.1395173E-1,-4.1072237E-1,-1.031271E0,7.10438E-1,1.5983812E0,-2.3556675E-1,1.8208861E-2,-8.00184E-1,2.5022876E-1,4.2642206E-1,2.8049316E0,-1.2817909E0,-1.2906155E-1,-4.670988E-1,3.9242896E-1,-1.0506096E0,7.0953965E-2,-2.746993E-1,5.97827E-1,5.059409E-1,2.0919173E0,-2.788961E-1,7.342725E-1,-2.1703207E0,-1.0200936E0,-1.7549771E-1,1.9350755E0,-1.419146E-1,2.2927978E0,-1.2020739E-1,1.0002275E0,-4.4883728E-2,-3.1956434E-1,6.94685E-2,-2.56567E-2,-1.2152875E-2,3.8226882E-1,-4.1026983E-1,5.334551E-2,-8.363036E-1,-2.214551E-2,-7.2815824E-1,-2.6830366E0,1.5848478E-2,-6.586319E-1],"categories":[],"categories_nodes":[],"categories_segments":[],"categories_sizes":[],"default_left":[true,true,true,true,true,true,true,true,true,true,true,true,true,true,true,true,true,true,true,true,true,true,true,true,true,true,true,false,true,true,true,true,false,true,true,false,true,false,true,false,true,true,true,true,true,true,true,true,false,true,true,true,true,true,true,true,false,true,true,true,true,false,false,false,false,false,false,false,false,false,false,false,false,false,false,false,false,false,false,false,false,false,false,false,false,false,false,false,false,false,false,false,false,false,false,false,false,false,false,false,false,false,false,false,false,false,false,false,false],"id":21,"left_children":[1,3,5,7,9,11,13,15,17,19,21,23,25,27,29,31,33,35,37,39,41,43,45,47,49,51,53,-1,55,57,59,61,-1,63,65,-1,67,-1,69,-1,71,73,75,77,79,81,83,85,-1,87,89,91,93,95,97,99,-1,101,103,105,107,-1,-1,-1,-1,-1,-1,-1,-1,-1,-1,-1,-1,-1,-1,-1,-1,-1,-1,-1,-1,-1,-1,-1,-1,-1,-1,-1,-1,-1,-1,-1,-1,-1,-1,-1,-1,-1,-1,-1,-1,-1,-1,-1,-1,-1,-1,-1,-1],"loss_changes":[4.055259E0,6.518979E0,8.302505E0,1.0697203E1,7.5375495E0,2.064478E1,7.9810085E0,4.413155E0,3.7403193E0,8.9659605E0,9.850856E0,2.5439316E1,7.754999E0,2.858395E1,1.41364E1,6.1712885E-1,6.0352755E-1,1.4168539E0,1.3520509E-1,1.22994175E1,2.059155E1,2.85387E0,5.083416E0,8.2485867E-1,2.1453283E1,7.886978E0,1.2350874E-1,0E0,1.6302212E1,1.0689983E1,4.454052E0,2.4086826E-1,0E0,2.084142E-2,