{"learner":{"attributes":{"scikit_learn":"{\"n_estimators\": 100, \"objective\": \"reg:squarederror\", \"max_depth\": null, \"learning_rate\": null, \"verbosity\": null, \"booster\": null, \"tree_method\": null, \"gamma\": null, \"min_child_weight\": null, \"max_delta_step\": null, \"subsample\": null, \"colsample_bytree\": null, \"colsample_bylevel\": null, \"colsample_bynode\": null, \"reg_alpha\": null, \"reg_lambda\": null, \"scale_pos_weight\": null, \"base_score\": null, \"missing\": NaN, \"num_parallel_tree\": null, \"kwargs\": {}, \"random_state\": null, \"n_jobs\": null, \"monotone_constraints\": null, \"interaction_constraints\": null, \"importance_type\": \"gain\", \"gpu_id\": null, \"validate_parameters\": null, \"n_features_in_\": 42, \"type\": \"XGBRegressor\"}"},"gradient_booster":{"model":{"gbtree_model_param":{"num_trees":"100","size_leaf_vector":"0"},"tree_info":[0,0,0,0,0,0,0,0,0,0,0,0,0,0,0,0,0,0,0,0,0,0,0,0,0,0,0,0,0,0,0,0,0,0,0,0,0,0,0,0,0,0,0,0,0,0,0,0,0,0,0,0,0,0,0,0,0,0,0,0,0,0,0,0,0,0,0,0,0,0,0,0,0,0,0,0,0,0,0,0,0,0,0,0,0,0,0,0,0,0,0,0,0,0,0,0,0,0,0,0],"trees":[{"base_weights":[9.439483E0,1.2654094E1,7.9227705E0,1.39466715E1,9.176372E0,6.9982834E0,1.1060466E1,1.1228329E1,1.4850269E1,1.0102125E1,6.125443E0,4.583085E0,7.9227395E0,9.778501E0,1.4317119E1,8.109952E0,1.2163784E1,7.2785954E0,1.5132873E1,5.7475996E0,1.0416341E1,4.071237E0,7.7725253E0,2.0535185E0,6.3568377E0,8.345492E0,2.1192513E0,7.758862E0,1.1168246E1,1.7297503E1,9.388799E0,1.2524868E1,5.963355E0,1.5566247E1,9.868419E0,8.258659E0,1.189377E1,4.1215096E0,-1.0478107E0,4.637288E0,9.286899E0,1.0213433E1,7.345454E0,-2.0159714E-2,5.449464E0,8.64343E0,5.120716E0,1.1831175E1,7.068246E0,1.5668857E1,6.2389073E0,3.2718089E0,6.6887546E0,-2.6672363E0,1.5877192E0,5.722621E0,2.3215268E0,9.749478E0,2.4906204E0,6.3497634E0,1.1031238E1,5.676861E0,9.007129E0,9.685434E-1,-2.9812293E0,2.7281222E0,7.0809126E0,1.3552744E1,9.4153185E0],"categories":[],"categories_nodes":[],"categories_segments":[],"categories_sizes":[],"default_left":[true,true,true,true,true,true,true,true,true,true,true,true,true,true,true,false,true,false,true,false,true,false,false,true,true,true,true,true,true,false,false,false,false,true,false,false,false,true,true,true,true,true,true,true,true,false,false,true,false,false,false,false,false,false,false,false,false,false,false,false,false,false,false,false,false,false,false,false,false],"id":0,"left_children":[1,3,5,7,9,11,13,15,17,19,21,23,25,27,29,-1,31,-1,33,-1,35,-1,-1,37,39,41,43,45,47,-1,-1,-1,-1,49,-1,-1,-1,51,53,55,57,59,61,63,65,-1,-1,67,-1,-1,-1,-1,-1,-1,-1,-1,-1,-1,-1,-1,-1,-1,-1,-1,-1,-1,-1,-1,-1],"loss_changes":[3.9709062E3,1.06775E3,1.5760273E3,3.0486328E2,1.499502E2,9.527969E2,3.9438965E2,5.3041504E1,1.915625E2,1.6753906E1,3.6025146E1,5.477993E2,7.6496094E2,1.7999121E2,3.3699902E2,0E0,1.0387207E1,0E0,1.5438672E2,0E0,6.435254E1,0E0,0E0,3.442352E2,3.2473633E2,4.7977734E2,1.6397781E2,5.3751465E1,6.3146484E1,0E0,0E0,0E0,0E0,1.996289E1,0E0,0E0,0E0,4.7920166E1,9.813179E1,1.0735669E2,5.7457275E1,2.4908691E2,4.9508203E2,4.680173E1,2.0639954E1,0E0,0E0,5.9554688E1,0E0,0E0,0E0,0E0,0E0,0E0,0E0,0E0,0E0,0E0,0E0,0E0,0E0,0E0,0E0,0E0,0E0,0E0,0E0,0E0,0E0],"parents":[2147483647,0,0,1,1,2,2,3,3,4,4,5,5,6,6,7,7,8,8,9,9,10,10,11,11,12,12,13,13,14,14,16,16,18,18,20,20,23,23,24,24,25,25,26,26,27,27,28,28,33,33,37,37,38,38,39,39,40,40,41,41,42,42,43,43,44,44,47,47],"right_children":[2,4,6,8,10,12,14,16,18,20,22,24,26,28,30,-1,32,-1,34,-1,36,-1,-1,38,40,42,44,46,48,-1,-1,-1,-1,50,-1,-1,-1,52,54,56,58,60,62,64,66,-1,-1,68,-1,-1,-1,-1,-1,-1,-1,-1,-1,-1,-1,-1,-1,-1,-1,-1,-1,-1,-1,-1,-1],"split_conditions":[5.159875E1,3.25E1,2.5E0,2.1528374E3,4.3541667E-1,1.031E4,1.03245E4,5.125907E1,7.3865356E2,3.5006668E1,5.125907E1,3.75E0,5.221472E1,3.637861E1,3.38E1,2.4329858E0,3.6E1,2.1835787E0,3.5755833E1,1.72428E0,5.125907E1,1.2213712E0,2.3317578E0,3.395E1,9.9760044E-1,5E-1,3.375E1,3.5711525E1,3.8096664E1,5.189251E0,2.8166397E0,3.7574606E0,1.7890066E0,2.090958E1,2.9605258E0,2.477598E0,3.5681312E0,3.6181664E1,3.4921849E0,3.12E1,5.2394722E1,1.03135E4,1.5E0,7.294E2,7.479E2,2.593029E0,1.536215E0,3.36E1,2.1204739E0,4.7006574E0,1.8716723E0,9.815427E-1,2.0066264E0,-8.0017096E-1,4.7631577E-1,1.7167864E0,6.9645804E-1,2.9248435E0,7.471861E-1,1.904929E0,3.3093715E0,1.7030584E0,2.7021387E0,2.9056305E-1,-8.943688E-1,8.184367E-1,2.1242738E0,4.0658236E0,2.8245957E0],"split_indices":[34,26,41,19,17,33,33,38,8,36,38,28,34,36,3,0,3,0,37,0,38,0,0,3,16,41,3,36,36,0,0,0,0,7,0,0,0,36,12,26,34,33,41,2,4,0,0,3,0,0,0,0,0,0,0,0,0,0,0,0,0,0,0,0,0,0,0,0,0],"split_type":[0,0,0,0,0,0,0,0,0,0,0,0,0,0,0,0,0,0,0,0,0,0,0,0,0,0,0,0,0,0,0,0,0,0,0,0,0,0,0,0,0,0,0,0,0,0,0,0,0,0,0,0,0,0,0,0,0,0,0,0,0,0,0,0,0,0,0,0,0],"sum_hessian":[8.34E2,2.65E2,5.69E2,1.91E2,7.4E1,4.42E2,1.27E2,5.1E1,1.4E2,5.5E1,1.9E1,1.24E2,3.18E2,9.4E1,3.3E1,1.4E1,3.7E1,6E0,1.34E2,5E0,5E1,1E1,9E0,5.2E1,7.2E1,2.96E2,2.2E1,4.1E1,5.3E1,1.9E1,1.4E1,3.4E1,3E0,1.22E2,1.2E1,2.3E1,2.7E1,3.1E1,2.1E1,4.7E1,2.5E1,1E2,1.96E2,1.4E1,8E0,2.9E1,1.2E1,4.4E1,9E0,1.2E2,2E0,2.5E1,6E0,1.3E1,8E0,3.1E1,1.6E1,2.3E1,2E0,1.9E1,8.1E1,1E2,9.6E1,1.1E1,3E0,4E0,4E0,2.3E1,2.1E1],"tree_param":{"num_deleted":"0","num_feature":"42","num_nodes":"69","size_leaf_vector":"0"}},{"base_weights":[6.694911E0,8.974478E0,5.619367E0,6.6255603E0,9.913787E0,4.8733506E0,7.9871006E0,4.7694116E0,7.7249603E0,1.1255714E1,8.593714E0,3.7282717E0,6.1221175E0,6.869611E0,1.0142144E1,3.291968E0,5.735647E0,4.3106995E0,8.021719E0,1.3322625E1,9.698178E0,6.0947533E0,9.355596E0,5.2864833E0,2.2044907E0,6.3945727E0,2.7008796E0,1.2253598E0,7.392571E0,1.2043719E1,8.853285E0,4.123885E0,1.0425181E1,4.120835E0,6.743115E0,5.4069567E0,9.624491E0,1.6619558E0,5.741052E0,3.3724883E0,4.3090084E-1,5.110252E0,7.0790634E0,3.0946658E0,1.1368594E0,-6.9646484E-1,1.8739475E0,9.246477E-1,7.704409E0,4.69041E0,7.910514E-2,6.458857E0,1.0944825E1,1.0018681E1,6.671078E0,2.9758928E0,-1.2983093E0,4.521068E0,6.51221E0,2.8289216E0,5.809281E0,-7.122203E-1,2.3756704E0,6.100514E0,4.0621667E0,6.264468E0,8.652061E0,2.807162E-1,1.6140494E0,1.2968825E1,7.021947E0],"categories":[],"categories_nodes":[],"categories_segments":[],"categories_sizes":[],"default_left":[true,true,true,true,true,true,true,true,true,true,true,true,true,true,true,false,false,false,false,false,true,true,true,true,true,true,true,true,true,false,false,true,true,false,false,false,true,true,true,true,true,true,true,false,true,false,false,false,true,false,false,false,false,false,false,false,false,false,false,false,false,false,false,false,false,false,false,false,false,false,false],"id":1,"left_children":[1,3,5,7,9,11,13,15,17,19,21,23,25,27,29,-1,-1,-1,-1,-1,31,33,35,37,39,41,43,45,47,-1,-1,49,51,-1,-1,-1,53,55,57,59,61,63,65,-1,67,-1,-1,-1,69,-1,-1,-1,-1,-1,-1,-1,-1,-1,-1,-1,-1,-1,-1,-1,-1,-1,-1,-1,-1,-1,-1],"loss_changes":[1.9968008E3,5.2120703E2,9.6790625E2,1.2436792E2,2.3630273E2,6.006279E2,2.5544043E2,2.6800354E1,1.40546875E1,1.6053027E2,1.3146729E2,5.344519E2,1.7568066E2,2.624995E2,1.2114258E0,0E0,0E0,0E0,0E0,0E0,1.7989697E2,5.487854E0,2.6532227E1,1.766372E2,2.429895E2,1.317334E2,6.951927E0,1.2523387E1,1.622998E2,0E0,0E0,1.7960709E1,2.8240723E1,0E0,0E0,0E0,1.2330566E1,5.8318054E1,6.463794E1,7.760974E1,1.0840115E2,4.787024E1,1.02125E2,0E0,1.5896249E0,0E0,0E0,0E0,1.9635449E2,0E0,0E0,0E0,0E0,0E0,0E0,0E0,0E0,0E0,0E0,0E0,0E0,0E0,0E0,0E0,0E0,0E0,0E0,0E0,0E0,0E0,0E0],"parents":[2147483647,0,0,1,1,2,2,3,3,4,4,5,5,6,6,7,7,8,8,9,9,10,10,11,11,12,12,13,13,14,14,20,20,21,21,22,22,23,23,24,24,25,25,26,26,27,27,28,28,31,31,32,32,36,36,37,37,38,38,39,39,40,40,41,41,42,42,44,44,48,48],"right_children":[2,4,6,8,10,12,14,16,18,20,22,24,26,28,30,-1,-1,-1,-1,-1,32,34,36,38,40,42,44,46,48,-1,-1,50,52,-1,-1,-1,54,56,58,60,62,64,66,-1,68,-1,-1,-1,70,-1,-1,-1,-1,-1,-1,-1,-1,-1,-1,-1,-1,-1,-1,-1,-1,-1,-1,-1,-1,-1,-1],"split_conditions":[5.159875E1,1.8499999E0,1.03245E4,5.125907E1,1.6186695E0,1.5E0,4.115E0,7.434791E2,5.1454166E1,3.3199997E1,5.1454166E1,5E-1,1.03235E4,1.6705515E0,3.29E1,9.875905E-1,1.7206942E0,1.2932099E0,2.4065158E0,3.9967878E0,3.5006668E1,1.9101482E1,7.387788E2,6.287021E-1,5.1599304E1,6.060782E1,7.033788E-1,2.8000002E0,6.8000626E1,3.613116E0,2.6559856E0,5.7E0,7.409999E2,1.2362505E0,2.0229347E0,1.6220871E0,3.606375E1,3.8396248E1,3.5637917E1,1.22E2,3.6405E1,7.13314E-1,1.11E2,9.2839974E-1,5E-1,-2.0893946E-1,5.621843E-1,2.7739432E-1,1.86E2,1.4071231E0,2.3731543E-2,1.9376572E0,3.2834477E0,3.0056043E0,2.0013235E0,8.9276785E-1,-3.894928E-1,1.3563205E0,1.953663E0,8.486765E-1,1.7427844E0,-2.136661E-1,7.1270114E-1,1.8301543E0,1.2186501E0,1.8793405E0,2.5956185E0,8.4214866E-2,4.8421484E-1,3.8906476E0,2.106584E0],"split_indices":[34,0,33,38,23,41,1,8,34,3,34,41,33,12,3,0,0,0,0,0,36,7,8,23,35,11,25,0,15,0,0,0,8,0,0,0,37,36,37,40,36,25,40,0,32,0,0,0,20,0,0,0,0,0,0,0,0,0,0,0,0,0,0,0,0,0,0,0,0,0,0],"split_type":[0,0,0,0,0,0,0,0,0,0,0,0,0,0,0,0,0,0,0,0,0,0,0,0,0,0,0,0,0,0,0,0,0,0,0,0,0,0,0,0,0,0,0,0,0,0,0,0,0,0,0,0,0,0,0,0,0,0,0,0,0,0,0,0,0,0,0,0,0,0,0],"sum_hessian":[8.34E2,2.65E2,5.69E2,7.8E1,1.87E2,4.35E2,1.34E2,3.1E1,4.7E1,8.9E1,9.8E1,2.29E2,2.06E2,9.1E1,4.3E1,1.4E1,1.7E1,5E0,4.2E1,3.5E1,5.4E1,2.5E1,7.3E1,1.12E2,1.17E2,1.9E2,1.6E1,8E0,8.3E1,1.4E1,2.9E1,7E0,4.7E1,8E0,1.7E1,6E0,6.7E1,1.3E1,9.9E1,7E1,4.7E1,6.9E1,1.21E2,1.2E1,4E0,2E0,6E0,4E0,7.9E1,6E0,1E0,7E0,4E1,5.7E1,1E1,9E0,4E0,4.1E1,5.8E1,5.9E1,1.1E1,3E1,1.7E1,3.3E1,3.6E1,8.3E1,3.8E1,2E0,2E0,7E0,7.2E1],"tree_param":{"num_deleted":"0","num_feature":"42","num_nodes":"71","size_leaf_vector":"0"}},{"base_weights":[4.7532234E0,6.224098E0,3.8994193E0,7.056417E0,4.8821373E0,3.2818983E0,5.6865034E0,8.989356E0,6.5488524E0,5.451252E0,3.216554E0,3.9875686E0,2.067713E0,4.94039E0,7.396413E0,8.080349E0,5.904564E0,5.8894095E0,3.95692E0,2.1966057E0,4.8184133E0,5.3420134E0,3.6723375E0,2.8822575E0,3.1069842E-1,8.514305E0,4.3356695E0,7.7890697E0,4.4886875E0,3.280778E0,8.64027E0,4.310955E0,6.475335E0,6.3311253E0,4.3597717E0,1.6753733E0,4.349068E0,2.4108129E0,6.2996966E-1,5.5702987E0,2.8925046E-1,3.2215924E0,4.690968E0,3.0886846E0,-9.009534E-1,8.03217E-1,-1.9127951E0,5.231927E0,2.424554E0,9.794214E0,5.4200344E0,4.7846136E0,7.962774E-1,6.943821E0,4.501922E0,6.5004444E0,2.8011725E0,3.0056458E0,5.142508E0,5.36793E0,3.1200838E0,1.153313E0,7.108418E-2,5.6389856E0,1.3427243E0,3.3004224E0,-1.6361128E0,3.6930504E0,5.479923E0,6.883575E-1,3.329082E0,-2.144233E-1,-2.166802E0,-1.4003328E0,1.4881293E0,-3.1715157E0,-2.7151555E-1,6.5985286E-1,5.6588597E0,4.1620436E0,1.1315303E0],"categories":[],"categories_nodes":[],"categories_segments":[],"categories_sizes":[],"default_left":[true,true,true,true,true,true,true,false,true,true,true,true,true,true,true,true,true,true,true,true,false,true,true,true,true,false,true,false,false,false,true,true,true,true,true,false,true,false,true,true,false,true,true,true,true,true,true,true,true,false,false,false,false,false,false,false,false,false,false,false,false,false,false,false,false,false,false,false,false,false,false,false,false,false,false,false,false,false,false,false,false],"id":2,"left_children":[1,3,5,7,9,11,13,-1,15,17,19,21,23,25,27,29,31,33,35,37,-1,39,41,43,45,-1,47,-1,-1,-1,49,51,53,55,57,-1,59,-1,61,63,-1,65,67,69,71,73,75,77,79,-1,-1,-1,-1,-1,-1,-1,-1,-1,-1,-1,-1,-1,-1,-1,-1,-1,-1,-1,-1,-1,-1,-1,-1,-1,-1,-1,-1,-1,-1,-1,-1],"loss_changes":[1.0243555E3,3.0621582E2,5.673291E2,1.2361328E2,9.621484E1,3.3191016E2,1.3568994E2,0E0,1.0128418E2,3.431421E1,4.3331726E1,8.712305E1,2.1091711E2,1.7272314E2,9.565186E0,8.452344E1,7.213989E1,1.69917E1,1.329187E1,5.864128E0,0E0,5.0295044E1,7.947119E1,8.1659485E1,5.4101757E1,0E0,1.3290735E2,0E0,0E0,0E0,8.4406006E1,4.946234E1,4.1776123E1,1.1077881E1,3.6220703E0,0E0,7.042755E0,0E0,1.0879737E0,4.914673E0,0E0,6.1308105E1,2.778833E1,5.3103516E1,4.749646E0,6.245341E1,1.7732094E1,1.075282E2,6.0442368E1,0E0,0E0,0E0,0E0,0E0,0E0,0E0,0E0,0E0,0E0,0E0,0E0,0E0,0E0,0E0,0E0,0E0,0E0,0E0,0E0,0E0,0E0,0E0,0E0,0E0,0E0,0E0,0E0,0E0,0E0,0E0,0E0],"parents":[2147483647,0,0,1,1,2,2,3,3,4,4,5,5,6,6,8,8,9,9,10,10,11,11,12,12,13,13,14,14,15,15,16,16,17,17,18,18,19,19,21,21,22,22,23,23,24,24,26,26,30,30,31,31,32,32,33,33,34,34,36,36,38,38,39,39,41,41,42,42,43,43,44,44,45,45,46,46,47,47,48,48],"right_children":[2,4,6,8,10,12,14,-1,16,18,20,22,24,26,28,30,32,34,36,38,-1,40,42,44,46,-1,48,-1,-1,-1,50,52,54,56,58,-1,60,-1,62,64,-1,66,68,70,72,74,76,78,80,-1,-1,-1,-1,-1,-1,-1,-1,-1,-1,-1,-1,-1,-1,-1,-1,-1,-1,-1,-1,-1,-1,-1,-1,-1,-1,-1,-1,-1,-1,-1,-1],"split_conditions":[5.14675E1,3.435E1,1.03245E4,2.695E1,5E-2,3.1349998E1,4.59E0,2.696807E0,5E-1,5.2E0,7.75E1,5.1755974E1,1.5E0,7E1,3.4096103E0,3.5006668E1,5.1454166E1,7.575E2,1.03025E4,5.1699585E1,1.445524E0,7.8E0,3.1844468E0,1.03235E4,3.8396248E1,2.5542917E0,1.0429304E0,2.336721E0,1.3466063E0,9.8423344E-1,3.554861E1,1.03095E4,8.15E1,2.0679045E1,5.125907E1,5.02612E-1,5.119639E1,7.232439E-1,5E-1,7.2019005E1,8.677514E-2,7.3755E2,3.637861E1,1.7899292E0,1.4E0,3.495111E1,5E-1,1.9150002E1,3.005E1,2.9382644E0,1.6260104E0,1.4353842E0,2.3888323E-1,2.0831463E0,1.3505766E0,1.9501334E0,8.4035176E-1,9.0169376E-1,1.5427525E0,1.6103791E0,9.360252E-1,3.4599394E-1,2.1325255E-2,1.6916958E0,4.028173E-1,9.901268E-1,-4.9083385E-1,1.1079152E0,1.6439769E0,2.0650725E-1,9.9872464E-1,-6.4326994E-2,-6.500406E-1,-4.2009985E-1,4.464388E-1,-9.5145476E-1,-8.1454664E-2,1.9795586E-1,1.697658E0,1.2486131E0,3.394591E-1],"split_indices":[38,3,33,26,17,26,1,0,41,0,40,34,1,29,10,36,34,4,33,34,0,0,10,33,36,0,16,0,0,0,37,33,29,7,38,0,35,0,32,11,0,2,36,12,0,37,32,27,26,0,0,0,0,0,0,0,0,0,0,0,0,0,0,0,0,0,0,0,0,0,0,0,0,0,0,0,0,0,0,0,0],"split_type":[0,0,0,0,0,0,0,0,0,0,0,0,0,0,0,0,0,0,0,0,0,0,0,0,0,0,0,0,0,0,0,0,0,0,0,0,0,0,0,0,0,0,0,0,0,0,0,0,0,0,0,0,0,0,0,0,0,0,0,0,0,0,0,0,0,0,0,0,0,0,0,0,0,0,0,0,0,0,0,0,0],"sum_hessian":[8.34E2,3.04E2,5.3E2,1.85E2,1.19E2,3.96E2,1.34E2,3.5E1,1.5E2,8.7E1,3.2E1,2.49E2,1.47E2,9.6E1,3.8E1,4.1E1,1.09E2,6.5E1,2.2E1,2.1E1,1.1E1,4.4E1,2.05E2,1E2,4.7E1,1.2E1,8.4E1,3.2E1,6E0,5E0,3.6E1,3.1E1,7.8E1,4.8E1,1.7E1,4E0,1.8E1,1.8E1,3E0,4.2E1,2E0,1.45E2,6E1,9.5E1,5E0,3.9E1,8E0,5.6E1,2.8E1,2.5E1,1.1E1,2.7E1,4E0,6.1E1,1.7E1,4.5E1,3E0,8E0,9E0,8E0,1E1,1E0,2E0,4.1E1,1E0,1.43E2,2E0,2.9E1,3.1E1,9E0,8.6E1,4E0,1E0,9E0,3E1,4E0,4E0,5E0,5.1E1,1.1E1,1.7E1],"tree_param":{"num_deleted":"0","num_feature":"42","num_nodes":"81","size_leaf_vector":"0"}},{"base_weights":[3.373737E0,4.4361258E0,2.7571604E0,5.5114446E0,3.915829E0,2.3097136E0,4.052562E0,6.199251E0,4.054648E0,4.3131094E0,2.6334035E0,1.6634054E0,3.019368E0,3.4783583E0,5.6559796E0,7.274365E0,4.896814E0,5.7570586E0,3.4000576E0,3.785851E0,5.4425373E0,3.451749E0,1.9182249E0,2.5341892E0,8.332829E-1,4.7511683E0,2.7491708E0,8.437464E0,3.1898494E0,7.068344E0,3.395762E0,4.327064E0,7.9014435E0,5.7166467E0,2.8119833E0,3.589021E0,1.4162629E0,4.111993E0,2.4994433E0,6.7878222E0,4.043149E0,2.0772955E0,3.8146567E0,2.6871998E0,1.5164523E0,6.527744E-1,2.9027925E0,1.5715266E0,-1.3764204E-1,2.5182378E0,5.9230437E0,2.0477343E0,3.524218E0,-6.587821E-1,3.5392697E0,3.682496E0,1.0213267E0,1.1471831E0,5.195827E0,6.321096E0,3.518384E0,2.9654026E0,6.3889503E-1,2.299005E0,4.344149E0,2.6000326E0,4.265046E-2,2.5346134E0,7.2990727E0,3.0165257E0,4.989499E0,9.055951E-1,2.3648565E0,1.7256489E0,1.0225406E0,1.7465024E0,-1.3154413E0,-6.4399695E-1,3.0404067E0,9.428394E-1,2.844628E0,-9.1017115E-1,1.2004715E0,1.1201408E0,3.2636123E0,6.2082143E0,9.653268E-1,2.7853203E0,1.1560234E0,2.4378445E0,4.242576E0,-7.8906757E-1,-1.3518874E-1,3.6182587E0,-1.7453701E0],"categories":[],"categories_nodes":[],"categories_segments":[],"categories_sizes":[],"default_left":[true,true,true,true,true,true,true,true,true,true,true,true,true,true,true,true,true,false,true,true,true,true,true,true,true,true,true,false,true,false,true,true,false,true,true,false,false,true,true,true,true,true,false,false,true,true,true,true,true,true,true,true,true,true,true,false,false,false,false,false,false,false,false,false,false,false,false,false,false,false,false,false,false,false,false,false,false,false,false,false,false,false,false,false,false,false,false,false,false,false,false,false,false,false,false],"id":3,"left_children":[1,3,5,7,9,11,13,15,17,19,21,23,25,27,29,31,33,-1,35,37,39,41,43,45,47,49,51,-1,53,-1,55,57,-1,59,61,-1,-1,63,65,67,69,71,-1,-1,73,75,77,79,81,83,85,87,89,91,93,-1,-1,-1,-1,-1,-1,-1,-1,-1,-1,-1,-1,-1,-1,-1,-1,-1,-1,-1,-1,-1,-1,-1,-1,-1,-1,-1,-1,-1,-1,-1,-1,-1,-1,-1,-1,-1,-1,-1,-1],"loss_changes":[5.3473047E2,1.4906152E2,2.9841968E2,7.205786E1,9.512378E1,1.7706396E2,1.04619385E2,5.399585E1,1.8314636E1,7.348413E1,2.3812439E1,1.4968835E2,7.490857E1,1.1902185E2,8.453418E1,2.680017E1,3.861969E1,0E0,5.03833E0,3.629248E1,6.2919434E1,3.5482178E0,5.1935806E0,6.8841675E1,7.834525E1,4.788556E1,8.2484985E1,0E0,1.3412115E2,0E0,6.4514313E0,1.6139938E1,0E0,6.9922485E0,1.7727509E0,0E0,0E0,2.6630737E1,6.067276E0,3.1512085E1,1.02092285E1,2.1694565E-1,0E0,0E0,5.085945E-1,4.1045887E1,4.3445557E1,4.6941696E1,5.071176E1,6.765354E0,1.5213989E1,5.531662E1,4.9748474E1,5.072768E-1,4.3883667E1,0E0,0E0,0E0,0E0,0E0,0E0,0E0,0E0,0E0,0E0,0E0,0E0,0E0,0E0,0E0,0E0,0E0,0E0,0E0,0E0,0E0,0E0,0E0,0E0,0E0,0E0,0E0,0E0,0E0,0E0,0E0,0E0,0E0,0E0,0E0,0E0,0E0,0E0,0E0,0E0],"parents":[2147483647,0,0,1,1,2,2,3,3,4,4,5,5,6,6,7,7,8,8,9,9,10,10,11,11,12,12,13,13,14,14,15,15,16,16,18,18,19,19,20,20,21,21,22,22,23,23,24,24,25,25,26,26,28,28,30,30,31,31,33,33,34,34,37,37,38,38,39,39,40,40,41,41,44,44,45,45,46,46,47,47,48,48,49,49,50,50,51,51,52,52,53,53,54,54],"right_children":[2,4,6,8,10,12,14,16,18,20,22,24,26,28,30,32,34,-1,36,38,40,42,44,46,48,50,52,-1,54,-1,56,58,-1,60,62,-1,-1,64,66,68,70,72,-1,-1,74,76,78,80,82,84,86,88,90,92,94,-1,-1,-1,-1,-1,-1,-1,-1,-1,-1,-1,-1,-1,-1,-1,-1,-1,-1,-1,-1,-1,-1,-1,-1,-1,-1,-1,-1,-1,-1,-1,-1,-1,-1,-1,-1,-1,-1,-1,-1],"split_conditions":[5.14675E1,3.315E1,1.03245E4,3.5616604E1,9.95E1,1.5E0,2.5E0,5E-1,3.54625E2,7.75E1,3.5172638E1,5E-1,3.5427223E1,1.2206071E1,3.38E1,2E0,1.0316E4,1.7271177E0,3.3586788E0,1.05E0,5E-1,1.03065E4,6.612512E1,6.430113E-2,5.1599304E1,1.95E0,2.5E0,2.5312393E0,4.559914E-1,2.1205034E0,7.3495E2,5.1454166E1,2.370433E0,2.41E1,1.9978493E1,1.0767063E0,4.2487887E-1,3.5714286E-3,7.3605005E2,7.392544E2,1.5E0,3.45E1,1.144397E0,8.0616E-1,3.6463753E1,5.1614166E1,6.25E1,1.045E2,3.6405E1,7.534E2,7.57E2,5.1599304E1,3.637861E1,3.4E0,3.0832477E0,1.1047488E0,3.06398E-1,3.4415492E-1,1.5587481E0,1.8963288E0,1.0555153E0,8.8962084E-1,1.9166853E-1,6.8970156E-1,1.3032448E0,7.800098E-1,1.2795139E-2,7.60384E-1,2.1897218E0,9.049578E-1,1.4968498E0,2.7167854E-1,7.09457E-1,5.176947E-1,3.067622E-1,5.2395076E-1,-3.946324E-1,-1.931991E-1,9.121221E-1,2.8285182E-1,8.533885E-1,-2.7305135E-1,3.6014146E-1,3.3604226E-1,9.790837E-1,1.8624643E0,2.8959805E-1,8.3559614E-1,3.4680703E-1,7.313534E-1,1.2727729E0,-2.3672028E-1,-4.0556625E-2,1.0854777E0,-5.2361107E-1],"split_indices":[38,3,33,39,5,41,41,32,21,40,37,41,36,7,3,0,33,0,10,6,32,33,11,24,35,28,41,0,25,0,2,34,0,27,7,0,0,17,2,8,41,3,0,0,36,35,40,40,36,4,4,35,36,0,16,0,0,0,0,0,0,0,0,0,0,0,0,0,0,0,0,0,0,0,0,0,0,0,0,0,0,0,0,0,0,0,0,0,0,0,0,0,0,0,0],"split_type":[0,0,0,0,0,0,0,0,0,0,0,0,0,0,0,0,0,0,0,0,0,0,0,0,0,0,0,0,0,0,0,0,0,0,0,0,0,0,0,0,0,0,0,0,0,0,0,0,0,0,0,0,0,0,0,0,0,0,0,0,0,0,0,0,0,0,0,0,0,0,0,0,0,0,0,0,0,0,0,0,0,0,0,0,0,0,0,0,0,0,0,0,0,0,0],"sum_hessian":[8.34E2,3.04E2,5.3E2,9.6E1,2.08E2,3.96E2,1.34E2,6.3E1,3.3E1,1.57E2,5.1E1,2.09E2,1.87E2,1.01E2,3.3E1,3.2E1,3.1E1,7E0,2.6E1,1.1E2,4.7E1,2.2E1,2.9E1,1.01E2,1.08E2,2.3E1,1.64E2,4E0,9.7E1,1.9E1,1.4E1,7E0,2.5E1,2.1E1,1E1,2.3E1,3E0,8.6E1,2.4E1,2.2E1,2.5E1,6E0,1.6E1,8E0,2.1E1,1.7E1,8.4E1,6.1E1,4.7E1,9E0,1.4E1,8.8E1,7.6E1,8E0,8.9E1,1.2E1,2E0,2E0,5E0,1.5E1,6E0,9E0,1E0,1.1E1,7.5E1,2.3E1,1E0,3E0,1.9E1,1.4E1,1.1E1,2E0,4E0,1.3E1,8E0,1.1E1,6E0,3E0,8.1E1,4.2E1,1.9E1,3E1,1.7E1,4E0,5E0,1.3E1,1E0,4.7E1,4.1E1,3.2E1,4.4E1,6E0,2E0,8.8E1,1E0],"tree_param":{"num_deleted":"0","num_feature":"42","num_nodes":"95","size_leaf_vector":"0"}},{"base_weights":[2.4077258E0,3.1821043E0,1.9583979E0,3.6338012E0,2.4554565E0,1.6387776E0,2.8838117E0,3.944038E0,2.6323774E0,3.2781732E0,2.1447935E0,8.8043493E-1,1.9486969E0,2.6585598E0,5.4336042E0,4.2298183E0,2.0178638E0,4.9235672E-1,2.9335423E0,5.33083E0,2.4573638E0,2.389545E0,1.226822E0,1.6897093E0,-3.1269554E-2,3.829555E0,1.7898972E0,2.1048553E0,3.839776E0,6.612826E0,2.9318173E0,4.497179E0,2.3296604E0,9.9851686E-1,3.1527858E0,1.5321599E0,-1.4047675E0,2.2037234E0,4.051647E0,2.1075602E0,6.0539937E0,2.5092847E0,6.315918E-1,-4.5030713E-1,2.4796922E0,1.3631269E0,7.594798E-1,9.9702555E-1,2.744916E0,7.8536147E-1,-1.1528343E0,5.04762E0,2.263349E0,1.4973685E0,2.5981424E0,2.3969126E0,-7.250821E-1,4.2020907E0,2.791909E0,5.884906E0,4.0133476E0,1.1613029E0,3.832842E0,1.4499694E0,-8.391641E-1,1.889678E0,2.9879355E0,3.6252856E-2,-7.1171355E-1,2.7526488E0,1.900101E0,8.1829274E-1,1.6354283E0,-5.3737957E-2,1.0955145E0,-1.00860335E-1,1.43194E0,3.4544644E0,2.0888894E0,1.1226135E-1,1.2754215E0,-2.7873406E0,-1.6137233E-1,2.7212152E0,1.353008E-1,1.7143444E0,3.868394E-1,2.8119278E0,8.842245E-1,-1.9853625E-1,2.648511E0,-3.7430185E-1,-1.3018752E0,4.4752307E0,2.105229E0],"categories":[],"categories_nodes":[],"categories_segments":[],"categories_sizes":[],"default_left":[true,true,true,true,true,true,true,true,true,true,true,true,true,true,true,true,true,true,true,true,true,true,true,true,true,true,true,true,true,false,false,true,true,true,false,false,false,true,false,false,false,false,false,true,true,true,true,true,true,true,true,false,true,true,true,true,true,true,false,false,false,false,false,false,false,false,false,false,false,false,false,false,false,false,false,false,false,false,false,false,false,false,false,false,false,false,false,false,false,false,false,false,false,false,false],"id":4,"left_children":[1,3,5,7,9,11,13,15,17,19,21,23,25,27,29,31,33,35,37,39,41,43,45,47,49,51,53,55,57,-1,-1,59,61,63,-1,-1,-1,65,-1,-1,-1,-1,-1,67,69,71,73,75,77,79,81,-1,83,85,87,89,91,93,-1,-1,-1,-1,-1,-1,-1,-1,-1,-1,-1,-1,-1,-1,-1,-1,-1,-1,-1,-1,-1,-1,-1,-1,-1,-1,-1,-1,-1,-1,-1,-1,-1,-1,-1,-1,-1],"loss_changes":[2.8430615E2,9.118579E1,1.5233374E2,4.7404297E1,2.3639526E1,9.158923E1,6.3091187E1,6.852954E1,2.8847107E1,3.913025E1,1.7289185E1,8.637766E1,7.707446E1,7.432745E1,1.0114014E1,5.0994385E1,1.998948E1,1.5960778E1,2.4527863E1,5.888443E0,6.902466E-1,1.9036957E1,3.024521E-1,4.258058E1,5.2196045E1,2.8638031E1,5.7819153E1,7.4470276E1,3.074829E0,0E0,0E0,4.688159E1,2.540522E1,1.1172271E1,0E0,0E0,0E0,1.0032654E0,0E0,0E0,0E0,0E0,0E0,4.073714E-1,5.5274963E0,8.8712883E-1,1.9717565E0,1.8766396E1,3.955597E0,1.074218E1,3.844342E1,0E0,1.0349789E1,4.608264E1,2.2429535E1,5.2766663E1,1.3336544E0,6.042511E0,0E0,0E0,0E0,0E0,0E0,0E0,0E0,0E0,0E0,0E0,0E0,0E0,0E0,0E0,0E0,0E0,0E0,0E0,0E0,0E0,0E0,0E0,0E0,0E0,0E0,0E0,0E0,0E0,0E0,0E0,0E0,0E0,0E0,0E0,0E0,0E0,0E0],"parents":[2147483647,0,0,1,1,2,2,3,3,4,4,5,5,6,6,7,7,8,8,9,9,10,10,11,11,12,12,13,13,14,14,15,15,16,16,17,17,18,18,19,19,20,20,21,21,22,22,23,23,24,24,25,25,26,26,27,27,28,28,31,31,32,32,33,33,37,37,43,43,44,44,45,45,46,46,47,47,48,48,49,49,50,50,52,52,53,53,54,54,55,55,56,56,57,57],"right_children":[2,4,6,8,10,12,14,16,18,20,22,24,26,28,30,32,34,36,38,40,42,44,46,48,50,52,54,56,58,-1,-1,60,62,64,-1,-1,-1,66,-1,-1,-1,-1,-1,68,70,72,74,76,78,80,82,-1,84,86,88,90,92,94,-1,-1,-1,-1,-1,-1,-1,-1,-1,-1,-1,-1,-1,-1,-1,-1,-1,-1,-1,-1,-1,-1,-1,-1,-1,-1,-1,-1,-1,-1,-1,-1,-1,-1,-1,-1,-1],"split_conditions":[5.14675E1,3.435E1,1.03245E4,3.554861E1,3.5172638E1,3.65E0,4.4786984E-1,3.3422666E0,5.141764E1,6.106832E1,9.95E1,3.365E1,2.436413E0,4.59E0,3.0717044E0,3.2E1,5.1503197E1,5.1E0,2.5E0,7.5005E2,7.5E0,1.855E1,1.03155E4,1.0311E4,5.1599304E1,3.495111E1,2.5E0,1.7289488E0,1.03265E4,1.9838479E0,8.795452E-1,5.8708706E0,5.1397324E1,7.3445E2,9.4583577E-1,4.5964798E-1,-4.2143026E-1,7.3365E2,1.2154942E0,6.322681E-1,1.8161982E0,7.5278544E-1,1.8947755E-1,1.75E0,3.595E1,7.529E2,1.0317E4,2.6050696E0,1.7083676E0,1.0318E4,3.5623886E1,1.514286E0,4.8E0,5.224389E1,1.03235E4,1.9150002E1,3.39E1,7.54E2,8.3757275E-1,1.7654718E0,1.2040043E0,3.4839088E-1,1.1498526E0,4.3499085E-1,-2.5174925E-1,5.669034E-1,8.963807E-1,1.0875857E-2,-2.1351407E-1,8.257947E-1,5.7003033E-1,2.4548782E-1,4.906285E-1,-1.6121387E-2,3.2865438E-1,-3.0258102E-2,4.29582E-1,1.0363394E0,6.2666684E-1,3.3678405E-2,3.8262647E-1,-8.362022E-1,-4.84117E-2,8.163646E-1,4.059024E-2,5.143033E-1,1.1605182E-1,8.435784E-1,2.6526734E-1,-5.9560876E-2,7.9455334E-1,-1.1229056E-1,-3.905626E-1,1.3425692E0,6.315687E-1],"split_indices":[38,3,33,37,37,28,14,10,34,11,5,3,10,1,10,26,34,0,41,4,0,27,33,33,35,37,41,16,33,0,0,18,38,2,0,0,0,2,0,0,0,0,0,0,26,4,33,10,16,33,36,0,0,34,33,27,3,4,0,0,0,0,0,0,0,0,0,0,0,0,0,0,0,0,0,0,0,0,0,0,0,0,0,0,0,0,0,0,0,0,0,0,0,0,0],"split_type":[0,0,0,0,0,0,0,0,0,0,0,0,0,0,0,0,0,0,0,0,0,0,0,0,0,0,0,0,0,0,0,0,0,0,0,0,0,0,0,0,0,0,0,0,0,0,0,0,0,0,0,0,0,0,0,0,0,0,0,0,0,0,0,0,0,0,0,0,0,0,0,0,0,0,0,0,0,0,0,0,0,0,0,0,0,0,0,0,0,0,0,0,0,0,0],"sum_hessian":[8.34E2,3.04E2,5.3E2,1.85E2,1.19E2,3.96E2,1.34E2,1.39E2,4.6E1,3E1,8.9E1,1.16E2,2.8E2,1.25E2,9E0,1.2E2,1.9E1,6E0,4E1,7E0,2.3E1,6.9E1,2E1,6.1E1,5.5E1,2E1,2.6E2,8.7E1,3.8E1,5E0,4E0,1.04E2,1.6E1,1.1E1,8E0,4E0,2E0,2.6E1,1.4E1,2E0,5E0,2.2E1,1E0,2E0,6.7E1,1.4E1,6E0,3.8E1,2.3E1,3.2E1,2.3E1,1E1,1E1,1.93E2,6.7E1,7.9E1,8E0,2.6E1,1.2E1,2.4E1,8E1,1E1,6E0,9E0,2E0,2.1E1,5E0,1E0,1E0,4.3E1,2.4E1,6E0,8E0,2E0,4E0,1.1E1,2.7E1,9E0,1.4E1,1.4E1,1.8E1,8E0,1.5E1,8E0,2E0,1.61E2,3.2E1,5.9E1,8E0,7E0,7.2E1,6E0,2E0,2.2E1,4E0],"tree_param":{"num_deleted":"0","num_feature":"42","num_nodes":"95","size_leaf_vector":"0"}},{"base_weights":[1.7160165E0,1.8247789E0,-2.804765E-2,1.600604E0,2.5652494E0,3.4615955E-1,-2.3762004E0,2.2269902E0,1.2865542E0,3.219107E0,2.1432898E0,5.7118934E-1,-1.1742275E0,-3.213077E0,-9.452736E-1,2.782961E0,1.7024603E0,1.9436679E0,1.00732E0,3.5544772E0,1.329892E0,2.6217706E0,1.7219278E0,1.5317541E-1,1.0503626E0,-1.8920418E0,-3.4230977E-1,5.6231966E0,2.3102703E0,1.8680025E0,1.02958746E-1,2.452443E0,1.3383123E0,3.3760133E-1,1.2921869E0,2.1276555E0,3.843145E0,6.193261E-1,2.5961924E0,2.9261198E0,8.763496E-1,-5.1296836E-1,1.8036124E0,-5.946639E-1,4.081084E-1,1.3302735E0,5.6539346E-2,-6.458526E-1,2.841594E-1,1.2751392E0,8.18134E0,3.367616E0,2.0316064E0,2.0572083E0,6.128534E-1,-4.282397E-1,1.6622344E0,2.0611413E0,3.270729E0,7.420321E-1,1.6919161E0,1.1896995E0,-1.0895984E-1,4.454812E0,1.2053578E0,3.1728303E0,-7.559012E-1,2.0964766E-1,3.9175763E0,8.0776227E-1,-2.6800314E-2,1.8417522E0,3.1989055E0,-1.3116229E-1,1.401966E0,1.5075387E0,2.5420988E0,-9.0373564E-1,1.5652975E-2,8.659652E-2,6.2450707E-1,1.4521049E0,3.995231E-1,-3.5288396E-1,4.4711623E-1],"categories":[],"categories_nodes":[],"categories_segments":[],"categories_sizes":[],"default_left":[true,true,true,true,true,true,true,true,true,true,true,true,true,false,false,true,true,true,true,true,true,true,true,true,true,false,true,true,true,true,true,true,true,true,true,true,true,true,false,true,true,false,true,true,true,true,true,false,false,false,false,false,false,false,false,false,false,false,false,false,false,false,false,false,false,false,false,false,false,false,false,false,false,false,false,false,false,false,false,false,false,false,false,false,false],"id":5,"left_children":[1,3,5,7,9,11,13,15,17,19,21,23,25,-1,-1,27,29,31,33,35,37,39,41,43,45,-1,47,49,51,53,55,57,59,61,63,65,67,69,-1,71,73,-1,75,77,79,81,83,-1,-1,-1,-1,-1,-1,-1,-1,-1,-1,-1,-1,-1,-1,-1,-1,-1,-1,-1,-1,-1,-1,-1,-1,-1,-1,-1,-1,-1,-1,-1,-1,-1,-1,-1,-1,-1,-1],"loss_changes":[1.5844092E2,1.2636621E2,4.4757324E1,1.1634509E2,4.3038574E1,1.5724531E1,5.3453293E0,5.3878357E1,7.253845E1,3.8990356E1,1.8267822E1,7.6508512E0,2.9353104E0,0E0,0E0,1.1589404E2,2.7874878E1,3.3676636E1,5.431781E1,1.5711975E1,9.189589E0,2.4527802E1,1.242627E1,4.4369636E0,4.932064E0,0E0,9.4416595E-1,1.3416602E2,1.7908417E1,2.1537476E1,9.822968E0,1.375116E1,1.0762825E1,3.323435E1,4.9826477E1,3.8564194E1,1.1889648E1,1.1174307E0,0E0,6.8277893E0,4.9499674E0,0E0,9.505112E0,1.1459363E0,1.1286902E0,1.0073776E0,9.5733654E-1,0E0,0E0,0E0,0E0,0E0,0E0,0E0,0E0,0E0,0E0,0E0,0E0,0E0,0E0,0E0,0E0,0E0,0E0,0E0,0E0,0E0,0E0,0E0,0E0,0E0,0E0,0E0,0E0,0E0,0E0,0E0,0E0,0E0,0E0,0E0,0E0,0E0,0E0],"parents":[2147483647,0,0,1,1,2,2,3,3,4,4,5,5,6,6,7,7,8,8,9,9,10,10,11,11,12,12,15,15,16,16,17,17,18,18,19,19,20,20,21,21,22,22,23,23,24,24,26,26,27,27,28,28,29,29,30,30,31,31,32,32,33,33,34,34,35,35,36,36,37,37,39,39,40,40,42,42,43,43,44,44,45,45,46,46],"right_children":[2,4,6,8,10,12,14,16,18,20,22,24,26,-1,-1,28,30,32,34,36,38,40,42,44,46,-1,48,50,52,54,56,58,60,62,64,66,68,70,-1,72,74,-1,76,78,80,82,84,-1,-1,-1,-1,-1,-1,-1,-1,-1,-1,-1,-1,-1,-1,-1,-1,-1,-1,-1,-1,-1,-1,-1,-1,-1,-1,-1,-1,-1,-1,-1,-1,-1,-1,-1,-1,-1,-1],"split_conditions":[3.8096664E1,2.5E0,8.458604E-2,5E-1,7.65E1,1.3939507E3,5E-1,5E-1,5.1563614E1,5.224389E1,5.161042E1,7.559E2,5E-1,-9.6392316E-1,-2.835821E-1,5.1074165E1,5.224389E1,3.5418284E-1,3.6E0,1.03095E4,5.2394722E1,3.5755833E1,6.15E1,2.466875E2,1.4799999E1,-5.676126E-1,4.85E0,1.9650888E1,6.95E1,3.770125E1,3.335E1,1.032E4,5.125907E1,5.1840836E1,1.03055E4,1.0308E4,5.125907E1,4.615E0,7.7885777E-1,5.1454166E1,1.0317E4,-1.5389052E-1,5.1752777E1,7.355E2,7.5085E2,2.0742107E-2,5E-1,-1.9375579E-1,8.524782E-2,3.8254178E-1,2.4544022E0,1.0102848E0,6.0948193E-1,6.171625E-1,1.8385603E-1,-1.2847191E-1,4.9867034E-1,6.183424E-1,9.8121876E-1,2.2260964E-1,5.0757486E-1,3.5690987E-1,-3.2687955E-2,1.3364437E0,3.6160734E-1,9.5184916E-1,-2.2677037E-1,6.28943E-2,1.175273E0,2.4232869E-1,-8.040095E-3,5.525257E-1,9.596717E-1,-3.9348688E-2,4.205898E-1,4.5226163E-1,7.626297E-1,-2.711207E-1,4.695893E-3,2.5978956E-2,1.8735212E-1,4.3563148E-1,1.1985694E-1,-1.05865195E-1,1.3413487E-1],"split_indices":[36,41,17,41,29,15,32,32,34,34,34,4,32,0,0,35,34,14,28,33,34,37,40,20,28,0,0,7,29,36,3,33,38,34,33,33,38,1,0,34,33,0,35,2,4,9,32,0,0,0,0,0,0,0,0,0,0,0,0,0,0,0,0,0,0,0,0,0,0,0,0,0,0,0,0,0,0,0,0,0,0,0,0,0,0],"split_type":[0,0,0,0,0,0,0,0,0,0,0,0,0,0,0,0,0,0,0,0,0,0,0,0,0,0,0,0,0,0,0,0,0,0,0,0,0,0,0,0,0,0,0,0,0,0,0,0,0,0,0,0,0,0,0,0,0,0,0,0,0,0,0,0,0,0,0,0,0,0,0,0,0,0,0,0,0,0,0,0,0,0,0,0,0],"sum_hessian":[8.34E2,7.85E2,4.9E1,6.05E2,1.8E2,4.3E1,6E0,2E2,4.05E2,6.8E1,1.12E2,3.8E1,5E0,3E0,3E0,9.5E1,1.05E2,1.19E2,2.86E2,5.7E1,1.1E1,5E1,6.2E1,2.1E1,1.7E1,2E0,3E0,1.2E1,8.3E1,9.5E1,1E1,6.3E1,5.6E1,8.6E1,2E2,1.1E1,4.6E1,8E0,3E0,4.2E1,8E0,2E0,6E1,5E0,1.6E1,1.3E1,4E0,2E0,1E0,5E0,7E0,1.5E1,6.8E1,8.2E1,1.3E1,8E0,2E0,4.5E1,1.8E1,2.2E1,3.4E1,2.9E1,5.7E1,4E0,1.96E2,8E0,3E0,1E0,4.5E1,6E0,2E0,1E1,3.2E1,3E0,5E0,4.5E1,1.5E1,3E0,2E0,7E0,9E0,1.1E1,2E0,2E0,2E0],"tree_param":{"num_deleted":"0","num_feature":"42","num_nodes":"85","size_leaf_vector":"0"}},{"base_weights":[1.2185981E0,1.2975879E0,-4.7492538E-2,1.3556697E0,-1.6071834E-1,2.3900591E-1,-1.8415552E0,1.0888162E0,1.695017E0,-1.0284717E0,1.1198996E0,4.1343936E-1,-9.3464595E-1,-2.4901347E0,-7.32587E-1,1.018918E0,3.4153907E0,2.0313773E0,1.4185847E0,-2.0210779E0,-4.1487837E-1,-1.2102127E-1,1.6848668E0,1.0480945E-1,7.676849E-1,-1.5136334E0,-2.6674384E-1,1.2303371E0,5.761515E-1,2.5753496E0,1.6582466E0,6.8714815E-1,1.922273E0,-2.5188072E0,-1.0180789E0,-2.1440348E-2,-4.8446345E-1,-2.6751772E-1,6.5815605E-2,2.1112597E0,9.2150056E-1,-4.6066895E-1,2.982248E-1,9.198112E-1,-2.9955053E-1,-5.166821E-1,2.4153548E-1,1.5490865E0,9.7074956E-1,-5.1823807E-1,7.2638875E-1,2.9645898E0,1.2618879E0,1.1850075E0,2.0300384E0,4.5825505E-1,2.9106143E0,1.449436E0,2.4512322E0,-1.294595E-2,-1.3488079E0,2.839198E-1,-3.1608033E-1,-6.607581E-1,-2.2742487E-1,-7.003952E-1,1.252238E-2,6.386489E-2,4.5589024E-1,2.0986064E-1,1.0062426E0,-4.6466303E-1,1.5337229E-2],"categories":[],"categories_nodes":[],"categories_segments":[],"categories_sizes":[],"default_left":[true,true,true,true,true,true,true,true,true,true,true,true,true,false,false,true,false,true,true,true,true,true,true,true,true,false,true,true,true,true,true,true,true,false,true,true,true,false,false,false,false,true,true,true,true,false,false,false,false,false,false,false,false,false,false,false,false,false,false,false,false,false,false,false,false,false,false,false,false,false,false,false,false],"id":6,"left_children":[1,3,5,7,9,11,13,15,17,19,21,23,25,-1,-1,27,-1,29,31,33,35,37,39,41,43,-1,45,47,49,51,53,55,57,-1,59,61,63,-1,-1,-1,-1,65,67,69,71,-1,-1,-1,-1,-1,-1,-1,-1,-1,-1,-1,-1,-1,-1,-1,-1,-1,-1,-1,-1,-1,-1,-1,-1,-1,-1,-1,-1],"loss_changes":[8.356848E1,6.679297E1,2.6139952E1,6.661487E1,3.560086E1,9.394281E0,3.210537E0,6.5797424E1,2.7894958E1,1.0733574E1,9.317938E0,4.1834393E0,1.9164891E0,0E0,0E0,3.8138977E1,0E0,2.5566406E1,6.683612E1,9.302082E-1,3.4551907E-1,1.5446153E-1,9.8391914E-1,2.5435717E0,3.1979132E0,0E0,6.329509E-1,2.1664368E1,2.2737305E1,2.5911652E1,1.3429581E1,3.7854275E1,2.3709229E1,0E0,1.3122454E0,3.596554E-1,3.481872E-1,0E0,0E0,0E0,0E0,6.893889E-1,5.990423E-1,7.706232E-1,1.6310236E-1,0E0,0E0,0E0,0E0,0E0,0E0,0E0,0E0,0E0,0E0,0E0,0E0,0E0,0E0,0E0,0E0,0E0,0E0,0E0,0E0,0E0,0E0,0E0,0E0,0E0,0E0,0E0,0E0],"parents":[2147483647,0,0,1,1,2,2,3,3,4,4,5,5,6,6,7,7,8,8,9,9,10,10,11,11,12,12,15,15,17,17,18,18,19,19,20,20,21,21,22,22,23,23,24,24,26,26,27,27,28,28,29,29,30,30,31,31,32,32,34,34,35,35,36,36,41,41,42,42,43,43,44,44],"right_children":[2,4,6,8,10,12,14,16,18,20,22,24,26,-1,-1,28,-1,30,32,34,36,38,40,42,44,-1,46,48,50,52,54,56,58,-1,60,62,64,-1,-1,-1,-1,66,68,70,72,-1,-1,-1,-1,-1,-1,-1,-1,-1,-1,-1,-1,-1,-1,-1,-1,-1,-1,-1,-1,-1,-1,-1,-1,-1,-1,-1,-1],"split_conditions":[3.8096664E1,1.895E2,8.458604E-2,3.935E0,3.375E1,1.3939507E3,5E-1,3.4929767E0,5.1755974E1,2.125E1,7.479E2,7.559E2,5E-1,-7.4704045E-1,-2.1977611E-1,3.0624458E-1,1.0246173E0,3.2445E2,9.35E1,5E-1,3.1349998E1,5E-1,7.501E2,2.466875E2,7E0,-4.5409003E-1,4.85E0,-1.3381583E-3,3.495111E1,3.554861E1,7.75E1,2.3949945E-2,1.147963E3,-7.556422E-1,2.9E0,5E-1,5E-1,-8.0255315E-2,1.9744683E-2,6.333779E-1,2.764502E-1,7.355E2,7.5085E2,1.0306E4,5E-1,-1.5500464E-1,7.246065E-2,4.6472594E-1,2.9122487E-1,-1.5547143E-1,2.1791664E-1,8.89377E-1,3.7856638E-1,3.5550225E-1,6.0901153E-1,1.3747652E-1,8.731843E-1,4.348308E-1,7.353697E-1,-3.883785E-3,-4.046424E-1,8.517595E-2,-9.4824106E-2,-1.9822744E-1,-6.822746E-2,-2.1011858E-1,3.756714E-3,1.9159466E-2,1.3676707E-1,6.2958196E-2,3.018728E-1,-1.3939892E-1,4.601169E-3],"split_indices":[36,40,17,1,3,15,32,10,34,27,4,4,32,0,0,17,0,21,40,32,3,32,4,20,0,0,0,9,37,37,40,9,15,0,0,32,32,0,0,0,0,2,4,33,32,0,0,0,0,0,0,0,0,0,0,0,0,0,0,0,0,0,0,0,0,0,0,0,0,0,0,0,0],"split_type":[0,0,0,0,0,0,0,0,0,0,0,0,0,0,0,0,0,0,0,0,0,0,0,0,0,0,0,0,0,0,0,0,0,0,0,0,0,0,0,0,0,0,0,0,0,0,0,0,0,0,0,0,0,0,0,0,0,0,0,0,0,0,0,0,0,0,0,0,0,0,0,0,0],"sum_hessian":[8.34E2,7.85E2,4.9E1,7.55E2,3E1,4.3E1,6E0,4.25E2,3.3E2,1.8E1,1.2E1,3.8E1,5E0,3E0,3E0,4.14E2,1.1E1,1.46E2,1.84E2,6E0,1.2E1,4E0,8E0,2.1E1,1.7E1,2E0,3E0,2.79E2,1.35E2,5.7E1,8.9E1,7.6E1,1.08E2,3E0,3E0,2E0,1E1,2E0,2E0,4E0,4E0,5E0,1.6E1,1.5E1,2E0,2E0,1E0,1.23E2,1.56E2,1.6E1,1.19E2,4.3E1,1.4E1,4.1E1,4.8E1,7E1,6E0,5.9E1,4.9E1,1E0,2E0,1E0,1E0,5E0,5E0,3E0,2E0,7E0,9E0,2E0,1.3E1,1E0,1E0],"tree_param":{"num_deleted":"0","num_feature":"42","num_nodes":"73","size_leaf_vector":"0"}},{"base_weights":[8.582182E-1,1.1836078E0,6.697021E-1,1.55035E0,8.280144E-1,5.0575167E-1,1.1110098E0,1.1353996E0,3.1584728E0,1.9461792E0,7.135538E-1,1.5668755E0,4.316863E-1,-5.736826E-1,1.2697121E0,1.413772E0,4.7273275E-1,4.689362E0,1.5258595E0,-3.145434E-1,2.3491783E0,8.835191E-1,3.8234998E-2,3.8720345E0,9.43415E-1,1.4876925E0,3.5300058E-1,-1.1619789E-1,-1.2824185E0,1.6291974E0,6.9224024E-1,-1.0526459E0,1.5181164E0,-1.883714E0,5.90515E-1,5.182699E0,9.884472E-1,1.7015531E0,-5.5477285E-1,3.122363E-1,-7.840514E-1,-2.830081E-1,2.6141958E0,1.224373E0,5.025413E-1,-2.5855622E-1,1.0503427E0,-6.419659E-2,1.1149167E0,6.910863E-1,1.8925905E0,5.4043776E-1,-9.774558E-2,-3.6928195E-1,5.130642E-1,1.1091481E0,2.5055203E0,2.4675873E-1,1.0955839E0,1.4059067E-2,-1.4129006E0,3.9967477E-1,1.7458553E0,3.649076E-1,1.3345275E0,5.742881E0,1.4011335E0,1.8596187E0,4.494184E-1,2.7457528E0,6.49313E-1,8.030858E-1,1.6470219E0,9.9028784E-1,2.454433E-1,-8.2777756E-1,-2.2828102E-2,1.5875133E0,-1.9505596E-1,1.6788848E-1,-3.802259E-1,-2.2415161E-2,1.2584841E0,7.4810535E-1,8.895731E-2,-1.1284137E-1,2.0338087E0,8.780374E-1,3.7350032E-1,6.80446E-1,-4.3614268E-1,1.2712102E-1,-1.0735263E0,-6.1140054E-1,1.3809968E0,7.2036934E-1,1.9388775E0,1.7067975E0,3.657358E0,4.689373E-1,-9.884271E-2,8.3798414E-1,2.0614262E0],"categories":[],"categories_nodes":[],"categories_segments":[],"categories_sizes":[],"default_left":[true,true,true,true,true,true,true,true,true,true,true,true,true,true,true,true,true,true,true,true,true,true,true,false,true,true,true,true,false,true,true,true,true,false,true,true,false,true,false,false,false,false,true,true,true,true,true,true,true,true,true,true,true,true,true,true,true,true,true,false,false,false,false,false,false,false,false,false,false,false,false,false,false,false,false,false,false,false,false,false,false,false,false,false,false,false,false,false,false,false,false,false,false,false,false,false,false,false,false,false,false,false,false],"id":7,"left_children":[1,3,5,7,9,11,13,15,17,19,21,23,25,27,29,31,33,35,37,39,41,43,45,-1,47,49,51,53,-1,55,57,59,61,-1,63,65,-1,67,-1,-1,-1,-1,69,71,73,75,77,79,81,83,85,87,89,91,93,95,97,99,101,-1,-1,-1,-1,-1,-1,-1,-1,-1,-1,-1,-1,-1,-1,-1,-1,-1,-1,-1,-1,-1,-1,-1,-1,-1,-1,-1,-1,-1,-1,-1,-1,-1,-1,-1,-1,-1,-1,-1,-1,-1,-1,-1,-1],"loss_changes":[5.0427246E1,3.849167E1,3.7857346E1,9.584021E1,1.8705063E1,2.989608E1,3.8961533E1,2.1467834E1,6.7825195E1,1.3493889E1,1.6494644E1,3.227646E1,2.980365E1,4.066051E0,2.6066849E1,2.3216019E1,1.1381622E1,2.226416E1,6.792843E0,1.1276436E0,9.110748E0,1.4318352E1,9.283113E0,0E0,3.7005234E0,6.755661E0,2.8862751E1,1.6227711E0,0E0,3.367949E1,9.07313E0,1.5570059E0,1.993396E1,0E0,5.555789E0,1.9492188E1,0E0,2.1330414E0,0E0,0E0,0E0,0E0,1.060585E0,9.360695E0,6.7792654E0,3.201459E0,4.992595E0,3.572183E-1,2.9673176E0,2.7677917E-1,4.7607574E0,1.32543335E1,2.689389E1,2.5835905E0,3.7722208E0,1.537751E1,2.0437592E1,2.042767E0,4.990177E0,0E0,0E0,0E0,0E0,0E0,0E0,0E0,0E0,0E0,0E0,0E0,0E0,0E0,0E0,0E0,0E0,0E0,0E0,0E0,0E0,0E0,0E0,0E0,0E0,0E0,0E0,0E0,0E0,0E0,0E0,0E0,0E0,0E0,0E0,0E0,0E0,0E0,0E0,0E0,0E0,0E0,0E0,0E0,0E0],"parents":[2147483647,0,0,1,1,2,2,3,3,4,4,5,5,6,6,7,7,8,8,9,9,10,10,11,11,12,12,13,13,14,14,15,15,16,16,17,17,18,18,19,19,20,20,21,21,22,22,24,24,25,25,26,26,27,27,29,29,30,30,31,31,32,32,34,34,35,35,37,37,42,42,43,43,44,44,45,45,46,46,47,47,48,48,49,49,50,50,51,51,52,52,53,53,54,54,55,55,56,56,57,57,58,58],"right_children":[2,4,6,8,10,12,14,16,18,20,22,24,26,28,30,32,34,36,38,40,42,44,46,-1,48,50,52,54,-1,56,58,60,62,-1,64,66,-1,68,-1,-1,-1,-1,70,72,74,76,78,80,82,84,86,88,90,92,94,96,98,100,102,-1,-1,-1,-1,-1,-1,-1,-1,-1,-1,-1,-1,-1,-1,-1,-1,-1,-1,-1,-1,-1,-1,-1,-1,-1,-1,-1,-1,-1,-1,-1,-1,-1,-1,-1,-1,-1,-1,-1,-1,-1,-1,-1,-1],"split_conditions":[5.14675E1,5E-1,5.1752777E1,1.032E4,4.95E1,6.95E1,1.805E2,1.03145E4,6.3904915E1,1.666875E2,2.2233562E3,3.499861E1,3.429111E1,3.31E1,4.087E2,1.135625E2,-1.23590445E-2,7.5635E2,7.365E2,3.499999E-1,6.22173E1,1.9997342E0,6.1000004E0,1.1616104E0,5.1755974E1,2.6119748E-1,3.145E1,1.03055E4,-3.8472557E-1,9.0470254E-1,6.3563776E0,-1.7E0,3.5006668E1,-5.651142E-1,3.5699997E1,2.2722627E3,2.9653418E-1,3.3374524E0,-1.6643186E-1,9.36709E-2,-2.3521544E-1,-8.4902436E-2,6.75E0,5.1146805E1,-1.8247573E-3,1.5E0,5.1516808E1,-5.7E0,-7.8E0,6.5E0,7.3305E2,7.65E1,3.3575037E-1,3.415E1,1.00000024E-1,4.8149996E0,1.195E2,1.21E2,1.305E2,4.21772E-3,-4.2387018E-1,1.1990244E-1,5.237566E-1,1.0947228E-1,4.0035826E-1,1.7228643E0,4.203401E-1,5.5788565E-1,1.3482553E-1,8.237259E-1,1.947939E-1,2.4092574E-1,4.941066E-1,2.9708636E-1,7.363299E-2,-2.4833328E-1,-6.8484307E-3,4.7625402E-1,-5.851679E-2,5.0366547E-2,-1.1406777E-1,-6.7245485E-3,3.7754527E-1,2.2443162E-1,2.6687194E-2,-3.3852413E-2,6.1014265E-1,2.6341122E-1,1.120501E-1,2.0413382E-1,-1.308428E-1,3.8136307E-2,-3.220579E-1,-1.8342017E-1,4.1429907E-1,2.1611081E-1,5.8166325E-1,5.1203924E-1,1.0972074E0,1.4068119E-1,-2.9652813E-2,2.5139526E-1,6.184279E-1],"split_indices":[38,32,35,33,40,29,20,33,11,20,19,36,37,26,21,20,9,4,2,0,11,12,0,0,34,24,26,33,0,16,18,0,36,0,3,19,0,10,0,0,0,0,0,35,9,1,34,0,0,0,2,29,14,3,0,1,40,40,40,0,0,0,0,0,0,0,0,0,0,0,0,0,0,0,0,0,0,0,0,0,0,0,0,0,0,0,0,0,0,0,0,0,0,0,0,0,0,0,0,0,0,0,0],"split_type":[0,0,0,0,0,0,0,0,0,0,0,0,0,0,0,0,0,0,0,0,0,0,0,0,0,0,0,0,0,0,0,0,0,0,0,0,0,0,0,0,0,0,0,0,0,0,0,0,0,0,0,0,0,0,0,0,0,0,0,0,0,0,0,0,0,0,0,0,0,0,0,0,0,0,0,0,0,0,0,0,0,0,0,0,0,0,0,0,0,0,0,0,0,0,0,0,0,0,0,0,0,0,0],"sum_hessian":[8.34E2,3.04E2,5.3E2,1.48E2,1.56E2,3.88E2,1.42E2,1.19E2,2.9E1,1.3E1,1.43E2,2.4E1,3.64E2,1.2E1,1.3E2,8.3E1,3.6E1,1.4E1,1.5E1,2E0,1.1E1,1.14E2,2.9E1,4E0,2E1,2.4E1,3.4E2,8E0,4E0,7.9E1,5.1E1,3E0,8E1,1E0,3.5E1,1.2E1,2E0,1.4E1,1E0,1E0,1E0,1E0,1E1,5.9E1,5.5E1,2.3E1,6E0,3E0,1.7E1,9E0,1.5E1,2.4E2,1E2,6E0,2E0,5.1E1,2.8E1,2.5E1,2.6E1,1E0,2E0,1.4E1,6.6E1,2.8E1,7E0,1E1,2E0,1.2E1,2E0,9E0,1E0,3.1E1,2.8E1,1.8E1,3.7E1,6E0,1.7E1,4E0,2E0,2E0,1E0,2E0,1.5E1,8E0,1E0,1E0,1.4E1,7.8E1,1.62E2,3E1,7E1,4E0,2E0,1E0,1E0,3.6E1,1.5E1,1.8E1,1E1,1.5E1,1E1,2.2E1,4E0],"tree_param":{"num_deleted":"0","num_feature":"42","num_nodes":"103","size_leaf_vector":"0"}},{"base_weights":[6.1379474E-1,5.054779E-1,9.788416E-1,1.0297129E0,4.2529026E-1,2.369446E0,9.2061836E-1,1.8099898E0,2.959114E-1,1.176808E0,3.6699963E-1,8.8801545E-1,2.784415E0,1.4508843E0,7.907522E-1,2.8090885E0,5.052918E-1,8.2308626E-1,-1.5875195E-1,3.2968527E-1,1.7886081E0,4.0571192E-1,-5.77728E-1,-2.663955E-1,1.8153697E0,4.651441E-1,1.0148721E0,3.1923923E0,1.9029713E-1,-2.5882885E-1,8.778728E-1,2.2985725E-1,1.4526525E0,-1.0663145E0,1.8396854E-1,6.7255235E-1,-1.8296766E-1,4.261744E-2,2.0483758E0,4.5537648E-1,-2.7138504E-1,-8.3868676E-1,1.2675871E0,5.071014E-1,-1.4667586E0,1.9713783E0,-1.9383161E-1,8.0571026E-1,1.0661057E-2,1.5783861E0,5.1239413E-1,3.4990833E0,1.0908585E0,-3.549266E-1,4.9034724E-1,-4.3157214E-1,1.1535295E-1,1.217594E0,-1.9089842E-1,-2.1481743E-1,4.7904676E-1,1.5313951E0,3.7198448E-1,-2.5903988E-1,-1.1576868E0,-2.4391222E-1,5.173284E-1,2.6681203E-1,8.66288E-1,-4.003954E-1,2.7568053E-2,6.309328E-1,-3.6379862E-1,2.878621E0,1.1073915E0,2.9704845E-1,7.29556E-1,-1.0143399E-2,-1.5323625E0,-3.7876752E-1,-1.5730102E0,-1.9916534E-1,1.0443344E0,2.0814793E0,-4.4562244E-1,1.0962629E-1,-4.003737E-1,1.7869235E0,4.6154493E-1,1.8181512E0,-5.64934E-1,7.601906E-1,2.2504554E0,1.8717786E0,2.3465098E-1],"categories":[],"categories_nodes":[],"categories_segments":[],"categories_sizes":[],"default_left":[true,true,true,true,true,true,true,true,true,true,true,false,false,true,true,true,true,true,true,true,true,true,true,true,true,true,true,true,true,true,true,true,true,true,true,true,true,true,true,true,true,true,false,true,false,true,true,true,true,true,true,false,false,false,false,false,false,false,false,false,false,false,false,false,false,false,false,false,false,false,false,false,false,false,false,false,false,false,false,false,false,false,false,false,false,false,false,false,false,false,false,false,false,false,false],"id":8,"left_children":[1,3,5,7,9,11,13,15,17,19,21,-1,-1,23,25,27,29,31,33,35,37,39,41,43,45,47,49,51,53,55,57,59,61,63,65,67,69,71,73,75,77,79,-1,81,-1,83,85,87,89,91,93,-1,-1,-1,-1,-1,-1,-1,-1,-1,-1,-1,-1,-1,-1,-1,-1,-1,-1,-1,-1,-1,-1,-1,-1,-1,-1,-1,-1,-1,-1,-1,-1,-1,-1,-1,-1,-1,-1,-1,-1,-1,-1,-1,-1],"loss_changes":[3.252173E1,2.6718079E1,1.3202087E1,4.8132713E1,2.4187325E1,1.8306313E0,1.1523621E1,5.2024994E1,1.0916585E1,2.014111E1,1.9361847E1,0E0,0E0,2.2390923E1,1.0474228E1,2.2479721E1,5.6364584E0,7.5091133E0,7.9721746E0,3.2869482E0,1.03443985E1,1.703833E1,1.1175682E1,7.2431355E0,9.472244E0,9.742648E0,2.4108742E1,9.073425E0,8.28415E-1,5.0224495E-1,4.952533E0,1.4326067E0,2.8129005E-1,2.1645117E-1,2.83631E0,6.335335E-1,3.7724853E-1,1.1859357E0,1.2437195E1,2.0142715E1,1.1514151E1,5.8210564E0,0E0,2.105144E0,0E0,8.112625E0,2.3192196E-1,1.1332441E1,3.0157845E1,2.0834465E1,1.7683653E1,0E0,0E0,0E0,0E0,0E0,0E0,0E0,0E0,0E0,0E0,0E0,0E0,0E0,0E0,0E0,0E0,0E0,0E0,0E0,0E0,0E0,0E0,0E0,0E0,0E0,0E0,0E0,0E0,0E0,0E0,0E0,0E0,0E0,0E0,0E0,0E0,0E0,0E0,0E0,0E0,0E0,0E0,0E0,0E0],"parents":[2147483647,0,0,1,1,2,2,3,3,4,4,5,5,6,6,7,7,8,8,9,9,10,10,13,13,14,14,15,15,16,16,17,17,18,18,19,19,20,20,21,21,22,22,23,23,24,24,25,25,26,26,27,27,28,28,29,29,30,30,31,31,32,32,33,33,34,34,35,35,36,36,37,37,38,38,39,39,40,40,41,41,43,43,45,45,46,46,47,47,48,48,49,49,50,50],"right_children":[2,4,6,8,10,12,14,16,18,20,22,-1,-1,24,26,28,30,32,34,36,38,40,42,44,46,48,50,52,54,56,58,60,62,64,66,68,70,72,74,76,78,80,-1,82,-1,84,86,88,90,92,94,-1,-1,-1,-1,-1,-1,-1,-1,-1,-1,-1,-1,-1,-1,-1,-1,-1,-1,-1,-1,-1,-1,-1,-1,-1,-1,-1,-1,-1,-1,-1,-1,-1,-1,-1,-1,-1,-1,-1,-1,-1,-1,-1,-1],"split_conditions":[2.5E0,5.1094166E1,4.95E1,5E-1,6.95E1,4.4300003E0,6.364474E-2,6.3904915E1,2.704423E0,1.03135E4,1.895E2,2.6640466E-1,8.353245E-1,5.140708E1,1.03135E4,5.1074165E1,1.03085E4,1.2889712E0,1.065E3,3.215E1,5.1803474E1,3.8096664E1,6.9700003E0,1.03085E4,1.785E2,1.03075E4,3.365E1,6.603348E0,9.9999994E-1,8.844645E2,7.3465E2,1.03085E4,5.1074165E1,0E0,2.9650002E1,5E-1,1.03075E4,5E-1,5.205847E1,8.15E1,8.458604E-2,1.2234209E-2,3.8027614E-1,6.6499996E0,-4.400276E-1,3.820375E1,5E-1,3.24E1,6.453499E0,5.1524025E1,1.0317E4,1.049725E0,3.2725754E-1,-1.0647798E-1,1.4710417E-1,-1.2947164E-1,3.4605887E-2,3.652782E-1,-5.726953E-2,-6.4445235E-2,1.4371404E-1,4.5941854E-1,1.1159535E-1,-7.771197E-2,-3.4730607E-1,-7.317367E-2,1.5519851E-1,8.0043614E-2,2.598864E-1,-1.20118625E-1,8.270416E-3,1.8927985E-1,-1.0913959E-1,8.6358637E-1,3.3221745E-1,8.911454E-2,2.1886681E-1,-3.04302E-3,-4.5970875E-1,-1.1363026E-1,-4.719031E-1,-5.9749607E-2,3.1330034E-1,6.244438E-1,-1.3368674E-1,3.288789E-2,-1.2011211E-1,5.360771E-1,1.3846348E-1,5.454454E-1,-1.694802E-1,2.2805719E-1,6.751366E-1,5.6153363E-1,7.03953E-2],"split_indices":[41,35,40,32,29,1,24,11,10,33,40,0,0,34,33,35,33,12,22,3,34,36,1,33,40,33,3,18,0,15,2,33,35,1,26,32,33,32,34,29,17,9,0,0,0,36,32,3,18,35,33,0,0,0,0,0,0,0,0,0,0,0,0,0,0,0,0,0,0,0,0,0,0,0,0,0,0,0,0,0,0,0,0,0,0,0,0,0,0,0,0,0,0,0,0],"split_type":[0,0,0,0,0,0,0,0,0,0,0,0,0,0,0,0,0,0,0,0,0,0,0,0,0,0,0,0,0,0,0,0,0,0,0,0,0,0,0,0,0,0,0,0,0,0,0,0,0,0,0,0,0,0,0,0,0,0,0,0,0,0,0,0,0,0,0,0,0,0,0,0,0,0,0,0,0,0,0,0,0,0,0,0,0,0,0,0,0,0,0,0,0,0,0],"sum_hessian":[8.34E2,6.45E2,1.89E2,8.4E1,5.61E2,6E0,1.83E2,4E1,4.4E1,3.9E1,5.22E2,2E0,4E0,3.4E1,1.49E2,2.2E1,1.8E1,2E1,2.4E1,1.7E1,2.2E1,5.02E2,2E1,6E0,2.8E1,6.2E1,8.7E1,1.9E1,3E0,6E0,1.2E1,1.1E1,9E0,6E0,1.8E1,1E1,7E0,3E0,1.9E1,4.68E2,3.4E1,1.8E1,2E0,4E0,2E0,2.6E1,2E0,3.5E1,2.7E1,4E1,4.7E1,1.6E1,3E0,1E0,2E0,4E0,2E0,9E0,3E0,4E0,7E0,8E0,1E0,1E0,5E0,8E0,1E1,4E0,6E0,3E0,4E0,1E0,2E0,9E0,1E1,2.98E2,1.7E2,2.9E1,5E0,1.2E1,6E0,2E0,2E0,2.5E1,1E0,1E0,1E0,8E0,2.7E1,6E0,2.1E1,1.9E1,2.1E1,7E0,4E1],"tree_param":{"num_deleted":"0","num_feature":"42","num_nodes":"95","size_leaf_vector":"0"}},{"base_weights":[4.3802345E-1,6.080581E-1,3.0660567E-1,6.60224E-1,-5.6455415E-1,-1.00258715E-1,4.215492E-1,4.8721823E-1,9.649686E-1,-9.0932435E-1,-3.2517454E-1,2.7338633E-1,-4.720121E-1,-5.008507E-1,4.7027868E-1,1.0215573E0,2.809836E-1,6.92874E-1,1.6184006E0,-3.7569723E-1,-1.0822136E0,-4.9916E-1,-9.699335E-2,6.8011904E-1,-1.4785709E-2,7.6960516E-1,-7.434703E-1,-1.289861E0,-3.747199E-2,1.3361722E0,3.7922925E-1,2.1547952E0,7.621886E-1,2.148952E-1,1.3879522E0,-1.0319605E0,7.8509843E-1,1.0604622E0,2.3288167E0,2.3585076E-2,-7.664288E-1,-3.401663E-1,1.0963469E-1,-3.0439663E-1,7.937904E-1,9.427783E-2,-8.017999E-1,1.1746163E0,1.2967071E-1,6.8229544E-1,-1.0316502E0,-1.6078482E0,-3.2992873E-1,1.7369677E-1,-7.992668E-1,2.640782E0,8.833626E-1,-6.1906123E-1,4.4807497E-1,-3.944343E-2,1.0585648E0,-2.5590205E-1,3.80876E-1,4.708705E-1,2.0274434E0,1.3531781E0,4.5660612E-1,2.04847E0,7.271011E-1,2.9607663E0,1.1836221E0,-5.780471E-2,9.3182325E-2,2.719532E-2,1.2804937E-1,2.9099178E-1,1.0421442E0,-1.9622262E-1,7.616369E-1,-8.523372E-2,-1.0122441E0,-1.461385E-1,3.6225638E-1,-1.3040437E0,2.1349077E0,-1.5532782E0,-5.106024E-1,4.7215766E-1,-6.43034E-2,1.2450473E0,3.576431E-1,-9.930274E-2,-2.8032093E0,1.4292302E0,3.912209E-1],"categories":[],"categories_nodes":[],"categories_segments":[],"categories_sizes":[],"default_left":[true,true,true,true,true,true,true,true,true,true,true,true,true,true,true,true,true,true,true,false,false,true,true,true,true,true,true,true,true,true,true,false,true,true,true,false,true,true,true,true,false,false,true,false,true,true,true,false,true,true,true,false,false,true,false,false,true,true,true,false,false,false,false,false,false,false,false,false,false,false,false,false,false,false,false,false,false,false,false,false,false,false,false,false,false,false,false,false,false,false,false,false,false,false,false],"id":9,"left_children":[1,3,5,7,9,11,13,15,17,19,21,23,25,27,29,31,33,35,37,-1,-1,39,41,43,45,47,49,51,53,55,57,-1,59,61,63,-1,65,67,69,71,-1,-1,73,-1,75,77,79,-1,81,83,85,-1,-1,87,-1,-1,89,91,93,-1,-1,-1,-1,-1,-1,-1,-1,-1,-1,-1,-1,-1,-1,-1,-1,-1,-1,-1,-1,-1,-1,-1,-1,-1,-1,-1,-1,-1,-1,-1,-1,-1,-1,-1,-1],"loss_changes":[1.8472122E1,2.257759E1,2.2162788E1,1.7877304E1,1.0248065E0,1.4713942E1,1.6821373E1,2.439759E1,2.1103065E1,1.469655E-1,3.882872E-1,6.2221327E0,1.8435678E1,6.8982673E0,2.716581E1,1.6581078E1,1.1626453E1,1.5126652E1,1.1799637E1,0E0,0E0,8.56357E-1,3.3877215E-1,2.7036753E0,2.8222978E0,2.4394922E0,1.8782478E1,1.6062479E0,2.2301047E0,1.7161652E1,2.2201622E1,0E0,1.23961525E1,1.2209681E1,4.3235283E0,0E0,1.54305725E1,5.75655E0,7.351158E0,2.2379892E-2,0E0,0E0,2.5900342E-3,0E0,2.1941833E0,5.7716255E0,5.1691103E-1,0E0,3.7368596E-1,2.5867054E1,9.263237E0,0E0,0E0,8.1173253E-1,0E0,0E0,4.49848E0,2.3561451E1,1.6119884E1,0E0,0E0,0E0,0E0,0E0,0E0,0E0,0E0,0E0,0E0,0E0,0E0,0E0,0E0,0E0,0E0,0E0,0E0,0E0,0E0,0E0,0E0,0E0,0E0,0E0,0E0,0E0,0E0,0E0,0E0,0E0,0E0,0E0,0E0,0E0,0E0],"parents":[2147483647,0,0,1,1,2,2,3,3,4,4,5,5,6,6,7,7,8,8,9,9,10,10,11,11,12,12,13,13,14,14,15,15,16,16,17,17,18,18,21,21,22,22,23,23,24,24,25,25,26,26,27,27,28,28,29,29,30,30,32,32,33,33,34,34,36,36,37,37,38,38,39,39,42,42,44,44,45,45,46,46,48,48,49,49,50,50,53,53,56,56,57,57,58,58],"right_children":[2,4,6,8,10,12,14,16,18,20,22,24,26,28,30,32,34,36,38,-1,-1,40,42,44,46,48,50,52,54,56,58,-1,60,62,64,-1,66,68,70,72,-1,-1,74,-1,76,78,80,-1,82,84,86,-1,-1,88,-1,-1,90,92,94,-1,-1,-1,-1,-1,-1,-1,-1,-1,-1,-1,-1,-1,-1,-1,-1,-1,-1,-1,-1,-1,-1,-1,-1,-1,-1,-1,-1,-1,-1,-1,-1,-1,-1,-1,-1],"split_conditions":[3.35E1,1.895E2,3.65E0,1.03195E4,7.497E2,5.1840836E1,3.499861E1,5.1563614E1,2.5E0,5E-1,5E-1,3.5361526E1,2.9349998E1,2.112239E0,3.495111E1,1.9849998E1,1.54653005E-2,3.0806818E1,3.7462776E1,-1.1270917E-1,-3.2466412E-1,3.15E1,7.7956164E-1,3.4901806E1,6.6371017E0,5.205847E1,1.03075E4,4.1000004E0,1.0314E4,1.3447402E0,3.5767776E1,6.464386E-1,5.1146526E1,7.275E2,1.21E2,-3.0958816E-1,4.75E0,4.4300003E0,5E-1,1.5E0,-2.2992866E-1,-1.02049895E-1,1.3E0,-9.1318995E-2,5.5129908E-2,5.1713196E1,1.0309E4,3.5238492E-1,6.45E0,1.03055E4,5E-1,-4.8235446E-1,-9.8978624E-2,5.55E0,-2.3978005E-1,7.9223466E-1,4.8736525E-1,3.5711525E1,4.0199432E-1,-1.183303E-2,3.1756943E-1,-7.677062E-2,1.14262804E-1,1.4126116E-1,6.0823303E-1,4.0595347E-1,1.3698184E-1,6.1454105E-1,2.1813034E-1,8.882299E-1,3.5508665E-1,-1.7341414E-2,2.79547E-2,8.158596E-3,3.8414814E-2,8.729754E-2,3.1264326E-1,-5.8866788E-2,2.2849108E-1,-2.5570117E-2,-3.0367324E-1,-4.3841552E-2,1.0867692E-1,-3.9121312E-1,6.4047235E-1,-4.6598348E-1,-1.5318073E-1,1.4164731E-1,-1.929102E-2,3.735142E-1,1.07292935E-1,-2.9790822E-2,-8.409628E-1,4.2876908E-1,1.1736628E-1],"split_indices":[3,40,28,33,4,34,36,34,41,32,32,37,26,16,37,27,9,15,36,0,0,3,16,36,18,34,33,0,33,16,36,0,35,2,40,0,28,1,32,0,0,0,0,0,24,34,33,0,0,33,32,0,0,0,0,0,13,36,13,0,0,0,0,0,0,0,0,0,0,0,0,0,0,0,0,0,0,0,0,0,0,0,0,0,0,0,0,0,0,0,0,0,0,0,0],"split_type":[0,0,0,0,0,0,0,0,0,0,0,0,0,0,0,0,0,0,0,0,0,0,0,0,0,0,0,0,0,0,0,0,0,0,0,0,0,0,0,0,0,0,0,0,0,0,0,0,0,0,0,0,0,0,0,0,0,0,0,0,0,0,0,0,0,0,0,0,0,0,0,0,0,0,0,0,0,0,0,0,0,0,0,0,0,0,0,0,0,0,0,0,0,0,0],"sum_hessian":[8.34E2,3.62E2,4.72E2,3.47E2,1.5E1,1.04E2,3.68E2,2.23E2,1.24E2,5E0,1E1,5.2E1,5.2E1,1.8E1,3.5E2,6.1E1,1.62E2,8.9E1,3.5E1,2E0,3E0,5E0,5E0,2.1E1,3.1E1,9E0,4.3E1,6E0,1.2E1,3.2E1,3.18E2,1E1,5.1E1,1.54E2,8E0,4E0,8.5E1,2.1E1,1.4E1,2E0,3E0,2E0,3E0,2E0,1.9E1,2.8E1,3E0,5E0,4E0,7E0,3.6E1,4E0,2E0,1E1,2E0,7E0,2.5E1,2E1,2.98E2,1.4E1,3.7E1,4E1,1.14E2,4E0,4E0,3E1,5.5E1,4E0,1.7E1,8E0,6E0,1E0,1E0,1E0,2E0,7E0,1.2E1,2E1,8E0,1E0,2E0,2E0,2E0,3E0,4E0,1.7E1,1.9E1,4E0,6E0,1.4E1,1.1E1,1.7E1,3E0,1.5E1,2.83E2],"tree_param":{"num_deleted":"0","num_feature":"42","num_nodes":"95","size_leaf_vector":"0"}},{"base_weights":[3.1114626E-1,3.404262E-1,-1.5535742E-1,4.7639012E-1,2.1134311E-1,-1.124247E0,2.3149468E-3,2.723404E-1,9.4777226E-1,3.0295736E-1,-1.2700506E-1,1.7479391E-1,-4.7219512E-1,1.8164776E-1,7.700374E-1,1.3749514E0,6.430593E-1,1.24598525E-1,5.6469053E-1,-3.808512E-1,5.177674E-1,-3.865121E-2,4.335048E-1,-1.0366181E0,-6.0406342E-2,6.729316E-1,3.9866164E-2,1.1138784E0,2.1909265E-1,1.6605524E0,2.8929806E-1,8.7242347E-1,-1.0984432E-1,4.9308217E-1,-1.4541745E-1,6.570172E-1,-2.4063638E-1,-1.7969215E-1,-1.1407174E0,-1.4555067E-1,8.384789E-1,-1.3355723E-1,4.2512916E-2,8.290378E-1,2.1430756E-1,3.0511314E-1,-3.4074065E-1,2.122659E-1,1.0745505E0,-1.4270645E0,9.933505E-2,3.368857E-1,1.3973264E0,-1.3057794E-1,5.444196E-1,2.4770749E0,9.912381E-1,-2.9297147E-2,6.7747176E-1,1.4131609E0,5.0188076E-1,-8.3021677E-1,1.038224E-1,7.846064E-1,-1.537809E-1,-5.782831E-2,-1.4384807E0,3.344314E-1,9.325849E-1,4.1319364E-1,-9.534941E-1,-5.262981E-1,4.3176514E-1,1.0357408E-1,-1.7052441E0,-4.7423685E-1,9.783188E-2,1.2561458E0,3.276477E-1,1.6314712E-1,-4.0355012E-1,3.4501502E-1,-2.6707467E-1,-5.517419E-2,2.8032288E-1,3.6377338E-1,6.4566195E-2,-7.244867E-2,-3.897015E-1],"categories":[],"categories_nodes":[],"categories_segments":[],"categories_sizes":[],"default_left":[true,true,true,true,true,false,true,true,true,true,true,true,true,true,true,true,true,true,true,true,true,true,true,false,true,true,true,true,true,true,true,true,true,true,true,true,true,true,true,true,true,true,true,false,true,true,true,false,false,false,false,false,false,false,false,false,false,false,false,false,false,false,false,false,false,false,false,false,false,false,false,false,false,false,false,false,false,false,false,false,false,false,false,false,false,false,false,false,false],"id":10,"left_children":[1,3,5,7,9,-1,11,13,15,17,19,21,23,25,27,29,31,33,35,37,39,41,43,-1,45,47,49,51,53,55,57,59,61,63,65,67,69,71,73,75,77,79,81,-1,83,85,87,-1,-1,-1,-1,-1,-1,-1,-1,-1,-1,-1,-1,-1,-1,-1,-1,-1,-1,-1,-1,-1,-1,-1,-1,-1,-1,-1,-1,-1,-1,-1,-1,-1,-1,-1,-1,-1,-1,-1,-1,-1,-1],"loss_changes":[1.1458321E1,1.3694122E1,7.640958E0,3.648471E1,1.2592472E1,0E0,3.6836288E0,1.1956961E1,1.408503E1,1.4821337E1,1.4436744E1,1.8390347E0,2.7264585E0,1.5854515E1,7.52289E0,1.409259E1,1.2011377E1,1.9075531E1,9.749649E0,9.424821E0,5.4403844E0,1.5203422E-1,1.1228268E0,0E0,9.2370564E-1,9.207523E0,1.5669898E1,5.035185E0,2.0049627E0,1.776551E1,1.380221E0,9.910175E0,2.7028286E0,1.5395338E1,1.2488486E1,9.999844E0,6.919206E0,1.103591E1,9.308283E0,7.663638E-1,3.2155008E0,7.8681064E-1,1.1223047E0,0E0,2.1115565E-1,3.2954693E-2,3.7445605E-2,0E0,0E0,0E0,0E0,0E0,0E0,0E0,0E0,0E0,0E0,0E0,0E0,0E0,0E0,0E0,0E0,0E0,0E0,0E0,0E0,0E0,0E0,0E0,0E0,0E0,0E0,0E0,0E0,0E0,0E0,0E0,0E0,0E0,0E0,0E0,0E0,0E0,0E0,0E0,0E0,0E0,0E0],"parents":[2147483647,0,0,1,1,2,2,3,3,4,4,6,6,7,7,8,8,9,9,10,10,11,11,12,12,13,13,14,14,15,15,16,16,17,17,18,18,19,19,20,20,21,21,22,22,24,24,25,25,26,26,27,27,28,28,29,29,30,30,31,31,32,32,33,33,34,34,35,35,36,36,37,37,38,38,39,39,40,40,41,41,42,42,44,44,45,45,46,46],"right_children":[2,4,6,8,10,-1,12,14,16,18,20,22,24,26,28,30,32,34,36,38,40,42,44,-1,46,48,50,52,54,56,58,60,62,64,66,68,70,72,74,76,78,80,82,-1,84,86,88,-1,-1,-1,-1,-1,-1,-1,-1,-1,-1,-1,-1,-1,-1,-1,-1,-1,-1,-1,-1,-1,-1,-1,-1,-1,-1,-1,-1,-1,-1,-1,-1,-1,-1,-1,-1,-1,-1,-1,-1,-1,-1],"split_conditions":[3.8096664E1,5E-1,9.65E1,3.7262497E1,3.7462776E1,-3.372741E-1,1.3240547E3,1.3861608E-2,5.1803474E1,3.628514E1,3.7837327E-1,7.559E2,5E-1,2.031525E3,1.03175E4,3.2055817E0,1.1871144E-2,1.6059115E0,7.256761E-1,5.388967E-1,8.067586E-1,5E-1,7.5719995E2,-3.1098545E-1,2.1279628E0,1.195E2,2.0370125E3,3.5767776E1,3.0791926E0,3.385E1,1.8164248E0,7.85E1,7.390442E2,1.035E2,3.5637917E1,5.375924E-1,1.15E2,1.6673133E0,1.7838677E0,7.3175E2,7.5485E2,1.0306E4,1.0436472E3,2.4871135E-1,1.0306E4,6.705E0,1.0306E4,6.367977E-2,3.2236516E-1,-4.281194E-1,2.9800517E-2,1.0106571E-1,4.1919792E-1,-3.9173383E-2,1.6332588E-1,7.4312246E-1,2.9737145E-1,-8.789144E-3,2.0324154E-1,4.239483E-1,1.5056424E-1,-2.4906504E-1,3.1146722E-2,2.3538193E-1,-4.6134274E-2,-1.7348494E-2,-4.3154424E-1,1.0032943E-1,2.7977547E-1,1.23958096E-1,-2.8604823E-1,-1.5788944E-1,1.2952955E-1,3.1072225E-2,-5.1157326E-1,-1.4227106E-1,2.9349566E-2,3.7684378E-1,9.829431E-2,4.8944138E-2,-1.2106504E-1,1.0350451E-1,-8.0122404E-2,-1.6552258E-2,8.4096864E-2,1.09132014E-1,1.936986E-2,-2.1734603E-2,-1.1691045E-1],"split_indices":[36,32,5,36,36,0,15,9,34,36,14,4,32,19,33,10,9,23,25,13,16,32,4,0,12,40,19,36,10,3,23,29,8,40,37,25,40,23,12,2,4,33,15,0,33,1,33,0,0,0,0,0,0,0,0,0,0,0,0,0,0,0,0,0,0,0,0,0,0,0,0,0,0,0,0,0,0,0,0,0,0,0,0,0,0,0,0,0,0],"split_type":[0,0,0,0,0,0,0,0,0,0,0,0,0,0,0,0,0,0,0,0,0,0,0,0,0,0,0,0,0,0,0,0,0,0,0,0,0,0,0,0,0,0,0,0,0,0,0,0,0,0,0,0,0,0,0,0,0,0,0,0,0,0,0,0,0,0,0,0,0,0,0,0,0,0,0,0,0,0,0,0,0,0,0,0,0,0,0,0,0],"sum_hessian":[8.34E2,7.85E2,4.9E1,3.81E2,4.04E2,6E0,4.3E1,2.67E2,1.14E2,3.18E2,8.6E1,3.2E1,1.1E1,2.27E2,4E1,4.6E1,6.8E1,1.9E2,1.28E2,6.2E1,2.4E1,1.8E1,1.4E1,4E0,7E0,5E1,1.77E2,2.4E1,1.6E1,3.6E1,1E1,5.2E1,1.6E1,8E1,1.1E2,1.15E2,1.3E1,5E1,1.2E1,8E0,1.6E1,8E0,1E1,4E0,1E1,3E0,4E0,2.4E1,2.6E1,6E0,1.71E2,7E0,1.7E1,8E0,8E0,1.5E1,2.1E1,6E0,4E0,2E1,3.2E1,3E0,1.3E1,5.5E1,2.5E1,1.04E2,6E0,5.4E1,6.1E1,7E0,6E0,3.2E1,1.8E1,4E0,8E0,3E0,5E0,8E0,8E0,4E0,4E0,5E0,5E0,2E0,8E0,2E0,1E0,1E0,3E0],"tree_param":{"num_deleted":"0","num_feature":"42","num_nodes":"89","size_leaf_vector":"0"}},{"base_weights":[2.1977185E-1,1.6597606E-1,4.0152082E-1,3.3242604E-1,8.159089E-2,1.3461262E0,3.6340258E-1,9.317362E-2,5.0447994E-1,8.248937E-1,5.0871715E-2,4.334968E-1,1.6244786E0,2.6190102E-1,5.589073E-1,-2.1673402E-1,9.8027587E-1,9.611527E-1,2.3890683E-1,4.1759777E-1,1.3470882E0,-5.108769E-2,2.6667383E-1,-8.243645E-1,2.8666875E-1,-5.201084E-1,6.626825E-1,-7.404996E-1,9.7689606E-2,-1.55520635E-2,1.8240958E0,1.9620779E0,6.646552E-1,5.738698E-1,-7.045278E-2,8.744208E-2,4.8124993E-1,2.0849304E-1,-2.4187663E-1,-4.34188E-1,5.2141213E-1,3.9777285E-1,4.2865925E-2,-6.2342167E-1,-2.0898788E-1,1.3716131E0,4.2205265E-1,-1.5360019E0,-2.289983E-1,-1.6760693E-1,5.72434E-1,6.322121E-1,-5.685568E-1,2.147568E0,2.9999098E-2,-1.0169718E0,8.993061E-1,1.6461143E0,9.384111E-2,2.1763527E-1,-5.7020354E-1,2.1597862E-2,1.0956526E-1,6.234945E-1,2.4275532E-1,-3.093365E-3,5.3719306E-1,-1.5444358E-2,-5.2784735E-1,-6.84073E-2,-8.389778E-1,9.89092E-1,8.867426E-2,1.8971479E-1,1.1385539E0,-5.286774E-1,3.4897134E-1,1.4860944E0,4.5648417E-1,7.7174205E-1,3.728405E-2],"categories":[],"categories_nodes":[],"categories_segments":[],"categories_sizes":[],"default_left":[true,true,true,true,true,true,true,true,true,true,true,false,false,true,true,true,true,true,true,true,false,true,true,false,true,true,true,true,true,true,true,false,true,true,true,true,true,true,true,true,true,true,true,false,false,true,true,false,false,false,false,false,false,false,false,false,false,false,false,false,false,false,false,false,false,false,false,false,false,false,false,false,false,false,false,false,false,false,false,false,false],"id":11,"left_children":[1,3,5,7,9,11,13,15,17,19,21,-1,-1,23,25,27,29,31,33,35,-1,37,39,-1,41,43,45,47,49,51,53,-1,55,57,59,61,63,65,67,69,71,73,75,-1,-1,77,79,-1,-1,-1,-1,-1,-1,-1,-1,-1,-1,-1,-1,-1,-1,-1,-1,-1,-1,-1,-1,-1,-1,-1,-1,-1,-1,-1,-1,-1,-1,-1,-1,-1,-1],"loss_changes":[8.097427E0,9.046534E0,6.352087E0,8.885654E0,9.7765045E0,1.0740223E0,3.5049248E0,2.5505077E1,1.5051655E1,3.0531502E0,9.122889E0,0E0,0E0,3.5455532E0,7.287119E0,1.14355545E1,2.0195555E1,1.2347397E1,8.433976E0,1.8908465E-1,0E0,1.4016517E1,2.3971725E1,0E0,3.2605352E0,6.256986E-2,9.1447315E0,1.0227671E1,5.637658E0,4.658048E0,7.4800034E0,0E0,1.5514595E1,1.9919142E1,6.314902E0,2.0036753E-3,1.5396452E-1,8.347475E0,1.0546588E1,5.272922E0,1.9745808E1,1.2576412E1,7.007641E0,0E0,0E0,7.88332E-1,5.8914046E0,0E0,0E0,0E0,0E0,0E0,0E0,0E0,0E0,0E0,0E0,0E0,0E0,0E0,0E0,0E0,0E0,0E0,0E0,0E0,0E0,0E0,0E0,0E0,0E0,0E0,0E0,0E0,0E0,0E0,0E0,0E0,0E0,0E0,0E0],"parents":[2147483647,0,0,1,1,2,2,3,3,4,4,5,5,6,6,7,7,8,8,9,9,10,10,13,13,14,14,15,15,16,16,17,17,18,18,19,19,21,21,22,22,24,24,25,25,26,26,27,27,28,28,29,29,30,30,32,32,33,33,34,34,35,35,36,36,37,37,38,38,39,39,40,40,41,41,42,42,45,45,46,46],"right_children":[2,4,6,8,10,12,14,16,18,20,22,-1,-1,24,26,28,30,32,34,36,-1,38,40,-1,42,44,46,48,50,52,54,-1,56,58,60,62,64,66,68,70,72,74,76,-1,-1,78,80,-1,-1,-1,-1,-1,-1,-1,-1,-1,-1,-1,-1,-1,-1,-1,-1,-1,-1,-1,-1,-1,-1,-1,-1,-1,-1,-1,-1,-1,-1,-1,-1,-1,-1],"split_conditions":[2.5E0,5E-1,4.95E1,1.03135E4,3.4220695E1,4.4300003E0,1.05E2,7.606027E-1,2E0,2.72125E2,8.25E1,1.3004905E-1,4.8734358E-1,1.7893734E1,1.03055E4,9.85E1,3.5767776E1,1.0317E4,5E-1,7.559E2,4.041265E-1,8.7E1,6.9E1,-2.4730936E-1,7.95E1,4.6E0,4.4E0,7.7E1,2.148075E3,4.4E0,1.0309E4,5.886234E-1,1.03185E4,3.5711666E1,3.7462776E1,5E-1,5E-1,2.365E1,1.0316E4,1.9721073E1,9.9E1,1.03225E4,6.9E1,-1.870265E-1,-6.269637E-2,3.38E1,1.0317E4,-4.608006E-1,-6.8699494E-2,-5.0282083E-2,1.717302E-1,1.8966363E-1,-1.7056704E-1,6.442704E-1,8.9997295E-3,-3.0509156E-1,2.6979184E-1,4.9383432E-1,2.8152335E-2,6.5290585E-2,-1.7106107E-1,6.4793588E-3,3.2869577E-2,1.8704836E-1,7.28266E-2,-9.2800957E-4,1.6115792E-1,-4.6333075E-3,-1.5835421E-1,-2.052219E-2,-2.5169337E-1,2.967276E-1,2.660228E-2,5.6914438E-2,3.4156618E-1,-1.5860322E-1,1.0469141E-1,4.4582832E-1,1.3694526E-1,2.3152262E-1,1.1185216E-2],"split_indices":[41,41,40,33,37,1,40,17,0,21,29,0,0,7,33,5,36,33,32,4,0,40,40,0,29,0,28,40,19,0,33,0,33,37,36,32,32,27,33,7,40,33,40,0,0,3,33,0,0,0,0,0,0,0,0,0,0,0,0,0,0,0,0,0,0,0,0,0,0,0,0,0,0,0,0,0,0,0,0,0,0],"split_type":[0,0,0,0,0,0,0,0,0,0,0,0,0,0,0,0,0,0,0,0,0,0,0,0,0,0,0,0,0,0,0,0,0,0,0,0,0,0,0,0,0,0,0,0,0,0,0,0,0,0,0,0,0,0,0,0,0,0,0,0,0,0,0,0,0,0,0,0,0,0,0,0,0,0,0,0,0,0,0,0,0],"sum_hessian":[8.34E2,6.45E2,1.89E2,2.16E2,4.29E2,6E0,1.83E2,9.1E1,1.25E2,1.6E1,4.13E2,2E0,4E0,1.22E2,6.1E1,6.8E1,2.3E1,4.5E1,8E1,1E1,6E0,2.81E2,1.32E2,2E0,1.2E2,5E0,5.6E1,2.5E1,4.3E1,1.1E1,1.2E1,9E0,3.6E1,3.8E1,4.2E1,2E0,8E0,1.19E2,1.62E2,3.5E1,9.7E1,8.2E1,3.8E1,3E0,2E0,1.3E1,4.3E1,9E0,1.6E1,2.8E1,1.5E1,5E0,6E0,1E1,2E0,4E0,3.2E1,1.1E1,2.7E1,2.7E1,1.5E1,1E0,1E0,4E0,4E0,7.3E1,4.6E1,9.1E1,7.1E1,1.9E1,1.6E1,4.6E1,5.1E1,6.5E1,1.7E1,1.3E1,2.5E1,1.1E1,2E0,2.2E1,2.1E1],"tree_param":{"num_deleted":"0","num_feature":"42","num_nodes":"81","size_leaf_vector":"0"}},{"base_weights":[1.5776365E-1,2.796204E-1,1.0062038E-1,4.8274082E-1,1.3329999E-1,8.338623E-2,8.326235E-1,-8.9338607E-1,5.5608064E-1,-1.4415169E-1,6.177187E-1,-6.353147E-2,1.8358782E-1,1.0437438E0,-2.1902561E-1,5.65115E-1,-1.7639153E0,8.93487E-1,2.1462478E-1,-6.90384E-1,-7.4998713E-3,1.0275224E0,-3.2727382E-1,2.1505561E-1,-1.8153392E-1,-1.4301302E-1,2.621157E-1,1.5509701E0,7.5869685E-1,-5.2188706E-1,1.9334865E-1,1.3341249E0,3.475977E-2,4.250309E-1,-1.10740036E-1,-2.8874022E-1,-1.8375671E0,-5.7214105E-1,6.2216163E-2,-4.165321E-1,1.2946064E0,-7.945974E-1,7.398062E-1,-3.6012772E-1,4.2932418E-1,2.0451312E-1,-2.993246E-1,-5.5678546E-1,1.4711182E-1,1.513112E-1,6.884801E-1,1.4680605E0,2.3689938E-1,-1.7565364E-1,8.6772346E-1,7.709344E-1,-3.368611E-1,-7.3470426E-1,4.704555E-1,-4.7826782E-1,2.2387409E-1,-2.1373272E0,-3.1926346E-1,-6.973139E-1,-8.9357376E-2,5.135297E-1,-9.273708E-3,1.330328E-1,-1.1936296E0,1.4855169E0,3.4602097E-1,-1.4398894E0,1.9822486E-1,2.1044414E-3,1.1081309E0,-9.696895E-1,1.1222044E0,1.2016727E-1,1.0787721E0,6.584582E-1,-5.7876624E-2,-3.3279842E-1,1.1505612E0,2.1909748E-1,-1.0260752E0,-5.1608086E-1,3.9359483E-1,6.479924E-1,6.363302E-2,1.004399E0,-3.0845374E-1],"categories":[],"categories_nodes":[],"categories_segments":[],"categories_sizes":[],"default_left":[true,true,true,true,true,true,true,true,true,true,true,true,true,true,true,false,false,true,true,true,true,true,true,true,true,true,true,false,false,false,false,true,true,true,true,true,true,true,true,true,true,true,true,true,true,true,true,true,true,true,true,false,false,false,false,false,false,false,false,false,false,false,false,false,false,false,false,false,false,false,false,false,false,false,false,false,false,false,false,false,false,false,false,false,false,false,false,false,false,false,false],"id":12,"left_children":[1,3,5,7,9,11,13,15,17,19,21,23,25,27,29,-1,-1,31,33,35,37,39,41,43,45,47,49,-1,-1,-1,-1,51,53,55,57,59,61,63,65,67,69,71,73,75,77,79,81,83,85,87,89,-1,-1,-1,-1,-1,-1,-1,-1,-1,-1,-1,-1,-1,-1,-1,-1,-1,-1,-1,-1,-1,-1,-1,-1,-1,-1,-1,-1,-1,-1,-1,-1,-1,-1,-1,-1,-1,-1,-1,-1],"loss_changes":[5.786215E0,7.8413467E0,7.1213813E0,1.1699453E1,2.105588E1,8.226198E0,3.1149254E0,8.614822E0,1.20204315E1,7.459185E0,2.2410183E1,7.5014277E0,8.55238E0,4.1370106E-1,4.7558296E-1,0E0,0E0,2.0008179E1,3.74384E0,8.684599E0,3.2241244E0,1.5966606E1,9.563937E0,8.535184E0,7.336855E0,7.884877E0,1.25569725E1,0E0,0E0,0E0,0E0,4.795738E0,3.4824865E0,8.956554E0,8.32384E0,1.6615447E0,1.5932636E0,4.8157263E-1,2.36006E0,3.1482503E0,5.6432037E0,8.614003E0,1.6279509E0,1.8256077E1,9.909432E0,4.564309E0,6.3524904E0,1.0055886E1,6.5782905E0,9.278061E0,1.7632072E1,0E0,0E0,0E0,0E0,0E0,0E0,0E0,0E0,0E0,0E0,0E0,0E0,0E0,0E0,0E0,0E0,0E0,0E0,0E0,0E0,0E0,0E0,0E0,0E0,0E0,0E0,0E0,0E0,0E0,0E0,0E0,0E0,0E0,0E0,0E0,0E0,0E0,0E0,0E0,0E0],"parents":[2147483647,0,0,1,1,2,2,3,3,4,4,5,5,6,6,7,7,8,8,9,9,10,10,11,11,12,12,13,13,14,14,17,17,18,18,19,19,20,20,21,21,22,22,23,23,24,24,25,25,26,26,31,31,32,32,33,33,34,34,35,35,36,36,37,37,38,38,39,39,40,40,41,41,42,42,43,43,44,44,45,45,46,46,47,47,48,48,49,49,50,50],"right_children":[2,4,6,8,10,12,14,16,18,20,22,24,26,28,30,-1,-1,32,34,36,38,40,42,44,46,48,50,-1,-1,-1,-1,52,54,56,58,60,62,64,66,68,70,72,74,76,78,80,82,84,86,88,90,-1,-1,-1,-1,-1,-1,-1,-1,-1,-1,-1,-1,-1,-1,-1,-1,-1,-1,-1,-1,-1,-1,-1,-1,-1,-1,-1,-1,-1,-1,-1,-1,-1,-1,-1,-1,-1,-1,-1,-1],"split_conditions":[5.159875E1,6.347254E1,3.705E1,4.95E1,5.151375E1,9.75E1,7.3685E2,3.45E0,5E-1,1.3143054E0,3.74375E2,2.775E1,7.2755005E2,5.14675E1,5E-1,1.695345E-1,-5.291746E-1,3.554861E1,4.1325E2,1.1248171E0,7.5015E2,2.2105687E0,1.03125E4,1.03125E4,9.410669E2,3.0054634E0,2.49E1,4.6529105E-1,2.2760907E-1,-1.5656613E-1,5.8004595E-2,1.8685112E-2,1.8685112E-2,1.032E4,6.75E1,5.112681E1,1.03125E4,6.45E0,7.5185E2,3.35E0,1.03125E4,3.241672E0,3.42E1,5.0859787E-3,2.2599998E1,7.547E2,8.1083655E-1,1.305E2,5.1641388E1,5.1578056E1,5.224389E1,4.4041815E-1,7.1069814E-2,-5.2696094E-2,2.6031706E-1,2.3128033E-1,-1.01058334E-1,-2.2041129E-1,1.4113666E-1,-1.4348035E-1,6.716223E-2,-6.4119816E-1,-9.577904E-2,-2.0919418E-1,-2.6807213E-2,1.5405892E-1,-2.7821125E-3,3.990984E-2,-3.580889E-1,4.4565508E-1,1.03806295E-1,-4.3196684E-1,5.946746E-2,6.3133246E-4,3.324393E-1,-2.9090685E-1,3.3666134E-1,3.605018E-2,3.2363164E-1,1.9753747E-1,-1.7362988E-2,-9.983953E-2,3.4516838E-1,6.5729246E-2,-3.078226E-1,-1.5482426E-1,1.18078455E-1,1.9439772E-1,1.9089906E-2,3.013197E-1,-9.253612E-2],"split_indices":[34,11,3,40,34,40,2,0,32,23,21,26,2,38,32,0,0,37,21,23,4,10,33,33,15,10,27,0,0,0,0,9,9,33,40,35,33,0,4,0,33,10,3,9,27,4,17,40,35,35,34,0,0,0,0,0,0,0,0,0,0,0,0,0,0,0,0,0,0,0,0,0,0,0,0,0,0,0,0,0,0,0,0,0,0,0,0,0,0,0,0],"split_type":[0,0,0,0,0,0,0,0,0,0,0,0,0,0,0,0,0,0,0,0,0,0,0,0,0,0,0,0,0,0,0,0,0,0,0,0,0,0,0,0,0,0,0,0,0,0,0,0,0,0,0,0,0,0,0,0,0,0,0,0,0,0,0,0,0,0,0,0,0,0,0,0,0,0,0,0,0,0,0,0,0,0,0,0,0,0,0,0,0,0,0],"sum_hessian":[8.34E2,2.65E2,5.69E2,1.1E2,1.55E2,5.57E2,1.2E1,5E0,1.05E2,9.9E1,5.6E1,2.26E2,3.31E2,1E1,2E0,2E0,3E0,5.2E1,5.3E1,1.9E1,8E1,3.9E1,1.7E1,6.7E1,1.59E2,6.4E1,2.67E2,2E0,8E0,1E0,1E0,3.4E1,1.8E1,3.2E1,2.1E1,1.5E1,4E0,8E0,7.2E1,6E0,3.3E1,1.2E1,5E0,1.8E1,4.9E1,3.7E1,1.22E2,2.6E1,3.8E1,2.13E2,5.4E1,3E1,4E0,1.5E1,3E0,2.2E1,1E1,1E1,1.1E1,1.1E1,4E0,3E0,1E0,6E0,2E0,9E0,6.3E1,4E0,2E0,2.7E1,6E0,7E0,5E0,2E0,3E0,1.3E1,5E0,3.4E1,1.5E1,1.3E1,2.4E1,1.2E2,2E0,1E1,1.6E1,1E1,2.8E1,3.1E1,1.82E2,4.1E1,1.3E1],"tree_param":{"num_deleted":"0","num_feature":"42","num_nodes":"91","size_leaf_vector":"0"}},{"base_weights":[1.1195908E-1,1.3170512E-1,-2.0068793E-1,7.946022E-2,2.39558E-1,-8.872771E-1,-8.689674E-2,5.7120774E-2,4.3793124E-1,8.473783E-1,2.0880942E-1,5.8017354E-2,-3.204672E-1,1.8414688E-1,2.828057E-3,6.241096E-1,-6.550183E-1,1.2210679E0,4.0601894E-1,-2.1627438E-1,2.6026356E-1,-3.8876843E-2,4.1977558E-1,-6.439659E-1,-2.962156E-2,-2.8432435E-1,2.939954E-1,-5.263566E-1,5.5572856E-2,9.437299E-2,9.824053E-1,-1.0166355E0,-7.506166E-2,3.9302677E-1,-1.291389E0,4.7280687E-1,1.4168157E-1,3.2010436E-2,-3.8359404E-1,-6.298653E-2,-8.2712793E-1,-1.527036E-1,1.931774E-1,5.992765E-1,-5.927099E-1,1.1147093E0,2.1876413E-1,-1.2309555E0,9.005121E-2,1.645999E0,4.0441662E-2,-2.8921637E-1,2.0001249E-1,1.1938585E0,4.958105E-2,-1.7734969E-1,6.47572E-2,1.1636393E0,-8.9249454E-2,-2.090071E0,-7.469292E-2,7.141044E-1,-6.730812E-2,-2.548562E-1,2.7875906E-1,6.777841E-2,-8.8849165E-2,-1.7111063E-2,-7.7368736E-2,-1.826129E-1,-9.1950834E-1,-1.888326E-1,3.20352E-2,-2.5989306E-1,4.308319E-1],"categories":[],"categories_nodes":[],"categories_segments":[],"categories_sizes":[],"default_left":[true,true,true,true,true,false,true,true,true,true,true,true,true,true,true,true,true,false,false,true,true,true,false,true,true,true,true,true,true,true,true,false,true,true,true,true,true,true,false,true,true,true,true,false,false,false,false,false,false,false,false,false,false,false,false,false,false,false,false,false,false,false,false,false,false,false,false,false,false,false,false,false,false,false,false],"id":13,"left_children":[1,3,5,7,9,-1,11,13,15,17,19,21,23,25,27,29,31,-1,-1,33,35,37,-1,39,41,43,45,47,49,51,53,-1,55,57,59,61,63,65,-1,67,69,71,73,-1,-1,-1,-1,-1,-1,-1,-1,-1,-1,-1,-1,-1,-1,-1,-1,-1,-1,-1,-1,-1,-1,-1,-1,-1,-1,-1,-1,-1,-1,-1,-1],"loss_changes":[5.1813393E0,4.409889E0,3.8292882E0,4.2272563E0,4.6075993E0,0E0,1.5078895E0,3.454672E0,6.7167954E0,1.4834003E0,5.4150047E0,9.9778306E-1,1.5804238E0,7.8027205E0,9.854183E0,5.031951E0,9.7230124E-1,0E0,0E0,1.8194403E1,5.4526453E0,5.743085E-1,0E0,7.992089E-1,3.0372438E-1,8.257399E0,7.2888308E0,1.4009098E1,7.658313E0,5.4411316E-1,3.0967855E0,0E0,5.4390058E-2,6.7935205E0,9.561419E0,1.0213684E1,7.789654E0,9.248011E-2,0E0,6.555086E-4,1.8932915E-1,5.2770287E-2,5.4266715E-1,0E0,0E0,0E0,0E0,0E0,0E0,0E0,0E0,0E0,0E0,0E0,0E0,0E0,0E0,0E0,0E0,0E0,0E0,0E0,0E0,0E0,0E0,0E0,0E0,0E0,0E0,0E0,0E0,0E0,0E0,0E0,0E0],"parents":[2147483647,0,0,1,1,2,2,3,3,4,4,6,6,7,7,8,8,9,9,10,10,11,11,12,12,13,13,14,14,15,15,16,16,19,19,20,20,21,21,23,23,24,24,25,25,26,26,27,27,28,28,29,29,30,30,32,32,33,33,34,34,35,35,36,36,37,37,39,39,40,40,41,41,42,42],"right_children":[2,4,6,8,10,-1,12,14,16,18,20,22,24,26,28,30,32,-1,-1,34,36,38,-1,40,42,44,46,48,50,52,54,-1,56,58,60,62,64,66,-1,68,70,72,74,-1,-1,-1,-1,-1,-1,-1,-1,-1,-1,-1,-1,-1,-1,-1,-1,-1,-1,-1,-1,-1,-1,-1,-1,-1,-1,-1,-1,-1,-1,-1,-1],"split_conditions":[3.8096664E1,4.115E0,9.65E1,3.4410098E0,3.499861E1,-2.6618314E-1,2.0108494E1,5E-1,5.224389E1,5.2E0,6.1E1,1.9562294E1,5E-1,1.03065E4,3.499861E1,5.1620537E1,1.0315E4,3.6632037E-1,1.2180569E-1,1.0311E4,7.594453E-1,7.4656647E2,1.2593268E-1,2.6990995E0,3.68E1,6.243627E1,3.499861E1,1.3550436E-2,-4.4E0,7.3255005E2,7.3415E2,-3.0499068E-1,5E-1,1.7887713E0,7.208178E-1,1.03225E4,1.0312E4,5.720879E-1,-1.1507822E-1,6.95E0,1.0306E4,6.435E0,1.0306E4,1.7978296E-1,-1.7781298E-1,3.3441278E-1,6.5629244E-2,-3.6928666E-1,2.7015364E-2,4.9379972E-1,1.2132499E-2,-8.676492E-2,6.000375E-2,3.5815758E-1,1.4874316E-2,-5.320491E-2,1.942716E-2,3.490918E-1,-2.6774837E-2,-6.270213E-1,-2.2407876E-2,2.1423133E-1,-2.0192437E-2,-7.645686E-2,8.362772E-2,2.0333523E-2,-2.665475E-2,-5.133319E-3,-2.3210622E-2,-5.478387E-2,-2.758525E-1,-5.664978E-2,9.610561E-3,-7.796792E-2,1.2924957E-1],"split_indices":[36,1,5,10,36,0,7,41,34,0,40,7,32,33,36,38,33,0,0,33,16,8,0,10,3,11,36,17,0,2,2,0,32,12,17,33,33,13,0,0,33,1,33,0,0,0,0,0,0,0,0,0,0,0,0,0,0,0,0,0,0,0,0,0,0,0,0,0,0,0,0,0,0,0,0],"split_type":[0,0,0,0,0,0,0,0,0,0,0,0,0,0,0,0,0,0,0,0,0,0,0,0,0,0,0,0,0,0,0,0,0,0,0,0,0,0,0,0,0,0,0,0,0,0,0,0,0,0,0,0,0,0,0,0,0,0,0,0,0,0,0,0,0,0,0,0,0,0,0,0,0,0,0],"sum_hessian":[8.34E2,7.85E2,4.9E1,5.3E2,2.55E2,6E0,4.3E1,5E2,3E1,1.1E1,2.44E2,2.7E1,1.6E1,1.49E2,3.51E2,2.6E1,4E0,5E0,6E0,2.6E1,2.18E2,2.2E1,5E0,7E0,9E0,2.8E1,1.21E2,3.1E1,3.2E2,1.1E1,1.5E1,2E0,2E0,1.7E1,9E0,7.7E1,1.41E2,1.9E1,3E0,2E0,5E0,6E0,3E0,7E0,2.1E1,9E0,1.12E2,1.4E1,1.7E1,2E0,3.18E2,2E0,9E0,1.2E1,3E0,1E0,1E0,6E0,1.1E1,5E0,4E0,5.3E1,2.4E1,3.6E1,1.05E2,1.5E1,4E0,1E0,1E0,1E0,4E0,5E0,1E0,1E0,2E0],"tree_param":{"num_deleted":"0","num_feature":"42","num_nodes":"75","size_leaf_vector":"0"}},{"base_weights":[7.875338E-2,-9.1165864E-1,8.222575E-2,9.7110346E-2,-1.5280925E-1,1.6524579E-1,3.2284416E-2,-6.591202E-1,-6.8786845E-2,7.286108E-2,5.2437514E-1,1.1849776E-1,-1.3974279E-1,-8.656931E-1,-2.8776726E-1,4.0774193E-2,-2.4519402E-1,1.6029269E-1,-1.3450876E-1,6.968313E-1,-1.058917E-2,1.3824707E-1,-7.702219E-1,-6.124538E-1,-5.2206498E-2,-9.945094E-1,-2.3962212E-1,-7.261342E-2,-3.3528075E-1,-3.249185E-2,3.1483164E-1,-4.956487E-1,-2.0310873E-2,4.6518075E-1,6.264346E-2,-2.6995724E-1,2.7768487E-1,5.4156864E-1,1.7728436E0,4.036857E-1,-3.2041287E-1,3.7841314E-1,5.4645352E-2,-9.3727994E-1,-2.9073715E-1,4.4065046E-1,-1.0630722E0,-5.0287884E-1,6.592767E-2,2.2091413E-2,-2.972852E-1,6.621981E-2,3.5131007E-1,-5.353864E-2,-6.340956E-1,-1.6214338E-1,1.0126802E-1],"categories":[],"categories_nodes":[],"categories_segments":[],"categories_sizes":[],"default_left":[true,false,true,true,true,true,true,true,true,true,true,true,true,true,true,true,true,true,true,true,true,true,true,true,true,false,false,false,false,true,true,true,true,false,false,false,false,false,false,false,false,false,false,false,false,false,false,false,false,false,false,false,false,false,false,false,false],"id":14,"left_children":[1,-1,3,5,7,9,11,13,15,17,19,21,23,25,27,29,31,33,35,37,39,41,43,45,47,-1,-1,-1,-1,49,51,53,55,-1,-1,-1,-1,-1,-1,-1,-1,-1,-1,-1,-1,-1,-1,-1,-1,-1,-1,-1,-1,-1,-1,-1,-1],"loss_changes":[2.9465895E0,0E0,2.9290075E0,3.4575486E0,2.0817344E0,1.2635814E1,5.9934683E0,2.8786206E-1,8.604012E-1,5.5514174E0,7.203493E0,4.827863E0,5.554241E0,8.4285975E-2,1.6544908E-2,5.724444E-1,9.4742465E-1,6.371857E0,5.155584E0,8.896688E0,2.6963894E0,5.2799916E0,2.0810866E-1,1.0433954E1,6.155731E0,0E0,0E0,0E0,0E0,3.38993E-1,3.1150103E-2,4.557215E-1,1.8885833E-1,0E0,0E0,0E0,0E0,0E0,0E0,0E0,0E0,0E0,0E0,0E0,0E0,0E0,0E0,0E0,0E0,0E0,0E0,0E0,0E0,0E0,0E0,0E0,0E0],"parents":[2147483647,0,0,2,2,3,3,4,4,5,5,6,6,7,7,8,8,9,9,10,10,11,11,12,12,13,13,14,14,15,15,16,16,17,17,18,18,19,19,20,20,21,21,22,22,23,23,24,24,29,29,30,30,31,31,32,32],"right_children":[2,-1,4,6,8,10,12,14,16,18,20,22,24,26,28,30,32,34,36,38,40,42,44,46,48,-1,-1,-1,-1,50,52,54,56,-1,-1,-1,-1,-1,-1,-1,-1,-1,-1,-1,-1,-1,-1,-1,-1,-1,-1,-1,-1,-1,-1,-1,-1],"split_conditions":[-9.380159E-2,-2.734976E-1,3.8096664E1,5E-1,9.65E1,3.7462776E1,1.03215E4,5E-1,2.0108494E1,4.087E2,7.0186386E0,5.391E3,7.55E1,3.85E0,2.5500002E0,1.9562294E1,5E-1,6.157846E1,6E0,6.836049E0,5.790045E-1,2.775E1,1.0316E4,5.6354684E-1,1.3578386E0,-2.9835284E-1,-7.188664E-2,-2.1784026E-2,-1.0058423E-1,7.4656647E2,3.31E1,2.6990995E0,3.5550003E1,1.3955423E-1,1.8793039E-2,-8.098718E-2,8.330546E-2,1.624706E-1,5.318531E-1,1.2110571E-1,-9.612387E-2,1.13523945E-1,1.6393606E-2,-2.81184E-1,-8.7221146E-2,1.3219514E-1,-3.189217E-1,-1.5086366E-1,1.9778302E-2,6.627424E-3,-8.9185566E-2,1.9865943E-2,1.0539303E-1,-1.6061593E-2,-1.9022869E-1,-4.8643015E-2,3.0380407E-2],"split_indices":[9,0,36,32,5,36,33,32,7,21,18,22,40,0,0,7,32,11,0,18,25,26,33,25,23,0,0,0,0,8,3,10,3,0,0,0,0,0,0,0,0,0,0,0,0,0,0,0,0,0,0,0,0,0,0,0,0],"split_type":[0,0,0,0,0,0,0,0,0,0,0,0,0,0,0,0,0,0,0,0,0,0,0,0,0,0,0,0,0,0,0,0,0,0,0,0,0,0,0,0,0,0,0,0,0,0,0,0,0,0,0,0,0,0,0,0,0],"sum_hessian":[8.34E2,2E0,8.32E2,7.83E2,4.9E1,3.81E2,4.02E2,6E0,4.3E1,3.04E2,7.7E1,2.68E2,1.34E2,3E0,3E0,2.7E1,1.6E1,2.14E2,9E1,5.8E1,1.9E1,2.63E2,5E0,2E1,1.14E2,2E0,1E0,1E0,2E0,2.2E1,5E0,7E0,9E0,5.1E1,1.63E2,6.8E1,2.2E1,5.2E1,6E0,8E0,1.1E1,6.7E1,1.96E2,3E0,2E0,6E0,1.4E1,2.3E1,9.1E1,1.9E1,3E0,1E0,4E0,2E0,5E0,4E0,5E0],"tree_param":{"num_deleted":"0","num_feature":"42","num_nodes":"57","size_leaf_vector":"0"}},{"base_weights":[5.4379717E-2,1.3650042E-1,2.1797108E-2,7.347317E-1,9.276978E-2,6.3672396E-3,6.221088E-1,9.5992005E-1,4.5292738E-1,4.564581E-1,2.6853524E-2,-1.03830315E-1,7.602874E-2,1.1935164E0,3.0582276E-1,1.4005474E0,1.6915584E-1,8.546702E-2,5.4570645E-1,9.96867E-1,2.2203618E-1,2.216314E-1,-6.77018E-2,-3.3574662E-1,-3.2999493E-2,-1.677603E-2,2.0544855E-1,6.4402485E-1,2.0560894E-2,4.159759E-1,-2.8565216E-1,2.9854012E-1,-1.7033958E-1,1.4072766E0,-1.3484101E0,8.3994895E-1,-4.1295627E-1,-9.115857E-2,4.0843466E-1,1.3507184E-2,-4.595954E-1,8.7976736E-1,-5.7138836E-1,6.1791316E-2,-4.1392818E-1,-1.0706568E-1,1.862865E-1,3.8922974E-1,6.789173E-2,1.0515392E-1,-6.917235E-2,1.602294E0,4.8314413E-1,3.8449097E-2,1.191899E0,-9.708701E-1,2.0395128E-1,2.137462E-1,-3.2421526E-1,7.970319E-1,1.0345262E-1,-4.147923E-2,3.5352245E-1,4.113167E-1,-6.7598236E-1,1.7232189E0,1.7083843E-1,-1.0786074E0,-3.9326314E-2,1.5263869E-1,-6.0983884E-1,-9.9145705E-1,2.5589398E-1,4.7729167E-1,-1.6777197E-1,-6.365316E-1,2.3636691E-1,-2.0110454E-2,5.757505E-1,7.9680693E-1,-1.474935E-1,4.604287E-1,-1.6674726E-1,-4.3331861E-1,1.9664927E-1],"categories":[],"categories_nodes":[],"categories_segments":[],"categories_sizes":[],"default_left":[true,true,true,true,true,true,true,true,true,true,true,true,true,false,true,false,true,true,false,true,true,true,true,true,true,true,true,false,true,false,false,false,false,true,false,true,true,true,true,true,true,true,true,true,true,true,true,true,true,true,true,false,false,false,false,false,false,false,false,false,false,false,false,false,false,false,false,false,false,false,false,false,false,false,false,false,false,false,false,false,false,false,false,false,false],"id":15,"left_children":[1,3,5,7,9,11,13,15,17,19,21,23,25,-1,27,-1,29,31,-1,33,35,37,39,41,43,45,47,-1,49,-1,-1,-1,-1,51,-1,53,55,57,59,61,63,65,67,69,71,73,75,77,79,81,83,-1,-1,-1,-1,-1,-1,-1,-1,-1,-1,-1,-1,-1,-1,-1,-1,-1,-1,-1,-1,-1,-1,-1,-1,-1,-1,-1,-1,-1,-1,-1,-1,-1,-1],"loss_changes":[2.2312393E0,6.132004E0,5.5444145E0,5.805712E-1,5.309742E0,4.4986625E0,2.3459191E0,2.550548E0,2.6019382E-1,4.0859046E0,3.4958715E0,3.7178094E0,4.3153152E0,0E0,1.0479962E0,0E0,5.678473E-1,2.143697E-1,0E0,1.152283E1,1.0156111E1,3.659904E0,4.079844E0,1.5683259E1,6.344572E0,3.8701782E0,3.7656279E0,0E0,6.040939E-2,0E0,0E0,0E0,0E0,8.478584E-1,0E0,3.621315E0,4.6723666E0,1.7747421E0,4.539637E0,2.0151594E0,4.4240313E0,5.0871325E0,1.2101824E1,8.696317E0,1.3793166E1,5.259305E0,2.8289146E0,4.8980083E0,1.3776312E1,4.6317375E-1,4.724036E-1,0E0,0E0,0E0,0E0,0E0,0E0,0E0,0E0,0E0,0E0,0E0,0E0,0E0,0E0,0E0,0E0,0E0,0E0,0E0,0E0,0E0,0E0,0E0,0E0,0E0,0E0,0E0,0E0,0E0,0E0,0E0,0E0,0E0,0E0],"parents":[2147483647,0,0,1,1,2,2,3,3,4,4,5,5,6,6,7,7,8,8,9,9,10,10,11,11,12,12,14,14,16,16,17,17,19,19,20,20,21,21,22,22,23,23,24,24,25,25,26,26,28,28,33,33,35,35,36,36,37,37,38,38,39,39,40,40,41,41,42,42,43,43,44,44,45,45,46,46,47,47,48,48,49,49,50,50],"right_children":[2,4,6,8,10,12,14,16,18,20,22,24,26,-1,28,-1,30,32,-1,34,36,38,40,42,44,46,48,-1,50,-1,-1,-1,-1,52,-1,54,56,58,60,62,64,66,68,70,72,74,76,78,80,82,84,-1,-1,-1,-1,-1,-1,-1,-1,-1,-1,-1,-1,-1,-1,-1,-1,-1,-1,-1,-1,-1,-1,-1,-1,-1,-1,-1,-1,-1,-1,-1,-1,-1,-1],"split_conditions":[5.1563614E1,7.2869995E2,3.705E1,5E-1,3.9338726E-1,9.75E1,5.14675E1,5.85E0,3.5E0,5.25E1,1.891645E1,1.8432777E1,5.350837E-1,3.5805494E-1,3.7462776E1,4.2016423E-1,1.0312E4,1.0312E4,1.6371194E-1,4.25E0,5E-1,5.125907E1,2.0599008E0,6.6E1,5.1871944E1,3.1779017E0,1.886628E1,1.9320746E-1,5E-1,1.2479278E-1,-8.5695654E-2,8.9562036E-2,-5.110188E-2,3.05E0,-4.0452304E-1,2.1538438E3,5.1094166E1,4.436245E-3,2.6427326E0,1.3055413E3,5.140708E1,3.2699997E1,8.2082406E-2,7.3455005E2,7.393301E2,3.429111E1,1.03065E4,1.03095E4,1.03075E4,4.1E0,4.1E0,4.806882E-1,1.4494325E-1,1.153473E-2,3.575697E-1,-2.9126105E-1,6.1185386E-2,6.412386E-2,-9.726458E-2,2.3910958E-1,3.1035788E-2,-1.244377E-2,1.0605674E-1,1.2339501E-1,-2.0279472E-1,5.169657E-1,5.125153E-2,-3.2358223E-1,-1.1797895E-2,4.5791607E-2,-1.8295166E-1,-2.9743713E-1,7.67682E-2,1.4318751E-1,-5.0331593E-2,-1.9095948E-1,7.0910074E-2,-6.0331365E-3,1.7272517E-1,2.3904209E-1,-4.4248052E-2,1.3812862E-1,-5.0024178E-2,-1.2999558E-1,5.899478E-2],"split_indices":[34,2,3,32,13,40,38,0,1,40,7,7,13,0,36,0,33,33,0,0,32,38,23,40,34,10,7,0,32,0,0,0,0,0,0,19,35,9,10,15,34,3,24,2,8,37,33,33,33,0,0,0,0,0,0,0,0,0,0,0,0,0,0,0,0,0,0,0,0,0,0,0,0,0,0,0,0,0,0,0,0,0,0,0,0],"split_type":[0,0,0,0,0,0,0,0,0,0,0,0,0,0,0,0,0,0,0,0,0,0,0,0,0,0,0,0,0,0,0,0,0,0,0,0,0,0,0,0,0,0,0,0,0,0,0,0,0,0,0,0,0,0,0,0,0,0,0,0,0,0,0,0,0,0,0,0,0,0,0,0,0,0,0,0,0,0,0,0,0,0,0,0,0],"sum_hessian":[8.34E2,2.36E2,5.98E2,1.5E1,2.21E2,5.84E2,1.4E1,7E0,8E0,3.3E1,1.88E2,2.26E2,3.58E2,4E0,1E1,4E0,3E0,2E0,6E0,9E0,2.4E1,6.1E1,1.27E2,5.2E1,1.74E2,2.09E2,1.49E2,4E0,6E0,2E0,1E0,1E0,1E0,8E0,1E0,1.2E1,1.2E1,2.3E1,3.8E1,1.06E2,2.1E1,8E0,4.4E1,1.4E2,3.4E1,1.45E2,6.4E1,6.3E1,8.6E1,3E0,3E0,6E0,2E0,4E0,8E0,6E0,6E0,1E1,1.3E1,1.6E1,2.2E1,9.2E1,1.4E1,4E0,1.7E1,3E0,5E0,2.2E1,2.2E1,1.24E2,1.6E1,1.8E1,1.6E1,1.3E1,1.32E2,3E0,6.1E1,2E1,4.3E1,1.9E1,6.7E1,1E0,2E0,1E0,2E0],"tree_param":{"num_deleted":"0","num_feature":"42","num_nodes":"85","size_leaf_vector":"0"}},{"base_weights":[4.0521406E-2,-7.892421E-3,9.3955025E-2,8.414208E-1,-3.9923362E-2,3.367534E-1,3.353175E-2,-2.5927505E-1,1.2299258E0,-1.19825296E-1,2.4185815E-1,5.708323E-1,-1.6236256E-1,-3.7344685E-1,1.2925439E-1,-5.7956344E-1,1.4743836E-1,6.3682574E-1,1.5625935E0,-6.3116275E-2,-5.085346E-1,-7.51455E-2,7.5467366E-1,1.064001E0,3.154845E-1,2.3188671E-1,-5.1685387E-1,-8.6102855E-1,1.5908854E-1,-2.2145155E-1,2.121403E-1,1.9134529E0,8.210857E-1,1.5294145E-1,-1.6427916E-1,-6.082257E-1,7.681029E-2,1.19913235E-1,-7.7457744E-1,1.4718869E0,1.7228867E-1,4.8435974E-1,1.1950157E0,8.091837E-1,1.5138873E-1,6.812513E-1,2.8952217E-2,-6.617983E-1,6.83712E-1,-1.3529034E0,-3.806514E-2,5.064564E-1,-2.2204307E-1,3.378876E-1,-5.751719E-1,3.7362477E-1,-9.603773E-2,1.0250349E0,1.04619026E-1,5.549572E-1,-1.992799E-2,-6.2851095E-1,-7.7639505E-2,-8.1430423E-1,-3.56908E-1,-9.861775E-2,3.4358692E-1,4.8676318E-1,-1.9511029E-1,-1.4491731E0,1.0672101E-2,4.9012816E-1,-1.6121344E-1,1.5007765E0,6.7485815E-1,5.022234E-1,1.2556967E0,2.5646055E-1,-4.0424806E-1,8.605604E-1,7.166195E-2,2.6524797E-1,-6.327772E-2,-2.9647493E-1,-9.3257904E-1,8.285153E-2,-1.6111455E0,2.6507255E-1,-5.761E-1,-1.9326806E-1,1.0721607E0,7.796901E-1,-4.36132E-1,-1.4382046E-1,8.339777E-1,-1.7779651E-1,-1.1895332E0,4.7807807E-1,-1.1762724E-1,3.5836402E-1,-2.625562E-1],"categories":[],"categories_nodes":[],"categories_segments":[],"categories_sizes":[],"default_left":[true,true,true,true,true,true,true,true,true,true,true,true,true,true,true,false,false,false,true,true,true,true,true,true,true,true,true,true,true,true,true,false,true,true,true,true,true,true,true,false,true,false,true,true,true,true,true,true,false,true,true,true,true,true,true,true,true,false,false,false,false,false,false,false,false,false,false,false,false,false,false,false,false,false,false,false,false,false,false,false,false,false,false,false,false,false,false,false,false,false,false,false,false,false,false,false,false,false,false,false,false],"id":16,"left_children":[1,3,5,7,9,11,13,15,17,19,21,23,25,27,29,-1,-1,-1,31,33,35,37,39,41,43,45,47,49,51,53,55,-1,57,59,61,63,65,67,69,-1,71,-1,73,75,77,79,81,83,-1,85,87,89,91,93,95,97,99,-1,-1,-1,-1,-1,-1,-1,-1,-1,-1,-1,-1,-1,-1,-1,-1,-1,-1,-1,-1,-1,-1,-1,-1,-1,-1,-1,-1,-1,-1,-1,-1,-1,-1,-1,-1,-1,-1,-1,-1,-1,-1,-1,-1],"loss_changes":[2.1608248E0,1.1976282E1,5.8129654E0,7.160901E0,9.575294E0,9.322452E0,1.2475573E1,7.367778E-1,1.3725624E0,7.2642436E0,1.5337764E1,6.4645176E0,3.753558E0,1.5975904E1,7.5757422E0,0E0,0E0,0E0,2.5004578E-1,6.3636627E0,2.497572E0,8.14227E0,1.4783403E1,7.881298E-1,2.875015E0,1.1657667E0,2.8886943E0,1.2901941E1,4.084241E0,1.0086825E1,1.04867325E1,0E0,4.7725296E-1,6.47421E0,7.9149384E0,1.5738516E0,3.6148447E-1,5.526592E0,6.9019027E0,0E0,2.3050182E0,0E0,1.2138023E0,6.0291576E-1,1.7967446E0,3.755504E-1,2.3471974E-1,1.0095062E0,0E0,7.548935E0,2.2729905E0,6.540609E0,3.5569482E0,4.899355E0,7.3566017E0,7.137413E0,5.617729E0,0E0,0E0,0E0,0E0,0E0,0E0,0E0,0E0,0E0,0E0,0E0,0E0,0E0,0E0,0E0,0E0,0E0,0E0,0E0,0E0,0E0,0E0,0E0,0E0,0E0,0E0,0E0,0E0,0E0,0E0,0E0,0E0,0E0,0E0,0E0,0E0,0E0,0E0,0E0,0E0,0E0,0E0,0E0,0E0],"parents":[2147483647,0,0,1,1,2,2,3,3,4,4,5,5,6,6,7,7,8,8,9,9,10,10,11,11,12,12,13,13,14,14,18,18,19,19,20,20,21,21,22,22,23,23,24,24,25,25,26,26,27,27,28,28,29,29,30,30,32,32,33,33,34,34,35,35,36,36,37,37,38,38,40,40,42,42,43,43,44,44,45,45,46,46,47,47,49,49,50,50,51,51,52,52,53,53,54,54,55,55,56,56],"right_children":[2,4,6,8,10,12,14,16,18,20,22,24,26,28,30,-1,-1,-1,32,34,36,38,40,42,44,46,48,50,52,54,56,-1,58,60,62,64,66,68,70,-1,72,-1,74,76,78,80,82,84,-1,86,88,90,92,94,96,98,100,-1,-1,-1,-1,-1,-1,-1,-1,-1,-1,-1,-1,-1,-1,-1,-1,-1,-1,-1,-1,-1,-1,-1,-1,-1,-1,-1,-1,-1,-1,-1,-1,-1,-1,-1,-1,-1,-1,-1,-1,-1,-1,-1,-1],"split_conditions":[1.5E0,4.95E1,1.03065E4,2.8511581E0,1.305E2,3.385E1,1.03105E4,-1.1E0,7.546E2,2.3413798E-1,3.6554306E1,2.5469713E0,5E-1,4.77E0,6.9E1,-1.7386904E-1,4.423151E-2,1.9104773E-1,5E-1,6.9E1,6.55E0,1.2045454E-2,2.4499998E0,1.03015E4,6.130703E1,4.2E0,5.4467237E-1,6.5993935E1,6.5548496E0,3.285E1,6.536458E1,5.740359E-1,4.05E0,2.0382562E3,7.3882495E2,1.0311E4,5.163639E1,5E-1,5E-1,4.4156608E-1,7.2835E2,1.4530793E-1,6.06528E0,5.75E0,1.195E2,3.5361526E1,1.03015E4,5.367E3,2.051136E-1,3.0500002E0,1.03095E4,1.03085E4,1.03075E4,1.03185E4,5.1410835E1,5.210125E1,4.2E0,3.075105E-1,3.138571E-2,1.6648717E-1,-5.978397E-3,-1.8855329E-1,-2.3291852E-2,-2.4429128E-1,-1.07072406E-1,-2.9585326E-2,1.0307608E-1,1.4602897E-1,-5.853309E-2,-4.3475196E-1,3.2016304E-3,1.4703846E-1,-4.8364036E-2,4.5023298E-1,2.0245746E-1,1.5066701E-1,3.76709E-1,7.693817E-2,-1.2127442E-1,2.5816813E-1,2.1498585E-2,7.957439E-2,-1.8983318E-2,-8.894248E-2,-2.797737E-1,2.485546E-2,-4.8334366E-1,7.952177E-2,-1.7283E-1,-5.7980422E-2,3.2164824E-1,2.3390703E-1,-1.3083962E-1,-4.314614E-2,2.5019333E-1,-5.3338956E-2,-3.5685998E-1,1.4342342E-1,-3.5288174E-2,1.0750921E-1,-7.876686E-2],"split_indices":[41,40,33,10,40,3,33,0,4,24,36,10,32,1,40,0,0,0,32,40,0,9,0,33,11,0,13,11,18,3,11,0,0,19,8,33,34,41,32,0,2,0,18,0,40,37,33,22,0,0,33,33,33,33,35,34,28,0,0,0,0,0,0,0,0,0,0,0,0,0,0,0,0,0,0,0,0,0,0,0,0,0,0,0,0,0,0,0,0,0,0,0,0,0,0,0,0,0,0,0,0],"split_type":[0,0,0,0,0,0,0,0,0,0,0,0,0,0,0,0,0,0,0,0,0,0,0,0,0,0,0,0,0,0,0,0,0,0,0,0,0,0,0,0,0,0,0,0,0,0,0,0,0,0,0,0,0,0,0,0,0,0,0,0,0,0,0,0,0,0,0,0,0,0,0,0,0,0,0,0,0,0,0,0,0,0,0,0,0,0,0,0,0,0,0,0,0,0,0,0,0,0,0,0,0],"sum_hessian":[8.34E2,4.38E2,3.96E2,1.5E1,4.23E2,7.8E1,3.18E2,4E0,1.1E1,3.3E2,9.3E1,5.3E1,2.5E1,6E1,2.58E2,2E0,2E0,5E0,6E0,2.89E2,4.1E1,5.8E1,3.5E1,1.7E1,3.6E1,1.2E1,1.3E1,3.1E1,2.9E1,4.9E1,2.09E2,3E0,3E0,9.2E1,1.97E2,3.5E1,6E0,4.6E1,1.2E1,1.5E1,2E1,4E0,1.3E1,8E0,2.8E1,3E0,9E0,1.2E1,1E0,1.9E1,1.2E1,1.5E1,1.4E1,1.9E1,3E1,1.37E2,7.2E1,2E0,1E0,2.7E1,6.5E1,3E1,1.67E2,1.8E1,1.7E1,4E0,2E0,2.1E1,2.5E1,6E0,6E0,1E1,1E1,7E0,6E0,6E0,2E0,2.4E1,4E0,2E0,1E0,2E0,7E0,6E0,6E0,3E0,1.6E1,8E0,4E0,7E0,8E0,2E0,1.2E1,1E1,9E0,1.9E1,1.1E1,1.13E2,2.4E1,1.9E1,5.3E1],"tree_param":{"num_deleted":"0","num_feature":"42","num_nodes":"101","size_leaf_vector":"0"}},{"base_weights":[3.0817315E-2,9.633241E-2,4.229157E-3,-1.8760366E-2,2.7036586E-1,7.621575E-2,-7.813044E-2,1.03120156E-1,-3.9403751E-1,1.1888392E0,1.7335875E-1,5.9261036E-1,3.204541E-2,-5.3585827E-2,-1.4075489E0,5.9899006E-2,2.4287233E0,-2.6353255E-1,-2.4808557E0,1.7124269E0,4.2748365E-1,4.4473496E-1,3.9304275E-2,2.7206567E-1,1.132238E0,-1.4340943E-1,5.708333E-2,-2.707292E-1,5.5871967E-2,-5.9483105E-1,-1.7510837E0,1.4275947E-1,-4.358287E-1,-2.2406785E-2,-6.6986793E-1,1.3379316E0,-6.254589E-1,-1.4406665E-1,8.6883414E-1,-4.5212287E-1,1.5885165E-1,5.9877616E-1,-8.487436E-2,-5.7530874E-1,6.1444465E-2,-2.0535031E-2,1.9272107E-1,-4.8808524E-1,9.7195916E-2,3.1175982E-2,7.792075E-1,-7.55695E-1,-1.3655162E-1,1.0666369E-1,7.7115077E-1,-1.1514478E0,-1.8211293E-1,2.21241E-1,-1.4283025E-1,-1.1170424E0,3.8009346E-2,1.5251324E-1,-6.490971E-1,-6.0011268E-2,1.0721589E0,-1.2615546E0,-4.2139564E-2,-1.027671E-1,3.7582868E-1,7.525427E-1,3.2525444E-1,6.999143E-1,-4.0908745E-1,-7.421774E-1,-1.9325714E-1,3.1930408E-1,-2.2097701E-1,9.5364146E-2,-1.361868E-1,2.5086498E-2,4.1840056E-1,-6.531451E-1,2.7654734E-1,8.6023724E-1,-2.901061E-2,9.564677E-2,-1.8658364E-1],"categories":[],"categories_nodes":[],"categories_segments":[],"categories_sizes":[],"default_left":[true,true,true,true,true,true,true,true,true,true,true,true,true,true,true,true,false,true,false,false,true,true,true,true,false,true,true,true,true,true,false,true,true,true,true,false,false,true,true,true,true,true,true,true,true,true,true,true,true,true,false,false,false,false,false,false,false,false,false,false,false,false,false,false,false,false,false,false,false,false,false,false,false,false,false,false,false,false,false,false,false,false,false,false,false,false,false],"id":17,"left_children":[1,3,5,7,9,11,13,15,17,19,21,23,25,27,29,31,-1,33,-1,-1,35,37,39,41,-1,43,45,47,49,51,-1,53,55,57,59,-1,-1,61,63,65,67,69,71,73,75,77,79,81,83,85,-1,-1,-1,-1,-1,-1,-1,-1,-1,-1,-1,-1,-1,-1,-1,-1,-1,-1,-1,-1,-1,-1,-1,-1,-1,-1,-1,-1,-1,-1,-1,-1,-1,-1,-1,-1,-1],"loss_changes":[1.4541006E0,4.832301E0,3.533583E0,6.7185235E0,8.347355E0,7.2343755E0,8.99573E0,1.1011713E1,9.150458E0,2.8556938E0,3.1838894E0,4.016327E0,1.2997355E0,6.527568E0,3.5438538E-1,4.5806036E0,0E0,3.4142182E0,0E0,0E0,5.630068E0,7.366768E0,3.59675E0,2.0332937E0,0E0,3.3089712E0,2.7201757E0,7.4047484E0,3.244725E0,1.1797047E-1,0E0,2.0725627E0,2.6953282E0,7.064409E-1,4.1575384E0,0E0,0E0,2.0461605E0,3.2749166E0,3.9290805E0,2.8201206E0,1.3375854E-1,2.5762749E0,6.215985E-1,1.9640114E0,2.2246382E0,3.5456822E0,7.5008135E0,3.395484E0,2.5168118E0,0E0,0E0,0E0,0E0,0E0,0E0,0E0,0E0,0E0,0E0,0E0,0E0,0E0,0E0,0E0,0E0,0E0,0E0,0E0,0E0,0E0,0E0,0E0,0E0,0E0,0E0,0E0,0E0,0E0,0E0,0E0,0E0,0E0,0E0,0E0,0E0,0E0],"parents":[2147483647,0,0,1,1,2,2,3,3,4,4,5,5,6,6,7,7,8,8,9,9,10,10,11,11,12,12,13,13,14,14,15,15,17,17,20,20,21,21,22,22,23,23,25,25,26,26,27,27,28,28,29,29,31,31,32,32,33,33,34,34,37,37,38,38,39,39,40,40,41,41,42,42,43,43,44,44,45,45,46,46,47,47,48,48,49,49],"right_children":[2,4,6,8,10,12,14,16,18,20,22,24,26,28,30,32,-1,34,-1,-1,36,38,40,42,-1,44,46,48,50,52,-1,54,56,58,60,-1,-1,62,64,66,68,70,72,74,76,78,80,82,84,86,-1,-1,-1,-1,-1,-1,-1,-1,-1,-1,-1,-1,-1,-1,-1,-1,-1,-1,-1,-1,-1,-1,-1,-1,-1,-1,-1,-1,-1,-1,-1,-1,-1,-1,-1,-1,-1],"split_conditions":[7.64899E-1,5.1871944E1,5.1840836E1,4.9382254E-1,5.1578056E1,7.2765E2,3.0832477E0,5.1840836E1,5.1840836E1,1.03115E4,9.9E1,5.1713196E1,1.03025E4,5.2048473E1,9.0000004E-1,5.1350418E1,7.28617E-1,3.642514E1,-7.4425673E-1,5.137281E-1,3.75E0,1.132115E3,7.3955316E2,5.85E0,3.3967143E-1,4.75E0,4.1325E2,6.5647835E1,3.58E1,1.0315E4,-5.253251E-1,3.66E1,7.2955E2,3.5845E1,5.1350418E1,4.013795E-1,-1.8763767E-1,7.4238196E2,5.2949655E-1,1.03155E4,1.7335E2,5E-1,1.03085E4,1.5E0,3.4E1,5E-1,1.05E0,3.3916461E0,8.52E2,6.1E0,2.3376226E-1,-2.267085E-1,-4.0965486E-2,3.1999107E-2,2.3134524E-1,-3.4543434E-1,-5.4633882E-2,6.6372305E-2,-4.284908E-2,-3.3511275E-1,1.1402804E-2,4.575397E-2,-1.9472913E-1,-1.8003382E-2,3.216477E-1,-3.784664E-1,-1.26418695E-2,-3.0830132E-2,1.1274861E-1,2.2576281E-1,9.7576335E-2,2.0997429E-1,-1.2272624E-1,-2.2265324E-1,-5.7977144E-2,9.579123E-2,-6.6293105E-2,2.8609244E-2,-4.085604E-2,7.5259497E-3,1.2552017E-1,-1.9594353E-1,8.2964204E-2,2.5807118E-1,-8.703183E-3,2.8694032E-2,-5.5975094E-2],"split_indices":[16,34,34,13,35,2,16,34,34,33,40,34,33,34,0,35,0,37,0,0,0,15,8,0,0,28,21,11,3,33,0,3,2,36,35,0,0,8,16,33,21,32,33,1,3,32,6,10,22,28,0,0,0,0,0,0,0,0,0,0,0,0,0,0,0,0,0,0,0,0,0,0,0,0,0,0,0,0,0,0,0,0,0,0,0,0,0],"split_type":[0,0,0,0,0,0,0,0,0,0,0,0,0,0,0,0,0,0,0,0,0,0,0,0,0,0,0,0,0,0,0,0,0,0,0,0,0,0,0,0,0,0,0,0,0,0,0,0,0,0,0,0,0,0,0,0,0,0,0,0,0,0,0,0,0,0,0,0,0,0,0,0,0,0,0,0,0,0,0,0,0,0,0,0,0,0,0],"sum_hessian":[8.34E2,2.4E2,5.94E2,1.45E2,9.5E1,3.17E2,2.77E2,1.1E2,3.5E1,8E0,8.7E1,2.4E1,2.93E2,2.73E2,4E0,1.09E2,1E0,3.4E1,1E0,4E0,4E0,2.8E1,5.9E1,1.6E1,8E0,3.6E1,2.57E2,9.1E1,1.82E2,2E0,2E0,9.4E1,1.5E1,2.2E1,1.2E1,2E0,2E0,1.2E1,1.6E1,1.1E1,4.8E1,8E0,8E0,1.1E1,2.5E1,1.64E2,9.3E1,5.7E1,3.4E1,1.77E2,5E0,1E0,1E0,9E1,4E0,3E0,1.2E1,7E0,1.5E1,7E0,5E0,8E0,4E0,3E0,1.3E1,3E0,8E0,2.2E1,2.6E1,4E0,4E0,2E0,6E0,7E0,4E0,1.3E1,1.2E1,8.2E1,8.2E1,5.4E1,3.9E1,4.7E1,1E1,4E0,3E1,1.37E2,4E1],"tree_param":{"num_deleted":"0","num_feature":"42","num_nodes":"87","size_leaf_vector":"0"}},{"base_weights":[2.1919692E-2,5.8274534E-2,-1.2129556E-2,1.02835216E-1,-2.3877516E-1,-5.1873457E-2,2.2147952E-1,1.7155914E-1,-2.978286E-2,-8.345571E-2,-1.2475235E0,4.2901773E-2,-9.4245635E-2,-1.35842E-1,3.4601116E-1,6.987502E-2,3.2553634E-1,-3.6860758E-1,1.0900666E-2,2.8729877E-1,-2.8408056E-1,3.506529E-1,-2.3528206E-1,-2.4872777E-1,-1.5466879E-3,2.2687064E-1,-4.8346108E-1,4.405843E-1,9.1618426E-2,-4.7900613E-2,2.1232226E-1,9.745089E-1,1.965604E-1,-1.1743123E-1,-5.6712574E-1,-8.3443284E-2,1.1982993E-1,1.4794645E0,2.9712358E-2,1.21479444E-1,-3.8627413E-1,1.2109013E0,1.9997291E-1,-3.059818E-2,-7.2254926E-1,-3.8952821E-1,3.8304797E-1,5.4416627E-2,-3.5760656E-1,-6.107521E-2,3.178659E-1,-6.071087E-1,-3.379631E-2,5.4391885E-1,9.3108386E-2,-5.053741E-1,4.794336E-1,3.9274672E-1,-1.4207233E-1,4.383432E-1,3.554096E-2,1.5938908E0,3.8448864E-1,2.7209717E-1,-4.9839854E-1,-2.509985E-1,-1.3804627E-2,1.8850958E-1,-1.42791E-1,7.2061636E-2,4.0979323E-1,-3.982972E-1,4.5400786E-1,2.4310704E-1,-1.2172636E-1,-4.5656976E-1,-1.3777733E-2,4.372965E-1,-3.585665E-2,-3.056183E-1,1.3747111E-1,-4.0598515E-1,-1.7290273E0,-7.0205617E-1,-1.11550026E-1,7.185281E-1,-2.4678196E-1,2.3194005E-1,-3.4923982E-2,-9.665336E-1,-1.6859312E-1,4.5382023E-2,-1.3699484E-1,-4.9221676E-2,4.745453E-1,-1.9998276E-1,-8.6245745E-1,-1.4408481E-1,9.3390346E-2,1.9880693E-1,6.166214E-1,3.9089146E-1,-2.2329636E-1,-2.0396063E-1,-1.0062206E0,6.5825355E-1,2.0472689E-1],"categories":[],"categories_nodes":[],"categories_segments":[],"categories_sizes":[],"default_left":[true,true,true,true,true,true,true,true,true,true,false,true,true,true,true,true,true,true,true,true,true,true,true,true,true,true,true,true,true,true,true,true,true,true,false,true,true,false,true,true,true,false,true,true,true,true,true,true,true,true,true,true,true,true,true,true,true,false,false,false,false,false,false,false,false,false,false,false,false,false,false,false,false,false,false,false,false,false,false,false,false,false,false,false,false,false,false,false,false,false,false,false,false,false,false,false,false,false,false,false,false,false,false,false,false,false,false],"id":18,"left_children":[1,3,5,7,9,11,13,15,17,19,-1,21,23,25,27,29,31,33,35,37,39,41,43,45,47,49,51,53,55,57,59,61,63,65,-1,67,69,-1,71,73,75,-1,77,79,81,83,85,87,89,91,93,95,97,99,101,103,105,-1,-1,-1,-1,-1,-1,-1,-1,-1,-1,-1,-1,-1,-1,-1,-1,-1,-1,-1,-1,-1,-1,-1,-1,-1,-1,-1,-1,-1,-1,-1,-1,-1,-1,-1,-1,-1,-1,-1,-1,-1,-1,-1,-1,-1,-1,-1,-1,-1,-1],"loss_changes":[1.0343157E0,5.372196E0,4.0224085E0,3.21325E0,8.199835E0,1.4899015E0,2.8503659E0,3.609686E0,1.6719528E0,3.5775964E0,0E0,9.927813E0,3.6656203E0,2.2531424E0,1.090394E0,2.3757012E0,7.509019E0,5.8162165E-1,1.130172E0,5.1764984E0,1.3317387E0,6.887075E0,6.0617714E0,8.688822E0,3.2275925E0,2.552291E-1,4.7988153E-1,1.1701698E0,3.4836116E0,3.292527E0,2.5416222E0,4.868885E0,4.23022E0,9.342292E-2,0E0,9.791646E-1,6.7687327E-1,0E0,2.9048681E0,2.3665628E-1,6.483307E-1,0E0,2.70214E0,2.075801E0,5.0331078E0,6.7848864E0,3.9806378E0,2.2285073E0,2.369148E0,3.0463684E-2,4.2596334E-1,5.552373E-1,5.553781E-2,5.2976465E-1,9.352644E-1,7.00542E-1,3.0734515E-1,0E0,0E0,0E0,0E0,0E0,0E0,0E0,0E0,0E0,0E0,0E0,0E0,0E0,0E0,0E0,0E0,0E0,0E0,0E0,0E0,0E0,0E0,0E0,0E0,0E0,0E0,0E0,0E0,0E0,0E0,0E0,0E0,0E0,0E0,0E0,0E0,0E0,0E0,0E0,0E0,0E0,0E0,0E0,0E0,0E0,0E0,0E0,0E0,0E0,0E0],"parents":[2147483647,0,0,1,1,2,2,3,3,4,4,5,5,6,6,7,7,8,8,9,9,11,11,12,12,13,13,14,14,15,15,16,16,17,17,18,18,19,19,20,20,21,21,22,22,23,23,24,24,25,25,26,26,27,27,28,28,29,29,30,30,31,31,32,32,33,33,35,35,36,36,38,38,39,39,40,40,42,42,43,43,44,44,45,45,46,46,47,47,48,48,49,49,50,50,51,51,52,52,53,53,54,54,55,55,56,56],"right_children":[2,4,6,8,10,12,14,16,18,20,-1,22,24,26,28,30,32,34,36,38,40,42,44,46,48,50,52,54,56,58,60,62,64,66,-1,68,70,-1,72,74,76,-1,78,80,82,84,86,88,90,92,94,96,98,100,102,104,106,-1,-1,-1,-1,-1,-1,-1,-1,-1,-1,-1,-1,-1,-1,-1,-1,-1,-1,-1,-1,-1,-1,-1,-1,-1,-1,-1,-1,-1,-1,-1,-1,-1,-1,-1,-1,-1,-1,-1,-1,-1,-1,-1,-1,-1,-1,-1,-1,-1,-1],"split_conditions":[3.5897616E-1,1.36E2,1.475E2,3.6725513E1,8.35E1,6.9E1,7.4845E2,3.5845E1,9.55E1,2.7170534E0,-3.742571E-1,5E-1,7.252896E-2,1.75E2,5.221472E1,1.05E0,7.496E2,7.2765E2,7.413972E2,1.0313E4,5.1759308E1,7.392544E2,1.9368187E1,1.03255E4,2.4559965E0,4.05E0,7.2795E2,9.9E1,2.35E0,5.119639E1,3.552625E1,3.589792E1,6.664609E1,1.03245E4,-1.7013773E-1,5.170153E1,1.06E2,4.4383937E-1,7.3015E2,3.5E0,4.5E0,3.632704E-1,2.1164375E3,3.846468E-1,5.1410835E1,2.1164375E3,9.9E1,3.5623886E1,1.0311E4,5E-1,1.0321E4,5E-1,5E-1,7.4905E2,5E-1,1.4E0,7.3941284E2,1.1782402E-1,-4.2621702E-2,1.3150297E-1,1.0662288E-2,4.7816727E-1,1.15346596E-1,8.162916E-2,-1.4951956E-1,-7.529955E-2,-4.141388E-3,5.6552876E-2,-4.2837303E-2,2.1618491E-2,1.2293797E-1,-1.1948916E-1,1.3620237E-1,7.293212E-2,-3.6517907E-2,-1.3697094E-1,-4.13332E-3,1.3118896E-1,-1.07569955E-2,-9.168549E-2,4.1241333E-2,-1.2179555E-1,-5.187082E-1,-2.1061686E-1,-3.346501E-2,2.1555844E-1,-7.4034594E-2,6.9582015E-2,-1.0477195E-2,-2.899601E-1,-5.057794E-2,1.3614607E-2,-4.1098453E-2,-1.4766503E-2,1.423636E-1,-5.999483E-2,-2.5873724E-1,-4.3225445E-2,2.8017106E-2,5.964208E-2,1.8498641E-1,1.17267445E-1,-6.698891E-2,-6.118819E-2,-3.0186617E-1,1.9747607E-1,6.1418068E-2],"split_indices":[14,40,40,39,29,40,4,36,5,10,0,32,24,40,34,6,4,2,8,33,34,8,7,33,16,0,2,5,0,35,36,37,11,33,0,34,40,0,2,1,1,0,19,14,35,19,5,36,33,32,33,32,32,4,32,0,8,0,0,0,0,0,0,0,0,0,0,0,0,0,0,0,0,0,0,0,0,0,0,0,0,0,0,0,0,0,0,0,0,0,0,0,0,0,0,0,0,0,0,0,0,0,0,0,0,0,0],"split_type":[0,0,0,0,0,0,0,0,0,0,0,0,0,0,0,0,0,0,0,0,0,0,0,0,0,0,0,0,0,0,0,0,0,0,0,0,0,0,0,0,0,0,0,0,0,0,0,0,0,0,0,0,0,0,0,0,0,0,0,0,0,0,0,0,0,0,0,0,0,0,0,0,0,0,0,0,0,0,0,0,0,0,0,0,0,0,0,0,0,0,0,0,0,0,0,0,0,0,0,0,0,0,0,0,0,0,0],"sum_hessian":[8.34E2,4.03E2,4.31E2,3.51E2,5.2E1,3.69E2,6.2E1,2.31E2,1.2E2,4.6E1,6E0,1.14E2,2.55E2,1.6E1,4.6E1,1.4E2,9.1E1,1.2E1,1.08E2,1.6E1,3E1,5.4E1,6E1,9.5E1,1.6E2,8E0,8E0,3.3E1,1.3E1,7.7E1,6.3E1,1.4E1,7.7E1,6E0,6E0,5.8E1,5E1,2E0,1.4E1,6E0,2.4E1,7E0,4.7E1,4.3E1,1.7E1,7.8E1,1.7E1,1.39E2,2.1E1,2E0,6E0,6E0,2E0,2.5E1,8E0,5E0,8E0,1.3E1,6.4E1,2.7E1,3.6E1,6E0,8E0,7E1,7E0,2E0,4E0,1E1,4.8E1,4.4E1,6E0,7E0,7E0,4E0,2E0,2E1,4E0,2.3E1,2.4E1,1.6E1,2.7E1,1.4E1,3E0,3.6E1,4.2E1,1.1E1,6E0,4.6E1,9.3E1,4E0,1.7E1,1E0,1E0,2E0,4E0,3E0,3E0,1E0,1E0,5E0,2E1,4E0,4E0,4E0,1E0,4E0,4E0],"tree_param":{"num_deleted":"0","num_feature":"42","num_nodes":"107","size_leaf_vector":"0"}},{"base_weights":[1.5342553E-2,6.341362E-2,-1.0138712E-3,1.4781645E-1,-2.4004657E-2,-2.37016E-1,5.1881783E-3,1.1710813E-1,1.1835718E0,-1.2280786E0,2.344927E-2,-6.8878365E-1,3.0084956E-1,-1.1213527E-2,1.6422246E-1,-2.5099027E-1,1.580662E-1,2.540659E-1,-2.8993178E-2,-1.09028384E-1,-1.1307821E0,4.947486E-1,-1.6736627E-2,1.3338529E-2,-1.3124259E-1,4.2118478E-1,-2.6372597E-1,-3.5144497E-2,-1.2047241E0,-3.7255067E-2,2.7587986E-1,4.195966E-1,-8.9643344E-2,-2.9738192E-4,-1.2053721E0,-2.7744794E-1,9.573396E-2,-1.2247205E-1,6.7967176E-1,5.700159E-2,-1.1897564E-1,-3.4907036E-2,6.9941394E-2,1.21189035E-1,-4.9034333E-1,4.297546E-2,9.478128E-1,-5.152977E-1,-1.3718048E-1,-1.7284274E-1,2.1461356E-1,1.5319431E-1,-1.740703E-1,-6.416297E-2,3.906533E-1,6.942812E-2,6.297734E-1,-1.8825093E-1,1.0458374E-1,1.4572006E-1,-9.95833E-2,-5.945424E-1,1.7837048E-1,2.1917152E-1,-7.557058E-2,1.5333652E-1,8.0400467E-1,6.1206818E-3,7.9381704E-2,2.1691944E-3,-4.595383E-1,2.8354805E-2,1.0047994E0,3.580106E-1,-6.761496E-2,-6.3409793E-1,5.929396E-2,-3.6359972E-1,3.0127555E-1,1.433895E0,-3.1113043E-1,-5.877738E-1,-2.2273827E-1,-2.0612498E-1,-1.909113E-2],"categories":[],"categories_nodes":[],"categories_segments":[],"categories_sizes":[],"default_left":[true,true,true,true,true,true,true,true,false,false,true,true,true,true,true,true,true,true,true,